~o
<STREAMINFO> 1 25
<VECSIZE> 25<NULLD><MFCC_D_N_Z_0><DIAGC>
~s "silst"
<MEAN> 25
 -2.632101e+000 1.318403e+000 -8.383703e-001 9.315022e-001 1.145215e+000 -1.362581e-002 3.183596e+000 1.102879e+000 3.072932e+000 -1.040062e+000 -1.664702e+000 2.145530e+000 -1.709684e-001 4.640649e-002 5.529452e-002 8.908876e-003 -5.494231e-002 8.447850e-002 -4.824708e-002 -1.265344e-001 -3.453649e-002 -6.092730e-003 -1.720767e-002 4.167491e-002 -3.279743e-001
<VARIANCE> 25
 2.451056e+001 4.294241e+001 2.659879e+001 2.097380e+001 2.886943e+001 3.530106e+001 3.393355e+001 3.131416e+001 2.825075e+001 2.618010e+001 2.648408e+001 2.491657e+001 1.758927e+000 2.459373e+000 1.820337e+000 1.723661e+000 2.257666e+000 2.600874e+000 2.884337e+000 2.728816e+000 2.469709e+000 2.277030e+000 2.081413e+000 1.993805e+000 2.795382e+000
<GCONST> 9.684286e+001
~h "C"
<BEGINHMM>
<NUMSTATES> 5
<STATE> 2
<MEAN> 25
 -5.877569e+000 -1.500851e+000 1.043350e+000 4.448694e+000 -4.424010e+000 2.987212e+000 3.002355e+000 -2.003651e+000 4.309081e+000 -1.859978e+000 3.518316e-002 2.652350e+000 -4.604426e+000 -1.134664e+000 -9.746595e-001 1.399893e-001 -8.205043e-001 7.169448e-001 -4.913743e-001 -4.655273e-001 7.549330e-001 -1.043807e+000 2.360590e-001 1.192884e+000 2.808886e+000
<VARIANCE> 25
 5.047726e+001 4.683561e+001 3.248364e+001 2.684204e+001 2.929624e+001 3.810138e+001 3.273308e+001 3.533401e+001 2.555915e+001 2.360460e+001 2.794679e+001 2.261309e+001 2.339959e+000 4.945891e+000 3.039566e+000 2.193076e+000 3.597863e+000 3.890462e+000 4.564612e+000 4.820296e+000 4.158792e+000 3.291059e+000 3.192551e+000 2.589787e+000 2.655190e+000
<GCONST> 1.031891e+002
<STATE> 3
<MEAN> 25
 -1.781985e+001 1.186945e+000 7.943617e-001 4.326289e+000 -2.603799e+000 2.770325e+000 -1.313653e+000 3.650890e-001 9.794139e+000 -5.554248e+000 -1.282804e+000 4.415165e+000 5.006080e-002 2.456421e-001 -4.956465e-002 -4.868677e-002 7.817798e-001 -9.276966e-001 -8.987448e-001 8.152620e-001 6.080302e-001 -7.463979e-001 -7.776569e-002 -1.859873e-001 -6.061805e-001
<VARIANCE> 25
 1.242536e+001 1.740105e+001 2.045210e+001 2.352966e+001 2.828918e+001 3.285509e+001 3.732470e+001 4.880287e+001 4.304213e+001 3.405612e+001 2.833679e+001 2.979327e+001 5.680894e+000 2.909262e+000 2.021012e+000 1.620192e+000 2.470516e+000 3.502468e+000 3.723085e+000 5.089065e+000 4.860933e+000 2.888479e+000 2.270714e+000 2.178625e+000 1.606984e+000
<GCONST> 9.967601e+001
<STATE> 4
<MEAN> 25
 -7.937397e+000 -1.717350e+000 -1.930895e-001 3.293711e+000 -3.227381e+000 -2.220649e+000 -3.010712e+000 1.009500e+000 5.697326e+000 -5.826928e+000 7.954814e-001 2.461815e+000 4.651607e+000 -8.566157e-001 2.128915e-001 -7.098424e-001 -2.057501e-001 -1.408667e+000 -4.464822e-001 -4.681926e-001 -2.060850e+000 1.404760e+000 8.054911e-001 -1.287626e+000 3.583498e-001
<VARIANCE> 25
 4.790287e+001 1.722819e+001 2.118379e+001 2.103428e+001 3.611275e+001 3.698833e+001 3.241357e+001 5.313449e+001 5.343479e+001 3.028734e+001 2.339191e+001 2.457989e+001 2.198630e+000 1.976022e+000 2.447664e+000 1.976292e+000 2.283442e+000 4.625103e+000 3.464589e+000 3.613325e+000 3.258422e+000 2.952348e+000 2.653846e+000 2.040774e+000 2.202193e+000
<GCONST> 9.982652e+001
<TRANSP> 5
 0.000000e+000 1.000000e+000 0.000000e+000 0.000000e+000 0.000000e+000
 0.000000e+000 6.638075e-001 3.361925e-001 0.000000e+000 0.000000e+000
 0.000000e+000 0.000000e+000 6.581160e-001 3.418840e-001 0.000000e+000
 0.000000e+000 0.000000e+000 0.000000e+000 5.777172e-001 4.222828e-001
 0.000000e+000 0.000000e+000 0.000000e+000 0.000000e+000 0.000000e+000
<ENDHMM>
~h "L"
<BEGINHMM>
<NUMSTATES> 5
<STATE> 2
<MEAN> 25
 1.804429e+000 -7.657319e-001 7.891966e+000 2.645015e+000 -3.614731e+000 -4.532817e+000 -2.324925e+000 6.310189e-001 -3.045135e+000 -2.074500e+000 3.271696e-001 2.536724e+000 -1.935714e-001 6.415181e-001 1.790636e+000 6.424122e-002 -5.262794e-001 2.750205e-003 -1.256284e-002 -6.595001e-002 -1.454270e+000 -6.581339e-001 1.378475e-001 2.611278e-001 -2.276464e-001
<VARIANCE> 25
 1.380437e+001 2.419520e+001 1.941318e+001 2.259471e+001 2.028102e+001 2.484729e+001 3.330050e+001 2.708805e+001 3.200267e+001 2.339382e+001 2.425322e+001 1.670086e+001 1.638094e+000 2.116833e+000 2.629498e+000 2.367653e+000 2.464318e+000 2.708945e+000 3.586837e+000 3.408519e+000 3.109794e+000 2.372776e+000 2.216933e+000 1.817775e+000 1.712085e+000
<GCONST> 9.489537e+001
<STATE> 3
<MEAN> 25
 5.149334e-001 4.408115e-001 1.055909e+001 1.186809e+000 -4.179862e+000 -3.441417e+000 -3.291261e+000 6.992287e-002 -6.474953e+000 -2.102364e+000 1.820461e+000 3.198445e+000 -8.780804e-002 -7.070836e-001 -1.409715e-001 -8.081511e-001 -1.029460e+000 4.818188e-002 -6.403407e-001 5.136458e-001 1.280419e-003 5.723355e-001 8.292840e-001 3.453456e-001 1.066031e+000
<VARIANCE> 25
 7.606403e+000 1.742597e+001 1.571418e+001 1.950545e+001 2.203789e+001 2.437307e+001 2.438548e+001 2.254622e+001 2.076245e+001 2.010918e+001 2.001153e+001 1.596478e+001 1.278417e+000 1.586417e+000 1.744312e+000 2.057607e+000 1.963485e+000 2.102374e+000 3.260980e+000 2.524086e+000 2.694461e+000 1.685917e+000 1.755684e+000 1.897218e+000 8.968795e-001
<GCONST> 8.907457e+001
<STATE> 4
<MEAN> 25
 1.531568e+000 -2.764176e+000 6.787619e+000 3.817297e-001 -6.652297e+000 -4.319250e+000 -3.559922e+000 3.129876e+000 -3.447779e+000 -6.582183e-001 3.057513e+000 2.835406e+000 5.147193e-001 -5.594488e-001 -1.603394e+000 -5.419558e-002 2.160185e-001 3.258100e-001 -1.163166e-003 6.644269e-001 7.616894e-001 4.747510e-001 -2.077825e-002 -9.109309e-001 4.586906e-001
<VARIANCE> 25
 6.003749e+000 1.393376e+001 1.938573e+001 2.096775e+001 1.734308e+001 2.567385e+001 4.424846e+001 2.213800e+001 2.002431e+001 1.962239e+001 1.799789e+001 1.426866e+001 6.905709e-001 1.419108e+000 2.023569e+000 1.438534e+000 2.428678e+000 2.126728e+000 4.683643e+000 2.880623e+000 2.264539e+000 2.034034e+000 2.500501e+000 1.873056e+000 7.453839e-001
<GCONST> 8.895876e+001
<TRANSP> 5
 0.000000e+000 1.000000e+000 0.000000e+000 0.000000e+000 0.000000e+000
 0.000000e+000 5.286813e-001 4.713187e-001 0.000000e+000 0.000000e+000
 0.000000e+000 0.000000e+000 5.093623e-001 4.906377e-001 0.000000e+000
 0.000000e+000 0.000000e+000 0.000000e+000 5.118975e-001 4.881025e-001
 0.000000e+000 0.000000e+000 0.000000e+000 0.000000e+000 0.000000e+000
<ENDHMM>
~h "N"
<BEGINHMM>
<NUMSTATES> 5
<STATE> 2
<MEAN> 25
 3.709313e+000 2.433604e+000 4.668002e+000 9.516074e-001 1.135489e-001 2.159683e+000 1.900131e+000 4.598796e-001 -4.951034e+000 -1.818307e+000 -4.561620e+000 -2.712330e-001 4.105612e-001 1.484322e+000 7.710554e-001 1.283080e-002 3.379136e-001 4.180566e-001 -6.286568e-001 -9.163947e-001 -3.910170e-001 1.326316e-001 -1.855085e-001 1.003226e-001 -7.900138e-001
<VARIANCE> 25
 1.472791e+001 3.018506e+001 1.661301e+001 2.325746e+001 2.182836e+001 2.734513e+001 2.932993e+001 3.514523e+001 2.224734e+001 2.190939e+001 2.196521e+001 1.569879e+001 2.032913e+000 2.206286e+000 2.340254e+000 2.657139e+000 2.349375e+000 2.711138e+000 2.448134e+000 2.632293e+000 2.971673e+000 1.821277e+000 1.711985e+000 1.582163e+000 2.346055e+000
<GCONST> 9.394370e+001
<STATE> 3
<MEAN> 25
 1.371415e+000 4.801398e+000 8.816912e+000 -2.433717e+000 -4.366998e-001 6.161274e+000 -9.632313e-001 -2.688812e+000 -6.076037e+000 1.249466e-001 -3.065130e+000 -9.114138e-001 -7.144520e-001 -1.178043e+000 1.360370e+000 -1.451237e+000 -1.580186e+000 1.249625e+000 6.142326e-001 5.597058e-001 -7.836968e-001 7.393664e-001 5.768089e-001 -6.781974e-001 1.527004e+000
<VARIANCE> 25
 1.087519e+001 1.917783e+001 1.760433e+001 2.236936e+001 2.335295e+001 2.869784e+001 2.280294e+001 2.078837e+001 1.725418e+001 1.710603e+001 1.657988e+001 1.285277e+001 2.087341e+000 1.719674e+000 1.569007e+000 2.053744e+000 2.092929e+000 2.766767e+000 2.126755e+000 2.432009e+000 1.923774e+000 1.812853e+000 1.817393e+000 1.376009e+000 9.518430e-001
<GCONST> 8.894518e+001
<STATE> 4
<MEAN> 25
 9.570296e-001 -5.545682e-001 8.368525e+000 -2.440148e+000 -4.961406e+000 5.350803e+000 4.113750e+000 1.195341e+000 -6.267862e+000 -2.651112e-001 -1.987296e+000 -2.278863e+000 3.274815e-001 -1.068488e+000 -9.481713e-001 8.211815e-001 -3.089582e-002 -1.038515e+000 8.873799e-001 1.142571e+000 4.299575e-001 -4.837668e-001 4.792561e-002 -1.358379e-001 2.904439e-001
<VARIANCE> 25
 7.027226e+000 1.932571e+001 1.740558e+001 2.006450e+001 1.815593e+001 2.665444e+001 2.857673e+001 2.441472e+001 1.778891e+001 2.289201e+001 2.351142e+001 1.202099e+001 5.712163e-001 1.567044e+000 1.669680e+000 1.502783e+000 2.621098e+000 1.888544e+000 2.740738e+000 2.140318e+000 1.953340e+000 1.859888e+000 1.698746e+000 1.072476e+000 1.020832e+000
<GCONST> 8.718540e+001
<TRANSP> 5
 0.000000e+000 1.000000e+000 0.000000e+000 0.000000e+000 0.000000e+000
 0.000000e+000 6.858126e-001 3.141874e-001 0.000000e+000 0.000000e+000
 0.000000e+000 0.000000e+000 5.663949e-001 4.336051e-001 0.000000e+000
 0.000000e+000 0.000000e+000 0.000000e+000 6.430945e-001 3.569056e-001
 0.000000e+000 0.000000e+000 0.000000e+000 0.000000e+000 0.000000e+000
<ENDHMM>
~h "S"
<BEGINHMM>
<NUMSTATES> 5
<STATE> 2
<MEAN> 25
 -7.341624e+000 -1.141675e+000 4.900223e+000 7.356178e+000 -6.793430e-002 3.437345e-001 7.613567e-002 -2.046505e+000 7.747127e+000 -1.370643e+000 -4.758617e-001 1.649157e+000 -4.620850e+000 -1.281784e-001 7.221356e-001 1.306881e+000 7.143320e-001 2.913862e-001 5.687802e-001 -1.791748e-001 2.612470e+000 6.055183e-003 -9.950748e-001 -3.500216e-003 9.771019e-001
<VARIANCE> 25
 4.024562e+001 1.830347e+001 3.215366e+001 2.533408e+001 4.339137e+001 3.384128e+001 4.548199e+001 4.652032e+001 3.269474e+001 3.296001e+001 4.642680e+001 4.037987e+001 1.538267e+000 2.961138e+000 3.138219e+000 2.476170e+000 3.891416e+000 4.638390e+000 3.328304e+000 3.225442e+000 4.204454e+000 2.773952e+000 3.638781e+000 3.412730e+000 1.108294e+000
<GCONST> 1.026312e+002
<STATE> 3
<MEAN> 25
 -1.745664e+001 -3.280905e+000 4.384655e+000 6.777577e+000 1.008960e-001 2.201604e+000 3.488632e-002 -3.687895e+000 1.200135e+001 -6.943272e-001 -3.126318e+000 4.993491e-001 -4.482647e-001 -2.203528e-001 -6.429147e-001 -6.168599e-001 8.077014e-002 4.795625e-001 -4.224097e-001 9.617967e-003 3.529786e-001 -1.325072e-001 -2.744946e-001 1.833211e-001 -6.281153e-001
<VARIANCE> 25
 8.557294e+000 2.505262e+001 1.525759e+001 2.038443e+001 2.950700e+001 3.540215e+001 3.845166e+001 3.919841e+001 2.994109e+001 3.680679e+001 3.899553e+001 3.649475e+001 2.688511e+000 1.503626e+000 1.122059e+000 1.369188e+000 2.178303e+000 2.215592e+000 2.830992e+000 3.655502e+000 2.769581e+000 2.642905e+000 2.480405e+000 2.671729e+000 5.487095e-001
<GCONST> 9.460822e+001
<STATE> 4
<MEAN> 25
 -9.639503e+000 -2.382924e+000 9.222479e-001 2.889917e+000 -5.143774e-001 1.938950e+000 -3.098768e+000 -1.944111e+000 9.306018e+000 -2.609141e+000 -1.878773e+000 2.268437e+000 3.788112e+000 3.568640e-001 -4.524310e-001 -1.222474e+000 -6.967141e-001 -1.188988e+000 -4.666133e-002 2.287943e-001 -2.090760e+000 -3.421069e-002 1.084800e+000 -2.123325e-001 -7.348966e-001
<VARIANCE> 25
 5.015929e+001 3.203971e+001 2.082278e+001 2.121110e+001 3.528403e+001 3.971669e+001 4.089748e+001 5.380316e+001 4.270947e+001 3.482328e+001 3.510999e+001 2.803375e+001 4.468922e+000 1.544383e+000 2.084901e+000 1.623033e+000 2.284107e+000 4.226745e+000 3.351718e+000 3.430892e+000 3.855790e+000 3.063715e+000 3.470777e+000 2.626942e+000 3.392134e+000
<GCONST> 1.023192e+002
<TRANSP> 5
 0.000000e+000 1.000000e+000 0.000000e+000 0.000000e+000 0.000000e+000
 0.000000e+000 6.355453e-001 3.644548e-001 0.000000e+000 0.000000e+000
 0.000000e+000 0.000000e+000 7.704697e-001 2.295303e-001 0.000000e+000
 0.000000e+000 0.000000e+000 0.000000e+000 6.627969e-001 3.372031e-001
 0.000000e+000 0.000000e+000 0.000000e+000 0.000000e+000 0.000000e+000
<ENDHMM>
~h "Z"
<BEGINHMM>
<NUMSTATES> 5
<STATE> 2
<MEAN> 25
 -2.701341e+000 3.228303e-001 2.255161e+000 2.681579e+000 1.899551e+000 -3.284393e+000 3.823337e-001 -1.062134e+001 5.009583e+000 1.947333e+000 2.461325e+000 1.907505e+000 -3.531375e+000 1.529967e+000 1.664386e+000 1.063540e+000 4.916331e-001 -7.604018e-001 1.561744e+000 -6.571744e-001 1.499375e+000 -3.370039e-001 -7.811667e-001 -9.386321e-002 2.905710e-001
<VARIANCE> 25
 2.360485e+001 1.229392e+001 2.295737e+001 2.419219e+001 6.017801e+001 3.437410e+001 3.146243e+001 5.259548e+001 4.242711e+001 2.264520e+001 3.198073e+001 3.191003e+001 1.179262e+000 1.789644e+000 1.917254e+000 1.972302e+000 5.590913e+000 7.227533e+000 3.474595e+000 4.436143e+000 3.512403e+000 2.540770e+000 2.657514e+000 2.865845e+000 5.114180e-001
<GCONST> 9.883874e+001
<STATE> 3
<MEAN> 25
 -1.139730e+001 2.677980e+000 7.226779e+000 5.216538e+000 -1.679213e+000 -7.788163e-001 1.547410e+000 -9.254206e+000 8.766402e+000 2.840049e-002 -4.520887e-001 -4.985474e-001 -6.424372e-001 2.150419e-001 7.590325e-002 -3.131169e-002 -2.627670e-001 7.563918e-001 -5.016810e-001 -7.589610e-002 2.856143e-001 -6.175103e-001 -5.655152e-001 1.425962e-001 -2.722033e-001
<VARIANCE> 25
 1.529737e+001 1.304928e+001 1.928749e+001 1.887323e+001 4.051251e+001 3.979682e+001 3.532843e+001 4.041949e+001 3.518513e+001 2.512852e+001 3.316169e+001 2.507752e+001 3.305573e+000 9.709691e-001 1.650000e+000 1.494810e+000 2.348646e+000 2.278664e+000 3.425144e+000 2.644479e+000 2.745179e+000 2.173654e+000 2.224739e+000 2.529319e+000 4.614748e-001
<GCONST> 9.398842e+001
<STATE> 4
<MEAN> 25
 -5.009343e+000 5.559602e-001 3.024743e+000 2.757893e+000 -1.936780e+000 -2.085682e-001 -4.111350e+000 -8.179122e+000 7.666544e+000 -1.791563e+000 -4.895171e-001 1.602488e+000 3.407850e+000 -1.417267e+000 -1.482936e+000 -6.260442e-001 -1.714181e-001 -5.259712e-001 -1.057899e+000 1.322939e+000 -1.523196e+000 7.877187e-002 6.783689e-001 -1.378101e-001 -8.560269e-002
<VARIANCE> 25
 3.703699e+001 2.104875e+001 2.665314e+001 2.077392e+001 3.027922e+001 3.141460e+001 3.470926e+001 4.509781e+001 3.537236e+001 2.819527e+001 2.598940e+001 2.695269e+001 1.771152e+000 1.594450e+000 2.300498e+000 1.648198e+000 1.867430e+000 3.656672e+000 3.135695e+000 4.254573e+000 3.675405e+000 2.206685e+000 3.402429e+000 2.484843e+000 7.103462e-001
<GCONST> 9.736150e+001
<TRANSP> 5
 0.000000e+000 1.000000e+000 0.000000e+000 0.000000e+000 0.000000e+000
 0.000000e+000 6.075622e-001 3.924378e-001 0.000000e+000 0.000000e+000
 0.000000e+000 0.000000e+000 6.835664e-001 3.164336e-001 0.000000e+000
 0.000000e+000 0.000000e+000 0.000000e+000 6.317409e-001 3.682590e-001
 0.000000e+000 0.000000e+000 0.000000e+000 0.000000e+000 0.000000e+000
<ENDHMM>
~h "a"
<BEGINHMM>
<NUMSTATES> 5
<STATE> 2
<MEAN> 25
 3.866836e+000 -7.049586e+000 -5.023200e+000 -1.856855e+000 2.101947e+000 -1.553560e+000 -1.690817e+000 3.869613e+000 2.000317e+000 1.702873e+000 -3.048800e+000 -3.867521e+000 7.409090e-001 -5.546854e-001 -1.802399e-001 -9.120101e-003 4.536506e-001 7.442844e-001 2.286871e-001 8.252160e-001 -9.479922e-002 1.299645e-001 -5.215223e-001 -9.078016e-001 5.674877e-001
<VARIANCE> 25
 6.749942e+000 1.081679e+001 1.509996e+001 1.482651e+001 2.136926e+001 4.292902e+001 2.813049e+001 2.246024e+001 2.011637e+001 2.130280e+001 2.647308e+001 2.000956e+001 1.880992e+000 1.193501e+000 1.590775e+000 1.567801e+000 1.941336e+000 3.062226e+000 2.576854e+000 2.498135e+000 2.065390e+000 2.156930e+000 2.711398e+000 2.235428e+000 1.571460e+000
<GCONST> 9.036661e+001
<STATE> 3
<MEAN> 25
 5.057218e+000 -6.377576e+000 -5.261027e+000 -7.380435e-001 3.967118e+000 1.585517e+000 -6.618099e-001 3.646825e+000 8.470050e-001 1.579526e+000 -4.117033e+000 -6.160574e+000 3.760440e-001 1.189529e+000 3.608495e-001 6.347035e-001 7.267146e-002 2.162015e-001 6.150046e-001 -1.669425e-001 3.249804e-002 6.242025e-002 -1.608266e-001 -9.669370e-002 -1.387278e+000
<VARIANCE> 25
 7.348851e+000 1.338102e+001 1.857652e+001 1.921743e+001 2.515800e+001 4.160859e+001 3.012122e+001 2.588096e+001 2.386586e+001 2.838151e+001 3.772250e+001 2.420678e+001 6.661117e-001 1.572775e+000 1.325394e+000 1.518893e+000 1.777380e+000 2.531702e+000 2.012349e+000 2.362127e+000 2.134285e+000 1.856178e+000 2.355637e+000 1.803075e+000 1.597252e+000
<GCONST> 9.046069e+001
<STATE> 4
<MEAN> 25
 4.849982e+000 -4.746260e-001 -3.639040e+000 1.260997e+000 2.745156e+000 4.083787e-001 2.992833e+000 3.839436e+000 3.540849e+000 5.750679e-001 -5.229783e+000 -4.247601e+000 -5.432646e-001 1.704230e+000 7.413798e-001 3.512934e-001 -4.481250e-001 -9.865976e-002 1.009699e+000 -3.040350e-001 5.198098e-001 -4.613855e-001 -3.657377e-002 7.049356e-001 -1.860118e+000
<VARIANCE> 25
 9.398079e+000 2.385713e+001 2.034006e+001 2.102546e+001 2.646959e+001 4.015944e+001 3.774419e+001 3.429194e+001 3.671696e+001 2.950613e+001 3.675376e+001 2.338437e+001 1.211766e+000 1.912986e+000 1.479734e+000 1.880100e+000 2.073462e+000 2.247940e+000 2.404725e+000 2.888397e+000 3.056613e+000 2.246572e+000 2.484025e+000 1.906364e+000 1.369520e+000
<GCONST> 9.443414e+001
<TRANSP> 5
 0.000000e+000 1.000000e+000 0.000000e+000 0.000000e+000 0.000000e+000
 0.000000e+000 4.579535e-001 5.420465e-001 0.000000e+000 0.000000e+000
 0.000000e+000 0.000000e+000 5.034689e-001 4.965311e-001 0.000000e+000
 0.000000e+000 0.000000e+000 0.000000e+000 5.210794e-001 4.789206e-001
 0.000000e+000 0.000000e+000 0.000000e+000 0.000000e+000 0.000000e+000
<ENDHMM>
~h "b"
<BEGINHMM>
<NUMSTATES> 5
<STATE> 2
<MEAN> 25
 5.832370e+000 9.061014e+000 1.370764e+000 1.411656e+000 2.136657e+000 2.229508e+000 2.360357e+000 -2.893673e+000 1.706909e-001 -3.092295e+000 -2.158111e+000 -7.820859e-001 -3.382502e-001 5.553944e-001 2.847070e-001 7.522680e-001 5.288730e-001 -3.637051e-002 4.301745e-001 -8.193402e-002 9.004892e-002 -5.854564e-001 -6.403624e-001 3.630311e-002 -7.154528e-001
<VARIANCE> 25
 1.762295e+001 1.921185e+001 2.028584e+001 2.660429e+001 2.361606e+001 3.117068e+001 3.064181e+001 2.698000e+001 2.652806e+001 2.463949e+001 2.510930e+001 2.252000e+001 1.929756e+000 2.429003e+000 1.420237e+000 1.911083e+000 1.576764e+000 2.604825e+000 2.663237e+000 2.372915e+000 2.399893e+000 1.892457e+000 1.967757e+000 1.755620e+000 2.349946e+000
<GCONST> 9.360889e+001
<STATE> 3
<MEAN> 25
 4.534949e+000 7.876338e+000 1.133745e+000 2.542902e+000 2.961304e+000 2.198936e+000 2.301356e+000 -2.791644e+000 7.142083e-001 -3.761098e+000 -2.922005e+000 -2.008715e-001 -1.380277e+000 -3.041557e+000 -8.523365e-001 4.036580e-002 -2.740885e-001 -7.947878e-001 -1.696557e+000 -2.939895e-001 -1.738805e-001 6.816158e-001 8.912948e-001 3.348126e-001 2.659926e+000
<VARIANCE> 25
 1.630390e+001 2.568899e+001 1.746467e+001 2.569913e+001 2.171483e+001 2.904904e+001 2.684812e+001 2.422066e+001 2.342850e+001 2.269712e+001 2.349366e+001 1.873258e+001 1.775863e+000 2.117284e+000 4.095803e+000 4.410406e+000 3.254636e+000 4.990401e+000 3.105249e+000 3.619005e+000 3.845346e+000 3.053042e+000 3.035758e+000 2.491546e+000 1.680982e+000
<GCONST> 9.780959e+001
<STATE> 4
<MEAN> 25
 1.714542e+000 -1.650198e+000 -2.856316e+000 1.006740e+000 1.984338e+000 5.512186e-001 -2.952077e+000 -3.743795e+000 8.052508e-001 -2.583817e-001 6.201605e-001 3.046803e-001 -2.310773e-001 -3.158706e+000 -5.510899e-001 -1.519109e+000 -1.928215e+000 -2.856765e-001 -2.022051e+000 4.956884e-002 -7.662896e-001 1.331762e+000 1.873354e+000 -1.022849e-001 3.358269e+000
<VARIANCE> 25
 1.672099e+001 1.759732e+001 3.152213e+001 4.248219e+001 2.443319e+001 4.673191e+001 3.015277e+001 2.655205e+001 2.664150e+001 2.595632e+001 2.847268e+001 1.526086e+001 1.996848e+000 2.253187e+000 5.936417e+000 5.310384e+000 4.048984e+000 5.946757e+000 3.771844e+000 4.689693e+000 5.607047e+000 3.919372e+000 3.694284e+000 2.926218e+000 1.462573e+000
<GCONST> 1.020296e+002
<TRANSP> 5
 0.000000e+000 1.000000e+000 0.000000e+000 0.000000e+000 0.000000e+000
 0.000000e+000 5.691796e-001 4.308203e-001 0.000000e+000 0.000000e+000
 0.000000e+000 0.000000e+000 2.882745e-001 7.117256e-001 0.000000e+000
 0.000000e+000 0.000000e+000 0.000000e+000 3.170367e-001 6.829633e-001
 0.000000e+000 0.000000e+000 0.000000e+000 0.000000e+000 0.000000e+000
<ENDHMM>
~h "c"
<BEGINHMM>
<NUMSTATES> 5
<STATE> 2
<MEAN> 25
 -8.979628e+000 9.716128e+000 -2.664931e+000 4.312785e+000 2.597476e+000 -2.403739e+000 6.233167e+000 -1.185988e+000 3.733108e+000 -2.260461e+000 -1.480099e+000 3.034416e+000 -3.453445e+000 3.928266e-001 -1.641754e+000 -7.125767e-001 1.086058e+000 -1.867988e-001 8.312774e-001 -1.710076e-001 -6.685822e-002 -8.670893e-002 3.533558e-001 1.181300e+000 9.369648e-001
<VARIANCE> 25
 3.003985e+001 1.318628e+001 2.769495e+001 1.903186e+001 2.379329e+001 2.823889e+001 2.312458e+001 2.838724e+001 2.900354e+001 2.120249e+001 2.363362e+001 2.092835e+001 1.193949e+000 2.396366e+000 1.573725e+000 1.514488e+000 2.115342e+000 2.462670e+000 2.209466e+000 2.557237e+000 2.668041e+000 1.906487e+000 2.154437e+000 1.691559e+000 1.116828e+000
<GCONST> 9.215041e+001
<STATE> 3
<MEAN> 25
 -1.845233e+001 6.827382e+000 -6.770184e+000 -9.524416e-002 6.423225e+000 -5.417881e+000 9.149944e+000 2.057607e+000 7.006808e-001 -1.329242e+000 7.285897e-001 7.445792e+000 -5.682877e-001 -1.548049e+000 4.513047e-001 -9.366990e-001 7.156913e-003 -8.773665e-001 -1.185389e-001 1.414274e+000 -6.499571e-001 3.454114e-001 2.672276e-001 4.455896e-001 3.896285e-001
<VARIANCE> 25
 5.489886e+000 1.654418e+001 1.693733e+001 1.605728e+001 1.733821e+001 2.014261e+001 2.271278e+001 2.662371e+001 2.344332e+001 1.982639e+001 2.167195e+001 1.624579e+001 1.162614e+000 1.234543e+000 1.788098e+000 1.269611e+000 2.505005e+000 2.223032e+000 2.549569e+000 2.190969e+000 2.227874e+000 1.933951e+000 1.892875e+000 1.749156e+000 4.090576e-001
<GCONST> 8.671009e+001
<STATE> 4
<MEAN> 25
 -1.353278e+001 1.184971e+000 -2.237539e+000 -1.103196e+000 2.600752e+000 -9.014428e+000 3.785000e+000 4.042279e+000 -2.425384e-001 -4.818373e-001 -2.409245e-001 5.514513e+000 3.722421e+000 -1.189577e+000 1.451416e+000 2.685936e-001 -1.482775e+000 -6.370963e-001 -2.430840e+000 -1.047542e+000 -5.265879e-001 3.471520e-001 -5.914967e-002 -1.494677e+000 2.797760e-001
<VARIANCE> 25
 4.132299e+001 1.653700e+001 2.270936e+001 1.425095e+001 3.174562e+001 3.539817e+001 5.354691e+001 3.641764e+001 3.687768e+001 2.090354e+001 2.305578e+001 2.023096e+001 3.617213e+000 1.919536e+000 2.289775e+000 1.432185e+000 2.322854e+000 2.972717e+000 3.183406e+000 3.274470e+000 2.789533e+000 2.159771e+000 2.162963e+000 2.031280e+000 1.819947e+000
<GCONST> 9.692288e+001
<TRANSP> 5
 0.000000e+000 1.000000e+000 0.000000e+000 0.000000e+000 0.000000e+000
 0.000000e+000 7.529519e-001 2.470481e-001 0.000000e+000 0.000000e+000
 0.000000e+000 0.000000e+000 7.105099e-001 2.894901e-001 0.000000e+000
 0.000000e+000 0.000000e+000 0.000000e+000 6.537825e-001 3.462175e-001
 0.000000e+000 0.000000e+000 0.000000e+000 0.000000e+000 0.000000e+000
<ENDHMM>
~h "d"
<BEGINHMM>
<NUMSTATES> 5
<STATE> 2
<MEAN> 25
 5.018254e+000 6.482003e+000 2.573237e+000 3.087994e+000 2.166549e+000 -1.309152e+000 -1.578283e+000 -1.003816e+000 3.340734e+000 -3.508394e-001 -3.014561e+000 -3.994416e+000 -5.170282e-001 6.603338e-001 3.701296e-001 4.361698e-001 3.962569e-001 1.095877e-002 9.579597e-001 -2.245532e-001 2.039040e-001 -8.768925e-001 -6.950188e-001 4.335783e-001 -5.723233e-001
<VARIANCE> 25
 1.249837e+001 2.469320e+001 2.296846e+001 2.218849e+001 2.033298e+001 3.117658e+001 3.354263e+001 3.205157e+001 2.556727e+001 2.413918e+001 2.964084e+001 2.497681e+001 2.183863e+000 2.980383e+000 1.737415e+000 1.813211e+000 1.980588e+000 2.857333e+000 3.642248e+000 2.651953e+000 2.175012e+000 2.195679e+000 2.314554e+000 2.790095e+000 2.486787e+000
<GCONST> 9.573871e+001
<STATE> 3
<MEAN> 25
 2.693131e+000 5.525504e+000 3.027271e+000 3.197816e+000 2.788769e+000 -1.214894e+000 6.416561e-001 -1.278388e+000 2.882356e+000 -1.814209e+000 -2.778208e+000 -1.941318e+000 -1.641641e+000 -2.093513e+000 -4.647508e-001 -6.949766e-001 -1.596641e-001 -4.159392e-001 -5.302757e-002 -2.378931e-001 -6.548189e-001 -3.353630e-001 5.732198e-001 1.178631e+000 2.000907e+000
<VARIANCE> 25
 1.555908e+001 3.157113e+001 2.668870e+001 2.322826e+001 2.437791e+001 2.906287e+001 3.404094e+001 2.774578e+001 2.607690e+001 2.409564e+001 2.579556e+001 2.200368e+001 1.725494e+000 4.030746e+000 2.886562e+000 2.685987e+000 2.849127e+000 4.160938e+000 3.814131e+000 3.619970e+000 2.945527e+000 2.259795e+000 2.853837e+000 2.678932e+000 2.482056e+000
<GCONST> 9.869595e+001
<STATE> 4
<MEAN> 25
 -4.424413e-001 -1.727399e+000 3.322962e-001 3.491183e-002 1.746662e+000 -2.389615e+000 -1.945303e+000 -9.288965e-001 2.114283e+000 -1.096776e+000 -6.188793e-001 -1.405040e-002 -3.494648e-001 -2.198241e+000 -9.281054e-001 -1.251106e+000 -1.390223e+000 -5.852881e-001 -1.842612e+000 3.533791e-001 -6.488323e-001 1.145085e+000 9.804349e-001 1.803026e-001 2.825686e+000
<VARIANCE> 25
 1.603703e+001 2.627738e+001 2.956487e+001 2.346154e+001 2.887050e+001 3.708123e+001 5.018742e+001 2.494669e+001 2.466211e+001 2.555306e+001 2.004367e+001 2.279194e+001 2.034257e+000 3.274186e+000 3.757469e+000 3.138796e+000 3.379941e+000 3.824941e+000 4.409055e+000 4.682476e+000 3.813779e+000 2.996350e+000 3.279122e+000 2.791641e+000 2.279642e+000
<GCONST> 1.006362e+002
<TRANSP> 5
 0.000000e+000 1.000000e+000 0.000000e+000 0.000000e+000 0.000000e+000
 0.000000e+000 3.793766e-001 6.206234e-001 0.000000e+000 0.000000e+000
 0.000000e+000 0.000000e+000 1.805096e-001 8.194904e-001 0.000000e+000
 0.000000e+000 0.000000e+000 0.000000e+000 3.594255e-001 6.405745e-001
 0.000000e+000 0.000000e+000 0.000000e+000 0.000000e+000 0.000000e+000
<ENDHMM>
~h "e"
<BEGINHMM>
<NUMSTATES> 5
<STATE> 2
<MEAN> 25
 2.784420e+000 -4.735185e+000 2.567624e+000 3.817147e-001 -4.164749e+000 -7.401429e+000 -2.081070e+000 5.774289e+000 -1.690714e+000 1.005922e+000 1.754211e+000 6.411779e-001 7.449179e-001 7.402281e-002 3.491184e-001 2.177997e-001 7.729046e-002 1.800206e-002 -9.131014e-002 6.062149e-001 -1.030995e-001 3.280652e-001 1.208216e-001 -2.230458e-001 -1.080827e-001
<VARIANCE> 25
 6.867277e+000 1.564771e+001 1.864115e+001 1.141283e+001 2.184019e+001 3.068191e+001 3.241608e+001 2.325150e+001 2.460343e+001 1.634978e+001 2.395484e+001 1.564964e+001 1.874421e+000 1.420795e+000 1.604399e+000 1.265840e+000 2.249055e+000 2.270606e+000 2.880190e+000 2.100421e+000 2.435181e+000 1.846569e+000 1.992613e+000 1.736980e+000 1.618630e+000
<GCONST> 8.938538e+001
<STATE> 3
<MEAN> 25
 3.974259e+000 -2.326568e+000 3.235460e+000 1.625858e+000 -2.877471e+000 -6.350387e+000 -1.893496e+000 5.611134e+000 -1.570447e+000 1.385466e+000 8.959150e-001 4.073067e-002 2.749771e-001 1.641760e+000 1.601634e-001 7.804111e-001 6.707366e-001 4.940226e-001 6.281846e-001 -4.656866e-001 8.018996e-001 -1.281356e-001 -5.411702e-001 -1.123460e-001 -1.899251e+000
<VARIANCE> 25
 7.948525e+000 2.301700e+001 2.255722e+001 1.520851e+001 2.589902e+001 3.281096e+001 4.017854e+001 2.671671e+001 3.213796e+001 2.161406e+001 2.876644e+001 1.992644e+001 9.945891e-001 1.796888e+000 1.537204e+000 1.323343e+000 2.105397e+000 2.328742e+000 2.741976e+000 2.157526e+000 2.797161e+000 1.929251e+000 1.957880e+000 1.837280e+000 1.833669e+000
<GCONST> 9.184272e+001
<STATE> 4
<MEAN> 25
 3.436531e+000 2.144566e+000 3.117979e+000 3.324016e+000 -1.911266e+000 -5.126208e+000 7.952769e-001 3.662505e+000 1.455756e+000 1.853462e-001 -6.915315e-001 5.098740e-001 -5.328939e-001 1.444174e+000 -1.700889e-001 3.502106e-001 5.967231e-001 7.830049e-001 6.925207e-001 -1.045768e+000 7.426611e-001 -2.437501e-001 -4.304367e-001 1.779138e-001 -1.667836e+000
<VARIANCE> 25
 1.078861e+001 3.186857e+001 2.215374e+001 1.615737e+001 2.698232e+001 3.254484e+001 4.421066e+001 2.780235e+001 3.529273e+001 2.392414e+001 2.948030e+001 2.472601e+001 1.670816e+000 2.270657e+000 1.647961e+000 1.871342e+000 2.270452e+000 2.682301e+000 2.801875e+000 2.815203e+000 3.096886e+000 2.298588e+000 2.216720e+000 1.999012e+000 1.491524e+000
<GCONST> 9.507217e+001
<TRANSP> 5
 0.000000e+000 1.000000e+000 0.000000e+000 0.000000e+000 0.000000e+000
 0.000000e+000 4.587457e-001 5.412543e-001 0.000000e+000 0.000000e+000
 0.000000e+000 0.000000e+000 3.674972e-001 6.325027e-001 0.000000e+000
 0.000000e+000 0.000000e+000 0.000000e+000 3.386949e-001 6.613051e-001
 0.000000e+000 0.000000e+000 0.000000e+000 0.000000e+000 0.000000e+000
<ENDHMM>
~h "f"
<BEGINHMM>
<NUMSTATES> 5
<STATE> 2
<MEAN> 25
 -3.375783e+000 3.559041e+000 -1.182920e+000 4.181848e+000 1.590154e+000 2.281649e+000 3.376238e+000 1.739615e+000 6.140615e+000 4.857967e-001 -1.682830e+000 2.041017e+000 -2.658883e+000 -4.918777e-001 -2.301551e-001 8.521455e-001 2.842156e-001 1.605314e-001 -9.913255e-002 2.299391e-001 1.425553e+000 -4.884450e-002 -2.893594e-001 1.855691e-001 9.054866e-002
<VARIANCE> 25
 1.799274e+001 1.332109e+001 2.431639e+001 2.026053e+001 2.141391e+001 3.404112e+001 2.752501e+001 2.652504e+001 2.444606e+001 2.169252e+001 1.990115e+001 2.082634e+001 1.659070e+000 1.929675e+000 1.995571e+000 1.696915e+000 1.867790e+000 2.231632e+000 2.444998e+000 2.445611e+000 2.386247e+000 2.450655e+000 2.295290e+000 1.984196e+000 9.311953e-001
<GCONST> 9.192134e+001
<STATE> 3
<MEAN> 25
 -8.664190e+000 -5.369230e-001 -2.925204e+000 4.952832e+000 3.091593e+000 1.933147e+000 2.194410e+000 1.259020e+000 6.679190e+000 1.037718e+000 -1.614967e+000 2.132689e+000 -5.924667e-001 -1.460702e+000 -8.656509e-001 -5.215652e-001 -1.579757e-001 -2.976162e-001 -2.582020e-001 -2.884836e-001 -9.922082e-002 8.660088e-002 2.569316e-001 1.557730e-001 2.276124e-001
<VARIANCE> 25
 1.459385e+001 1.235981e+001 1.710846e+001 1.815716e+001 1.917813e+001 2.339665e+001 2.453337e+001 1.959334e+001 2.095346e+001 2.182657e+001 1.992714e+001 1.761360e+001 1.994677e+000 1.085314e+000 1.835077e+000 1.449441e+000 2.105156e+000 2.851353e+000 2.688387e+000 1.953312e+000 2.328469e+000 1.700792e+000 1.621589e+000 1.500030e+000 8.186529e-001
<GCONST> 8.841476e+001
<STATE> 4
<MEAN> 25
 -5.061601e+000 -3.833334e+000 -5.859733e+000 1.094814e+000 8.940454e-001 2.947197e-001 1.313140e+000 -3.316130e-001 5.014250e+000 7.858247e-001 -1.041896e+000 1.894529e+000 3.071060e+000 -6.961893e-001 -1.765120e-001 -1.791390e+000 -1.495220e+000 -8.277313e-001 -1.062618e+000 -8.952917e-001 -1.890162e+000 -4.321588e-002 7.790657e-001 -4.689805e-001 1.056169e+000
<VARIANCE> 25
 3.234560e+001 1.080232e+001 3.047247e+001 2.299233e+001 2.910205e+001 3.442041e+001 2.712904e+001 2.685160e+001 2.652356e+001 2.169534e+001 2.377149e+001 1.934022e+001 1.949991e+000 2.145814e+000 3.993755e+000 2.908099e+000 2.471843e+000 3.068652e+000 2.353105e+000 3.308706e+000 3.332235e+000 2.198261e+000 2.379196e+000 2.205148e+000 2.053088e+000
<GCONST> 9.667162e+001
<TRANSP> 5
 0.000000e+000 1.000000e+000 0.000000e+000 0.000000e+000 0.000000e+000
 0.000000e+000 5.066043e-001 4.933958e-001 0.000000e+000 0.000000e+000
 0.000000e+000 0.000000e+000 5.922009e-001 4.077991e-001 0.000000e+000
 0.000000e+000 0.000000e+000 0.000000e+000 5.389746e-001 4.610255e-001
 0.000000e+000 0.000000e+000 0.000000e+000 0.000000e+000 0.000000e+000
<ENDHMM>
~h "g"
<BEGINHMM>
<NUMSTATES> 5
<STATE> 2
<MEAN> 25
 5.619411e+000 7.228633e+000 -5.358270e-001 -1.050626e+000 -4.142261e-001 1.295294e+000 2.217582e+000 -1.728947e-001 -1.919426e+000 -2.370070e+000 1.293960e+000 6.735634e-001 -7.273540e-001 1.812134e-002 -3.804196e-001 6.818215e-001 6.992547e-001 -3.801563e-001 -1.341348e-001 -4.047811e-001 4.794610e-001 2.784681e-001 -5.622728e-001 1.818880e-001 -6.394101e-001
<VARIANCE> 25
 1.532688e+001 2.436543e+001 2.866779e+001 3.849194e+001 3.068832e+001 3.913301e+001 4.308738e+001 3.032084e+001 3.952944e+001 3.065498e+001 4.044172e+001 2.917752e+001 9.321338e-001 1.889670e+000 2.272916e+000 3.263542e+000 2.675414e+000 4.111089e+000 3.196475e+000 3.131834e+000 3.911376e+000 2.634901e+000 3.103676e+000 2.409752e+000 1.158315e+000
<GCONST> 9.907821e+001
<STATE> 3
<MEAN> 25
 4.071747e+000 5.584231e+000 -1.367670e+000 6.901933e-001 1.672287e+000 7.022824e-001 3.660351e-001 -1.006249e+000 -1.707245e+000 -9.289922e-001 1.305902e+000 3.533167e-001 -8.588738e-001 -1.748388e+000 -7.908340e-001 -2.334209e-001 3.959996e-001 -2.630411e-001 -1.284673e+000 -4.437462e-001 -2.159755e-001 7.084909e-001 3.927999e-001 3.395504e-002 1.277486e+000
<VARIANCE> 25
 1.609068e+001 2.560375e+001 3.186360e+001 3.484137e+001 3.400895e+001 4.184251e+001 3.844342e+001 3.096798e+001 3.905004e+001 3.101670e+001 3.651198e+001 2.481245e+001 1.710875e+000 3.208075e+000 4.186185e+000 5.169703e+000 3.898044e+000 6.368124e+000 4.125298e+000 4.908930e+000 5.413375e+000 3.206165e+000 4.709431e+000 2.966707e+000 1.711057e+000
<GCONST> 1.042565e+002
<STATE> 4
<MEAN> 25
 2.523856e+000 9.476791e-002 -2.653800e+000 -1.244263e-001 1.421842e+000 -1.107152e+000 -3.175287e+000 -1.065079e+000 -2.355947e+000 7.504360e-001 3.141075e+000 4.541898e-001 -4.364602e-001 -2.172142e+000 -2.107456e-001 -8.688940e-001 -8.638027e-001 -4.636754e-001 -1.185653e+000 -4.098449e-002 -1.937952e-001 7.703548e-001 6.492066e-001 -7.782876e-002 2.445432e+000
<VARIANCE> 25
 2.001526e+001 3.303628e+001 4.505688e+001 4.547811e+001 4.426387e+001 6.563663e+001 4.826033e+001 4.155585e+001 4.500739e+001 3.043395e+001 3.569078e+001 2.315161e+001 2.293531e+000 3.177708e+000 3.273638e+000 4.394644e+000 3.707676e+000 5.368302e+000 4.516787e+000 4.778597e+000 4.827529e+000 3.009493e+000 5.544686e+000 2.661916e+000 2.315071e+000
<GCONST> 1.065063e+002
<TRANSP> 5
 0.000000e+000 1.000000e+000 0.000000e+000 0.000000e+000 0.000000e+000
 0.000000e+000 3.153372e-001 6.846628e-001 0.000000e+000 0.000000e+000
 0.000000e+000 0.000000e+000 1.282332e-001 8.717669e-001 0.000000e+000
 0.000000e+000 0.000000e+000 0.000000e+000 3.049560e-001 6.950440e-001
 0.000000e+000 0.000000e+000 0.000000e+000 0.000000e+000 0.000000e+000
<ENDHMM>
~h "h"
<BEGINHMM>
<NUMSTATES> 5
<STATE> 2
<MEAN> 25
 -4.204630e+000 1.655983e+000 5.966595e+000 2.863559e+000 2.241820e+000 -5.593620e-002 4.238714e+000 -7.880921e-001 -4.333559e-001 7.985440e-001 -1.893482e+000 2.884993e+000 -1.300227e+000 -1.302905e+000 -1.783586e+000 2.479038e-001 2.191329e+000 -5.745443e-001 -3.915454e-001 5.730297e-001 1.661439e+000 1.623432e-001 -1.999342e-002 8.293045e-001 1.224133e-001
<VARIANCE> 25
 2.396660e+001 2.328526e+001 8.584552e+001 3.620147e+001 4.838673e+001 5.241163e+001 3.281293e+001 3.947314e+001 3.457007e+001 2.329535e+001 2.708753e+001 2.019912e+001 1.752466e+000 1.974271e+000 3.820717e+000 2.680356e+000 4.065527e+000 3.735151e+000 4.108433e+000 3.724885e+000 3.607009e+000 3.045752e+000 2.451465e+000 2.253475e+000 9.234782e-001
<GCONST> 1.013560e+002
<STATE> 3
<MEAN> 25
 -5.991638e+000 -3.185642e+000 -3.152972e+000 1.851011e+000 8.359676e+000 3.580063e-001 2.610879e-001 1.358210e-001 5.085200e+000 3.009209e+000 -2.013074e+000 2.770629e+000 -3.380488e-001 -6.316597e-001 -1.436873e+000 -7.382118e-001 2.940823e-001 2.038681e-001 -3.184665e-001 -4.880016e-001 3.596544e-001 2.671680e-001 3.491524e-001 -8.897430e-003 -1.390827e-002
<VARIANCE> 25
 2.456978e+001 2.581134e+001 8.085207e+001 3.611904e+001 5.932993e+001 5.260867e+001 5.002932e+001 3.367339e+001 3.763586e+001 3.399089e+001 2.935625e+001 2.443984e+001 1.707756e+000 1.100953e+000 2.886757e+000 1.860230e+000 2.879532e+000 4.167431e+000 2.884590e+000 3.364417e+000 3.147996e+000 3.102758e+000 2.581234e+000 2.167360e+000 1.177200e+000
<GCONST> 1.008175e+002
<STATE> 4
<MEAN> 25
 -4.766737e+000 -2.247843e+000 -3.002077e+000 -1.338717e+000 4.114995e+000 1.160231e+000 1.781858e+000 -2.526250e+000 1.779833e+000 1.136095e+000 -6.282217e-001 2.674725e+000 1.733896e+000 5.094128e-001 -6.796253e-002 -6.542159e-001 -1.842790e+000 -4.222010e-001 -2.967416e-001 -3.788703e-001 -1.077335e+000 -8.719264e-001 2.442962e-001 -5.936174e-001 3.975871e-001
<VARIANCE> 25
 3.291452e+001 3.550260e+001 1.071750e+002 4.140409e+001 5.688499e+001 5.202496e+001 3.354643e+001 3.523464e+001 3.553275e+001 2.845746e+001 3.153780e+001 2.428063e+001 2.511107e+000 1.782408e+000 3.380047e+000 3.949701e+000 4.594210e+000 3.858093e+000 4.303917e+000 3.088786e+000 3.809795e+000 2.851015e+000 2.722357e+000 2.893764e+000 2.521280e+000
<GCONST> 1.049623e+002
<TRANSP> 5
 0.000000e+000 1.000000e+000 0.000000e+000 0.000000e+000 0.000000e+000
 0.000000e+000 5.378307e-001 4.621693e-001 0.000000e+000 0.000000e+000
 0.000000e+000 0.000000e+000 5.501043e-001 4.498957e-001 0.000000e+000
 0.000000e+000 0.000000e+000 0.000000e+000 5.233595e-001 4.766406e-001
 0.000000e+000 0.000000e+000 0.000000e+000 0.000000e+000 0.000000e+000
<ENDHMM>
~h "i"
<BEGINHMM>
<NUMSTATES> 5
<STATE> 2
<MEAN> 25
 -8.748523e-002 -5.225898e-001 9.576735e+000 1.262485e+000 -7.523554e+000 -3.819544e+000 -2.334975e+000 -7.414449e-001 -7.602049e+000 -9.188791e-001 3.804265e+000 3.706397e-001 7.295447e-001 1.148666e-001 1.960550e+000 -1.501869e-001 -1.562913e+000 3.572735e-001 -8.164137e-001 -2.601563e-001 -1.925024e+000 5.902723e-001 1.014176e+000 -6.924030e-001 9.071618e-001
<VARIANCE> 25
 1.592906e+001 2.247645e+001 2.201254e+001 1.777289e+001 2.478353e+001 4.096559e+001 3.363687e+001 3.425529e+001 2.591035e+001 1.968775e+001 2.237688e+001 1.665921e+001 3.684501e+000 2.073951e+000 2.689436e+000 2.575095e+000 3.058990e+000 3.234640e+000 5.102457e+000 3.025722e+000 3.357751e+000 2.561932e+000 2.311607e+000 2.140041e+000 2.135572e+000
<GCONST> 9.743205e+001
<STATE> 3
<MEAN> 25
 3.473106e-001 1.650052e+000 1.366011e+001 -8.192795e-002 -9.489265e+000 5.303900e-001 -3.583193e+000 -2.386119e+000 -9.445657e+000 1.649144e+000 3.544105e+000 -1.585495e+000 2.316003e-001 6.839093e-001 6.693015e-002 3.517111e-001 3.587414e-001 2.762519e-001 2.475480e-001 -1.032496e-001 2.249453e-001 9.731833e-002 -2.376645e-001 -3.021517e-002 -5.536924e-001
<VARIANCE> 25
 9.261991e+000 2.393107e+001 2.204986e+001 1.938393e+001 2.093752e+001 4.606118e+001 2.897473e+001 2.794816e+001 2.242606e+001 1.954994e+001 2.368892e+001 1.664031e+001 1.333446e+000 1.916765e+000 1.622239e+000 1.516619e+000 1.880746e+000 2.390006e+000 2.363256e+000 2.046313e+000 2.013250e+000 1.536106e+000 1.537386e+000 1.310514e+000 1.486879e+000
<GCONST> 9.017802e+001
<STATE> 4
<MEAN> 25
 1.502891e+000 4.361880e+000 9.207069e+000 3.936974e+000 -4.448654e+000 -2.244774e+000 9.188534e-002 -1.230454e+000 -4.605705e+000 -7.226101e-001 1.806558e+000 2.836466e-001 -2.547006e-001 1.015744e+000 -1.297030e+000 7.090933e-001 1.657868e+000 1.052335e-001 7.306411e-001 -2.063054e-001 1.737030e+000 -3.418129e-001 -1.045173e+000 4.236984e-001 -1.512348e+000
<VARIANCE> 25
 1.260319e+001 2.857367e+001 2.118018e+001 1.640417e+001 2.659978e+001 3.665437e+001 3.692870e+001 2.978364e+001 2.990849e+001 2.101707e+001 2.376839e+001 1.926405e+001 2.089182e+000 2.721812e+000 2.070718e+000 2.071313e+000 2.390125e+000 2.973125e+000 3.090243e+000 2.812557e+000 2.714535e+000 2.269719e+000 2.113215e+000 2.089445e+000 1.847247e+000
<GCONST> 9.537395e+001
<TRANSP> 5
 0.000000e+000 1.000000e+000 0.000000e+000 0.000000e+000 0.000000e+000
 0.000000e+000 4.190625e-001 5.809375e-001 0.000000e+000 0.000000e+000
 0.000000e+000 0.000000e+000 6.098619e-001 3.901381e-001 0.000000e+000
 0.000000e+000 0.000000e+000 0.000000e+000 5.634245e-001 4.365755e-001
 0.000000e+000 0.000000e+000 0.000000e+000 0.000000e+000 0.000000e+000
<ENDHMM>
~h "j"
<BEGINHMM>
<NUMSTATES> 5
<STATE> 2
<MEAN> 25
 -3.827563e-002 2.798688e-001 8.882557e+000 1.050376e-001 -6.508355e+000 -2.160927e+000 -2.439919e+000 4.045582e-001 -5.824539e+000 -1.205318e-001 2.071759e+000 2.933975e-001 1.826643e-001 -1.744488e-001 1.284503e+000 -2.040020e-001 -1.517792e+000 -1.774552e-001 -4.482947e-001 2.745933e-002 -8.173631e-001 2.914363e-001 8.267071e-001 -6.064890e-003 8.196965e-001
<VARIANCE> 25
 1.771316e+001 3.663822e+001 4.728925e+001 2.394595e+001 3.037839e+001 4.986162e+001 4.715041e+001 4.123219e+001 3.335321e+001 1.985272e+001 2.486855e+001 1.857988e+001 2.939414e+000 2.540236e+000 3.714620e+000 2.719076e+000 3.485010e+000 3.484814e+000 4.551459e+000 2.971756e+000 3.423770e+000 2.499968e+000 2.294513e+000 1.905503e+000 2.545516e+000
<GCONST> 1.009623e+002
<STATE> 3
<MEAN> 25
 6.227469e-001 -1.506857e+000 9.113318e+000 -1.850000e-002 -9.548931e+000 -2.958798e+000 -1.962790e+000 4.183732e-001 -5.526298e+000 1.661587e+000 4.768285e+000 4.560986e-001 2.743832e-001 -3.361854e-001 -5.290934e-001 1.631334e-001 -1.888863e-001 -6.009874e-001 2.545512e-001 6.928786e-001 4.523773e-001 9.605190e-002 3.666739e-001 1.590024e-001 1.977846e-001
<VARIANCE> 25
 8.868743e+000 1.766424e+001 2.644970e+001 1.703819e+001 2.661480e+001 4.290644e+001 3.404377e+001 3.583879e+001 2.525463e+001 1.787257e+001 2.076845e+001 1.502783e+001 1.138627e+000 1.582441e+000 2.681901e+000 1.305744e+000 1.519035e+000 2.166475e+000 2.487270e+000 2.474068e+000 2.373343e+000 1.411673e+000 1.415504e+000 1.138038e+000 9.486318e-001
<GCONST> 8.959794e+001
<STATE> 4
<MEAN> 25
 1.869043e+000 -2.944788e+000 4.950769e+000 1.338162e+000 -7.268147e+000 -5.509161e+000 -1.465930e+000 4.339631e+000 -3.316372e+000 1.245993e-001 4.036582e+000 1.000650e+000 4.165795e-001 -1.901993e-001 -1.398708e+000 1.900180e-001 1.398670e+000 5.574064e-002 -9.510475e-002 7.443019e-001 1.115531e+000 -2.438387e-001 -8.095208e-001 -1.180296e-001 -2.845560e-001
<VARIANCE> 25
 9.675560e+000 2.027168e+001 2.404074e+001 1.819286e+001 2.745541e+001 3.173465e+001 5.379556e+001 2.703540e+001 2.976854e+001 2.033272e+001 2.336343e+001 1.531895e+001 1.312385e+000 2.100228e+000 3.547785e+000 1.384915e+000 2.502925e+000 2.594033e+000 3.873739e+000 3.641954e+000 3.095385e+000 2.051464e+000 2.331191e+000 1.692362e+000 1.176038e+000
<GCONST> 9.415118e+001
<TRANSP> 5
 0.000000e+000 1.000000e+000 0.000000e+000 0.000000e+000 0.000000e+000
 0.000000e+000 4.371435e-001 5.628564e-001 0.000000e+000 0.000000e+000
 0.000000e+000 0.000000e+000 5.129624e-001 4.870376e-001 0.000000e+000
 0.000000e+000 0.000000e+000 0.000000e+000 3.256175e-001 6.743825e-001
 0.000000e+000 0.000000e+000 0.000000e+000 0.000000e+000 0.000000e+000
<ENDHMM>
~h "k"
<BEGINHMM>
<NUMSTATES> 5
<STATE> 2
<MEAN> 25
 -3.375294e+000 3.648763e+000 -1.778965e+000 2.701778e+000 3.684612e+000 -5.761222e-001 2.874379e+000 2.780162e+000 3.809117e+000 -5.495906e-002 -2.193009e+000 1.250411e+000 -6.265216e-001 -1.228553e+000 -1.463469e+000 -6.873893e-001 6.659486e-001 4.249336e-001 -1.342945e-001 -5.040777e-001 -6.017913e-001 6.406254e-001 4.030135e-001 5.582618e-001 3.543412e-001
<VARIANCE> 25
 2.672291e+001 2.178316e+001 2.879014e+001 2.728162e+001 3.971521e+001 3.924265e+001 4.023656e+001 3.538541e+001 3.467838e+001 2.689905e+001 3.055701e+001 2.218757e+001 2.429592e+000 3.563162e+000 4.054220e+000 3.006671e+000 5.088449e+000 4.969127e+000 4.045403e+000 3.991820e+000 4.237622e+000 3.083325e+000 2.707781e+000 2.559795e+000 3.241149e+000
<GCONST> 1.033027e+002
<STATE> 3
<MEAN> 25
 -4.437763e+000 -1.468588e+000 -7.397467e+000 -6.443462e-001 6.290835e+000 1.487429e+000 1.487777e+000 1.121248e+000 1.532552e+000 2.527894e+000 -3.020965e-002 2.115898e+000 2.726927e-001 -1.658648e+000 -1.504995e+000 -1.810584e+000 -5.343336e-001 -2.548327e-001 -1.085053e+000 -1.102329e+000 -1.253587e+000 5.577353e-001 1.020531e+000 1.949018e-001 1.900780e+000
<VARIANCE> 25
 2.176509e+001 2.746401e+001 5.932108e+001 4.211140e+001 3.983834e+001 5.949184e+001 4.204079e+001 3.064222e+001 3.644057e+001 2.899500e+001 2.842281e+001 2.372469e+001 3.072028e+000 2.539721e+000 5.421920e+000 3.970925e+000 5.956470e+000 5.499108e+000 3.675171e+000 4.339740e+000 4.779587e+000 3.239417e+000 3.253417e+000 2.748328e+000 2.160347e+000
<GCONST> 1.056546e+002
<STATE> 4
<MEAN> 25
 -2.786997e+000 -2.130939e+000 -7.018492e+000 -4.446383e+000 1.646216e+000 -9.879979e-001 -7.081742e-001 -1.397252e+000 -9.349700e-001 1.570609e+000 1.562448e+000 2.194765e+000 2.017258e+000 -2.430420e-001 1.072723e+000 -8.764122e-001 -2.127938e+000 -5.670655e-001 -1.276896e+000 -5.231166e-001 -1.410537e+000 -5.044196e-001 8.795849e-001 -5.894633e-001 2.097099e+000
<VARIANCE> 25
 2.983170e+001 2.076265e+001 7.701096e+001 4.312404e+001 4.512462e+001 6.806013e+001 3.925202e+001 3.509005e+001 3.536144e+001 2.718740e+001 3.205831e+001 2.295606e+001 2.742276e+000 2.464753e+000 3.922881e+000 3.726561e+000 3.638241e+000 3.558481e+000 3.996319e+000 3.687440e+000 3.832066e+000 2.870928e+000 3.054070e+000 2.522439e+000 2.059308e+000
<GCONST> 1.042174e+002
<TRANSP> 5
 0.000000e+000 1.000000e+000 0.000000e+000 0.000000e+000 0.000000e+000
 0.000000e+000 4.997869e-001 5.002131e-001 0.000000e+000 0.000000e+000
 0.000000e+000 0.000000e+000 3.511926e-001 6.488074e-001 0.000000e+000
 0.000000e+000 0.000000e+000 0.000000e+000 4.615062e-001 5.384938e-001
 0.000000e+000 0.000000e+000 0.000000e+000 0.000000e+000 0.000000e+000
<ENDHMM>
~h "l"
<BEGINHMM>
<NUMSTATES> 5
<STATE> 2
<MEAN> 25
 3.707911e+000 -3.510069e+000 -7.608163e-001 -1.615850e+000 -1.246819e+000 2.543959e+000 -5.020360e+000 -6.553327e+000 1.061494e-001 2.167509e+000 5.119536e+000 -2.243595e+000 1.077185e+000 3.972384e-002 3.618124e-001 -1.380982e+000 3.387859e-001 9.714684e-001 -1.616765e+000 -9.159135e-001 -4.998892e-001 7.479405e-001 8.199412e-001 -9.287133e-001 4.324223e-001
<VARIANCE> 25
 2.296171e+001 1.875032e+001 3.931464e+001 3.518250e+001 2.788009e+001 4.210679e+001 5.203365e+001 4.485252e+001 3.918451e+001 3.465744e+001 4.021580e+001 3.360847e+001 3.630195e+000 2.184541e+000 3.192905e+000 3.942621e+000 3.627214e+000 4.388840e+000 4.685663e+000 4.822349e+000 3.725244e+000 3.899667e+000 3.925221e+000 3.051076e+000 2.273281e+000
<GCONST> 1.049593e+002
<STATE> 3
<MEAN> 25
 5.052192e+000 -3.104513e+000 -1.695553e-001 -5.076885e+000 5.692919e-003 5.112820e+000 -7.636811e+000 -6.434678e+000 -4.065109e-001 3.191525e+000 6.687964e+000 -3.869622e+000 3.269870e-001 -1.499262e-001 1.162702e-001 -6.901427e-001 2.835988e-001 3.247426e-001 -5.576531e-001 8.093327e-001 1.312431e-001 -6.389649e-002 -1.523377e-001 -1.736767e-001 5.518315e-001
<VARIANCE> 25
 1.219406e+001 1.657656e+001 3.797392e+001 3.960929e+001 2.889620e+001 4.264463e+001 5.663444e+001 4.067028e+001 3.212720e+001 3.585675e+001 4.195304e+001 3.268761e+001 1.829855e+000 1.760321e+000 2.532457e+000 2.866598e+000 2.630145e+000 3.747680e+000 3.311374e+000 3.797750e+000 3.701910e+000 2.937228e+000 3.540411e+000 2.651899e+000 1.398917e+000
<GCONST> 1.006369e+002
<STATE> 4
<MEAN> 25
 4.427008e+000 -4.382443e+000 -7.704317e-002 -3.789548e+000 3.831811e-001 2.995651e+000 -7.146089e+000 -2.578248e+000 1.166425e+000 2.209585e+000 3.949785e+000 -3.297418e+000 -1.821899e-001 -4.720259e-001 -3.295403e-001 8.128793e-001 -3.922482e-001 -9.868697e-001 1.289033e+000 1.797524e+000 -1.492404e-002 -5.794640e-001 -8.238505e-001 3.984996e-001 5.304594e-001
<VARIANCE> 25
 9.741017e+000 1.700258e+001 4.658981e+001 3.381583e+001 2.567811e+001 5.298856e+001 4.854501e+001 4.386473e+001 2.986098e+001 3.399693e+001 3.064796e+001 3.014686e+001 1.027633e+000 1.658973e+000 2.066480e+000 3.353370e+000 3.477403e+000 5.768446e+000 4.351535e+000 4.055619e+000 4.645569e+000 2.732267e+000 5.057850e+000 2.846232e+000 8.152433e-001
<GCONST> 1.003920e+002
<TRANSP> 5
 0.000000e+000 1.000000e+000 0.000000e+000 0.000000e+000 0.000000e+000
 0.000000e+000 3.045346e-001 6.954654e-001 0.000000e+000 0.000000e+000
 0.000000e+000 0.000000e+000 2.543034e-001 7.456967e-001 0.000000e+000
 0.000000e+000 0.000000e+000 0.000000e+000 3.514553e-001 6.485446e-001
 0.000000e+000 0.000000e+000 0.000000e+000 0.000000e+000 0.000000e+000
<ENDHMM>
~h "m"
<BEGINHMM>
<NUMSTATES> 5
<STATE> 2
<MEAN> 25
 7.171559e+000 8.497000e-001 8.456934e-001 5.575397e+000 1.381819e+000 1.985625e+000 2.601702e+000 -5.079992e+000 -5.433949e+000 1.814177e+000 -2.002621e+000 -4.447661e+000 4.465925e-001 8.661048e-001 5.774707e-001 2.032176e+000 -6.380488e-002 -4.429169e-001 3.662724e-001 -2.084258e+000 -9.372567e-001 7.114573e-001 -1.323951e-001 -2.807548e-002 -7.854395e-001
<VARIANCE> 25
 8.877231e+000 1.987264e+001 1.382985e+001 1.831320e+001 1.852942e+001 2.535752e+001 2.155789e+001 2.745300e+001 2.384205e+001 1.992188e+001 2.527131e+001 1.990629e+001 9.677570e-001 1.933568e+000 1.930743e+000 1.844964e+000 2.196427e+000 2.455277e+000 2.057237e+000 2.503416e+000 2.659678e+000 1.855754e+000 2.251379e+000 1.850430e+000 1.941009e+000
<GCONST> 9.048155e+001
<STATE> 3
<MEAN> 25
 7.036224e+000 2.322960e+000 2.120149e+000 8.068471e+000 1.716105e+000 2.104434e+000 2.675298e+000 -8.431040e+000 -6.748055e+000 2.449205e+000 -2.270067e+000 -3.226485e+000 -2.725293e-001 6.755564e-002 1.431025e-001 -9.664997e-002 2.009556e-001 2.160220e-001 -2.181890e-001 2.218986e-001 3.076453e-001 -4.663340e-001 -2.337210e-001 2.800553e-001 7.865201e-002
<VARIANCE> 25
 7.130060e+000 2.280374e+001 1.165407e+001 1.446819e+001 1.792721e+001 2.312607e+001 1.856388e+001 2.229841e+001 2.469995e+001 2.247366e+001 2.537489e+001 1.925678e+001 5.809119e-001 1.899008e+000 1.297431e+000 1.400480e+000 1.381499e+000 1.585565e+000 1.460923e+000 2.038136e+000 2.061348e+000 1.718746e+000 1.584799e+000 1.341300e+000 1.640950e+000
<GCONST> 8.581448e+001
<STATE> 4
<MEAN> 25
 5.864876e+000 -4.419562e-001 5.776873e-001 4.138985e+000 2.802979e+000 3.359524e+000 1.275173e+000 -3.583609e+000 -3.979942e+000 -4.285901e-001 -3.359647e+000 -3.418873e+000 -1.051547e+000 -1.152974e+000 -1.284058e-001 -2.269189e+000 -1.855044e-002 8.274892e-001 -3.493767e-001 2.478426e+000 1.188166e+000 -1.162193e+000 -5.742406e-001 1.825251e-001 1.486418e+000
<VARIANCE> 25
 9.114090e+000 3.255131e+001 2.572980e+001 3.354673e+001 2.484901e+001 3.385508e+001 2.292777e+001 3.939869e+001 2.728796e+001 2.439924e+001 2.407694e+001 1.864885e+001 1.268992e+000 2.018555e+000 4.258089e+000 2.952409e+000 3.568216e+000 3.282214e+000 2.604220e+000 3.403832e+000 3.426749e+000 2.588454e+000 3.168386e+000 2.500472e+000 1.517817e+000
<GCONST> 9.733350e+001
<TRANSP> 5
 0.000000e+000 1.000000e+000 0.000000e+000 0.000000e+000 0.000000e+000
 0.000000e+000 4.995840e-001 5.004160e-001 0.000000e+000 0.000000e+000
 0.000000e+000 0.000000e+000 5.847664e-001 4.152336e-001 0.000000e+000
 0.000000e+000 0.000000e+000 0.000000e+000 4.846834e-001 5.153165e-001
 0.000000e+000 0.000000e+000 0.000000e+000 0.000000e+000 0.000000e+000
<ENDHMM>
~h "n"
<BEGINHMM>
<NUMSTATES> 5
<STATE> 2
<MEAN> 25
 6.019494e+000 7.257482e-001 1.667099e+000 6.832273e+000 4.019608e-001 1.019653e+000 2.155723e+000 -4.735892e+000 -2.669922e+000 1.110945e+000 -6.068317e+000 -3.845871e+000 4.589814e-001 6.104398e-001 4.761774e-001 1.220868e+000 -7.854652e-002 -2.703122e-001 1.177332e-001 -1.226797e+000 -3.267912e-001 4.080050e-001 -7.106737e-001 -7.434379e-002 -3.431053e-001
<VARIANCE> 25
 1.220908e+001 2.299908e+001 1.840014e+001 1.898909e+001 2.100784e+001 2.953123e+001 2.443042e+001 3.387062e+001 2.492332e+001 2.406034e+001 2.999219e+001 2.434982e+001 1.352570e+000 2.600799e+000 1.995464e+000 2.131670e+000 2.268013e+000 2.450561e+000 2.252725e+000 3.452064e+000 2.680796e+000 2.125069e+000 2.366688e+000 2.164414e+000 2.514582e+000
<GCONST> 9.434694e+001
<STATE> 3
<MEAN> 25
 6.239686e+000 6.778806e-001 1.953137e+000 7.819611e+000 8.544968e-001 1.268513e+000 1.289095e+000 -6.337294e+000 -2.890599e+000 1.953465e+000 -6.093298e+000 -3.627380e+000 -2.452987e-001 -9.678882e-001 -2.768860e-001 -1.048898e+000 8.180450e-001 8.656452e-001 -4.049614e-001 1.178937e+000 -5.521008e-002 -5.663980e-001 -8.663720e-002 -3.748323e-001 1.072037e+000
<VARIANCE> 25
 9.305483e+000 2.462891e+001 1.798578e+001 2.034126e+001 2.230931e+001 2.725364e+001 2.448860e+001 3.283010e+001 2.247429e+001 2.425175e+001 2.726004e+001 2.175472e+001 1.174367e+000 2.909430e+000 2.574545e+000 2.195463e+000 2.358883e+000 2.781542e+000 2.241852e+000 3.385257e+000 2.693130e+000 2.320807e+000 2.349321e+000 2.333135e+000 2.372902e+000
<GCONST> 9.433630e+001
<STATE> 4
<MEAN> 25
 4.760940e+000 -3.354379e+000 9.063827e-002 2.546387e+000 3.887055e+000 3.877874e+000 3.632442e-001 1.429073e-001 -2.550709e+000 -1.385543e+000 -6.501305e+000 -5.140865e+000 -7.662077e-001 -9.786791e-001 -6.053067e-001 -1.906773e+000 5.522072e-001 7.767108e-001 2.857986e-001 1.995674e+000 5.005770e-002 -9.691216e-001 3.200471e-001 -3.643994e-002 1.339913e+000
<VARIANCE> 25
 1.008282e+001 3.234352e+001 2.850403e+001 2.117690e+001 2.698771e+001 3.213397e+001 3.157034e+001 3.524741e+001 2.662603e+001 2.440626e+001 3.212942e+001 2.486366e+001 1.260656e+000 2.782379e+000 3.155749e+000 2.788393e+000 2.805650e+000 3.146267e+000 2.822737e+000 3.832170e+000 2.854159e+000 2.774539e+000 2.930579e+000 2.329218e+000 1.763056e+000
<GCONST> 9.762260e+001
<TRANSP> 5
 0.000000e+000 1.000000e+000 0.000000e+000 0.000000e+000 0.000000e+000
 0.000000e+000 4.661153e-001 5.338847e-001 0.000000e+000 0.000000e+000
 0.000000e+000 0.000000e+000 3.564001e-001 6.436000e-001 0.000000e+000
 0.000000e+000 0.000000e+000 0.000000e+000 3.739173e-001 6.260827e-001
 0.000000e+000 0.000000e+000 0.000000e+000 0.000000e+000 0.000000e+000
<ENDHMM>
~h "o"
<BEGINHMM>
<NUMSTATES> 5
<STATE> 2
<MEAN> 25
 5.811526e+000 -3.053739e+000 -6.134897e+000 -6.669688e+000 -7.708271e-001 5.969149e+000 -4.966582e+000 -2.409540e+000 -1.853937e+000 3.091547e+000 4.205729e+000 -2.145206e+000 1.055372e+000 -4.723316e-002 -9.287138e-002 -1.008113e+000 -3.650722e-001 1.200617e+000 -3.022816e-001 -1.295379e-001 -6.268916e-001 8.952314e-001 8.986554e-001 -4.411997e-001 9.576606e-001
<VARIANCE> 25
 1.003929e+001 2.318226e+001 1.986816e+001 3.919092e+001 3.106213e+001 4.636479e+001 4.961802e+001 2.595370e+001 3.449141e+001 2.970729e+001 3.871584e+001 2.813067e+001 2.079581e+000 2.203484e+000 2.651683e+000 3.538324e+000 3.484585e+000 3.613251e+000 4.332665e+000 3.102775e+000 3.321757e+000 3.322957e+000 3.114500e+000 2.781518e+000 2.320735e+000
<GCONST> 1.007076e+002
<STATE> 3
<MEAN> 25
 6.883747e+000 -2.026446e+000 -5.970270e+000 -7.937769e+000 -5.006247e-001 8.957273e+000 -3.103927e+000 -2.698062e+000 -3.356375e+000 3.823654e+000 5.753660e+000 -1.707448e+000 1.880585e-001 7.117718e-001 6.087030e-001 5.470735e-001 3.148218e-001 -2.460125e-001 3.351149e-001 5.594075e-002 4.750596e-002 9.712970e-002 -1.399101e-001 1.060860e-001 -6.626507e-001
<VARIANCE> 25
 8.129802e+000 2.061898e+001 1.711998e+001 3.337841e+001 2.938155e+001 3.810448e+001 4.910637e+001 2.434342e+001 3.208209e+001 3.184060e+001 3.861080e+001 2.740773e+001 6.899122e-001 2.001247e+000 1.418317e+000 2.547427e+000 2.104567e+000 2.750872e+000 3.369681e+000 2.042027e+000 2.754060e+000 2.036913e+000 2.089314e+000 2.328049e+000 1.581768e+000
<GCONST> 9.447402e+001
<STATE> 4
<MEAN> 25
 6.533726e+000 1.074411e+000 -2.897407e+000 -3.569942e+000 1.568956e+000 4.967236e+000 -2.566866e+000 -1.779525e+000 -3.614049e-001 3.367561e+000 2.938714e+000 -1.798708e+000 -6.712921e-001 1.463406e+000 1.102896e+000 1.593551e+000 1.596624e-001 -1.354118e+000 1.227712e+000 4.197201e-001 1.047435e+000 -9.462641e-001 -1.102065e+000 5.216492e-001 -1.672727e+000
<VARIANCE> 25
 9.647098e+000 3.423183e+001 2.023493e+001 3.112648e+001 2.828821e+001 3.675742e+001 6.670120e+001 2.822466e+001 3.876099e+001 3.148515e+001 3.826451e+001 3.098998e+001 1.634610e+000 2.280581e+000 1.662991e+000 2.425971e+000 2.402735e+000 2.761725e+000 3.089333e+000 2.993254e+000 3.279560e+000 2.497888e+000 2.534626e+000 2.114897e+000 1.880402e+000
<GCONST> 9.810569e+001
<TRANSP> 5
 0.000000e+000 1.000000e+000 0.000000e+000 0.000000e+000 0.000000e+000
 0.000000e+000 3.785301e-001 6.214699e-001 0.000000e+000 0.000000e+000
 0.000000e+000 0.000000e+000 5.258459e-001 4.741540e-001 0.000000e+000
 0.000000e+000 0.000000e+000 0.000000e+000 4.650178e-001 5.349822e-001
 0.000000e+000 0.000000e+000 0.000000e+000 0.000000e+000 0.000000e+000
<ENDHMM>
~h "p"
<BEGINHMM>
<NUMSTATES> 5
<STATE> 2
<MEAN> 25
 1.628191e+000 7.062035e+000 -3.628210e-001 2.177576e-001 -7.255054e-001 2.598239e-001 4.419792e+000 9.848752e-001 4.045299e+000 -2.287580e+000 -1.922498e+000 1.703388e+000 -1.695609e+000 -1.980936e+000 -1.109879e+000 1.272199e-001 2.664680e-001 -1.509297e-001 -7.284967e-001 -4.457657e-001 3.760569e-001 4.325019e-001 2.385365e-001 4.479102e-001 1.086843e+000
<VARIANCE> 25
 1.612623e+001 1.572875e+001 2.065809e+001 2.438981e+001 2.336741e+001 2.786868e+001 2.616816e+001 2.399629e+001 2.255202e+001 1.979829e+001 2.356802e+001 2.221840e+001 1.446681e+000 2.796347e+000 2.709112e+000 2.132622e+000 2.323480e+000 3.019102e+000 2.896298e+000 2.807728e+000 2.457854e+000 2.038404e+000 2.137844e+000 1.965607e+000 3.563867e+000
<GCONST> 9.450195e+001
<STATE> 3
<MEAN> 25
 -3.719943e+000 -9.381431e-001 -3.413714e+000 1.601582e+000 1.807279e+000 6.497391e-001 1.511504e+000 -4.383458e-001 5.020744e+000 -4.634188e-001 -1.267758e+000 2.321978e+000 -3.308383e-001 -3.155201e+000 -1.981549e+000 -8.637500e-001 -4.905618e-001 -1.972883e-001 -2.169887e+000 -1.266469e+000 -4.994952e-001 9.307850e-001 8.203178e-001 2.302544e-001 3.581298e+000
<VARIANCE> 25
 1.277307e+001 2.910504e+001 2.094812e+001 1.878060e+001 2.283356e+001 2.653864e+001 2.719018e+001 2.185537e+001 2.124857e+001 2.006782e+001 1.932607e+001 1.618452e+001 2.402815e+000 2.339793e+000 3.954252e+000 3.556950e+000 3.359517e+000 4.869393e+000 3.520234e+000 3.886965e+000 3.841429e+000 2.854121e+000 3.096585e+000 2.773939e+000 2.844286e+000
<GCONST> 9.780692e+001
<STATE> 4
<MEAN> 25
 -1.480349e+000 -4.528174e+000 -7.932810e+000 -1.841349e+000 -1.100042e+000 -1.012566e+000 -3.507308e+000 -3.797034e+000 2.766829e+000 1.088027e+000 6.188477e-001 2.526391e+000 1.923719e+000 -1.353723e+000 -7.219487e-001 -1.619449e+000 -1.292063e+000 6.892800e-001 -1.484855e+000 -8.570284e-001 -1.202821e+000 6.307505e-001 1.078619e+000 -4.262076e-001 3.123887e+000
<VARIANCE> 25
 1.796132e+001 1.512118e+001 2.448685e+001 2.226845e+001 2.315208e+001 3.782632e+001 2.574332e+001 2.658161e+001 2.526642e+001 2.109211e+001 2.016469e+001 1.765638e+001 2.393475e+000 2.879524e+000 3.694807e+000 5.930169e+000 3.578650e+000 5.716405e+000 3.411114e+000 3.270737e+000 3.518230e+000 2.981239e+000 2.757398e+000 2.525510e+000 3.168445e+000
<GCONST> 9.920144e+001
<TRANSP> 5
 0.000000e+000 1.000000e+000 0.000000e+000 0.000000e+000 0.000000e+000
 0.000000e+000 4.873204e-001 5.126796e-001 0.000000e+000 0.000000e+000
 0.000000e+000 0.000000e+000 2.137790e-001 7.862210e-001 0.000000e+000
 0.000000e+000 0.000000e+000 0.000000e+000 2.827125e-001 7.172875e-001
 0.000000e+000 0.000000e+000 0.000000e+000 0.000000e+000 0.000000e+000
<ENDHMM>
~h "r"
<BEGINHMM>
<NUMSTATES> 5
<STATE> 2
<MEAN> 25
 3.712642e+000 -4.296673e+000 -1.852086e+000 2.328346e+000 -2.213191e+000 -3.385055e+000 -4.349544e+000 6.209898e-002 3.890595e+000 1.933562e+000 1.412844e+000 -1.191366e+000 8.355896e-001 -1.353555e-001 7.299221e-001 1.395950e+000 -3.929567e-001 -5.194955e-001 2.681333e-001 -2.361053e-001 2.428074e-001 2.627621e-001 3.562262e-002 -1.195644e-001 -9.148381e-002
<VARIANCE> 25
 1.376653e+001 1.969060e+001 3.015178e+001 1.900024e+001 2.455926e+001 3.766396e+001 3.667706e+001 3.500778e+001 2.887226e+001 2.181234e+001 2.891905e+001 2.043183e+001 2.333765e+000 2.316418e+000 3.334755e+000 2.636919e+000 2.656960e+000 3.719140e+000 3.705174e+000 3.252423e+000 2.838546e+000 2.671014e+000 2.927366e+000 2.498963e+000 2.004953e+000
<GCONST> 9.806714e+001
<STATE> 3
<MEAN> 25
 3.786850e+000 -3.539141e+000 -5.399683e-001 5.169491e+000 -1.997338e+000 -3.486388e+000 -2.165916e+000 -6.014486e-001 4.351362e+000 2.185548e+000 8.764185e-001 -7.184162e-001 7.863847e-002 -4.833098e-001 2.023495e-001 1.703223e-001 -1.849086e-001 -5.319855e-001 7.528604e-001 -3.193105e-002 -3.557618e-001 -7.960124e-002 -2.008822e-002 1.537958e-001 2.006784e-001
<VARIANCE> 25
 1.326150e+001 2.192335e+001 3.314305e+001 1.794820e+001 2.680710e+001 3.194334e+001 3.449903e+001 3.488877e+001 2.861254e+001 2.471671e+001 2.791840e+001 2.171962e+001 1.523385e+000 2.095935e+000 3.052263e+000 1.879090e+000 2.316185e+000 3.247555e+000 3.160951e+000 2.921849e+000 2.736748e+000 2.316127e+000 2.911192e+000 2.069424e+000 1.474383e+000
<GCONST> 9.600148e+001
<STATE> 4
<MEAN> 25
 3.606592e+000 -5.852285e+000 -1.692345e+000 3.143777e+000 -2.724550e+000 -4.890240e+000 -1.679196e+000 1.598353e-002 3.284102e+000 1.673944e+000 1.141476e+000 -5.614840e-001 3.306413e-002 -7.536250e-001 -1.935139e-001 -1.036274e+000 -2.390336e-002 -2.817911e-001 4.754786e-001 4.496949e-001 -9.186596e-001 -2.686661e-001 1.582670e-001 -1.600544e-001 9.070639e-001
<VARIANCE> 25
 1.345554e+001 2.262436e+001 4.101558e+001 1.759087e+001 2.748917e+001 3.976184e+001 3.622858e+001 3.177376e+001 2.784880e+001 2.468964e+001 3.132713e+001 2.225714e+001 1.566378e+000 2.121896e+000 2.488549e+000 2.096481e+000 2.689583e+000 3.561451e+000 3.194998e+000 3.349611e+000 3.324095e+000 2.507250e+000 3.967122e+000 2.149674e+000 1.415789e+000
<GCONST> 9.746664e+001
<TRANSP> 5
 0.000000e+000 1.000000e+000 0.000000e+000 0.000000e+000 0.000000e+000
 0.000000e+000 2.383453e-001 7.616547e-001 0.000000e+000 0.000000e+000
 0.000000e+000 0.000000e+000 1.737957e-001 8.262043e-001 0.000000e+000
 0.000000e+000 0.000000e+000 0.000000e+000 1.922709e-001 8.077291e-001
 0.000000e+000 0.000000e+000 0.000000e+000 0.000000e+000 0.000000e+000
<ENDHMM>
~h "s"
<BEGINHMM>
<NUMSTATES> 5
<STATE> 2
<MEAN> 25
 -8.913815e+000 6.597741e+000 2.987990e+000 1.637195e+000 6.485130e+000 -5.465965e+000 2.773427e+000 4.492073e+000 1.904684e+000 -1.839037e+000 -1.962499e+000 4.123654e+000 -4.212235e+000 1.410231e+000 -7.254894e-001 -3.020854e-001 1.852367e+000 -3.653762e-001 1.384124e+000 1.385466e+000 6.919607e-001 -9.771205e-001 4.740962e-001 1.525133e+000 5.580656e-001
<VARIANCE> 25
 3.539405e+001 2.024343e+001 2.419101e+001 1.820930e+001 2.964142e+001 4.343512e+001 6.216006e+001 2.992412e+001 3.792470e+001 2.362494e+001 2.775901e+001 2.539708e+001 1.623416e+000 2.476035e+000 2.639213e+000 1.967390e+000 2.394478e+000 3.131772e+000 3.234185e+000 3.429524e+000 2.959091e+000 2.568852e+000 2.622820e+000 2.008207e+000 9.701705e-001
<GCONST> 9.777303e+001
<STATE> 3
<MEAN> 25
 -1.709715e+001 6.547751e+000 -3.230516e+000 -1.029991e+000 8.923861e+000 -5.253675e+000 4.960613e+000 6.335630e+000 9.606597e-001 -2.233049e+000 3.296237e-001 6.635058e+000 -4.552550e-001 -7.533894e-001 -9.438717e-001 -1.488853e-001 -2.079015e-001 8.715069e-002 -1.201333e-001 -5.120263e-002 2.099906e-001 1.188226e-001 6.343790e-002 9.145457e-002 -5.304251e-001
<VARIANCE> 25
 6.755031e+000 1.664253e+001 1.883517e+001 1.586335e+001 1.979508e+001 2.966438e+001 4.206805e+001 2.847662e+001 2.794097e+001 2.155339e+001 2.253561e+001 1.983019e+001 1.185545e+000 1.682061e+000 1.996847e+000 1.418416e+000 1.874223e+000 2.251496e+000 2.652549e+000 2.647275e+000 2.639029e+000 1.901167e+000 1.774784e+000 1.623332e+000 4.936157e-001
<GCONST> 8.942081e+001
<STATE> 4
<MEAN> 25
 -1.195638e+001 2.723661e+000 -3.102118e+000 3.792253e-001 5.616505e+000 -5.099107e+000 1.126961e+000 3.427977e+000 3.155562e+000 -1.216740e+000 -9.627193e-001 4.402270e+000 2.997592e+000 -7.025034e-001 4.763322e-001 1.895088e-001 -1.239095e+000 4.201731e-002 -1.033469e+000 -1.571423e+000 -2.395308e-001 5.048356e-001 -1.019042e-001 -1.132272e+000 -8.926181e-001
<VARIANCE> 25
 3.082969e+001 2.659307e+001 2.141420e+001 1.921784e+001 3.614918e+001 4.789890e+001 5.882400e+001 4.024806e+001 3.984919e+001 2.295720e+001 2.115340e+001 2.215791e+001 3.641529e+000 2.060049e+000 1.711239e+000 1.701904e+000 2.395569e+000 3.057864e+000 4.229404e+000 3.688902e+000 3.073192e+000 2.287161e+000 2.249977e+000 2.168532e+000 2.719602e+000
<GCONST> 9.922935e+001
<TRANSP> 5
 0.000000e+000 1.000000e+000 0.000000e+000 0.000000e+000 0.000000e+000
 0.000000e+000 6.317955e-001 3.682044e-001 0.000000e+000 0.000000e+000
 0.000000e+000 0.000000e+000 7.439504e-001 2.560496e-001 0.000000e+000
 0.000000e+000 0.000000e+000 0.000000e+000 6.773452e-001 3.226548e-001
 0.000000e+000 0.000000e+000 0.000000e+000 0.000000e+000 0.000000e+000
<ENDHMM>
~h "t"
<BEGINHMM>
<NUMSTATES> 5
<STATE> 2
<MEAN> 25
 -2.672054e+000 6.419851e+000 5.154742e-001 1.351167e+000 1.428595e+000 -1.736649e+000 4.576025e+000 1.374844e+000 4.741758e+000 -1.519785e+000 -1.756253e+000 1.960806e+000 -1.176919e+000 -1.533434e+000 -4.377025e-001 -6.590883e-001 1.888456e-001 3.488964e-001 2.398840e-001 -5.741656e-001 -6.363682e-002 -2.964018e-001 3.877687e-001 7.372496e-001 3.022604e-001
<VARIANCE> 25
 3.215950e+001 1.582108e+001 2.175650e+001 2.023936e+001 2.775326e+001 3.386614e+001 2.908042e+001 2.838163e+001 2.521208e+001 2.128279e+001 2.430520e+001 2.048449e+001 3.028734e+000 3.359953e+000 2.165263e+000 1.912571e+000 2.521934e+000 3.019216e+000 2.691800e+000 3.294098e+000 2.318909e+000 1.947423e+000 2.333619e+000 2.178158e+000 3.326709e+000
<GCONST> 9.661259e+001
<STATE> 3
<MEAN> 25
 -6.772702e+000 -1.069301e+000 -8.713162e-001 -8.085594e-001 2.774607e+000 -3.738087e-001 4.379999e+000 -3.544413e-001 3.505629e+000 -2.150325e+000 1.701637e-001 4.263713e+000 -6.797412e-001 -2.467982e+000 -1.073213e+000 -9.364479e-001 -7.265629e-001 -9.796412e-001 -9.849376e-001 -6.611252e-001 -5.812889e-001 -2.815310e-002 5.702623e-001 5.039036e-001 2.336458e+000
<VARIANCE> 25
 1.722389e+001 4.333191e+001 2.801243e+001 2.233924e+001 2.572376e+001 2.966904e+001 3.277385e+001 2.658499e+001 2.186912e+001 1.813283e+001 2.070657e+001 1.708983e+001 3.786925e+000 3.108344e+000 2.880250e+000 2.453757e+000 3.682232e+000 3.983666e+000 4.437448e+000 3.550472e+000 3.151330e+000 2.383229e+000 2.873752e+000 2.937076e+000 3.171831e+000
<GCONST> 9.942799e+001
<STATE> 4
<MEAN> 25
 -5.231315e+000 -2.247853e+000 -3.469196e+000 -2.160893e+000 -8.902971e-001 -5.026870e+000 1.031993e+000 -6.262991e-001 2.703283e+000 -1.587812e+000 1.297521e-001 3.704911e+000 2.087563e+000 -5.668156e-001 1.864228e-001 -6.499410e-002 -1.337941e+000 -8.481777e-001 -2.344719e+000 -1.925794e-001 -1.040191e+000 8.737052e-001 3.972541e-001 -1.454772e+000 1.958122e+000
<VARIANCE> 25
 2.083052e+001 2.782666e+001 2.571566e+001 2.111641e+001 2.970996e+001 2.999203e+001 5.232052e+001 2.714507e+001 2.558003e+001 1.968179e+001 2.007910e+001 2.274727e+001 3.252754e+000 3.524732e+000 4.650165e+000 2.796009e+000 4.021349e+000 3.657422e+000 3.460267e+000 4.115192e+000 3.612221e+000 2.467373e+000 2.928774e+000 2.592585e+000 2.971510e+000
<GCONST> 1.006557e+002
<TRANSP> 5
 0.000000e+000 1.000000e+000 0.000000e+000 0.000000e+000 0.000000e+000
 0.000000e+000 4.593989e-001 5.406011e-001 0.000000e+000 0.000000e+000
 0.000000e+000 0.000000e+000 3.499588e-001 6.500412e-001 0.000000e+000
 0.000000e+000 0.000000e+000 0.000000e+000 3.914856e-001 6.085144e-001
 0.000000e+000 0.000000e+000 0.000000e+000 0.000000e+000 0.000000e+000
<ENDHMM>
~h "u"
<BEGINHMM>
<NUMSTATES> 5
<STATE> 2
<MEAN> 25
 5.419475e+000 7.746614e-001 -2.194689e+000 -3.610955e+000 -1.556365e+000 4.571602e+000 -7.677944e+000 -5.088898e+000 -1.714825e+000 3.925228e-002 4.205998e+000 -1.172343e+000 1.534039e+000 8.975424e-001 -7.616577e-002 -1.760862e+000 -5.092979e-001 1.686707e+000 -5.776166e-001 -1.033302e+000 -1.361729e+000 6.836879e-002 1.375013e+000 -2.917882e-001 4.465576e-001
<VARIANCE> 25
 1.523031e+001 3.807385e+001 2.579077e+001 4.984028e+001 3.521970e+001 4.772667e+001 6.209237e+001 3.990169e+001 3.476368e+001 3.987430e+001 4.093445e+001 2.586786e+001 3.055089e+000 3.092373e+000 2.930031e+000 3.442211e+000 4.434336e+000 4.313318e+000 5.807397e+000 5.127271e+000 4.377569e+000 3.664502e+000 3.655775e+000 3.513315e+000 2.904297e+000
<GCONST> 1.062059e+002
<STATE> 3
<MEAN> 25
 7.887027e+000 5.623028e+000 -2.271335e+000 -8.747247e+000 -4.232150e+000 7.637815e+000 -3.166522e+000 -3.551257e+000 -4.389671e+000 -2.292593e+000 3.900092e+000 1.869216e-001 1.202997e-002 5.740926e-001 3.366098e-001 3.219457e-001 1.582981e-001 -1.122568e-001 3.471117e-001 5.403117e-002 2.432585e-001 -1.002367e-001 -2.671914e-001 1.595554e-001 -4.765783e-001
<VARIANCE> 25
 7.935935e+000 3.823362e+001 1.971467e+001 4.287790e+001 3.453477e+001 4.156548e+001 5.076009e+001 3.516172e+001 3.708047e+001 3.203135e+001 4.332087e+001 2.792801e+001 6.574008e-001 2.737531e+000 1.297990e+000 3.495943e+000 2.626755e+000 2.721745e+000 4.509970e+000 2.926477e+000 2.843858e+000 3.237577e+000 3.154634e+000 2.269686e+000 1.715587e+000
<GCONST> 9.871152e+001
<STATE> 4
<MEAN> 25
 5.657279e+000 4.464783e+000 3.255233e-001 -1.106788e+000 1.626509e-002 4.458201e+000 -4.488225e+000 -4.256003e+000 -1.986099e-001 -3.890331e-001 2.216419e+000 2.683886e-001 -1.263382e+000 5.444544e-001 8.978671e-001 1.875325e+000 5.414772e-001 -1.672312e+000 1.126075e+000 9.931479e-001 1.306901e+000 -1.530336e-001 -1.407177e+000 4.765182e-001 -1.011038e+000
<VARIANCE> 25
 1.125504e+001 4.064890e+001 2.621075e+001 3.559665e+001 3.266375e+001 4.023211e+001 8.343992e+001 4.031290e+001 3.100953e+001 3.024838e+001 3.813775e+001 2.970812e+001 1.824730e+000 2.907665e+000 1.961936e+000 3.376273e+000 3.454989e+000 3.593620e+000 4.187714e+000 3.558930e+000 3.638996e+000 3.005980e+000 3.098908e+000 2.477857e+000 2.150813e+000
<GCONST> 1.020659e+002
<TRANSP> 5
 0.000000e+000 1.000000e+000 0.000000e+000 0.000000e+000 0.000000e+000
 0.000000e+000 4.505013e-001 5.494987e-001 0.000000e+000 0.000000e+000
 0.000000e+000 0.000000e+000 6.659617e-001 3.340383e-001 0.000000e+000
 0.000000e+000 0.000000e+000 0.000000e+000 5.083022e-001 4.916978e-001
 0.000000e+000 0.000000e+000 0.000000e+000 0.000000e+000 0.000000e+000
<ENDHMM>
~h "v"
<BEGINHMM>
<NUMSTATES> 5
<STATE> 2
<MEAN> 25
 3.704070e+000 3.301262e-001 -3.039844e+000 -4.962448e-001 1.900650e+000 1.526393e+000 -3.543170e+000 -4.000180e+000 -2.178447e-001 2.695320e+000 2.432442e+000 5.371999e-001 7.702264e-001 3.717946e-002 -2.069848e-001 -2.725323e-001 -5.688459e-002 2.644977e-001 -5.543808e-001 -5.391273e-001 -5.074865e-001 3.579522e-001 4.316243e-001 -1.157657e-001 1.801742e-001
<VARIANCE> 25
 2.925129e+001 2.437625e+001 2.742401e+001 3.167572e+001 2.171951e+001 4.200489e+001 3.827680e+001 2.944110e+001 3.018275e+001 2.448038e+001 2.536868e+001 1.942535e+001 3.141624e+000 3.040718e+000 2.518240e+000 3.648380e+000 2.480253e+000 4.596006e+000 3.742158e+000 3.451260e+000 3.324201e+000 3.164377e+000 2.789593e+000 2.513298e+000 2.515920e+000
<GCONST> 1.006218e+002
<STATE> 3
<MEAN> 25
 5.074733e+000 -9.578178e-001 -3.238516e+000 -1.891918e+000 9.985923e-001 1.632740e+000 -4.074162e+000 -3.426721e+000 -9.771405e-001 3.056459e+000 3.108399e+000 8.367772e-002 3.281389e-001 -8.758257e-001 1.949428e-001 -3.552093e-001 -7.385838e-001 -3.488101e-001 -1.309463e-001 7.413586e-001 -2.735820e-001 -9.254360e-002 -3.909576e-002 -2.643089e-001 9.531222e-001
<VARIANCE> 25
 1.881617e+001 2.328279e+001 3.390263e+001 3.869246e+001 2.134604e+001 4.991750e+001 3.671905e+001 3.002137e+001 2.730837e+001 2.535328e+001 2.587887e+001 2.067693e+001 2.743659e+000 3.109773e+000 2.520565e+000 3.655009e+000 2.354306e+000 4.023502e+000 2.910552e+000 3.383753e+000 3.895420e+000 2.694194e+000 2.674018e+000 2.569501e+000 2.282388e+000
<GCONST> 1.000111e+002
<STATE> 4
<MEAN> 25
 5.152673e+000 -2.684416e+000 -2.712482e+000 -2.107932e+000 -3.295353e-001 3.952927e-001 -4.227763e+000 -1.145924e+000 -8.867189e-001 2.580448e+000 2.492261e+000 -3.958230e-001 -7.415015e-002 -8.272882e-001 6.304674e-001 6.960940e-002 -9.398126e-001 -4.348934e-001 3.910841e-001 1.090032e+000 -1.999132e-001 -3.587750e-001 -3.086069e-001 -2.643442e-001 9.514745e-001
<VARIANCE> 25
 1.491386e+001 2.808444e+001 4.288585e+001 4.109647e+001 2.179355e+001 5.948301e+001 3.743383e+001 3.276997e+001 3.095094e+001 2.856182e+001 2.552445e+001 2.493722e+001 2.000576e+000 2.166806e+000 2.508858e+000 2.985628e+000 3.089408e+000 3.519480e+000 2.799191e+000 3.317309e+000 4.325017e+000 2.523145e+000 3.193432e+000 2.348529e+000 1.417150e+000
<GCONST> 9.982732e+001
<TRANSP> 5
 0.000000e+000 1.000000e+000 0.000000e+000 0.000000e+000 0.000000e+000
 0.000000e+000 2.754308e-001 7.245692e-001 0.000000e+000 0.000000e+000
 0.000000e+000 0.000000e+000 1.137825e-001 8.862175e-001 0.000000e+000
 0.000000e+000 0.000000e+000 0.000000e+000 1.026046e-001 8.973954e-001
 0.000000e+000 0.000000e+000 0.000000e+000 0.000000e+000 0.000000e+000
<ENDHMM>
~h "z"
<BEGINHMM>
<NUMSTATES> 5
<STATE> 2
<MEAN> 25
 -5.199727e+000 9.498679e+000 1.313546e+000 1.859110e-001 6.638227e+000 -9.564065e+000 -1.583247e+000 -1.589795e+000 4.330471e-001 1.752859e+000 -2.463831e+000 2.277950e+000 -3.018435e+000 2.854826e+000 -2.502943e-001 2.487795e-001 1.587510e+000 -1.219618e+000 1.439486e+000 4.994097e-001 7.372679e-001 -1.185928e+000 -4.761787e-001 1.758343e+000 -3.834286e-002
<VARIANCE> 25
 2.102722e+001 2.476855e+001 2.655177e+001 1.847154e+001 2.491321e+001 3.546245e+001 4.832794e+001 2.611618e+001 3.289861e+001 2.606730e+001 1.966749e+001 2.546056e+001 1.354381e+000 2.606455e+000 1.750558e+000 1.353515e+000 2.138593e+000 3.053101e+000 2.519243e+000 3.476007e+000 2.079984e+000 1.936896e+000 2.165657e+000 1.667702e+000 8.229734e-001
<GCONST> 9.394521e+001
<STATE> 3
<MEAN> 25
 -1.233849e+001 1.230425e+001 6.950710e-001 1.224634e+000 8.779234e+000 -9.662652e+000 1.774728e+000 1.815778e+000 3.172840e-001 -2.011888e+000 -1.946856e+000 6.120926e+000 -1.248390e-001 -7.927124e-001 -3.000821e-001 5.058344e-002 3.649076e-003 1.416528e-001 -3.882410e-001 1.349697e-001 -7.752699e-002 -2.259962e-001 3.839189e-002 1.355518e-001 -1.524882e-001
<VARIANCE> 25
 1.154321e+001 1.183431e+001 2.012265e+001 1.559114e+001 1.963161e+001 3.094077e+001 4.259369e+001 2.971736e+001 2.929755e+001 2.246991e+001 2.042201e+001 1.812078e+001 2.425318e+000 1.571072e+000 1.491155e+000 1.245553e+000 1.870391e+000 2.353291e+000 2.811917e+000 2.665103e+000 2.239386e+000 1.881745e+000 1.581340e+000 1.473432e+000 5.211154e-001
<GCONST> 8.965399e+001
<STATE> 4
<MEAN> 25
 -5.065842e+000 4.933895e+000 -9.455227e-001 -4.269487e-001 5.891663e+000 -9.849266e+000 -3.810621e+000 -4.627529e-001 9.006406e-001 1.444390e+000 -2.409268e+000 2.804240e+000 3.146936e+000 -3.005274e+000 -3.017208e-001 -4.805411e-001 -1.427045e+000 9.041934e-001 -9.926682e-001 -3.886059e-002 7.205920e-002 1.177046e+000 2.224516e-001 -1.667634e+000 4.492951e-001
<VARIANCE> 25
 2.795982e+001 2.785059e+001 2.146626e+001 1.677051e+001 2.070436e+001 3.113706e+001 3.557140e+001 2.422200e+001 2.353776e+001 2.536869e+001 1.486238e+001 1.854268e+001 1.484474e+000 1.959981e+000 1.503067e+000 1.614421e+000 1.720950e+000 3.092234e+000 3.103677e+000 3.977801e+000 2.216043e+000 2.084568e+000 1.867873e+000 1.509596e+000 1.194549e+000
<GCONST> 9.261349e+001
<TRANSP> 5
 0.000000e+000 1.000000e+000 0.000000e+000 0.000000e+000 0.000000e+000
 0.000000e+000 6.207392e-001 3.792608e-001 0.000000e+000 0.000000e+000
 0.000000e+000 0.000000e+000 6.721156e-001 3.278845e-001 0.000000e+000
 0.000000e+000 0.000000e+000 0.000000e+000 6.095968e-001 3.904032e-001
 0.000000e+000 0.000000e+000 0.000000e+000 0.000000e+000 0.000000e+000
<ENDHMM>
~h "DZ"
<BEGINHMM>
<NUMSTATES> 5
<STATE> 2
<MEAN> 25
 4.340215e-001 4.134736e+000 3.262176e+000 8.538295e+000 -2.102094e+000 1.327887e+000 2.997863e+000 -3.117960e+000 2.891330e+000 -2.847310e+000 -2.246308e+000 -1.612954e+000 -3.362786e+000 -5.513226e-001 -2.501571e-001 4.733430e-001 -4.030584e-001 1.054770e+000 7.031584e-001 -9.257527e-001 4.259777e-002 -1.210477e+000 5.353041e-001 7.816010e-001 2.055944e+000
<VARIANCE> 25
 3.802166e+001 4.560167e+001 2.367697e+001 2.492490e+001 2.163796e+001 3.803197e+001 2.879523e+001 3.738224e+001 2.869748e+001 2.435046e+001 3.146638e+001 1.552629e+001 4.422892e+000 5.724337e+000 2.580042e+000 2.710719e+000 2.144742e+000 4.915731e+000 3.563680e+000 2.892884e+000 2.816606e+000 2.221486e+000 3.982747e+000 2.138398e+000 4.353504e+000
<GCONST> 1.015323e+002
<STATE> 3
<MEAN> 25
 -1.185343e+001 3.549016e+000 3.204380e+000 5.149047e+000 -4.363284e+000 2.392787e+000 2.603084e-001 -4.004630e+000 5.107891e+000 -7.261257e+000 2.431318e-001 3.204606e+000 4.031895e-001 -6.187855e-001 -3.698321e-001 -1.056314e+000 -8.191084e-001 -2.477609e+000 -2.290291e+000 -3.559874e-001 1.108423e+000 3.181717e-003 9.420336e-001 6.176141e-001 1.397397e+000
<VARIANCE> 25
 2.036193e+001 1.981236e+001 3.202694e+001 3.217810e+001 1.784656e+001 4.091160e+001 3.409470e+001 2.997511e+001 2.597000e+001 2.575647e+001 1.513997e+001 2.927347e+001 9.919707e+000 3.354640e+000 1.630352e+000 2.264169e+000 2.591596e+000 3.238408e+000 3.191338e+000 2.671839e+000 4.532751e+000 3.171543e+000 1.887776e+000 2.520285e+000 1.839079e+000
<GCONST> 9.892316e+001
<STATE> 4
<MEAN> 25
 1.107319e+000 -2.581646e+000 1.045677e-002 3.650272e+000 -4.459486e+000 -4.851245e+000 -5.928685e+000 -5.900498e+000 7.776993e+000 -1.319775e+000 4.484832e+000 -1.105245e+000 3.137616e+000 -1.412624e+000 -5.685219e-001 -1.309842e+000 6.183898e-001 2.445213e-001 -8.997432e-001 7.783101e-001 -3.504665e-001 1.831658e+000 1.152442e+000 -1.139965e+000 5.278701e-003
<VARIANCE> 25
 1.908937e+001 1.430629e+001 2.075121e+001 2.089866e+001 2.778691e+001 2.771679e+001 2.656628e+001 3.176951e+001 2.776941e+001 2.245905e+001 2.199881e+001 3.832447e+001 2.578309e+000 2.098118e+000 1.747264e+000 1.306942e+000 2.336798e+000 8.162148e+000 4.684061e+000 2.730560e+000 3.495798e+000 2.122493e+000 2.395032e+000 1.690915e+000 8.982978e-001
<GCONST> 9.549295e+001
<TRANSP> 5
 0.000000e+000 1.000000e+000 0.000000e+000 0.000000e+000 0.000000e+000
 0.000000e+000 6.403259e-001 3.596741e-001 0.000000e+000 0.000000e+000
 0.000000e+000 0.000000e+000 5.688761e-001 4.311239e-001 0.000000e+000
 0.000000e+000 0.000000e+000 0.000000e+000 6.347907e-001 3.652093e-001
 0.000000e+000 0.000000e+000 0.000000e+000 0.000000e+000 0.000000e+000
<ENDHMM>
~h "a:"
<BEGINHMM>
<NUMSTATES> 5
<STATE> 2
<MEAN> 25
 3.085365e+000 -8.080431e+000 -6.825331e+000 -2.335715e+000 3.593958e+000 7.348307e-001 6.590899e-001 2.371644e+000 3.433386e+000 1.791914e-001 -3.775968e+000 -3.958262e+000 2.434421e-001 -6.328340e-001 -4.962826e-001 2.262422e-001 7.807412e-001 1.389780e+000 4.357736e-001 2.406135e-002 -9.274089e-002 -5.243450e-001 -4.354541e-001 -9.562149e-001 2.844176e-001
<VARIANCE> 25
 5.046142e+000 6.977191e+000 9.321576e+000 1.280937e+001 1.743845e+001 4.192274e+001 2.202469e+001 2.457851e+001 1.581909e+001 1.797358e+001 2.275347e+001 1.569506e+001 8.514119e-001 8.586059e-001 1.134135e+000 1.429695e+000 1.816182e+000 2.328661e+000 2.068434e+000 2.345784e+000 1.666846e+000 1.804529e+000 2.394649e+000 1.861770e+000 9.031356e-001
<GCONST> 8.439301e+001
<STATE> 3
<MEAN> 25
 3.525025e+000 -8.303761e+000 -8.145620e+000 -6.714391e-001 5.474693e+000 5.424927e+000 1.154570e+000 -4.479485e-001 1.656258e+000 -1.345154e+000 -3.466064e+000 -6.840028e+000 3.615360e-001 4.358025e-001 2.012341e-001 2.247297e-001 -2.815872e-001 -1.627960e-001 -1.485944e-001 2.428120e-001 -2.795864e-001 3.893045e-001 -8.409345e-004 -3.264964e-001 -5.907760e-001
<VARIANCE> 25
 5.973119e+000 8.486238e+000 1.276742e+001 1.874061e+001 2.077603e+001 3.148793e+001 2.007779e+001 2.720070e+001 1.831847e+001 2.044080e+001 2.989634e+001 1.758493e+001 4.416595e-001 8.476831e-001 8.539272e-001 1.201388e+000 1.229988e+000 1.794293e+000 1.431888e+000 1.806736e+000 1.387531e+000 1.489796e+000 1.851412e+000 1.391883e+000 5.370632e-001
<GCONST> 8.216308e+001
<STATE> 4
<MEAN> 25
 5.669656e+000 -2.464215e+000 -5.842920e+000 2.994114e-001 3.083896e+000 2.319074e+000 1.788622e+000 2.661996e+000 2.757981e+000 8.464186e-001 -4.372031e+000 -6.574217e+000 -2.356050e-003 1.993920e+000 8.482548e-001 3.875172e-001 -3.540346e-001 -2.877290e-001 8.966410e-001 1.986500e-001 4.129127e-001 -2.452131e-001 -4.607432e-001 6.100986e-001 -2.214823e+000
<VARIANCE> 25
 8.427914e+000 2.249523e+001 1.734289e+001 2.241799e+001 2.218107e+001 3.814316e+001 3.580598e+001 3.208654e+001 2.999473e+001 2.607056e+001 3.515465e+001 2.297473e+001 1.347185e+000 1.566900e+000 1.349000e+000 1.729052e+000 1.932040e+000 2.172323e+000 2.479490e+000 2.489576e+000 2.496618e+000 2.316141e+000 2.418003e+000 1.993412e+000 1.276880e+000
<GCONST> 9.271858e+001
<TRANSP> 5
 0.000000e+000 1.000000e+000 0.000000e+000 0.000000e+000 0.000000e+000
 0.000000e+000 6.144304e-001 3.855696e-001 0.000000e+000 0.000000e+000
 0.000000e+000 0.000000e+000 7.159203e-001 2.840798e-001 0.000000e+000
 0.000000e+000 0.000000e+000 0.000000e+000 6.451375e-001 3.548624e-001
 0.000000e+000 0.000000e+000 0.000000e+000 0.000000e+000 0.000000e+000
<ENDHMM>
~h "cc"
<BEGINHMM>
<NUMSTATES> 5
<STATE> 2
<MEAN> 25
 -8.494562e+000 7.946696e+000 7.702254e+000 9.385378e-001 -3.844114e+000 4.564151e+000 -2.231454e+000 1.378846e+000 2.900748e+000 -1.280365e+000 -1.889736e+000 3.758248e+000 -3.514571e+000 8.506059e-002 2.224771e-001 -7.295027e-001 -4.510868e-001 2.148300e+000 8.432896e-002 -4.438670e-001 5.146522e-001 -4.210545e-003 3.746679e-002 2.669422e-001 4.268999e-001
<VARIANCE> 25
 3.702957e+001 1.727526e+001 2.306751e+001 3.724870e+001 3.147467e+001 4.475431e+001 2.756696e+001 3.389075e+001 2.944636e+001 2.108122e+001 2.679291e+001 1.903620e+001 1.662748e+000 4.130360e+000 1.980305e+000 1.973546e+000 2.722216e+000 2.486635e+000 3.026968e+000 2.439557e+000 3.005347e+000 2.005789e+000 2.189490e+000 1.686692e+000 2.092285e+000
<GCONST> 9.696233e+001
<STATE> 3
<MEAN> 25
 -1.880616e+001 1.425444e+000 6.355684e+000 3.875752e-001 -6.343819e+000 9.085301e+000 1.207850e+000 -1.071271e-001 1.991355e+000 -1.493816e+000 6.061301e-001 4.794086e+000 -1.850347e-001 -1.832751e+000 -8.576592e-001 3.941842e-001 -7.526126e-001 -7.666490e-001 1.167400e+000 2.981261e-001 -4.687962e-001 -2.406581e-001 6.043776e-001 2.879843e-001 4.194056e-001
<VARIANCE> 25
 7.639245e+000 1.786948e+001 1.476308e+001 2.523405e+001 2.403127e+001 2.478718e+001 2.397953e+001 2.103697e+001 1.881984e+001 1.744869e+001 1.987299e+001 1.511973e+001 3.041235e+000 1.208300e+000 1.287716e+000 1.634619e+000 2.058249e+000 2.847529e+000 2.215056e+000 2.217428e+000 2.044295e+000 1.814590e+000 1.896297e+000 1.376777e+000 9.087310e-001
<GCONST> 8.847689e+001
<STATE> 4
<MEAN> 25
 -1.003345e+001 -2.596366e+000 3.925635e+000 1.876428e+000 -8.733649e+000 1.946474e-001 3.353095e-001 7.548271e-001 -3.523523e-002 -2.922399e+000 1.677127e+000 5.067596e+000 4.381607e+000 -5.837308e-001 -3.406554e-002 1.694600e-001 1.607650e-001 -3.032403e+000 -1.658215e+000 -2.027097e-001 -7.218224e-001 -1.013529e-002 2.288107e-001 -5.149642e-001 4.486723e-001
<VARIANCE> 25
 5.234646e+001 1.437778e+001 1.562865e+001 2.228920e+001 2.289110e+001 4.318273e+001 3.198634e+001 2.266328e+001 2.691483e+001 1.751469e+001 1.639803e+001 1.291577e+001 2.463536e+000 1.692712e+000 2.253039e+000 1.684118e+000 2.732924e+000 3.286674e+000 2.922323e+000 2.532364e+000 3.250433e+000 2.080075e+000 2.084779e+000 1.613607e+000 1.407625e+000
<GCONST> 9.384174e+001
<TRANSP> 5
 0.000000e+000 1.000000e+000 0.000000e+000 0.000000e+000 0.000000e+000
 0.000000e+000 7.331874e-001 2.668127e-001 0.000000e+000 0.000000e+000
 0.000000e+000 0.000000e+000 7.167115e-001 2.832886e-001 0.000000e+000
 0.000000e+000 0.000000e+000 0.000000e+000 6.561034e-001 3.438966e-001
 0.000000e+000 0.000000e+000 0.000000e+000 0.000000e+000 0.000000e+000
<ENDHMM>
~h "e:"
<BEGINHMM>
<NUMSTATES> 5
<STATE> 2
<MEAN> 25
 2.237025e+000 -5.597111e+000 1.807915e+000 3.242645e-001 -6.621556e+000 -8.440435e+000 5.242900e-001 4.888919e+000 2.605390e-001 4.624991e-001 2.880347e+000 9.796969e-001 4.729020e-001 -8.540735e-002 3.955740e-001 -9.730526e-003 -1.388514e-001 1.352237e-001 1.522453e-001 8.906893e-001 -6.382143e-001 4.121143e-001 3.166407e-001 -3.026382e-001 -5.582957e-002
<VARIANCE> 25
 5.843915e+000 7.724956e+000 1.520518e+001 9.039769e+000 1.990938e+001 3.320327e+001 3.036272e+001 1.825759e+001 2.209043e+001 1.301711e+001 2.261869e+001 1.359375e+001 9.279652e-001 9.488706e-001 1.527705e+000 1.073555e+000 2.623158e+000 2.695132e+000 3.143140e+000 2.089754e+000 2.514276e+000 1.785387e+000 2.258210e+000 1.438578e+000 1.235934e+000
<GCONST> 8.597875e+001
<STATE> 3
<MEAN> 25
 3.896697e+000 -4.337463e+000 3.168348e+000 4.661182e-001 -5.957479e+000 -6.069372e+000 -1.429217e+000 6.229835e+000 -2.680833e+000 2.348389e+000 2.230239e+000 -5.290019e-001 3.686504e-001 1.491088e+000 2.142072e-001 6.643049e-001 9.071732e-001 4.154653e-001 1.526163e-001 -9.377299e-002 2.049158e-001 2.535595e-002 -8.086498e-001 -1.452577e-001 -1.752698e+000
<VARIANCE> 25
 7.285168e+000 1.434998e+001 2.222647e+001 1.375160e+001 2.967234e+001 2.866822e+001 3.477515e+001 1.991899e+001 3.184548e+001 2.114693e+001 2.762104e+001 1.630407e+001 7.218421e-001 1.618420e+000 1.233088e+000 1.072424e+000 1.913994e+000 2.071638e+000 2.814611e+000 1.898337e+000 2.623178e+000 1.618868e+000 1.536907e+000 1.804530e+000 1.269876e+000
<GCONST> 8.842130e+001
<STATE> 4
<MEAN> 25
 3.584778e+000 1.147711e+000 3.280471e+000 2.764874e+000 -4.244501e+000 -6.114310e+000 1.456117e+000 5.247420e+000 8.498406e-001 8.614325e-001 2.237999e-001 4.228680e-001 -7.437602e-001 1.827153e+000 -1.739878e-001 4.343595e-001 9.599723e-001 3.160559e-001 9.160251e-001 -8.674958e-001 1.169174e+000 -4.036573e-001 -6.039784e-001 3.713952e-001 -1.860248e+000
<VARIANCE> 25
 9.292603e+000 2.389793e+001 1.920887e+001 1.451286e+001 2.702760e+001 3.046279e+001 3.881206e+001 2.498215e+001 3.562120e+001 2.178980e+001 2.536630e+001 2.089043e+001 1.979985e+000 2.572905e+000 1.516558e+000 1.672627e+000 2.625982e+000 2.400799e+000 3.410895e+000 2.598170e+000 2.839631e+000 2.454014e+000 1.894352e+000 2.201657e+000 1.476318e+000
<GCONST> 9.383874e+001
<TRANSP> 5
 0.000000e+000 1.000000e+000 0.000000e+000 0.000000e+000 0.000000e+000
 0.000000e+000 6.103272e-001 3.896728e-001 0.000000e+000 0.000000e+000
 0.000000e+000 0.000000e+000 4.599304e-001 5.400696e-001 0.000000e+000
 0.000000e+000 0.000000e+000 0.000000e+000 4.331377e-001 5.668623e-001
 0.000000e+000 0.000000e+000 0.000000e+000 0.000000e+000 0.000000e+000
<ENDHMM>
~h "dz"
<BEGINHMM>
<NUMSTATES> 5
<STATE> 2
<MEAN> 25
 -3.898204e+000 6.368197e+000 9.282171e+000 2.159560e+000 -5.073655e+000 1.757430e+000 -3.323267e+000 1.920683e+000 1.858098e+000 -3.302560e+000 -1.523942e+000 4.362126e+000 -2.968730e+000 2.147505e+000 7.113549e-001 1.371298e-001 -8.650317e-001 1.924020e+000 5.339055e-001 -5.420777e-001 1.246741e+000 -6.850669e-001 -5.586582e-001 6.457577e-001 -3.414415e-001
<VARIANCE> 25
 2.593230e+001 2.530682e+001 2.444382e+001 2.403179e+001 2.149437e+001 3.073414e+001 2.735345e+001 3.599440e+001 2.866112e+001 1.337530e+001 1.845176e+001 1.704880e+001 1.609464e+000 2.797795e+000 1.300384e+000 1.827139e+000 2.082753e+000 2.260498e+000 2.698890e+000 1.915635e+000 2.806259e+000 1.950483e+000 2.159041e+000 1.638541e+000 1.231743e+000
<GCONST> 9.262894e+001
<STATE> 3
<MEAN> 25
 -1.211851e+001 6.296417e+000 1.069453e+001 3.962254e+000 -7.779809e+000 5.165227e+000 -5.125904e-001 -1.007587e+000 1.508558e+000 -3.326655e+000 -6.214411e-001 5.400205e+000 3.652079e-001 -1.853793e+000 -6.490192e-001 1.097145e+000 -7.250301e-001 -1.472336e+000 5.470186e-003 -8.163448e-001 -1.365248e+000 -1.978952e-001 8.461101e-001 3.031669e-001 7.725315e-001
<VARIANCE> 25
 1.762570e+001 1.389332e+001 1.915150e+001 2.789729e+001 2.129496e+001 3.237999e+001 2.502701e+001 2.580352e+001 2.456919e+001 1.547142e+001 1.559020e+001 1.269739e+001 5.429394e+000 1.620319e+000 1.649516e+000 2.063169e+000 2.003836e+000 4.225501e+000 2.543061e+000 1.952229e+000 2.231401e+000 1.859544e+000 1.769893e+000 1.287023e+000 3.957157e-001
<GCONST> 9.042048e+001
<STATE> 4
<MEAN> 25
 -2.505072e+000 -8.764293e-001 6.433463e+000 5.721791e+000 -8.244692e+000 -3.786100e+000 -4.393860e+000 -1.947035e+000 -1.567971e+000 -4.213881e+000 2.103761e+000 5.438738e+000 3.311440e+000 -1.933212e+000 -1.406090e+000 -5.413590e-001 1.216941e+000 -1.484943e+000 -1.292344e+000 1.611601e-001 2.696445e-001 5.877950e-001 5.271443e-001 -1.112805e+000 5.359172e-001
<VARIANCE> 25
 1.967593e+001 1.331135e+001 1.318449e+001 3.086291e+001 1.611202e+001 1.878979e+001 2.485788e+001 2.095780e+001 2.573970e+001 1.499715e+001 1.279632e+001 1.089279e+001 1.684382e+000 1.448045e+000 1.435378e+000 1.988115e+000 2.756368e+000 4.029837e+000 5.130908e+000 2.930816e+000 3.072611e+000 2.555692e+000 2.029131e+000 1.769552e+000 5.559836e-001
<GCONST> 9.019585e+001
<TRANSP> 5
 0.000000e+000 1.000000e+000 0.000000e+000 0.000000e+000 0.000000e+000
 0.000000e+000 6.672955e-001 3.327045e-001 0.000000e+000 0.000000e+000
 0.000000e+000 0.000000e+000 6.481653e-001 3.518347e-001 0.000000e+000
 0.000000e+000 0.000000e+000 0.000000e+000 6.119479e-001 3.880521e-001
 0.000000e+000 0.000000e+000 0.000000e+000 0.000000e+000 0.000000e+000
<ENDHMM>
~h "i:"
<BEGINHMM>
<NUMSTATES> 5
<STATE> 2
<MEAN> 25
 -6.373693e-001 -3.026421e-001 1.134539e+001 7.525615e-001 -9.867951e+000 -1.822432e+000 -3.234650e+000 -3.126433e+000 -7.235223e+000 -9.038990e-002 3.833913e+000 -1.739721e-001 1.730289e-001 1.124029e-001 2.238168e+000 -7.450767e-001 -2.058262e+000 9.713462e-001 -7.252487e-001 -7.490263e-001 -1.898069e+000 7.001858e-001 9.885435e-001 -9.238454e-001 1.208366e+000
<VARIANCE> 25
 1.091456e+001 2.131524e+001 2.104417e+001 2.196908e+001 2.223525e+001 5.039484e+001 2.723351e+001 3.100134e+001 2.670867e+001 1.898008e+001 2.687619e+001 1.505311e+001 2.855116e+000 1.866864e+000 2.571966e+000 3.620119e+000 3.042358e+000 3.947191e+000 4.732131e+000 2.851273e+000 3.790062e+000 2.179955e+000 2.659216e+000 2.005111e+000 2.478014e+000
<GCONST> 9.720916e+001
<STATE> 3
<MEAN> 25
 -4.503588e-001 1.347946e+000 1.436792e+001 -2.050815e+000 -1.062972e+001 4.769741e+000 -4.247845e+000 -5.457378e+000 -7.967883e+000 2.244776e+000 2.694503e+000 -2.371495e+000 2.355410e-001 1.972904e-001 -2.002906e-001 3.693008e-001 3.457788e-001 9.663871e-002 1.995419e-001 2.853271e-001 -1.350668e-001 -5.643403e-002 -2.796127e-002 -1.153407e-001 -2.192234e-001
<VARIANCE> 25
 6.315465e+000 1.664748e+001 1.415223e+001 2.691429e+001 2.082423e+001 6.081097e+001 2.011440e+001 2.161319e+001 2.603032e+001 1.657657e+001 3.105466e+001 1.463749e+001 6.990541e-001 1.621733e+000 1.296522e+000 1.851241e+000 1.599434e+000 3.104762e+000 1.944053e+000 2.228655e+000 1.809163e+000 1.459251e+000 1.675115e+000 1.209139e+000 8.721417e-001
<GCONST> 8.755947e+001
<STATE> 4
<MEAN> 25
 8.821390e-001 2.243357e+000 1.092675e+001 3.185527e+000 -7.247150e+000 -1.815035e+000 -1.745086e+000 -1.909604e+000 -7.211039e+000 -7.626798e-001 3.280907e+000 -5.471663e-001 -4.239469e-001 1.073369e+000 -1.528623e+000 9.964554e-001 2.422432e+000 -9.672874e-001 9.243776e-001 3.270755e-001 1.692166e+000 -6.079841e-001 -1.167140e+000 1.060880e+000 -1.125577e+000
<VARIANCE> 25
 1.193002e+001 2.492704e+001 1.710506e+001 1.716606e+001 2.528025e+001 3.955640e+001 3.169884e+001 2.510167e+001 2.929954e+001 1.871024e+001 2.509659e+001 1.808585e+001 2.716288e+000 3.061047e+000 1.828826e+000 2.636194e+000 2.601558e+000 3.745916e+000 3.695295e+000 2.947421e+000 3.029222e+000 2.243354e+000 2.116567e+000 2.469167e+000 1.699257e+000
<GCONST> 9.579166e+001
<TRANSP> 5
 0.000000e+000 1.000000e+000 0.000000e+000 0.000000e+000 0.000000e+000
 0.000000e+000 5.525841e-001 4.474160e-001 0.000000e+000 0.000000e+000
 0.000000e+000 0.000000e+000 6.798021e-001 3.201979e-001 0.000000e+000
 0.000000e+000 0.000000e+000 0.000000e+000 5.788864e-001 4.211135e-001
 0.000000e+000 0.000000e+000 0.000000e+000 0.000000e+000 0.000000e+000
<ENDHMM>
~h "o:"
<BEGINHMM>
<NUMSTATES> 5
<STATE> 2
<MEAN> 25
 5.955348e+000 -8.367670e-001 -7.598668e+000 -1.016288e+001 -3.780829e+000 8.780118e+000 -6.875501e-001 -2.633587e+000 -8.089591e-001 -5.272238e-001 4.148278e+000 -5.947050e-001 9.908127e-001 1.236148e-001 -2.641475e-001 -1.971461e+000 -1.130705e+000 1.859468e+000 4.092115e-001 -1.364883e-001 -3.436300e-001 1.053748e-001 9.260923e-001 -2.922937e-001 1.123619e+000
<VARIANCE> 25
 1.015385e+001 2.759615e+001 1.605190e+001 3.745013e+001 3.922239e+001 3.648018e+001 4.555215e+001 3.161902e+001 3.234634e+001 3.144734e+001 3.007692e+001 2.658156e+001 1.965101e+000 2.237880e+000 2.456979e+000 4.041128e+000 3.260780e+000 3.314443e+000 3.368089e+000 3.050945e+000 2.806901e+000 2.790798e+000 2.553268e+000 2.375577e+000 2.749131e+000
<GCONST> 9.948761e+001
<STATE> 3
<MEAN> 25
 6.266643e+000 -1.691715e+000 -7.251203e+000 -1.127392e+001 -3.931478e+000 1.217574e+001 -5.823742e-002 -3.913172e+000 -1.847831e+000 7.575364e-001 6.224505e+000 -7.053812e-001 2.964526e-002 -2.452060e-001 4.520560e-001 8.688890e-001 8.003415e-001 -4.798184e-001 -7.067440e-001 -4.912847e-002 4.946105e-002 8.446711e-001 2.961427e-001 -5.176080e-001 -1.299910e-002
<VARIANCE> 25
 7.436552e+000 1.610880e+001 1.290626e+001 2.549591e+001 3.197584e+001 2.736443e+001 3.470023e+001 2.449413e+001 2.769939e+001 3.060525e+001 2.777726e+001 2.193973e+001 5.734408e-001 2.006237e+000 1.186472e+000 2.538650e+000 2.538864e+000 2.546175e+000 3.315565e+000 2.138695e+000 2.476916e+000 2.544049e+000 2.193033e+000 2.357791e+000 1.681852e+000
<GCONST> 9.227502e+001
<STATE> 4
<MEAN> 25
 6.332080e+000 -1.152870e+000 -3.881848e+000 -5.790129e+000 5.044141e-001 6.226182e+000 -4.414500e+000 -1.905190e+000 3.797483e-001 3.818986e+000 4.865046e+000 -3.270546e+000 -6.082649e-001 1.136520e+000 1.417059e+000 1.802035e+000 7.118426e-001 -1.886811e+000 4.130687e-001 1.012691e+000 1.061634e+000 -4.579349e-001 -1.464220e+000 2.361105e-001 -1.473190e+000
<VARIANCE> 25
 8.033430e+000 3.267281e+001 1.982467e+001 3.052481e+001 2.842446e+001 3.791143e+001 6.275853e+001 2.928771e+001 3.020573e+001 3.423875e+001 3.311440e+001 2.734215e+001 2.176357e+000 2.743460e+000 1.678384e+000 2.479445e+000 2.908514e+000 3.132074e+000 4.715912e+000 3.155247e+000 3.118949e+000 2.736314e+000 2.336545e+000 2.814039e+000 2.140236e+000
<GCONST> 9.908170e+001
<TRANSP> 5
 0.000000e+000 1.000000e+000 0.000000e+000 0.000000e+000 0.000000e+000
 0.000000e+000 5.824209e-001 4.175790e-001 0.000000e+000 0.000000e+000
 0.000000e+000 0.000000e+000 6.763502e-001 3.236498e-001 0.000000e+000
 0.000000e+000 0.000000e+000 0.000000e+000 5.900392e-001 4.099608e-001
 0.000000e+000 0.000000e+000 0.000000e+000 0.000000e+000 0.000000e+000
<ENDHMM>
~h "r:"
<BEGINHMM>
<NUMSTATES> 5
<STATE> 2
<MEAN> 25
 2.619409e+000 -5.813823e+000 -4.010827e+000 -2.020363e+000 -1.094192e+000 -6.763360e+000 -5.126698e+000 1.098556e+000 3.191792e+000 2.287693e+000 5.662696e-001 -1.347023e+000 2.302054e+000 -2.790529e-001 1.411154e+000 1.149017e+000 -7.056512e-001 -4.135866e-001 -8.647732e-001 1.340481e-001 1.857212e-001 1.076707e+000 1.020393e+000 -1.233254e+000 7.838392e-001
<VARIANCE> 25
 1.075760e+001 1.111140e+001 1.519079e+001 1.102112e+001 1.959009e+001 3.486103e+001 1.914838e+001 1.791066e+001 1.945842e+001 1.609210e+001 1.663695e+001 1.699468e+001 1.741733e+000 2.081712e+000 2.737580e+000 2.131016e+000 2.550157e+000 2.646228e+000 3.691434e+000 2.931070e+000 2.861035e+000 2.206299e+000 2.304523e+000 1.902822e+000 1.721138e+000
<GCONST> 9.081227e+001
<STATE> 3
<MEAN> 25
 4.853571e+000 -6.824021e+000 -1.982489e+000 3.062009e+000 -1.005616e+000 -7.050374e+000 -3.132631e+000 -1.664431e+000 4.069265e+000 4.687716e+000 2.245156e+000 -2.385675e+000 3.922045e-001 7.337054e-002 5.546864e-001 6.413847e-001 -2.212518e-001 2.709239e-001 2.556868e-002 -6.091598e-001 -1.543655e-001 1.238491e-001 2.351374e-001 5.293220e-002 -5.516883e-001
<VARIANCE> 25
 8.890728e+000 1.228589e+001 1.594277e+001 1.781852e+001 1.512214e+001 2.755507e+001 2.468587e+001 2.430576e+001 2.017724e+001 1.829655e+001 1.854391e+001 1.835537e+001 8.641256e-001 1.479310e+000 2.024403e+000 3.456678e+000 1.417807e+000 3.706806e+000 2.566605e+000 2.557363e+000 2.021248e+000 1.857795e+000 2.244373e+000 1.497781e+000 1.340522e+000
<GCONST> 8.902079e+001
<STATE> 4
<MEAN> 25
 5.573820e+000 -2.904821e+000 -1.115363e+000 2.293968e+000 -8.440818e-001 -2.505857e+000 -3.853951e+000 -2.128577e+000 3.008573e+000 3.015101e+000 2.863850e+000 -1.319725e+000 -2.003282e-001 1.876875e+000 5.037916e-001 6.356385e-002 2.059874e-001 1.523407e+000 6.446427e-001 -3.399737e-001 -4.385172e-001 -7.024869e-001 -5.953411e-002 4.870902e-001 -1.554444e+000
<VARIANCE> 25
 1.786079e+001 2.740182e+001 2.742552e+001 2.105401e+001 2.136989e+001 3.019973e+001 2.790714e+001 3.306704e+001 3.496955e+001 2.239264e+001 2.666056e+001 2.282445e+001 1.713994e+000 2.045239e+000 1.685539e+000 2.197889e+000 1.995952e+000 3.569727e+000 2.485045e+000 2.653803e+000 3.432106e+000 1.785766e+000 3.069339e+000 1.753390e+000 1.143326e+000
<GCONST> 9.491397e+001
<TRANSP> 5
 0.000000e+000 1.000000e+000 0.000000e+000 0.000000e+000 0.000000e+000
 0.000000e+000 3.525820e-001 6.474180e-001 0.000000e+000 0.000000e+000
 0.000000e+000 0.000000e+000 6.510690e-001 3.489310e-001 0.000000e+000
 0.000000e+000 0.000000e+000 0.000000e+000 5.046605e-001 4.953395e-001
 0.000000e+000 0.000000e+000 0.000000e+000 0.000000e+000 0.000000e+000
<ENDHMM>
~h "u:"
<BEGINHMM>
<NUMSTATES> 5
<STATE> 2
<MEAN> 25
 5.001620e+000 1.157391e+000 -2.594035e+000 -5.328291e+000 -2.417099e+000 5.494961e+000 -9.247407e+000 -6.603445e+000 -1.631556e+000 -7.984193e-001 6.333699e+000 -9.910853e-001 2.004924e+000 1.210706e+000 -6.973473e-002 -2.859175e+000 -1.106510e+000 2.390162e+000 1.033137e-002 -8.915651e-001 -1.557542e+000 -5.608947e-001 1.557305e+000 -3.832845e-001 3.848256e-001
<VARIANCE> 25
 1.434120e+001 3.188168e+001 1.924863e+001 4.684099e+001 2.928459e+001 4.542345e+001 5.968325e+001 4.202550e+001 3.263159e+001 3.106173e+001 4.164053e+001 2.687058e+001 3.157813e+000 2.711486e+000 3.651694e+000 3.436656e+000 4.719648e+000 3.574167e+000 6.120878e+000 5.989133e+000 5.756125e+000 3.945108e+000 4.055455e+000 3.193068e+000 2.137152e+000
<GCONST> 1.053855e+002
<STATE> 3
<MEAN> 25
 7.765202e+000 5.195271e+000 -1.771923e+000 -1.159302e+001 -6.644549e+000 1.034894e+001 -3.807168e+000 -3.268917e+000 -3.275074e+000 -5.296667e+000 4.555984e+000 -1.083001e+000 1.100625e-001 -5.833067e-002 7.793012e-002 3.856230e-001 9.549002e-002 4.985233e-001 3.947803e-001 -1.979823e-001 6.687843e-003 -7.247458e-002 -2.734411e-002 -5.175462e-002 -1.022286e-001
<VARIANCE> 25
 6.362641e+000 2.657570e+001 1.472059e+001 3.260675e+001 2.894619e+001 4.160917e+001 3.794737e+001 4.046465e+001 3.777920e+001 2.869941e+001 4.677866e+001 2.915299e+001 5.102637e-001 2.936256e+000 1.354880e+000 4.181618e+000 3.315006e+000 3.391004e+000 4.718448e+000 4.410695e+000 3.035702e+000 3.641846e+000 4.597666e+000 2.641124e+000 1.487483e+000
<GCONST> 9.877873e+001
<STATE> 4
<MEAN> 25
 6.630853e+000 2.391291e+000 -7.038398e-001 -3.638160e+000 -1.267075e+000 8.358090e+000 -6.236310e+000 -7.298948e+000 -8.797024e-001 -1.016901e+000 5.669326e+000 -8.107433e-001 -8.672797e-001 3.043973e-001 6.660663e-001 2.605460e+000 1.368993e+000 -2.260718e+000 1.128081e+000 5.629386e-001 1.347269e+000 5.380912e-001 -1.863765e+000 4.900785e-001 -1.144703e+000
<VARIANCE> 25
 9.146253e+000 3.757130e+001 2.433150e+001 3.614385e+001 3.038721e+001 4.000364e+001 7.975813e+001 4.852810e+001 3.328859e+001 3.273326e+001 4.887544e+001 3.269244e+001 1.709699e+000 3.111289e+000 1.806734e+000 3.561476e+000 4.077237e+000 3.973586e+000 5.907698e+000 4.623806e+000 4.231933e+000 3.781072e+000 3.492327e+000 2.979617e+000 2.131122e+000
<GCONST> 1.037972e+002
<TRANSP> 5
 0.000000e+000 1.000000e+000 0.000000e+000 0.000000e+000 0.000000e+000
 0.000000e+000 5.468295e-001 4.531705e-001 0.000000e+000 0.000000e+000
 0.000000e+000 0.000000e+000 7.343865e-001 2.656135e-001 0.000000e+000
 0.000000e+000 0.000000e+000 0.000000e+000 5.824964e-001 4.175036e-001
 0.000000e+000 0.000000e+000 0.000000e+000 0.000000e+000 0.000000e+000
<ENDHMM>
~h "uzdah"
<BEGINHMM>
<NUMSTATES> 3
<STATE> 2
~s "silst"
<TRANSP> 3
 0.000000e+000 1.333936e-001 8.666065e-001
 0.000000e+000 8.411903e-001 1.588097e-001
 0.000000e+000 0.000000e+000 0.000000e+000
<ENDHMM>
~h "sil"
<BEGINHMM>
<NUMSTATES> 5
<STATE> 2
<MEAN> 25
 -2.135002e+000 2.311558e+000 -1.765422e+000 2.156322e+000 2.198708e+000 2.127977e+000 5.326510e+000 8.013946e-001 3.542510e+000 -2.270432e+000 -2.145614e+000 1.952920e+000 -2.774227e-001 2.344788e-002 -1.841692e-002 -1.770751e-002 4.442370e-002 7.836816e-003 -2.575064e-002 3.158704e-002 1.312048e-001 2.798069e-002 2.315250e-001 2.192990e-001 -3.243859e-001
<VARIANCE> 25
 1.451573e+001 2.428765e+001 1.892388e+001 1.583712e+001 2.193900e+001 2.129311e+001 2.404076e+001 2.652593e+001 2.415624e+001 2.122138e+001 2.348041e+001 2.081822e+001 7.568766e-001 1.644040e+000 1.168252e+000 1.193004e+000 1.585695e+000 1.778182e+000 1.904132e+000 2.071649e+000 2.037542e+000 1.900283e+000 1.819110e+000 1.699761e+000 1.144861e+000
<GCONST> 8.812842e+001
<STATE> 3
<MEAN> 25
