~o
<STREAMINFO> 1 25
<VECSIZE> 25<NULLD><MFCC_D_N_Z_0><DIAGC>
~h "C"
<BEGINHMM>
<NUMSTATES> 5
<STATE> 2
<MEAN> 25
 -8.057413e+000 -3.549364e-001 1.259668e+000 4.258796e+000 -3.795348e+000 2.600069e+000 1.671078e+000 -7.688531e-001 5.828659e+000 -2.872885e+000 -4.004579e-001 2.990668e+000 -3.188910e+000 -6.019886e-001 -5.866529e-001 1.436786e-001 -3.866216e-001 2.233238e-001 -4.273714e-001 -1.057402e-001 8.320187e-001 -9.047155e-001 8.314011e-002 7.765232e-001 1.563577e+000
<VARIANCE> 25
 7.758601e+001 3.903525e+001 2.820888e+001 2.595568e+001 2.924272e+001 3.686240e+001 3.708543e+001 4.159322e+001 3.610314e+001 2.962228e+001 2.887646e+001 2.574547e+001 7.821999e+000 4.948491e+000 2.981521e+000 2.117148e+000 3.670198e+000 4.488513e+000 4.489502e+000 5.155529e+000 4.490015e+000 3.300354e+000 3.070513e+000 2.887538e+000 5.429408e+000
<GCONST> 1.064810e+002
<STATE> 3
<MEAN> 25
 -1.362666e+001 -6.088200e-001 1.946471e-001 4.150091e+000 -3.431088e+000 1.671445e+000 -5.097889e-001 2.542379e-002 7.707809e+000 -5.104710e+000 -7.559600e-002 3.995506e+000 -1.228048e-001 -1.690249e-001 -1.747122e-001 -1.894726e-001 1.885407e-001 -7.970976e-001 -8.408808e-001 3.277179e-001 7.478991e-002 -4.631186e-001 2.341325e-001 -5.844211e-002 4.431150e-001
<VARIANCE> 25
 4.660795e+001 2.652450e+001 2.378124e+001 2.347940e+001 3.043814e+001 3.957235e+001 3.934423e+001 4.979370e+001 4.709760e+001 3.375759e+001 2.764109e+001 2.709827e+001 1.448757e+001 3.324794e+000 2.529586e+000 1.961607e+000 3.073807e+000 4.431890e+000 3.834861e+000 5.252965e+000 6.005353e+000 3.893320e+000 2.679498e+000 3.004579e+000 4.089544e+000
<GCONST> 1.057934e+002
<STATE> 4
<MEAN> 25
 -8.666047e+000 -1.122025e+000 3.053655e-001 3.299313e+000 -2.988099e+000 -8.744848e-001 -2.285466e+000 5.888338e-002 5.754497e+000 -4.910505e+000 8.205045e-001 2.518741e+000 3.000510e+000 -3.985676e-001 1.604339e-001 -5.700559e-001 4.558231e-002 -8.728979e-001 -3.512405e-001 -8.703174e-002 -1.398056e+000 7.448831e-001 4.945043e-001 -8.009046e-001 1.600330e-001
<VARIANCE> 25
 6.979711e+001 2.036838e+001 2.590424e+001 2.274335e+001 3.459589e+001 4.443417e+001 3.537446e+001 5.503309e+001 5.869257e+001 3.095276e+001 2.823966e+001 2.616868e+001 7.558401e+000 2.712707e+000 2.374608e+000 2.183839e+000 2.709093e+000 4.436580e+000 3.761931e+000 4.353002e+000 5.137673e+000 3.916653e+000 2.695414e+000 2.554469e+000 2.784210e+000
<GCONST> 1.045109e+002
<TRANSP> 5
 0.000000e+000 1.000000e+000 0.000000e+000 0.000000e+000 0.000000e+000
 0.000000e+000 6.523365e-001 3.476635e-001 0.000000e+000 0.000000e+000
 0.000000e+000 0.000000e+000 6.237363e-001 3.762637e-001 0.000000e+000
 0.000000e+000 0.000000e+000 0.000000e+000 6.643329e-001 3.356671e-001
 0.000000e+000 0.000000e+000 0.000000e+000 0.000000e+000 0.000000e+000
<ENDHMM>
~h "L"
<BEGINHMM>
<NUMSTATES> 5
<STATE> 2
<MEAN> 25
 1.945007e+000 -1.218779e+000 7.703353e+000 1.946280e+000 -3.944939e+000 -4.402737e+000 -3.052777e+000 1.038735e+000 -3.816665e+000 -1.442393e+000 1.344848e+000 2.330366e+000 -9.646932e-002 2.500483e-001 1.167082e+000 2.936187e-002 -5.412803e-001 -1.041051e-002 -8.066623e-002 1.033524e-001 -8.624688e-001 -3.143673e-001 1.820065e-001 2.267573e-001 1.682355e-002
<VARIANCE> 25
 1.256903e+001 2.183570e+001 2.476030e+001 2.149782e+001 2.285342e+001 2.584577e+001 3.375360e+001 2.776695e+001 3.108764e+001 2.132592e+001 2.456924e+001 1.595511e+001 1.406619e+000 2.221766e+000 3.327166e+000 2.413825e+000 2.527382e+000 2.611438e+000 3.527225e+000 3.151908e+000 3.382816e+000 2.379042e+000 2.265896e+000 1.873105e+000 1.854355e+000
<GCONST> 9.519803e+001
<STATE> 3
<MEAN> 25
 1.597048e+000 -7.234994e-001 8.811535e+000 1.606976e+000 -4.811511e+000 -3.794614e+000 -3.175972e+000 1.116718e+000 -4.758628e+000 -1.537846e+000 1.875965e+000 2.561846e+000 -2.182740e-002 -8.960628e-003 -1.717886e-002 -2.080369e-001 -3.191468e-001 2.283202e-001 -1.572673e-001 1.888388e-001 -8.537344e-002 1.189766e-001 2.602168e-001 -6.049379e-003 2.598197e-001
<VARIANCE> 25
 9.261042e+000 1.995163e+001 2.188819e+001 2.154274e+001 2.323687e+001 2.556505e+001 3.345486e+001 2.663832e+001 2.624163e+001 2.133376e+001 2.366937e+001 1.638040e+001 1.125985e+000 2.078735e+000 3.126271e+000 2.067798e+000 2.504761e+000 2.190917e+000 3.627933e+000 2.911967e+000 3.140717e+000 2.090757e+000 2.101914e+000 1.990446e+000 1.610903e+000
<GCONST> 9.335619e+001
<STATE> 4
<MEAN> 25
 1.622044e+000 -7.974780e-001 7.456269e+000 1.175416e+000 -5.152621e+000 -3.153119e+000 -3.118560e+000 1.635042e+000 -3.965833e+000 -8.284850e-001 2.280236e+000 2.270207e+000 1.818273e-001 -8.176635e-002 -9.285994e-001 -1.377717e-001 2.413890e-001 3.944439e-001 -2.004911e-002 1.592391e-001 4.086928e-001 3.132249e-001 2.574774e-002 -3.843846e-001 5.827772e-002
<VARIANCE> 25
 8.577444e+000 2.288063e+001 2.783944e+001 2.163090e+001 2.553986e+001 2.728692e+001 4.310532e+001 2.979943e+001 2.623075e+001 2.100786e+001 2.334010e+001 1.834867e+001 9.511876e-001 1.997169e+000 2.611762e+000 1.912434e+000 2.758848e+000 2.396423e+000 3.681343e+000 3.035534e+000 2.558468e+000 2.084317e+000 2.508054e+000 2.102782e+000 1.598653e+000
<GCONST> 9.406160e+001
<TRANSP> 5
 0.000000e+000 1.000000e+000 0.000000e+000 0.000000e+000 0.000000e+000
 0.000000e+000 5.455949e-001 4.544051e-001 0.000000e+000 0.000000e+000
 0.000000e+000 0.000000e+000 5.365811e-001 4.634189e-001 0.000000e+000
 0.000000e+000 0.000000e+000 0.000000e+000 6.144320e-001 3.855680e-001
 0.000000e+000 0.000000e+000 0.000000e+000 0.000000e+000 0.000000e+000
<ENDHMM>
~h "N"
<BEGINHMM>
<NUMSTATES> 5
<STATE> 2
<MEAN> 25
 2.442573e+000 1.144458e+000 5.517022e+000 -2.267037e-001 -1.065340e+000 3.379190e+000 1.769540e+000 3.910659e-001 -5.022932e+000 -1.582970e+000 -3.390675e+000 -1.087994e+000 2.200833e-001 5.958592e-001 8.106121e-001 -2.485150e-001 -1.439370e-001 5.143203e-001 4.745713e-002 -1.800264e-001 -5.784001e-001 1.486116e-001 -1.660697e-001 -1.303184e-001 -1.944661e-001
<VARIANCE> 25
 1.572163e+001 3.152839e+001 2.608569e+001 2.540066e+001 2.742861e+001 3.038973e+001 3.251203e+001 3.287714e+001 2.403758e+001 2.273158e+001 2.397850e+001 1.610031e+001 1.946806e+000 3.214013e+000 2.448436e+000 2.696788e+000 2.920803e+000 3.004884e+000 2.948121e+000 3.238354e+000 2.785010e+000 1.976003e+000 1.864843e+000 1.593690e+000 2.664427e+000
<GCONST> 9.653256e+001
<STATE> 3
<MEAN> 25
 2.343205e+000 2.169182e+000 6.962181e+000 -7.919455e-001 -1.527821e+000 4.379432e+000 1.911430e+000 -6.767421e-003 -5.622788e+000 -9.304096e-001 -3.432316e+000 -1.326962e+000 -4.206961e-002 5.495654e-002 3.375817e-001 -1.072557e-001 -2.188084e-001 1.735092e-001 2.177233e-001 6.916400e-002 -1.043597e-001 1.497415e-001 5.350493e-002 -1.295611e-001 5.722211e-002
<VARIANCE> 25
 1.400717e+001 2.812059e+001 2.334371e+001 2.504398e+001 2.637031e+001 2.928146e+001 3.000863e+001 2.864349e+001 2.162970e+001 2.231296e+001 2.250805e+001 1.525885e+001 1.556651e+000 3.269816e+000 2.556235e+000 2.901954e+000 2.991832e+000 3.030832e+000 2.902872e+000 3.103638e+000 2.517575e+000 2.082291e+000 1.831012e+000 1.393068e+000 2.482447e+000
<GCONST> 9.525441e+001
<STATE> 4
<MEAN> 25
 1.746754e+000 1.600960e+000 6.959353e+000 -7.277015e-001 -2.051476e+000 4.427272e+000 3.233114e+000 5.865635e-001 -5.086079e+000 -6.910926e-001 -3.391209e+000 -1.569322e+000 -3.791708e-002 -2.689767e-001 -3.040193e-001 2.645203e-001 2.299088e-002 -2.932758e-001 2.379405e-001 3.163224e-001 3.652288e-001 -1.207949e-002 9.030876e-002 -7.501499e-002 -1.059293e-001
<VARIANCE> 25
 1.280555e+001 3.047628e+001 2.660424e+001 2.593496e+001 2.752427e+001 2.956616e+001 3.234631e+001 2.952731e+001 2.556851e+001 2.514958e+001 2.447512e+001 1.553626e+001 1.287829e+000 2.701520e+000 2.530259e+000 2.740349e+000 3.146567e+000 2.846956e+000 2.840257e+000 2.816515e+000 2.522204e+000 2.239347e+000 1.884915e+000 1.385236e+000 2.271165e+000
<GCONST> 9.538747e+001
<TRANSP> 5
 0.000000e+000 1.000000e+000 0.000000e+000 0.000000e+000 0.000000e+000
 0.000000e+000 6.020921e-001 3.979079e-001 0.000000e+000 0.000000e+000
 0.000000e+000 0.000000e+000 6.102600e-001 3.897401e-001 0.000000e+000
 0.000000e+000 0.000000e+000 0.000000e+000 7.283430e-001 2.716570e-001
 0.000000e+000 0.000000e+000 0.000000e+000 0.000000e+000 0.000000e+000
<ENDHMM>
~h "S"
<BEGINHMM>
<NUMSTATES> 5
<STATE> 2
<MEAN> 25
 -1.122974e+001 -2.208425e+000 4.734852e+000 7.019279e+000 -2.338775e-001 1.041030e+000 -2.706262e-001 -2.492796e+000 9.298997e+000 -1.253306e+000 -1.762250e+000 1.168496e+000 -2.798681e+000 -1.731038e-001 1.218526e-001 4.730314e-001 3.634117e-001 2.856235e-001 2.014562e-001 -1.993425e-001 1.752252e+000 -8.115380e-002 -7.310902e-001 6.972025e-002 3.231069e-001
<VARIANCE> 25
 5.710008e+001 2.241100e+001 2.589133e+001 2.574422e+001 3.674990e+001 3.588033e+001 4.236699e+001 4.441007e+001 4.150088e+001 3.566851e+001 4.406844e+001 3.851432e+001 6.003155e+000 2.328695e+000 2.616447e+000 2.967474e+000 3.136180e+000 3.589285e+000 3.248820e+000 3.348240e+000 5.191196e+000 2.750723e+000 3.349873e+000 3.178702e+000 1.452700e+000
<GCONST> 1.039568e+002
<STATE> 3
<MEAN> 25
 -1.502925e+001 -2.826262e+000 3.725344e+000 5.995522e+000 -4.610953e-002 1.927788e+000 -6.535599e-001 -2.690271e+000 1.136395e+001 -1.368944e+000 -2.741554e+000 1.160155e+000 1.488456e-002 -8.329758e-002 -4.688056e-001 -5.689519e-001 -7.207293e-002 5.105782e-002 -3.147519e-001 8.024023e-002 8.210691e-003 -1.336871e-001 -5.603218e-005 9.219762e-002 -4.449014e-001
<VARIANCE> 25
 3.059293e+001 2.637016e+001 1.964312e+001 2.364091e+001 3.072339e+001 3.669914e+001 4.271044e+001 4.438871e+001 3.615865e+001 3.642569e+001 4.007695e+001 3.595126e+001 9.231711e+000 1.778857e+000 1.731334e+000 1.948777e+000 2.522570e+000 3.514436e+000 3.066893e+000 3.560236e+000 4.892443e+000 2.703656e+000 3.227619e+000 2.763749e+000 1.545081e+000
<GCONST> 1.016051e+002
<STATE> 4
<MEAN> 25
 -1.036172e+001 -2.863342e+000 1.950421e+000 3.520062e+000 -8.948919e-001 9.717149e-001 -1.834223e+000 -2.302835e+000 9.010065e+000 -1.798903e+000 -1.459832e+000 1.437799e+000 2.558960e+000 6.899232e-002 -4.166161e-001 -9.166342e-001 -4.106282e-001 -6.364769e-001 -1.638454e-001 2.379141e-001 -1.477367e+000 8.632178e-002 7.829956e-001 -1.780033e-001 -3.860272e-001
<VARIANCE> 25
 7.087676e+001 2.990061e+001 2.274795e+001 2.457365e+001 3.543539e+001 4.427126e+001 4.121280e+001 4.762629e+001 4.779552e+001 3.344735e+001 3.734082e+001 2.984331e+001 7.322862e+000 1.864974e+000 2.082860e+000 1.892566e+000 2.614938e+000 4.415193e+000 3.346763e+000 3.633414e+000 4.759124e+000 3.061195e+000 3.584392e+000 2.786838e+000 2.620738e+000
<GCONST> 1.041392e+002
<TRANSP> 5
 0.000000e+000 1.000000e+000 0.000000e+000 0.000000e+000 0.000000e+000
 0.000000e+000 7.146277e-001 2.853724e-001 0.000000e+000 0.000000e+000
 0.000000e+000 0.000000e+000 6.643809e-001 3.356191e-001 0.000000e+000
 0.000000e+000 0.000000e+000 0.000000e+000 7.058336e-001 2.941664e-001
 0.000000e+000 0.000000e+000 0.000000e+000 0.000000e+000 0.000000e+000
<ENDHMM>
~h "Z"
<BEGINHMM>
<NUMSTATES> 5
<STATE> 2
<MEAN> 25
 -4.248436e+000 3.227987e-001 3.353752e+000 2.878097e+000 -1.423027e-001 -1.464939e+000 -2.892864e-001 -1.029423e+001 6.082007e+000 1.451623e+000 1.913072e+000 6.774441e-001 -2.048343e+000 8.498756e-001 8.894194e-001 6.413132e-001 3.717805e-001 -4.647287e-001 8.167672e-001 -7.477803e-001 1.117386e+000 -2.402700e-001 -6.241186e-001 8.622493e-002 1.239302e-001
<VARIANCE> 25
 5.175547e+001 1.744373e+001 3.124156e+001 2.387904e+001 5.091148e+001 4.206895e+001 3.862461e+001 5.528082e+001 4.796687e+001 2.468475e+001 3.707994e+001 2.991933e+001 5.164618e+000 2.225886e+000 2.823518e+000 2.289678e+000 4.735315e+000 6.927484e+000 5.006207e+000 4.214703e+000 3.995978e+000 2.499155e+000 2.707141e+000 2.719036e+000 6.636038e-001
<GCONST> 1.035267e+002
<STATE> 3
<MEAN> 25
 -7.560168e+000 1.483519e+000 4.598977e+000 3.579064e+000 -2.598221e-001 -1.231343e+000 1.189938e-001 -1.049940e+001 7.709998e+000 3.387294e-001 6.589221e-001 4.324805e-001 -5.157501e-002 4.132336e-002 -1.011720e-001 2.666145e-002 -1.756142e-001 2.126629e-001 -3.275961e-001 2.729343e-001 1.365353e-001 -4.233678e-001 -3.337376e-001 -2.262981e-002 -1.267910e-001
<VARIANCE> 25
 3.971125e+001 1.606248e+001 2.755483e+001 2.118688e+001 4.634399e+001 4.077857e+001 4.002362e+001 4.546471e+001 4.334573e+001 2.490854e+001 3.534829e+001 2.669894e+001 8.541899e+000 2.411629e+000 3.316791e+000 2.103018e+000 3.030739e+000 4.096237e+000 4.317152e+000 3.897875e+000 4.026171e+000 2.306163e+000 2.855481e+000 2.631005e+000 6.969783e-001
<GCONST> 1.018531e+002
<STATE> 4
<MEAN> 25
 -4.228731e+000 2.711664e-001 2.739674e+000 2.953182e+000 -1.045538e+000 -4.747524e-001 -1.831169e+000 -8.760466e+000 6.646484e+000 -4.200477e-001 3.222343e-001 3.858777e-001 1.886262e+000 -6.919305e-001 -7.950169e-001 -3.512704e-001 -2.302821e-001 1.309727e-001 -5.859929e-001 1.260608e+000 -8.983958e-001 -1.465578e-001 4.300737e-002 -1.395528e-001 -2.024280e-001
<VARIANCE> 25
 5.306464e+001 2.342337e+001 3.306996e+001 2.249574e+001 3.582607e+001 3.594673e+001 4.300390e+001 4.862272e+001 4.166275e+001 2.495641e+001 3.163779e+001 2.558203e+001 5.459799e+000 2.423750e+000 2.792511e+000 1.811086e+000 2.528473e+000 4.214808e+000 3.637709e+000 4.163764e+000 3.639057e+000 2.434371e+000 3.420784e+000 2.599302e+000 9.545395e-001
<GCONST> 1.017408e+002
<TRANSP> 5
 0.000000e+000 1.000000e+000 0.000000e+000 0.000000e+000 0.000000e+000
 0.000000e+000 6.257700e-001 3.742299e-001 0.000000e+000 0.000000e+000
 0.000000e+000 0.000000e+000 6.017339e-001 3.982660e-001 0.000000e+000
 0.000000e+000 0.000000e+000 0.000000e+000 6.601439e-001 3.398560e-001
 0.000000e+000 0.000000e+000 0.000000e+000 0.000000e+000 0.000000e+000
<ENDHMM>
~h "a"
<BEGINHMM>
<NUMSTATES> 5
<STATE> 2
<MEAN> 25
 3.863742e+000 -4.974174e+000 -4.633862e+000 -7.924992e-001 2.529953e+000 -7.194838e-001 -5.549731e-001 3.133838e+000 1.951318e+000 1.476979e+000 -3.368152e+000 -3.858211e+000 4.893264e-001 5.651045e-002 -1.145555e-002 1.527648e-001 2.106785e-001 3.236453e-001 3.818401e-001 4.815691e-001 1.129934e-001 -3.990246e-003 -4.608081e-001 -4.667470e-001 -1.349936e-001
<VARIANCE> 25
 1.363487e+001 2.281224e+001 2.002240e+001 2.045843e+001 2.547843e+001 4.623565e+001 3.278148e+001 2.889235e+001 2.588620e+001 2.490529e+001 3.182804e+001 2.640124e+001 2.215060e+000 3.063444e+000 1.754896e+000 1.959294e+000 2.177116e+000 3.118078e+000 2.844765e+000 2.952452e+000 2.515648e+000 2.285104e+000 2.646364e+000 2.559591e+000 3.326179e+000
<GCONST> 9.688662e+001
<STATE> 3
<MEAN> 25
 4.247962e+000 -3.934199e+000 -4.298930e+000 -2.142783e-001 2.820715e+000 -7.573663e-002 4.850565e-001 3.506951e+000 2.166290e+000 1.287608e+000 -3.962618e+000 -4.261024e+000 7.435544e-002 7.499537e-001 3.517946e-001 3.018954e-001 2.672024e-002 2.456999e-001 5.553023e-001 3.064358e-002 7.324100e-002 -1.120086e-001 -1.590589e-001 -2.117853e-002 -8.875561e-001
<VARIANCE> 25
 1.250978e+001 2.855480e+001 2.118244e+001 2.115648e+001 2.562753e+001 4.334007e+001 3.481971e+001 3.015895e+001 2.926292e+001 2.613192e+001 3.408384e+001 2.638521e+001 1.704260e+000 2.810477e+000 1.621986e+000 1.805360e+000 2.126928e+000 2.810950e+000 2.629281e+000 2.839735e+000 2.651616e+000 2.179847e+000 2.529989e+000 2.425615e+000 2.823385e+000
<GCONST> 9.638708e+001
<STATE> 4
<MEAN> 25
 3.732643e+000 -1.787141e+000 -3.530449e+000 3.719903e-001 2.629056e+000 3.832023e-001 1.956261e+000 3.199539e+000 2.583183e+000 8.235186e-001 -4.264892e+000 -3.754346e+000 -4.189050e-001 9.436771e-001 5.275476e-001 2.315427e-001 -2.070630e-001 7.393363e-002 4.671710e-001 -3.738154e-001 -2.241079e-002 -1.656142e-001 1.433621e-001 4.467307e-001 -9.872364e-001
<VARIANCE> 25
 1.820203e+001 3.450267e+001 2.353815e+001 2.288623e+001 2.707315e+001 4.210996e+001 3.744309e+001 3.405200e+001 3.545378e+001 2.775586e+001 3.665771e+001 2.950927e+001 2.098841e+000 2.803985e+000 1.668699e+000 1.926421e+000 2.179620e+000 2.557718e+000 2.729541e+000 2.922028e+000 2.856142e+000 2.240366e+000 2.507779e+000 2.354654e+000 2.378355e+000
<GCONST> 9.797932e+001
<TRANSP> 5
 0.000000e+000 1.000000e+000 0.000000e+000 0.000000e+000 0.000000e+000
 0.000000e+000 4.228379e-001 5.771621e-001 0.000000e+000 0.000000e+000
 0.000000e+000 0.000000e+000 4.269606e-001 5.730394e-001 0.000000e+000
 0.000000e+000 0.000000e+000 0.000000e+000 5.303915e-001 4.696085e-001
 0.000000e+000 0.000000e+000 0.000000e+000 0.000000e+000 0.000000e+000
<ENDHMM>
~h "b"
<BEGINHMM>
<NUMSTATES> 5
<STATE> 2
<MEAN> 25
 5.586628e+000 6.016266e+000 -2.796038e-001 -3.627915e-001 1.039571e+000 3.344220e+000 9.579090e-001 -3.291634e+000 2.476973e-002 -2.013681e+000 -5.520140e-001 -3.025561e-001 -2.470501e-001 -1.365540e-001 -1.806165e-004 4.169214e-001 1.929582e-001 -1.903865e-001 -1.234321e-001 -2.344719e-001 1.452519e-002 -1.632023e-001 -1.779987e-001 4.635735e-002 7.652736e-002
<VARIANCE> 25
 1.968911e+001 3.695985e+001 2.684471e+001 4.636347e+001 3.139839e+001 4.302710e+001 3.594622e+001 2.793544e+001 2.837936e+001 2.847346e+001 3.119937e+001 2.125632e+001 2.250089e+000 6.244392e+000 2.927489e+000 4.104787e+000 3.094598e+000 3.853041e+000 4.412501e+000 3.009480e+000 3.328082e+000 3.135043e+000 3.724558e+000 2.141872e+000 5.890561e+000
<GCONST> 1.033643e+002
<STATE> 3
<MEAN> 25
 4.732859e+000 4.565743e+000 -5.635959e-001 3.511176e-001 1.265445e+000 2.669782e+000 1.330451e-001 -3.444335e+000 2.067349e-001 -1.818941e+000 -5.532250e-001 -3.176615e-001 -5.158541e-001 -1.452107e+000 -1.905700e-001 -8.201897e-003 -4.180362e-001 -4.292179e-001 -8.542327e-001 5.592878e-004 -1.345866e-001 3.853582e-001 4.544147e-001 -2.927715e-003 1.393293e+000
<VARIANCE> 25
 1.934710e+001 4.644229e+001 2.887602e+001 4.341001e+001 3.013119e+001 4.204834e+001 3.876420e+001 2.726888e+001 2.897471e+001 2.985902e+001 3.145354e+001 1.945818e+001 2.179972e+000 6.082684e+000 3.784103e+000 5.085782e+000 4.053197e+000 4.659890e+000 4.590492e+000 3.460588e+000 4.043388e+000 3.635224e+000 4.399548e+000 2.323165e+000 5.335627e+000
<GCONST> 1.051012e+002
<STATE> 4
<MEAN> 25
 3.794641e+000 1.063078e+000 -1.015633e+000 1.439697e-001 8.089862e-002 1.514200e+000 -1.919424e+000 -3.150695e+000 1.614836e-003 -6.537104e-001 6.507710e-001 -4.553139e-001 -3.572338e-001 -1.813078e+000 5.582133e-002 -4.791462e-001 -1.075412e+000 -3.935231e-001 -1.012424e+000 2.266249e-001 -4.304645e-001 6.810989e-001 9.009253e-001 -6.548675e-002 1.942933e+000
<VARIANCE> 25
 1.848776e+001 4.891632e+001 4.038075e+001 4.801783e+001 3.470714e+001 5.075355e+001 4.105819e+001 2.996439e+001 3.414957e+001 3.354487e+001 3.648263e+001 1.947004e+001 2.135883e+000 4.899197e+000 4.420063e+000 5.410706e+000 4.847948e+000 5.020278e+000 4.587792e+000 3.922512e+000 4.948495e+000 3.715634e+000 4.455686e+000 2.561830e+000 3.987060e+000
<GCONST> 1.068566e+002
<TRANSP> 5
 0.000000e+000 1.000000e+000 0.000000e+000 0.000000e+000 0.000000e+000
 0.000000e+000 4.198701e-001 5.801299e-001 0.000000e+000 0.000000e+000
 0.000000e+000 0.000000e+000 4.011105e-001 5.988895e-001 0.000000e+000
 0.000000e+000 0.000000e+000 0.000000e+000 4.504096e-001 5.495904e-001
 0.000000e+000 0.000000e+000 0.000000e+000 0.000000e+000 0.000000e+000
<ENDHMM>
~h "c"
<BEGINHMM>
<NUMSTATES> 5
<STATE> 2
<MEAN> 25
 -1.070352e+001 8.764882e+000 -3.754794e+000 3.292250e+000 3.411332e+000 -3.520733e+000 6.820979e+000 -2.431929e-001 3.223589e+000 -1.891099e+000 -1.016952e+000 3.969918e+000 -2.694332e+000 1.508760e-001 -1.074450e+000 -6.838034e-001 8.507701e-001 -4.327973e-001 6.872311e-001 2.495270e-001 -9.713382e-002 -1.688495e-002 2.622776e-001 1.042883e+000 6.624079e-001
<VARIANCE> 25
 4.882846e+001 1.702536e+001 2.863795e+001 2.000062e+001 2.653555e+001 2.843396e+001 2.691662e+001 2.889592e+001 2.995594e+001 2.110526e+001 2.424201e+001 2.433097e+001 3.131173e+000 3.392592e+000 2.263779e+000 1.555960e+000 2.328508e+000 2.500397e+000 2.755895e+000 3.003936e+000 2.857083e+000 1.945941e+000 2.173709e+000 1.923568e+000 1.382158e+000
<GCONST> 9.609932e+001
<STATE> 3
<MEAN> 25
 -1.586371e+001 6.629811e+000 -5.191272e+000 7.943512e-001 5.072413e+000 -5.577093e+000 7.533996e+000 1.859209e+000 1.525890e+000 -1.299863e+000 -9.218433e-002 6.220228e+000 -4.991296e-001 -1.064509e+000 1.237144e-001 -6.667303e-001 3.059354e-002 -7.257993e-001 -3.144693e-001 6.181124e-001 -5.733951e-001 2.439672e-001 2.108980e-001 2.738039e-001 5.071173e-001
<VARIANCE> 25
 2.420536e+001 2.351888e+001 2.278796e+001 1.911559e+001 2.443731e+001 2.955139e+001 3.223281e+001 3.337564e+001 2.898833e+001 2.075661e+001 2.327445e+001 2.050510e+001 6.583244e+000 2.166806e+000 2.742752e+000 1.586864e+000 2.999390e+000 2.566111e+000 3.886348e+000 3.207796e+000 2.452636e+000 1.960200e+000 2.069799e+000 2.563459e+000 1.128316e+000
<GCONST> 9.655099e+001
<STATE> 4
<MEAN> 25
 -1.313460e+001 2.779129e+000 -2.967308e+000 -6.497079e-001 3.495924e+000 -7.747340e+000 4.764021e+000 3.028111e+000 -1.906317e-001 -4.645353e-001 8.327600e-002 5.360213e+000 2.351787e+000 -1.144395e+000 1.106605e+000 -7.778974e-002 -1.032991e+000 -3.591981e-001 -1.470363e+000 -3.375354e-001 -5.566279e-001 3.356299e-001 1.432921e-001 -8.848976e-001 2.845469e-001
<VARIANCE> 25
 5.405965e+001 2.476805e+001 2.880481e+001 1.601628e+001 3.274532e+001 3.315950e+001 5.043600e+001 3.521661e+001 3.536013e+001 1.975053e+001 2.234011e+001 2.251539e+001 6.911284e+000 1.937883e+000 2.496949e+000 1.676939e+000 2.751632e+000 3.096680e+000 4.434358e+000 4.112689e+000 2.557933e+000 2.051643e+000 2.087870e+000 2.661960e+000 1.697570e+000
<GCONST> 9.949740e+001
<TRANSP> 5
 0.000000e+000 1.000000e+000 0.000000e+000 0.000000e+000 0.000000e+000
 0.000000e+000 7.154224e-001 2.845776e-001 0.000000e+000 0.000000e+000
 0.000000e+000 0.000000e+000 6.788533e-001 3.211467e-001 0.000000e+000
 0.000000e+000 0.000000e+000 0.000000e+000 7.252616e-001 2.747384e-001
 0.000000e+000 0.000000e+000 0.000000e+000 0.000000e+000 0.000000e+000
<ENDHMM>
~h "d"
<BEGINHMM>
<NUMSTATES> 5
<STATE> 2
<MEAN> 25
 3.497673e+000 2.347984e+000 1.300215e+000 1.258686e+000 1.727429e+000 -1.450610e+000 -2.569069e+000 -5.932034e-001 2.254816e+000 7.668318e-001 -9.556639e-001 -3.014967e+000 -2.302000e-001 1.873575e-001 1.691025e-001 1.687083e-001 1.031865e-001 -2.376655e-001 1.115769e-001 -1.221988e-002 1.887348e-001 -2.758631e-001 -3.167027e-001 1.346453e-001 -1.508312e-001
<VARIANCE> 25
 1.780663e+001 3.972861e+001 2.903671e+001 2.816599e+001 2.599558e+001 3.621880e+001 4.496371e+001 3.195172e+001 2.735981e+001 2.981039e+001 3.105607e+001 2.797741e+001 2.065422e+000 5.586950e+000 2.670074e+000 2.697879e+000 2.706544e+000 3.125036e+000 4.818545e+000 3.056236e+000 2.746610e+000 2.884785e+000 2.973478e+000 2.702242e+000 5.861079e+000
<GCONST> 1.019710e+002
<STATE> 3
<MEAN> 25
 2.971362e+000 2.064976e+000 1.289889e+000 1.228329e+000 1.570892e+000 -1.716616e+000 -2.392222e+000 -5.309435e-001 2.341936e+000 3.919609e-001 -1.271017e+000 -2.585696e+000 -3.985552e-001 -4.941381e-001 -1.055380e-001 -1.882284e-001 -2.799314e-001 -1.224762e-001 -2.936425e-002 7.477625e-002 -1.412656e-001 -5.194149e-002 8.930821e-003 3.401955e-001 6.773118e-001
<VARIANCE> 25
 1.858513e+001 4.125109e+001 2.847091e+001 2.691281e+001 2.700831e+001 3.411022e+001 4.357923e+001 3.174680e+001 2.764130e+001 2.829790e+001 2.893056e+001 2.694999e+001 2.119126e+000 5.643437e+000 2.802551e+000 2.839154e+000 2.941012e+000 3.291667e+000 5.157894e+000 3.384884e+000 2.867956e+000 3.229464e+000 3.076650e+000 2.734779e+000 5.568388e+000
<GCONST> 1.023680e+002
<STATE> 4
<MEAN> 25
 2.226878e+000 6.461525e-001 8.355417e-001 6.746837e-001 8.869722e-001 -1.752753e+000 -2.612653e+000 -3.197986e-001 1.961186e+000 5.306171e-001 -1.019172e+000 -1.893362e+000 -3.243984e-001 -8.421642e-001 -2.258712e-001 -3.949297e-001 -5.296596e-001 9.912466e-002 -1.816662e-001 1.321953e-001 -4.329757e-001 2.226135e-001 2.910766e-001 3.323546e-001 1.149270e+000
<VARIANCE> 25
 1.826963e+001 4.192064e+001 3.123030e+001 2.707773e+001 2.919723e+001 3.622784e+001 4.530598e+001 3.404094e+001 2.968445e+001 2.824220e+001 2.864182e+001 2.582019e+001 2.233525e+000 4.939125e+000 2.924829e+000 2.978925e+000 3.244031e+000 3.549699e+000 5.080725e+000 3.677810e+000 3.084492e+000 3.268800e+000 3.174008e+000 2.742860e+000 4.516722e+000
<GCONST> 1.028900e+002
<TRANSP> 5
 0.000000e+000 1.000000e+000 0.000000e+000 0.000000e+000 0.000000e+000
 0.000000e+000 3.782508e-001 6.217492e-001 0.000000e+000 0.000000e+000
 0.000000e+000 0.000000e+000 3.724457e-001 6.275543e-001 0.000000e+000
 0.000000e+000 0.000000e+000 0.000000e+000 4.348558e-001 5.651441e-001
 0.000000e+000 0.000000e+000 0.000000e+000 0.000000e+000 0.000000e+000
<ENDHMM>
~h "e"
<BEGINHMM>
<NUMSTATES> 5
<STATE> 2
<MEAN> 25
 2.168419e+000 -2.079167e+000 2.537354e+000 1.384050e+000 -2.897828e+000 -6.302888e+000 -1.094957e+000 3.742871e+000 -9.571652e-001 6.676134e-001 6.615270e-001 8.624014e-001 5.837738e-001 3.312851e-001 1.654630e-001 2.710597e-001 8.976695e-002 -8.506599e-002 4.338583e-002 2.261103e-001 1.799497e-001 1.383570e-001 -3.320342e-002 -1.014353e-001 -3.575739e-001
<VARIANCE> 25
 1.846272e+001 2.876130e+001 2.297050e+001 1.684146e+001 2.717627e+001 3.828713e+001 3.886424e+001 2.992244e+001 3.009016e+001 2.006295e+001 2.681385e+001 2.061505e+001 3.107173e+000 2.986477e+000 1.832974e+000 1.729275e+000 2.751637e+000 2.912627e+000 3.577705e+000 3.304219e+000 3.029427e+000 2.266992e+000 2.272083e+000 2.118917e+000 3.092894e+000
<GCONST> 9.746408e+001
<STATE> 3
<MEAN> 25
 2.582679e+000 -1.041258e+000 2.754226e+000 1.922751e+000 -2.473618e+000 -5.923783e+000 -7.091444e-001 3.852005e+000 -4.112383e-001 7.441905e-001 4.261767e-001 7.553564e-001 8.241505e-002 7.299998e-001 4.373635e-002 2.908176e-001 3.795222e-001 3.709454e-001 2.536943e-001 -2.066830e-001 3.267775e-001 1.218689e-002 -1.779726e-001 -5.225556e-002 -8.292859e-001
<VARIANCE> 25
 1.725544e+001 3.364945e+001 2.245784e+001 1.790877e+001 2.753714e+001 3.721540e+001 3.890781e+001 3.085487e+001 3.198578e+001 2.090352e+001 2.778785e+001 2.158686e+001 2.348652e+000 2.998969e+000 1.801301e+000 1.741693e+000 2.452308e+000 2.692370e+000 3.220327e+000 3.094669e+000 2.994192e+000 2.167361e+000 2.181737e+000 2.006073e+000 2.792725e+000
<GCONST> 9.688821e+001
<STATE> 4
<MEAN> 25
 2.222124e+000 4.934176e-001 2.596047e+000 2.292256e+000 -1.836532e+000 -5.032731e+000 -2.432976e-002 3.176403e+000 3.540266e-001 6.573859e-001 5.285916e-002 8.396084e-001 -3.597052e-001 6.983771e-001 -1.930709e-001 1.174732e-001 4.926627e-001 6.827267e-001 2.955550e-001 -6.257437e-001 2.641157e-001 -7.366723e-002 -1.864993e-001 2.432978e-002 -7.689651e-001
<VARIANCE> 25
 2.286380e+001 3.787650e+001 2.411820e+001 1.945265e+001 2.915985e+001 3.887287e+001 4.020502e+001 3.356797e+001 3.480866e+001 2.316109e+001 2.869507e+001 2.432377e+001 2.446586e+000 3.322127e+000 1.920919e+000 2.023231e+000 2.405902e+000 2.719030e+000 3.076908e+000 3.102799e+000 3.072932e+000 2.205910e+000 2.230262e+000 2.016281e+000 2.703857e+000
<GCONST> 9.834199e+001
<TRANSP> 5
 0.000000e+000 1.000000e+000 0.000000e+000 0.000000e+000 0.000000e+000
 0.000000e+000 3.558038e-001 6.441962e-001 0.000000e+000 0.000000e+000
 0.000000e+000 0.000000e+000 3.570922e-001 6.429078e-001 0.000000e+000
 0.000000e+000 0.000000e+000 0.000000e+000 4.429530e-001 5.570470e-001
 0.000000e+000 0.000000e+000 0.000000e+000 0.000000e+000 0.000000e+000
<ENDHMM>
~h "f"
<BEGINHMM>
<NUMSTATES> 5
<STATE> 2
<MEAN> 25
 -3.243812e+000 1.360236e+000 -2.420104e+000 3.114284e+000 2.012485e+000 2.386874e+000 2.615174e+000 6.739668e-001 4.952303e+000 1.122091e+000 -1.115662e+000 1.701266e+000 -1.477244e+000 -4.896640e-001 -5.044740e-001 4.799999e-001 1.497939e-001 6.417537e-002 4.491719e-002 -3.880882e-002 9.144527e-001 -2.891873e-002 -1.223255e-001 2.029335e-001 -3.568765e-002
<VARIANCE> 25
 3.506612e+001 2.260499e+001 2.887208e+001 2.629576e+001 2.535436e+001 3.073180e+001 2.852520e+001 2.709648e+001 3.328576e+001 2.205180e+001 2.128456e+001 2.288663e+001 3.946991e+000 2.493432e+000 2.174577e+000 2.686331e+000 2.194392e+000 2.472235e+000 2.506325e+000 2.555790e+000 3.711269e+000 2.231670e+000 2.223059e+000 2.041433e+000 1.439066e+000
<GCONST> 9.694060e+001
<STATE> 3
<MEAN> 25
 -5.376536e+000 -1.181107e-001 -3.395049e+000 3.494935e+000 2.175252e+000 2.296089e+000 2.388262e+000 4.909105e-001 5.588151e+000 8.836714e-001 -1.276371e+000 1.663342e+000 -4.680157e-001 -9.138898e-001 -5.483197e-001 -1.624428e-001 -1.665081e-001 -2.180234e-001 -2.172962e-001 -1.821572e-001 5.793210e-002 -1.119530e-001 4.803497e-002 -3.202520e-002 1.918558e-001
<VARIANCE> 25
 3.157671e+001 2.256133e+001 2.819088e+001 2.498137e+001 2.258232e+001 2.701141e+001 2.827687e+001 2.550461e+001 2.908336e+001 2.236006e+001 2.215184e+001 2.254669e+001 4.821488e+000 1.929461e+000 2.397582e+000 2.608775e+000 2.221895e+000 2.494443e+000 2.594522e+000 2.648690e+000 3.607411e+000 2.016540e+000 2.100708e+000 1.963098e+000 1.284476e+000
<GCONST> 9.611308e+001
<STATE> 4
<MEAN> 25
 -5.349195e+000 -1.962076e+000 -4.386566e+000 2.753894e+000 1.696856e+000 1.649799e+000 2.085132e+000 1.122586e-001 5.164422e+000 5.816699e-001 -1.103085e+000 1.553034e+000 1.015168e+000 -7.958513e-001 -1.789004e-001 -8.168976e-001 -7.412530e-001 -5.486270e-001 -4.783514e-001 -3.523857e-001 -8.174785e-001 -7.864282e-002 3.373133e-001 -2.280833e-001 4.195141e-001
<VARIANCE> 25
 3.974794e+001 1.992577e+001 3.284734e+001 2.681826e+001 2.501588e+001 2.900514e+001 2.826365e+001 2.651562e+001 3.042719e+001 2.212631e+001 2.313118e+001 2.357182e+001 4.959285e+000 2.111150e+000 3.066681e+000 3.130921e+000 2.628772e+000 2.710710e+000 2.813521e+000 2.987367e+000 4.127664e+000 2.171569e+000 2.228490e+000 2.043210e+000 1.525421e+000
<GCONST> 9.825634e+001
<TRANSP> 5
 0.000000e+000 1.000000e+000 0.000000e+000 0.000000e+000 0.000000e+000
 0.000000e+000 4.268157e-001 5.731843e-001 0.000000e+000 0.000000e+000
 0.000000e+000 0.000000e+000 4.212967e-001 5.787032e-001 0.000000e+000
 0.000000e+000 0.000000e+000 0.000000e+000 5.003815e-001 4.996186e-001
 0.000000e+000 0.000000e+000 0.000000e+000 0.000000e+000 0.000000e+000
<ENDHMM>
~h "g"
<BEGINHMM>
<NUMSTATES> 5
<STATE> 2
<MEAN> 25
 5.173778e+000 3.144896e+000 -1.698465e+000 -1.801369e+000 1.327811e-001 1.810441e+000 -5.886342e-001 -9.832581e-001 -3.684791e+000 -4.932254e-001 3.997268e+000 2.308637e-001 -2.135900e-001 -5.336325e-002 -1.733461e-001 1.481702e-001 1.112493e-001 -2.639258e-001 -2.373811e-001 -3.236082e-001 2.459554e-002 2.990889e-001 -1.235186e-002 1.581663e-001 -1.065547e-001
<VARIANCE> 25
 2.017072e+001 3.616154e+001 3.324858e+001 5.505314e+001 3.472617e+001 5.394668e+001 4.576601e+001 3.588312e+001 4.643649e+001 3.108237e+001 4.890806e+001 2.843902e+001 1.378801e+000 4.393853e+000 2.732305e+000 4.403016e+000 3.278266e+000 4.380640e+000 4.358883e+000 3.505312e+000 4.458557e+000 3.030200e+000 4.413043e+000 2.512918e+000 4.278422e+000
<GCONST> 1.056461e+002
<STATE> 3
<MEAN> 25
 4.702722e+000 2.399712e+000 -2.007534e+000 -1.698048e+000 1.124984e-001 1.271308e+000 -1.321174e+000 -1.355775e+000 -3.348784e+000 2.247963e-001 3.846596e+000 2.553723e-001 -2.948726e-001 -6.624501e-001 -1.664694e-001 -1.093532e-001 -1.003229e-001 -2.590480e-001 -4.848790e-001 -1.170388e-001 2.475241e-001 4.601694e-001 -9.786424e-002 -5.407526e-002 6.324841e-001
<VARIANCE> 25
 1.940438e+001 3.925401e+001 3.471017e+001 5.084446e+001 3.429888e+001 5.480207e+001 4.744478e+001 3.808533e+001 4.552290e+001 3.122931e+001 4.477216e+001 2.575896e+001 1.497179e+000 4.138993e+000 2.628973e+000 4.642454e+000 3.415611e+000 4.711037e+000 4.484393e+000 3.715121e+000 4.673921e+000 3.000091e+000 4.808302e+000 2.529071e+000 4.226630e+000
<GCONST> 1.059039e+002
<STATE> 4
<MEAN> 25
 4.228918e+000 7.492665e-001 -2.259983e+000 -2.019584e+000 -1.748899e-001 7.391413e-001 -2.214846e+000 -1.163650e+000 -2.639899e+000 1.123438e+000 3.458077e+000 -1.012839e-001 -2.858393e-001 -8.760620e-001 -7.489783e-002 -2.178336e-001 -1.435597e-001 -1.382884e-001 -3.192330e-001 1.062981e-001 3.805872e-001 4.196096e-001 -2.423785e-001 -1.747559e-001 1.019345e+000
<VARIANCE> 25
 1.820640e+001 4.305058e+001 3.562688e+001 5.144141e+001 3.387116e+001 5.929355e+001 4.739669e+001 4.105385e+001 4.417159e+001 3.110792e+001 4.216851e+001 2.387097e+001 1.729390e+000 3.556443e+000 2.528945e+000 4.213991e+000 3.364287e+000 4.698734e+000 4.565361e+000 3.750655e+000 4.335728e+000 2.906476e+000 4.563651e+000 2.431753e+000 3.572822e+000
<GCONST> 1.054406e+002
<TRANSP> 5
 0.000000e+000 1.000000e+000 0.000000e+000 0.000000e+000 0.000000e+000
 0.000000e+000 3.925368e-001 6.074633e-001 0.000000e+000 0.000000e+000
 0.000000e+000 0.000000e+000 3.829549e-001 6.170450e-001 0.000000e+000
 0.000000e+000 0.000000e+000 0.000000e+000 4.440832e-001 5.559168e-001
 0.000000e+000 0.000000e+000 0.000000e+000 0.000000e+000 0.000000e+000
<ENDHMM>
~h "h"
<BEGINHMM>
<NUMSTATES> 5
<STATE> 2
<MEAN> 25
 -3.463079e+000 -2.639912e-001 1.334219e+000 2.702712e+000 3.885458e+000 3.302001e-002 1.906171e+000 -2.647399e-001 1.489586e+000 1.697985e+000 -1.741346e+000 1.956002e+000 -5.427813e-001 -6.529049e-001 -1.413973e+000 -7.788309e-002 1.155953e+000 -1.874322e-001 -2.691337e-001 -8.230692e-002 9.654017e-001 2.105198e-001 5.176790e-002 2.743508e-001 -7.941379e-002
<VARIANCE> 25
 2.658152e+001 3.248254e+001 9.490615e+001 3.562911e+001 7.702434e+001 5.044308e+001 4.245479e+001 3.777652e+001 4.663254e+001 2.901366e+001 3.125022e+001 2.385403e+001 2.453505e+000 2.191304e+000 4.232669e+000 2.763448e+000 6.012311e+000 4.391007e+000 3.941370e+000 3.613236e+000 4.510295e+000 3.363490e+000 2.848884e+000 2.622169e+000 1.650530e+000
<GCONST> 1.056052e+002
<STATE> 3
<MEAN> 25
 -4.091625e+000 -1.400301e+000 -1.198066e+000 1.828051e+000 4.955437e+000 -4.127761e-002 1.428650e+000 -6.850793e-001 2.619427e+000 1.998740e+000 -1.305248e+000 2.149925e+000 1.019504e-001 -3.601382e-001 -1.063544e+000 -5.002021e-001 5.760794e-002 -8.400311e-002 -1.947936e-001 -2.732934e-001 2.826645e-001 -1.113530e-001 2.376336e-001 -1.707102e-002 7.096943e-002
<VARIANCE> 25
 2.847353e+001 3.382496e+001 9.449503e+001 3.589788e+001 6.989929e+001 4.915365e+001 4.493520e+001 3.483952e+001 4.200654e+001 3.154147e+001 3.050923e+001 2.381097e+001 3.106242e+000 2.063704e+000 4.081176e+000 2.870159e+000 5.816041e+000 4.497607e+000 3.722394e+000 3.638407e+000 4.485562e+000 3.421659e+000 2.902961e+000 2.765521e+000 1.970412e+000
<GCONST> 1.059025e+002
<STATE> 4
<MEAN> 25
 -3.208749e+000 -1.899205e+000 -2.805553e+000 3.620828e-001 3.985130e+000 -5.745340e-002 1.276318e+000 -1.312387e+000 2.463972e+000 1.365449e+000 -7.773888e-001 1.755251e+000 8.722035e-001 4.260426e-003 -3.571484e-001 -5.792211e-001 -8.826602e-001 -8.799745e-002 -2.351687e-001 -3.240935e-001 -3.468163e-001 -3.655400e-001 3.573000e-001 -3.010513e-001 3.596618e-001
<VARIANCE> 25
 3.699163e+001 3.539627e+001 8.536146e+001 3.759516e+001 5.889194e+001 4.943465e+001 4.186747e+001 3.556461e+001 3.708356e+001 2.951406e+001 3.094128e+001 2.651732e+001 3.467458e+000 2.267405e+000 3.887903e+000 3.283952e+000 5.300017e+000 3.938658e+000 3.761211e+000 3.399014e+000 4.058441e+000 3.121576e+000 2.953953e+000 2.845847e+000 2.447372e+000
<GCONST> 1.059471e+002
<TRANSP> 5
 0.000000e+000 1.000000e+000 0.000000e+000 0.000000e+000 0.000000e+000
 0.000000e+000 4.349304e-001 5.650696e-001 0.000000e+000 0.000000e+000
 0.000000e+000 0.000000e+000 4.153222e-001 5.846778e-001 0.000000e+000
 0.000000e+000 0.000000e+000 0.000000e+000 4.778092e-001 5.221907e-001
 0.000000e+000 0.000000e+000 0.000000e+000 0.000000e+000 0.000000e+000
<ENDHMM>
~h "i"
<BEGINHMM>
<NUMSTATES> 5
<STATE> 2
<MEAN> 25
 -2.159098e-001 1.101013e+000 9.900427e+000 1.314831e+000 -6.771337e+000 -2.449898e+000 -1.666785e+000 -1.300666e+000 -6.898616e+000 -1.313553e-001 2.953341e+000 1.353475e-001 2.873110e-001 4.464046e-001 1.112236e+000 1.370787e-001 -6.298414e-001 1.790738e-001 -2.534051e-001 -2.116796e-001 -8.230677e-001 1.870514e-001 2.965591e-001 -1.868169e-001 1.296700e-001
<VARIANCE> 25
 2.127095e+001 2.606697e+001 3.340646e+001 2.136765e+001 3.354115e+001 4.256812e+001 3.932796e+001 3.092287e+001 3.559948e+001 2.219158e+001 2.530001e+001 1.938263e+001 2.990363e+000 2.623125e+000 3.550361e+000 2.243410e+000 4.173041e+000 3.141051e+000 4.356431e+000 2.917982e+000 4.877079e+000 2.319125e+000 2.640159e+000 2.132376e+000 2.895169e+000
<GCONST> 1.005375e+002
<STATE> 3
<MEAN> 25
 1.384165e-001 2.429151e+000 1.100310e+001 1.829082e+000 -6.785067e+000 -1.643070e+000 -1.633363e+000 -1.653075e+000 -7.153539e+000 1.869057e-001 2.831738e+000 -1.441918e-001 4.725579e-002 5.923588e-001 -4.390670e-002 3.341724e-001 4.379903e-001 2.514540e-001 1.661242e-001 -1.267657e-001 3.218979e-001 2.302404e-002 -2.266767e-001 2.606484e-002 -4.703960e-001
<VARIANCE> 25
 1.792944e+001 2.866209e+001 3.062523e+001 2.247407e+001 3.415398e+001 4.259035e+001 3.799680e+001 2.957636e+001 3.462072e+001 2.196345e+001 2.452092e+001 1.980207e+001 2.537843e+000 2.655716e+000 3.287269e+000 2.051167e+000 3.681156e+000 2.912354e+000 3.587050e+000 2.637735e+000 4.200443e+000 2.105245e+000 2.405030e+000 1.974364e+000 2.704608e+000
<GCONST> 9.901759e+001
<STATE> 4
<MEAN> 25
 -4.398656e-002 3.822171e+000 9.838861e+000 2.531941e+000 -5.055826e+000 -9.320367e-001 -1.031678e+000 -2.087597e+000 -5.301211e+000 6.289103e-003 1.675773e+000 2.003393e-001 -2.388714e-001 2.502219e-001 -1.073624e+000 2.855858e-001 1.056280e+000 1.625894e-001 2.962771e-001 -5.681407e-002 9.319940e-001 -1.022013e-001 -4.659305e-001 2.427866e-001 -5.270213e-001
<VARIANCE> 25
 2.261324e+001 3.121800e+001 3.761432e+001 2.396988e+001 3.933555e+001 4.232024e+001 4.216295e+001 3.068352e+001 3.758774e+001 2.257992e+001 2.474761e+001 2.203430e+001 2.494263e+000 2.922216e+000 2.915735e+000 2.266673e+000 3.164648e+000 2.995958e+000 3.102182e+000 2.831266e+000 3.249730e+000 2.187882e+000 2.221059e+000 2.014907e+000 2.459456e+000
<GCONST> 9.959528e+001
<TRANSP> 5
 0.000000e+000 1.000000e+000 0.000000e+000 0.000000e+000 0.000000e+000
 0.000000e+000 5.280709e-001 4.719291e-001 0.000000e+000 0.000000e+000
 0.000000e+000 0.000000e+000 5.133296e-001 4.866704e-001 0.000000e+000
 0.000000e+000 0.000000e+000 0.000000e+000 6.135586e-001 3.864414e-001
 0.000000e+000 0.000000e+000 0.000000e+000 0.000000e+000 0.000000e+000
<ENDHMM>
~h "j"
<BEGINHMM>
<NUMSTATES> 5
<STATE> 2
<MEAN> 25
 8.102586e-001 -1.286814e+000 7.126858e+000 6.359502e-001 -6.437909e+000 -3.382576e+000 -2.008509e+000 1.635993e+000 -4.811327e+000 4.203106e-001 2.985570e+000 4.809244e-001 1.634471e-001 -8.908791e-002 7.145545e-001 9.612259e-003 -8.480053e-001 -2.834763e-001 -1.111193e-001 3.068722e-001 -3.168058e-001 1.018729e-001 4.324498e-001 8.561426e-002 3.335461e-001
<VARIANCE> 25
 1.863737e+001 2.837624e+001 4.077890e+001 2.018161e+001 3.390878e+001 4.366857e+001 4.716530e+001 4.037395e+001 3.285555e+001 2.081033e+001 2.635560e+001 1.734159e+001 2.309493e+000 2.106318e+000 3.771547e+000 1.998459e+000 3.185613e+000 2.949099e+000 3.780890e+000 3.021281e+000 3.378722e+000 2.123518e+000 2.222674e+000 1.647107e+000 2.054506e+000
<GCONST> 9.870104e+001
<STATE> 3
<MEAN> 25
 1.051163e+000 -1.347060e+000 7.526624e+000 6.654220e-001 -7.261178e+000 -3.699088e+000 -1.898739e+000 2.164626e+000 -4.807195e+000 6.741968e-001 3.523029e+000 5.643470e-001 1.716277e-001 -1.421532e-002 -1.836779e-001 1.230924e-001 -3.363070e-002 -1.855518e-001 1.128146e-001 3.577165e-001 2.837941e-001 3.711191e-002 6.489789e-002 5.662505e-002 1.997102e-002
<VARIANCE> 25
 1.527808e+001 2.807137e+001 3.717482e+001 1.925727e+001 3.291463e+001 4.185567e+001 4.427713e+001 3.914701e+001 3.195725e+001 1.989848e+001 2.543887e+001 1.697874e+001 1.677461e+000 2.209828e+000 3.596672e+000 1.665297e+000 3.164734e+000 2.682813e+000 3.325766e+000 2.939034e+000 3.132877e+000 1.908058e+000 2.240629e+000 1.549647e+000 1.897176e+000
<GCONST> 9.698295e+001
<STATE> 4
<MEAN> 25
 1.343963e+000 -1.363814e+000 6.302016e+000 9.321795e-001 -6.641469e+000 -3.999452e+000 -1.521139e+000 2.902221e+000 -3.740629e+000 7.038609e-001 3.262266e+000 6.373501e-001 1.442752e-001 6.323890e-002 -8.710001e-001 1.893360e-001 7.279613e-001 -2.038314e-003 1.692764e-001 2.634766e-001 7.264979e-001 -6.197073e-002 -3.625913e-001 1.298521e-002 -2.755894e-001
<VARIANCE> 25
 1.563385e+001 2.987971e+001 3.793742e+001 1.958866e+001 3.589442e+001 3.850053e+001 4.702270e+001 3.781218e+001 3.329623e+001 2.083815e+001 2.630928e+001 1.752233e+001 1.658319e+000 2.478801e+000 3.124595e+000 1.614581e+000 3.203751e+000 2.843026e+000 3.229576e+000 3.358779e+000 2.919332e+000 1.921686e+000 2.458092e+000 1.703329e+000 1.905870e+000
<GCONST> 9.752113e+001
<TRANSP> 5
 0.000000e+000 1.000000e+000 0.000000e+000 0.000000e+000 0.000000e+000
 0.000000e+000 4.427285e-001 5.572715e-001 0.000000e+000 0.000000e+000
 0.000000e+000 0.000000e+000 4.254535e-001 5.745465e-001 0.000000e+000
 0.000000e+000 0.000000e+000 0.000000e+000 4.928501e-001 5.071499e-001
 0.000000e+000 0.000000e+000 0.000000e+000 0.000000e+000 0.000000e+000
<ENDHMM>
~h "k"
<BEGINHMM>
<NUMSTATES> 5
<STATE> 2
<MEAN> 25
 -3.005800e+000 1.427761e+000 -3.493357e+000 1.294707e+000 4.013782e+000 -2.708007e-001 1.595885e+000 2.252374e+000 3.122859e+000 6.473655e-001 -9.967329e-001 1.223042e+000 -4.028982e-002 -9.171501e-001 -1.125114e+000 -7.864904e-001 6.153076e-002 1.460048e-001 -3.107949e-001 -5.344654e-001 -5.414973e-001 4.505535e-001 3.689179e-001 2.797931e-001 4.046645e-001
<VARIANCE> 25
 3.375439e+001 3.338762e+001 4.363132e+001 3.460423e+001 4.576603e+001 4.787038e+001 4.691506e+001 3.928354e+001 4.055444e+001 2.903362e+001 3.221704e+001 2.403316e+001 3.111161e+000 3.946171e+000 4.800331e+000 3.617759e+000 5.799028e+000 4.996589e+000 4.384484e+000 4.102087e+000 4.695969e+000 3.200115e+000 3.171465e+000 2.670525e+000 4.841403e+000
<GCONST> 1.072701e+002
<STATE> 3
<MEAN> 25
 -2.992912e+000 -3.677659e-001 -5.357162e+000 -5.049174e-001 3.720882e+000 -1.872703e-001 7.794938e-001 1.221007e+000 1.872141e+000 1.378281e+000 -1.228202e-001 1.587566e+000 4.626412e-001 -8.626112e-001 -6.085603e-001 -1.116712e+000 -6.196475e-001 1.489314e-003 -6.150005e-001 -6.797729e-001 -9.322056e-001 2.464105e-001 6.186928e-001 2.164212e-002 1.166435e+000
<VARIANCE> 25
 2.930492e+001 3.174257e+001 5.565100e+001 4.152873e+001 4.670066e+001 5.596733e+001 4.482162e+001 3.739719e+001 4.066651e+001 2.918685e+001 3.207478e+001 2.383169e+001 3.496599e+000 3.486704e+000 5.516364e+000 3.756723e+000 5.897418e+000 4.885776e+000 4.292648e+000 4.170792e+000 4.624708e+000 3.267309e+000 3.286123e+000 2.769586e+000 3.966683e+000
<GCONST> 1.076184e+002
<STATE> 4
<MEAN> 25
 -1.639291e+000 -1.403851e+000 -5.705832e+000 -2.439776e+000 2.042879e+000 -4.084161e-001 -3.742609e-001 1.308665e-001 1.780547e-001 1.347410e+000 1.006110e+000 1.343062e+000 1.148770e+000 -4.197760e-001 2.987286e-001 -8.818558e-001 -1.089283e+000 1.273631e-002 -7.214778e-001 -5.249922e-001 -1.031803e+000 -6.397706e-002 6.757439e-001 -3.603481e-001 1.489864e+000
<VARIANCE> 25
 3.379637e+001 2.817052e+001 6.272098e+001 4.384662e+001 4.704018e+001 6.049323e+001 4.304784e+001 3.766562e+001 4.152015e+001 2.745813e+001 3.400602e+001 2.416164e+001 3.452897e+000 3.078067e+000 5.434090e+000 3.998689e+000 5.234081e+000 4.440437e+000 4.372078e+000 3.874557e+000 4.308063e+000 3.138752e+000 3.317627e+000 2.819256e+000 3.294786e+000
<GCONST> 1.072699e+002
<TRANSP> 5
 0.000000e+000 1.000000e+000 0.000000e+000 0.000000e+000 0.000000e+000
 0.000000e+000 3.793088e-001 6.206912e-001 0.000000e+000 0.000000e+000
 0.000000e+000 0.000000e+000 3.680684e-001 6.319317e-001 0.000000e+000
 0.000000e+000 0.000000e+000 0.000000e+000 4.225547e-001 5.774453e-001
 0.000000e+000 0.000000e+000 0.000000e+000 0.000000e+000 0.000000e+000
<ENDHMM>
~h "l"
<BEGINHMM>
<NUMSTATES> 5
<STATE> 2
<MEAN> 25
 3.903335e+000 -3.666344e+000 -1.198610e+000 -3.028102e+000 -6.797169e-001 3.655131e+000 -5.158495e+000 -5.121180e+000 4.471409e-001 2.356113e+000 5.159435e+000 -2.849635e+000 6.150510e-001 -9.542185e-002 1.989662e-001 -6.036447e-001 1.769043e-001 4.497190e-001 -8.006424e-001 -2.378760e-001 -1.659443e-001 3.693731e-001 3.492016e-001 -5.103470e-001 2.827693e-001
<VARIANCE> 25
 2.391804e+001 2.031073e+001 3.863742e+001 3.872618e+001 3.209878e+001 4.909002e+001 5.977506e+001 4.716902e+001 3.488516e+001 3.304854e+001 4.087034e+001 3.317748e+001 2.559654e+000 2.359090e+000 2.685956e+000 4.006538e+000 3.431280e+000 4.590026e+000 4.845358e+000 5.220558e+000 3.937063e+000 3.427523e+000 4.243793e+000 2.926056e+000 1.954237e+000
<GCONST> 1.049655e+002
<STATE> 3
<MEAN> 25
 4.409420e+000 -3.634314e+000 -9.420949e-001 -3.654595e+000 -2.448542e-001 4.052032e+000 -5.767650e+000 -4.515187e+000 4.500385e-001 2.510457e+000 5.045715e+000 -3.201673e+000 2.311604e-001 -6.265231e-002 1.924538e-002 -6.729101e-002 7.610609e-002 -3.752273e-002 6.732079e-002 6.220672e-001 -6.577965e-002 -8.719788e-002 -2.907273e-001 -8.549094e-002 2.651283e-001
<VARIANCE> 25
 1.770126e+001 1.976295e+001 4.036940e+001 3.856155e+001 3.089918e+001 5.061686e+001 5.786263e+001 4.614436e+001 3.306409e+001 3.289034e+001 3.907010e+001 3.250971e+001 1.897317e+000 2.146142e+000 2.400551e+000 3.717152e+000 3.202844e+000 4.812053e+000 4.894148e+000 5.021678e+000 3.924102e+000 3.148600e+000 4.325647e+000 2.861375e+000 1.537242e+000
<GCONST> 1.035278e+002
<STATE> 4
<MEAN> 25
 4.357121e+000 -3.734085e+000 -1.299193e+000 -3.104277e+000 -1.628505e-001 3.440881e+000 -4.675394e+000 -2.818531e+000 5.267246e-001 2.003035e+000 3.833123e+000 -2.945918e+000 -5.894101e-002 6.745613e-002 -5.936650e-002 4.359728e-001 -1.203561e-001 -4.119188e-001 7.890323e-001 9.119866e-001 -1.617260e-001 -2.950172e-001 -6.386301e-001 1.720770e-001 7.345830e-002
<VARIANCE> 25
 1.478362e+001 2.262474e+001 4.391507e+001 3.643102e+001 3.185422e+001 6.027832e+001 4.972874e+001 4.690430e+001 3.324522e+001 3.007393e+001 3.654774e+001 3.128402e+001 1.484563e+000 2.247570e+000 2.029279e+000 3.368128e+000 3.262382e+000 4.657880e+000 4.523811e+000 4.282118e+000 3.924110e+000 2.828778e+000 4.038303e+000 2.747069e+000 1.472907e+000
<GCONST> 1.024137e+002
<TRANSP> 5
 0.000000e+000 1.000000e+000 0.000000e+000 0.000000e+000 0.000000e+000
 0.000000e+000 3.889345e-001 6.110654e-001 0.000000e+000 0.000000e+000
 0.000000e+000 0.000000e+000 3.671170e-001 6.328830e-001 0.000000e+000
 0.000000e+000 0.000000e+000 0.000000e+000 4.088051e-001 5.911949e-001
 0.000000e+000 0.000000e+000 0.000000e+000 0.000000e+000 0.000000e+000
<ENDHMM>
~h "m"
<BEGINHMM>
<NUMSTATES> 5
<STATE> 2
<MEAN> 25
 6.426309e+000 5.628667e-001 8.473476e-001 4.799738e+000 1.556715e+000 2.544381e+000 2.443420e+000 -4.838926e+000 -5.312405e+000 1.358447e+000 -2.207097e+000 -3.876270e+000 2.129534e-001 3.551967e-001 3.182293e-001 1.006096e+000 1.272532e-001 2.978137e-002 1.856388e-001 -9.036661e-001 -3.722467e-001 1.369416e-001 -3.788978e-001 -3.925667e-002 -3.179228e-001
<VARIANCE> 25
 1.349406e+001 2.517149e+001 1.934984e+001 3.155956e+001 2.312437e+001 2.958394e+001 2.235320e+001 4.035492e+001 2.897075e+001 2.340247e+001 2.607342e+001 2.140926e+001 1.251997e+000 2.409688e+000 2.147007e+000 3.980027e+000 2.239128e+000 2.605386e+000 2.142897e+000 4.731752e+000 3.019361e+000 2.351346e+000 2.186974e+000 1.821738e+000 2.439117e+000
<GCONST> 9.592982e+001
<STATE> 3
<MEAN> 25
 6.319239e+000 9.036156e-001 1.234758e+000 5.559483e+000 1.765426e+000 2.828036e+000 2.431909e+000 -5.538508e+000 -5.425765e+000 1.200742e+000 -2.809004e+000 -3.615783e+000 -2.775126e-001 -3.282855e-002 1.233649e-001 -1.774958e-001 8.812385e-002 2.429771e-001 -8.687480e-002 2.702345e-001 2.449667e-001 -3.330093e-001 -2.899047e-001 1.654333e-001 2.294158e-001
<VARIANCE> 25
 1.232755e+001 2.685840e+001 1.991136e+001 3.129855e+001 2.339712e+001 2.949765e+001 2.197401e+001 4.069638e+001 2.897560e+001 2.535917e+001 2.565417e+001 2.016875e+001 1.195757e+000 2.477276e+000 2.213827e+000 4.272967e+000 2.235309e+000 2.575831e+000 2.030895e+000 5.022708e+000 2.995213e+000 2.490797e+000 2.213127e+000 1.761247e+000 2.303095e+000
<GCONST> 9.597583e+001
<STATE> 4
<MEAN> 25
 5.163220e+000 7.038417e-001 1.172363e+000 3.911301e+000 2.006347e+000 3.702821e+000 2.177379e+000 -3.699241e+000 -4.081148e+000 -1.767656e-001 -3.429276e+000 -3.078419e+000 -6.677523e-001 -2.868785e-001 -7.944500e-003 -1.056842e+000 -6.585435e-002 3.223730e-001 -1.793391e-001 1.125906e+000 6.388573e-001 -5.372226e-001 -1.104528e-001 2.495634e-001 5.238555e-001
<VARIANCE> 25
 1.507667e+001 3.455234e+001 2.906846e+001 4.119219e+001 3.082667e+001 3.555389e+001 2.505909e+001 4.873380e+001 3.060144e+001 2.737993e+001 2.587030e+001 2.043885e+001 1.431267e+000 2.536026e+000 2.784553e+000 4.002022e+000 2.781129e+000 2.888906e+000 2.317050e+000 4.427430e+000 3.018540e+000 2.670355e+000 2.531592e+000 1.951047e+000 2.241355e+000
<GCONST> 9.900205e+001
<TRANSP> 5
 0.000000e+000 1.000000e+000 0.000000e+000 0.000000e+000 0.000000e+000
 0.000000e+000 5.105866e-001 4.894134e-001 0.000000e+000 0.000000e+000
 0.000000e+000 0.000000e+000 5.061573e-001 4.938427e-001 0.000000e+000
 0.000000e+000 0.000000e+000 0.000000e+000 5.921032e-001 4.078968e-001
 0.000000e+000 0.000000e+000 0.000000e+000 0.000000e+000 0.000000e+000
<ENDHMM>
~h "n"
<BEGINHMM>
<NUMSTATES> 5
<STATE> 2
<MEAN> 25
 5.231906e+000 -5.857381e-001 1.010092e+000 4.498589e+000 1.330878e+000 2.533859e+000 1.689110e+000 -2.909206e+000 -2.688883e+000 4.053455e-001 -5.619215e+000 -4.153632e+000 2.109280e-001 1.811078e-001 1.811890e-001 4.727768e-001 2.347922e-001 1.117842e-001 1.608493e-001 -2.563909e-001 -2.304743e-001 -3.591112e-002 -6.102994e-001 -1.612099e-001 -1.293851e-001
<VARIANCE> 25
 1.640927e+001 2.985233e+001 2.847232e+001 3.151244e+001 2.908759e+001 3.660025e+001 2.675433e+001 4.421052e+001 2.823112e+001 2.556915e+001 3.378374e+001 2.526076e+001 1.509985e+000 3.204129e+000 2.459816e+000 3.953851e+000 2.655557e+000 3.107975e+000 2.403539e+000 4.990791e+000 2.666196e+000 2.534871e+000 2.602512e+000 2.209902e+000 2.755233e+000
<GCONST> 9.943762e+001
<STATE> 3
<MEAN> 25
 5.152548e+000 -4.633971e-001 1.086545e+000 4.516315e+000 1.847346e+000 2.903160e+000 1.836080e+000 -2.713663e+000 -2.821720e+000 4.696513e-002 -6.132679e+000 -4.149544e+000 -2.093267e-001 -3.121548e-002 -1.160477e-002 -3.034976e-001 3.115219e-001 2.578457e-001 7.416352e-002 4.052079e-001 -1.613049e-002 -2.889280e-001 -7.679211e-002 2.165177e-002 2.007647e-001
<VARIANCE> 25
 1.519773e+001 3.293267e+001 2.840029e+001 3.204348e+001 2.958897e+001 3.548753e+001 2.856319e+001 4.300991e+001 2.693246e+001 2.654220e+001 3.341895e+001 2.397639e+001 1.483887e+000 3.306635e+000 2.452611e+000 3.800050e+000 2.571473e+000 2.990755e+000 2.384320e+000 4.776403e+000 2.665233e+000 2.611516e+000 2.569510e+000 2.153893e+000 2.614411e+000
<GCONST> 9.921204e+001
<STATE> 4
<MEAN> 25
 4.286460e+000 -4.643926e-001 7.596303e-001 3.280947e+000 2.537611e+000 3.605659e+000 2.070892e+000 -1.426214e+000 -2.505903e+000 -8.550978e-001 -5.818142e+000 -3.854786e+000 -5.498837e-001 -5.691879e-002 -1.233806e-001 -7.275096e-001 2.126676e-001 2.253686e-001 9.356701e-002 6.918697e-001 1.371348e-001 -3.224388e-001 3.939580e-001 2.092644e-001 2.725413e-001
<VARIANCE> 25
 1.767723e+001 3.986251e+001 3.288164e+001 3.445910e+001 3.334341e+001 3.757719e+001 3.221827e+001 4.244381e+001 2.810320e+001 2.766333e+001 3.501309e+001 2.394610e+001 1.737242e+000 3.306542e+000 2.407359e+000 3.372733e+000 2.644698e+000 2.968331e+000 2.548568e+000 4.026501e+000 2.760572e+000 2.733375e+000 2.623871e+000 2.143224e+000 2.513849e+000
<GCONST> 1.001800e+002
<TRANSP> 5
 0.000000e+000 1.000000e+000 0.000000e+000 0.000000e+000 0.000000e+000
 0.000000e+000 4.544197e-001 5.455803e-001 0.000000e+000 0.000000e+000
 0.000000e+000 0.000000e+000 4.456815e-001 5.543184e-001 0.000000e+000
 0.000000e+000 0.000000e+000 0.000000e+000 5.221174e-001 4.778825e-001
 0.000000e+000 0.000000e+000 0.000000e+000 0.000000e+000 0.000000e+000
<ENDHMM>
~h "o"
<BEGINHMM>
<NUMSTATES> 5
<STATE> 2
<MEAN> 25
 5.137990e+000 -2.152144e+000 -5.416174e+000 -5.571303e+000 4.490556e-001 6.110502e+000 -3.834869e+000 -2.291091e+000 -1.625570e+000 3.162732e+000 3.769094e+000 -1.753428e+000 6.288986e-001 2.330614e-001 6.452060e-002 -4.345007e-001 -1.187287e-001 3.838316e-001 -1.118547e-001 -5.493613e-002 -2.600539e-001 4.495794e-001 3.896164e-001 -1.590440e-001 2.725231e-001
<VARIANCE> 25
 1.854519e+001 2.495398e+001 2.657621e+001 4.340661e+001 3.271384e+001 4.811874e+001 5.100578e+001 2.836146e+001 3.513427e+001 3.164024e+001 4.019914e+001 2.792357e+001 2.319109e+000 2.806201e+000 2.720248e+000 4.122311e+000 3.163475e+000 4.078112e+000 4.399953e+000 3.092360e+000 3.655002e+000 3.181966e+000 3.147932e+000 2.727059e+000 3.165059e+000
<GCONST> 1.030239e+002
<STATE> 3
<MEAN> 25
 5.842557e+000 -1.300529e+000 -4.701434e+000 -5.370280e+000 5.204690e-001 6.221409e+000 -3.420496e+000 -2.236965e+000 -1.674405e+000 3.585870e+000 3.932616e+000 -1.829480e+000 1.147062e-001 6.015663e-001 6.165766e-001 4.820106e-001 5.924219e-002 -3.209014e-001 3.740900e-001 1.199981e-001 1.388829e-001 -4.493351e-002 -1.258940e-001 7.644808e-002 -4.039468e-001
<VARIANCE> 25
 1.461376e+001 2.755182e+001 2.480368e+001 4.439479e+001 3.120507e+001 4.591525e+001 5.496476e+001 2.815338e+001 3.670599e+001 3.240889e+001 4.012753e+001 2.754800e+001 2.130093e+000 2.769071e+000 2.195468e+000 3.783464e+000 2.841606e+000 3.972672e+000 4.171583e+000 2.906172e+000 3.705214e+000 2.971879e+000 3.018287e+000 2.608470e+000 2.988683e+000
<GCONST> 1.020181e+002
<STATE> 4
<MEAN> 25
 5.563637e+000 2.199168e-001 -3.387666e+000 -3.921315e+000 7.224304e-001 5.019319e+000 -2.216069e+000 -1.937591e+000 -9.358345e-001 3.038350e+000 3.151161e+000 -1.421737e+000 -5.194451e-001 6.861630e-001 8.206512e-001 9.970019e-001 1.059832e-001 -8.733145e-001 6.304221e-001 2.422407e-001 3.884005e-001 -4.874545e-001 -5.180646e-001 2.932275e-001 -7.026777e-001
<VARIANCE> 25
 1.748659e+001 3.321410e+001 2.611270e+001 4.677978e+001 3.173085e+001 4.725640e+001 5.794378e+001 3.110475e+001 4.040400e+001 3.181031e+001 3.972139e+001 2.778200e+001 2.550271e+000 3.016071e+000 2.054379e+000 3.222656e+000 2.762232e+000 3.435835e+000 3.831408e+000 3.047878e+000 3.581571e+000 2.916308e+000 2.812217e+000 2.512530e+000 2.585470e+000
<GCONST> 1.022835e+002
<TRANSP> 5
 0.000000e+000 1.000000e+000 0.000000e+000 0.000000e+000 0.000000e+000
 0.000000e+000 4.228327e-001 5.771673e-001 0.000000e+000 0.000000e+000
 0.000000e+000 0.000000e+000 4.060450e-001 5.939551e-001 0.000000e+000
 0.000000e+000 0.000000e+000 0.000000e+000 4.709401e-001 5.290599e-001
 0.000000e+000 0.000000e+000 0.000000e+000 0.000000e+000 0.000000e+000
<ENDHMM>
~h "p"
<BEGINHMM>
<NUMSTATES> 5
<STATE> 2
<MEAN> 25
 1.050552e+000 3.651662e+000 -1.742166e+000 -1.097448e-001 -3.606207e-001 5.390119e-001 2.094355e+000 -3.043846e-001 3.424892e+000 -1.126701e+000 -9.628837e-001 1.701207e+000 -5.722485e-001 -1.276529e+000 -9.103427e-001 -1.991157e-001 -1.652544e-001 -1.703017e-001 -6.324990e-001 -4.667304e-001 1.760187e-001 3.431754e-001 2.610045e-001 2.723370e-001 9.753950e-001
<VARIANCE> 25
 2.626629e+001 3.949717e+001 2.917413e+001 2.881572e+001 2.682203e+001 3.544133e+001 3.443170e+001 2.785113e+001 2.696430e+001 2.249336e+001 2.408458e+001 2.127084e+001 3.001698e+000 5.310364e+000 3.683859e+000 3.233453e+000 2.973746e+000 3.905527e+000 4.387039e+000 3.487924e+000 3.392367e+000 2.566383e+000 2.743542e+000 2.186276e+000 7.528610e+000
<GCONST> 1.023960e+002
<STATE> 3
<MEAN> 25
 1.392243e-001 6.256801e-001 -3.577521e+000 -5.838165e-001 -7.345603e-001 2.199550e-001 4.358228e-001 -1.265957e+000 3.346369e+000 -3.004430e-001 -3.046317e-001 1.963703e+000 5.108542e-002 -1.633909e+000 -8.780909e-001 -5.181681e-001 -4.273003e-001 5.963108e-002 -1.026971e+000 -5.726783e-001 -3.046325e-001 5.214343e-001 5.545068e-001 -1.185440e-002 1.991103e+000
<VARIANCE> 25
 2.545107e+001 4.496420e+001 3.252396e+001 2.989179e+001 2.763466e+001 3.680751e+001 3.668970e+001 2.816584e+001 2.695070e+001 2.293083e+001 2.314581e+001 2.001332e+001 3.954854e+000 4.765810e+000 4.104991e+000 4.369781e+000 3.350615e+000 4.600372e+000 4.396145e+000 3.518892e+000 3.651919e+000 2.739789e+000 2.837002e+000 2.384264e+000 6.354491e+000
<GCONST> 1.036606e+002
<STATE> 4
<MEAN> 25
 9.079612e-001 -1.946206e+000 -4.778525e+000 -1.519239e+000 -1.617583e+000 3.150411e-001 -1.392731e+000 -2.149812e+000 2.478375e+000 6.024508e-001 7.040593e-001 1.601320e+000 8.008528e-001 -1.091092e+000 -2.378603e-001 -6.588007e-001 -6.429937e-001 3.481024e-001 -8.162084e-001 -3.771965e-001 -5.822827e-001 4.599955e-001 6.753864e-001 -3.365613e-001 2.019048e+000
<VARIANCE> 25
 2.623167e+001 3.583056e+001 3.567051e+001 3.679420e+001 2.997163e+001 4.625727e+001 3.604907e+001 2.858694e+001 2.990900e+001 2.370638e+001 2.442095e+001 2.073880e+001 3.954215e+000 4.346184e+000 4.351101e+000 5.501248e+000 3.564915e+000 5.044885e+000 4.338846e+000 3.403043e+000 3.624327e+000 2.898222e+000 2.879631e+000 2.435488e+000 4.908998e+000
<GCONST> 1.044279e+002
<TRANSP> 5
 0.000000e+000 1.000000e+000 0.000000e+000 0.000000e+000 0.000000e+000
 0.000000e+000 4.039092e-001 5.960907e-001 0.000000e+000 0.000000e+000
 0.000000e+000 0.000000e+000 3.875003e-001 6.124998e-001 0.000000e+000
 0.000000e+000 0.000000e+000 0.000000e+000 4.408704e-001 5.591295e-001
 0.000000e+000 0.000000e+000 0.000000e+000 0.000000e+000 0.000000e+000
<ENDHMM>
~h "r"
<BEGINHMM>
<NUMSTATES> 5
<STATE> 2
<MEAN> 25
 3.339278e+000 -4.496822e+000 -1.814510e+000 2.354949e+000 -1.977906e+000 -3.362318e+000 -2.752123e+000 4.914581e-001 3.258449e+000 1.678364e+000 1.279358e+000 -9.983559e-001 4.404754e-001 -4.057021e-001 2.631811e-001 4.770120e-001 -2.520618e-001 -4.342332e-001 1.948669e-001 6.016630e-002 -2.061622e-002 9.438711e-002 5.530971e-002 -1.591206e-001 2.313318e-001
<VARIANCE> 25
 1.734834e+001 2.352447e+001 3.361055e+001 2.211773e+001 2.736315e+001 3.978994e+001 3.726817e+001 3.393156e+001 2.969899e+001 2.315141e+001 3.144342e+001 2.330961e+001 2.060440e+000 2.659928e+000 2.886269e+000 3.115649e+000 2.571092e+000 3.515357e+000 3.692944e+000 3.145672e+000 3.272761e+000 2.542416e+000 3.078593e+000 2.368412e+000 2.658089e+000
<GCONST> 9.946980e+001
<STATE> 3
<MEAN> 25
 3.729678e+000 -4.857317e+000 -1.488346e+000 2.678312e+000 -2.153645e+000 -3.761328e+000 -2.065300e+000 5.969015e-001 2.983271e+000 1.705535e+000 1.274653e+000 -1.129321e+000 1.977704e-001 -1.947268e-001 1.645006e-001 -1.375592e-002 -6.953443e-002 -1.221899e-001 4.233358e-001 8.155525e-002 -3.659123e-001 -4.641224e-002 1.798646e-002 -1.239674e-001 1.751965e-001
<VARIANCE> 25
 1.557108e+001 2.414581e+001 3.622893e+001 2.130889e+001 2.826822e+001 3.902458e+001 3.659537e+001 3.443463e+001 3.132808e+001 2.346902e+001 3.376636e+001 2.316750e+001 1.626915e+000 2.524020e+000 2.560307e+000 2.824792e+000 2.446342e+000 3.382429e+000 3.231464e+000 3.057858e+000 3.226235e+000 2.342971e+000 3.146286e+000 2.213439e+000 2.243845e+000
<GCONST> 9.849940e+001
<STATE> 4
<MEAN> 25
 3.823663e+000 -4.908970e+000 -1.446359e+000 2.205441e+000 -2.057365e+000 -3.677134e+000 -1.223883e+000 8.133464e-001 2.207138e+000 1.524197e+000 1.172326e+000 -1.318830e+000 5.281862e-002 1.114886e-001 1.222441e-001 -2.995311e-001 1.048649e-001 2.256983e-001 4.163888e-001 5.997599e-002 -5.978439e-001 -1.347473e-001 -2.277099e-002 -1.454671e-001 3.530204e-002
<VARIANCE> 25
 1.633911e+001 2.691141e+001 4.071254e+001 2.214898e+001 3.148647e+001 4.127008e+001 3.653372e+001 3.591641e+001 3.388079e+001 2.381255e+001 3.873829e+001 2.368193e+001 1.479326e+000 2.653082e+000 2.198328e+000 2.451260e+000 2.428123e+000 3.272763e+000 3.002051e+000 3.022202e+000 3.239791e+000 2.217184e+000 3.115728e+000 2.111094e+000 2.223969e+000
<GCONST> 9.868545e+001
<TRANSP> 5
 0.000000e+000 1.000000e+000 0.000000e+000 0.000000e+000 0.000000e+000
 0.000000e+000 3.526731e-001 6.473269e-001 0.000000e+000 0.000000e+000
 0.000000e+000 0.000000e+000 3.502341e-001 6.497658e-001 0.000000e+000
 0.000000e+000 0.000000e+000 0.000000e+000 4.121535e-001 5.878465e-001
 0.000000e+000 0.000000e+000 0.000000e+000 0.000000e+000 0.000000e+000
<ENDHMM>
~h "s"
<BEGINHMM>
<NUMSTATES> 5
<STATE> 2
<MEAN> 25
 -1.220910e+001 6.341445e+000 -7.562973e-002 4.292272e-001 7.736410e+000 -5.228707e+000 3.386822e+000 5.320126e+000 1.821426e+000 -1.879640e+000 -9.380667e-001 5.063101e+000 -2.505224e+000 4.404557e-001 -8.249527e-001 -2.955100e-001 9.153491e-001 -2.248116e-001 6.009929e-001 7.551668e-001 4.099213e-001 -4.543824e-001 2.531165e-001 8.584602e-001 1.116732e-001
<VARIANCE> 25
 4.326311e+001 2.126167e+001 2.759621e+001 1.843453e+001 2.811494e+001 3.879512e+001 5.678450e+001 3.115428e+001 3.308865e+001 2.356191e+001 2.627958e+001 2.635659e+001 5.348316e+000 3.194165e+000 2.458036e+000 1.782113e+000 2.954964e+000 2.884104e+000 3.767723e+000 3.773473e+000 2.994144e+000 2.572952e+000 2.369659e+000 2.444638e+000 1.262336e+000
<GCONST> 9.981894e+001
<STATE> 3
<MEAN> 25
 -1.530252e+001 5.440126e+000 -2.583806e+000 -4.489206e-001 8.051226e+000 -5.106609e+000 3.491538e+000 5.846415e+000 2.091702e+000 -1.954978e+000 -2.964773e-001 5.841434e+000 1.388747e-002 -5.593121e-001 -5.502545e-001 -8.758938e-002 -3.139725e-001 -4.074057e-003 -2.581581e-001 -3.024893e-001 1.594274e-001 1.137668e-001 4.969003e-002 -8.496615e-002 -5.067226e-001
<VARIANCE> 25
 2.036203e+001 2.285765e+001 2.249221e+001 1.779706e+001 2.738957e+001 3.669502e+001 5.248594e+001 3.280709e+001 3.213418e+001 2.253396e+001 2.318846e+001 2.244584e+001 5.963970e+000 2.305933e+000 2.158038e+000 1.586023e+000 2.653379e+000 2.632212e+000 3.687500e+000 3.746694e+000 2.827883e+000 2.189761e+000 2.027002e+000 2.303912e+000 1.420940e+000
<GCONST> 9.742272e+001
<STATE> 4
<MEAN> 25
 -1.181905e+001 3.257500e+000 -2.936892e+000 -2.132724e-001 5.828738e+000 -5.154546e+000 1.784640e+000 3.597907e+000 2.311247e+000 -1.194653e+000 -5.116235e-001 4.488532e+000 2.196007e+000 -8.141266e-001 1.579220e-001 6.447276e-002 -1.033462e+000 1.367747e-001 -7.580068e-001 -1.135144e+000 -1.768473e-001 4.022556e-001 7.235014e-002 -7.933849e-001 -4.715624e-001
<VARIANCE> 25
 4.694670e+001 2.834605e+001 2.260345e+001 1.877460e+001 3.540521e+001 4.295702e+001 5.702529e+001 4.137066e+001 3.610941e+001 2.227857e+001 2.172947e+001 2.377185e+001 5.594587e+000 2.261181e+000 2.088641e+000 1.828077e+000 2.558458e+000 3.028764e+000 4.011935e+000 4.088113e+000 3.153429e+000 2.252289e+000 2.268877e+000 2.465314e+000 2.466661e+000
<GCONST> 1.005288e+002
<TRANSP> 5
 0.000000e+000 1.000000e+000 0.000000e+000 0.000000e+000 0.000000e+000
 0.000000e+000 6.910116e-001 3.089884e-001 0.000000e+000 0.000000e+000
 0.000000e+000 0.000000e+000 6.440002e-001 3.559999e-001 0.000000e+000
 0.000000e+000 0.000000e+000 0.000000e+000 6.831540e-001 3.168460e-001
 0.000000e+000 0.000000e+000 0.000000e+000 0.000000e+000 0.000000e+000
<ENDHMM>
~h "t"
<BEGINHMM>
<NUMSTATES> 5
<STATE> 2
<MEAN> 25
 -3.546414e+000 3.791649e+000 -1.363146e-001 7.032071e-001 1.484525e+000 -2.138008e+000 3.644525e+000 9.855429e-001 3.713306e+000 -1.302499e+000 -7.026944e-001 2.613933e+000 -4.536879e-001 -9.766887e-001 -3.140529e-001 -4.014684e-001 -2.305257e-001 -1.104906e-001 -2.544745e-002 -3.539608e-001 1.002712e-001 -2.106009e-001 1.964798e-001 3.829068e-001 1.216448e-001
<VARIANCE> 25
 4.074763e+001 3.376405e+001 2.839218e+001 2.216085e+001 3.067155e+001 3.707098e+001 3.619072e+001 3.047434e+001 2.757508e+001 2.127659e+001 2.386950e+001 2.262461e+001 3.923695e+000 4.890613e+000 2.721142e+000 2.201484e+000 3.050031e+000 3.501090e+000 4.012506e+000 3.230054e+000 3.091539e+000 2.192928e+000 2.597355e+000 2.750992e+000 5.846163e+000
<GCONST> 1.016470e+002
<STATE> 3
<MEAN> 25
 -4.380589e+000 1.400876e+000 -8.928230e-001 -1.322154e-001 9.806612e-001 -2.485142e+000 3.172438e+000 3.130819e-001 3.484546e+000 -1.530162e+000 -1.930160e-001 3.215695e+000 2.253167e-002 -1.338727e+000 -3.444739e-001 -4.326328e-001 -5.430186e-001 -3.413603e-001 -7.527846e-001 -3.935471e-001 -3.648553e-001 7.548084e-002 3.314585e-001 -3.065406e-002 1.129682e+000
<VARIANCE> 25
 3.133952e+001 4.278843e+001 2.925674e+001 2.302918e+001 3.107664e+001 3.587127e+001 3.939598e+001 2.933701e+001 2.682654e+001 2.018270e+001 2.253071e+001 2.189110e+001 4.744153e+000 4.559980e+000 3.310081e+000 2.409495e+000 3.542441e+000 3.861533e+000 4.689110e+000 3.395495e+000 3.298724e+000 2.379179e+000 2.640978e+000 3.212033e+000 5.248562e+000
<GCONST> 1.026155e+002
<STATE> 4
<MEAN> 25
 -3.700123e+000 -7.305514e-001 -1.461317e+000 -7.524723e-001 -2.372196e-001 -3.322680e+000 1.284852e+000 -2.579780e-001 2.580765e+000 -1.148066e+000 2.987237e-001 2.671347e+000 9.142439e-001 -9.205812e-001 2.534722e-002 -1.945665e-001 -7.314453e-001 -2.335603e-001 -1.322921e+000 -2.848780e-001 -7.145332e-001 4.550370e-001 3.791701e-001 -7.046617e-001 1.504348e+000
<VARIANCE> 25
 3.017280e+001 3.981746e+001 3.206071e+001 2.377883e+001 3.419244e+001 3.658218e+001 4.792894e+001 2.928660e+001 3.063341e+001 2.050449e+001 2.252990e+001 2.466361e+001 4.770958e+000 4.295013e+000 4.117327e+000 2.763378e+000 3.825963e+000 3.995535e+000 4.731821e+000 3.660046e+000 3.525620e+000 2.519197e+000 2.785406e+000 3.255597e+000 4.248058e+000
<GCONST> 1.036816e+002
<TRANSP> 5
 0.000000e+000 1.000000e+000 0.000000e+000 0.000000e+000 0.000000e+000
 0.000000e+000 3.810981e-001 6.189020e-001 0.000000e+000 0.000000e+000
 0.000000e+000 0.000000e+000 3.762366e-001 6.237634e-001 0.000000e+000
 0.000000e+000 0.000000e+000 0.000000e+000 4.390998e-001 5.609002e-001
 0.000000e+000 0.000000e+000 0.000000e+000 0.000000e+000 0.000000e+000
<ENDHMM>
~h "u"
<BEGINHMM>
<NUMSTATES> 5
<STATE> 2
<MEAN> 25
 5.229672e+000 2.522450e+000 -1.736653e+000 -4.415611e+000 -2.094704e+000 5.302784e+000 -5.236071e+000 -3.936307e+000 -1.929540e+000 -1.263267e+000 3.160506e+000 -2.175786e-002 7.538242e-001 6.986054e-001 1.216224e-001 -7.965847e-001 -2.071483e-001 6.735069e-001 -3.641188e-001 -4.679237e-001 -4.955448e-001 -1.060739e-001 5.152343e-001 -8.268061e-002 3.563258e-002
<VARIANCE> 25
 2.609376e+001 4.454753e+001 2.823305e+001 6.143051e+001 3.820411e+001 4.872775e+001 6.466424e+001 4.027803e+001 4.151302e+001 3.569559e+001 4.268384e+001 2.695737e+001 3.116022e+000 3.082534e+000 2.583084e+000 4.790417e+000 3.854102e+000 4.792549e+000 5.893621e+000 4.855392e+000 4.616983e+000 3.544408e+000 4.319921e+000 2.977514e+000 2.538043e+000
<GCONST> 1.075358e+002
<STATE> 3
<MEAN> 25
 5.978195e+000 4.002469e+000 -1.069694e+000 -5.017959e+000 -2.200627e+000 6.040883e+000 -5.056764e+000 -4.110707e+000 -2.358694e+000 -1.546251e+000 3.485346e+000 9.335052e-002 -6.515291e-002 5.190161e-001 3.895779e-001 3.058450e-001 1.776926e-001 -1.375741e-001 2.764412e-001 1.219566e-001 1.453532e-001 -3.810586e-002 -1.512816e-001 1.092195e-001 -2.893782e-001
<VARIANCE> 25
 1.932113e+001 4.310459e+001 2.662790e+001 6.089421e+001 4.009763e+001 4.774649e+001 6.587357e+001 3.853148e+001 4.052548e+001 3.489490e+001 4.410844e+001 2.800007e+001 2.592670e+000 3.104489e+000 2.099203e+000 5.179173e+000 3.393255e+000 4.780491e+000 5.545812e+000 4.177197e+000 4.337566e+000 3.397207e+000 4.257897e+000 2.679470e+000 2.461798e+000
<GCONST> 1.062587e+002
<STATE> 4
<MEAN> 25
 5.160597e+000 5.177207e+000 -2.239639e-001 -3.382890e+000 -1.658914e+000 4.595973e+000 -3.691361e+000 -3.385468e+000 -1.196474e+000 -1.581278e+000 2.217451e+000 5.739917e-001 -8.489723e-001 1.004463e-001 4.049452e-001 9.899805e-001 4.296566e-001 -8.157954e-001 6.282538e-001 4.813347e-001 5.269939e-001 4.823079e-002 -5.702322e-001 2.168490e-001 -3.190728e-001
<VARIANCE> 25
 2.419234e+001 4.340137e+001 2.836200e+001 6.064969e+001 4.283603e+001 4.770341e+001 6.577161e+001 3.997737e+001 3.961221e+001 3.265395e+001 4.109866e+001 2.800735e+001 2.737882e+000 3.389059e+000 2.208606e+000 4.346175e+000 3.480427e+000 4.565166e+000 4.817903e+000 4.014944e+000 3.808877e+000 3.262519e+000 3.812992e+000 2.566787e+000 2.390069e+000
<GCONST> 1.059536e+002
<TRANSP> 5
 0.000000e+000 1.000000e+000 0.000000e+000 0.000000e+000 0.000000e+000
 0.000000e+000 5.392563e-001 4.607437e-001 0.000000e+000 0.000000e+000
 0.000000e+000 0.000000e+000 5.198014e-001 4.801987e-001 0.000000e+000
 0.000000e+000 0.000000e+000 0.000000e+000 6.067757e-001 3.932243e-001
 0.000000e+000 0.000000e+000 0.000000e+000 0.000000e+000 0.000000e+000
<ENDHMM>
~h "v"
<BEGINHMM>
<NUMSTATES> 5
<STATE> 2
<MEAN> 25
 4.276658e+000 -1.653313e+000 -2.937600e+000 -1.515556e+000 1.044403e+000 1.852064e+000 -2.465453e+000 -1.957519e+000 -5.158598e-001 2.412245e+000 1.531210e+000 -6.534609e-001 3.680089e-001 1.528512e-002 -6.897174e-002 -1.608975e-001 -1.431214e-001 1.645698e-001 -8.851708e-002 -2.240934e-002 -1.653481e-001 1.297537e-001 1.723635e-001 -1.105964e-002 3.855083e-002
<VARIANCE> 25
 2.760966e+001 3.026016e+001 3.301901e+001 3.518434e+001 2.866241e+001 4.786646e+001 3.990555e+001 3.548562e+001 3.218296e+001 2.772340e+001 3.713600e+001 2.740591e+001 2.176641e+000 3.053622e+000 2.299413e+000 3.101504e+000 2.647251e+000 3.736295e+000 3.100655e+000 3.551435e+000 3.087757e+000 2.713925e+000 2.727549e+000 2.359345e+000 2.560476e+000
<GCONST> 1.014084e+002
<STATE> 3
<MEAN> 25
 4.534462e+000 -1.723784e+000 -2.922310e+000 -1.690169e+000 6.888754e-001 1.915334e+000 -2.326867e+000 -1.595428e+000 -5.906897e-001 2.361635e+000 1.526251e+000 -7.008367e-001 8.747572e-002 -1.109796e-001 1.572051e-001 6.805579e-003 -3.381202e-001 -9.709683e-002 1.224530e-001 2.918237e-001 -8.397277e-002 -9.258880e-002 -6.962454e-002 -6.023461e-002 1.849326e-001
<VARIANCE> 25
 2.410511e+001 3.015150e+001 3.656480e+001 3.650261e+001 3.036459e+001 5.043380e+001 3.959798e+001 3.518089e+001 3.270986e+001 2.784834e+001 3.615259e+001 2.680015e+001 1.830672e+000 2.887872e+000 2.195246e+000 2.991030e+000 2.502196e+000 3.406297e+000 2.930991e+000 3.367044e+000 3.152265e+000 2.632590e+000 2.766172e+000 2.316093e+000 2.284780e+000
<GCONST> 1.007749e+002
<STATE> 4
<MEAN> 25
 4.380542e+000 -2.023117e+000 -2.673604e+000 -1.528971e+000 1.863045e-001 1.642328e+000 -1.883828e+000 -8.511026e-001 -5.122557e-001 1.990886e+000 1.039495e+000 -9.197671e-001 -1.488663e-001 -1.097173e-001 3.819978e-001 1.760151e-001 -4.188285e-001 -2.507655e-001 2.486417e-001 4.017430e-001 -8.106872e-002 -2.173382e-001 -1.981500e-001 -9.176295e-002 2.200959e-001
<VARIANCE> 25
 2.171331e+001 3.170576e+001 4.286299e+001 3.806055e+001 3.299540e+001 5.681412e+001 3.931936e+001 3.630232e+001 3.482869e+001 2.796513e+001 3.542841e+001 2.816673e+001 1.707785e+000 2.758790e+000 2.177560e+000 2.769818e+000 2.702003e+000 3.091203e+000 2.896350e+000 3.183359e+000 3.387203e+000 2.572122e+000 2.919985e+000 2.293355e+000 2.150509e+000
<GCONST> 1.009883e+002
<TRANSP> 5
 0.000000e+000 1.000000e+000 0.000000e+000 0.000000e+000 0.000000e+000
 0.000000e+000 3.341971e-001 6.658029e-001 0.000000e+000 0.000000e+000
 0.000000e+000 0.000000e+000 3.274915e-001 6.725085e-001 0.000000e+000
 0.000000e+000 0.000000e+000 0.000000e+000 3.848265e-001 6.151735e-001
 0.000000e+000 0.000000e+000 0.000000e+000 0.000000e+000 0.000000e+000
<ENDHMM>
~h "z"
<BEGINHMM>
<NUMSTATES> 5
<STATE> 2
<MEAN> 25
 -6.693098e+000 9.445864e+000 7.150748e-001 4.046667e-001 7.182507e+000 -9.443171e+000 -1.087718e+000 -3.539925e-001 3.824988e-001 8.956515e-001 -2.235284e+000 3.078152e+000 -1.742309e+000 1.489152e+000 -2.474021e-001 1.164354e-001 1.004902e+000 -7.976031e-001 5.773683e-001 2.452953e-001 4.403805e-001 -6.085156e-001 -3.277425e-001 1.007953e+000 -1.828421e-003
<VARIANCE> 25
 3.718018e+001 3.390763e+001 2.309048e+001 1.782159e+001 2.580168e+001 3.739592e+001 4.790192e+001 2.895466e+001 2.943162e+001 2.962160e+001 2.015280e+001 3.069127e+001 4.200977e+000 5.763556e+000 1.555053e+000 1.345804e+000 2.454211e+000 3.432867e+000 3.736782e+000 3.250052e+000 2.176232e+000 2.452036e+000 1.982680e+000 2.518602e+000 1.239360e+000
<GCONST> 9.846169e+001
<STATE> 3
<MEAN> 25
 -8.963049e+000 1.000328e+001 -3.142176e-003 3.834512e-001 8.010969e+000 -9.773237e+000 -7.101750e-001 5.512788e-001 8.733088e-001 -1.829624e-001 -2.406837e+000 4.347460e+000 3.088678e-001 -7.667137e-001 -2.812125e-001 -9.752630e-002 -1.851300e-001 1.213575e-001 -2.585038e-001 1.432451e-001 1.155446e-001 5.234518e-003 -9.797852e-003 -9.370860e-002 8.378213e-005
<VARIANCE> 25
 2.978183e+001 2.841593e+001 2.050473e+001 1.652294e+001 2.235550e+001 3.271200e+001 4.429322e+001 2.895504e+001 2.630380e+001 2.648650e+001 1.876976e+001 2.229040e+001 6.172045e+000 5.451602e+000 1.339628e+000 1.418103e+000 2.407373e+000 2.978967e+000 3.732782e+000 2.954020e+000 2.112638e+000 2.712828e+000 1.710453e+000 2.754345e+000 1.190515e+000
<GCONST> 9.684566e+001
<STATE> 4
<MEAN> 25
 -5.102190e+000 5.482950e+000 -7.159777e-001 -2.487163e-001 6.160886e+000 -8.601579e+000 -2.321733e+000 6.912202e-001 9.890192e-001 9.410009e-001 -2.215982e+000 2.536611e+000 1.885763e+000 -2.003850e+000 -2.508099e-001 -1.776135e-001 -8.753424e-001 8.985356e-001 -3.916298e-001 1.035464e-001 -1.463218e-002 4.444342e-001 1.751221e-001 -9.780774e-001 1.472838e-001
<VARIANCE> 25
 4.278165e+001 4.771302e+001 2.298107e+001 1.720042e+001 2.375491e+001 3.529705e+001 4.165197e+001 2.922760e+001 2.595590e+001 2.752803e+001 1.736791e+001 2.372921e+001 3.748143e+000 3.656194e+000 1.509247e+000 1.562662e+000 2.138731e+000 3.246504e+000 3.491690e+000 3.427892e+000 2.218440e+000 2.540433e+000 1.795723e+000 2.227447e+000 1.557856e+000
<GCONST> 9.743135e+001
<TRANSP> 5
 0.000000e+000 1.000000e+000 0.000000e+000 0.000000e+000 0.000000e+000
 0.000000e+000 6.530486e-001 3.469513e-001 0.000000e+000 0.000000e+000
 0.000000e+000 0.000000e+000 6.108090e-001 3.891910e-001 0.000000e+000
 0.000000e+000 0.000000e+000 0.000000e+000 6.498780e-001 3.501219e-001
 0.000000e+000 0.000000e+000 0.000000e+000 0.000000e+000 0.000000e+000
<ENDHMM>
~h "DZ"
<BEGINHMM>
<NUMSTATES> 5
<STATE> 2
<MEAN> 25
 -8.821998e-001 3.588373e+000 2.780311e+000 7.331707e+000 -2.450842e+000 1.060739e+000 1.375437e+000 -3.424476e+000 3.963390e+000 -3.057868e+000 -1.347479e+000 -8.514032e-001 -2.123793e+000 -2.067990e-001 -1.440747e-001 4.874310e-001 -2.605961e-001 1.078999e-001 2.391566e-001 -7.843019e-001 3.020584e-001 -8.303375e-001 3.731583e-001 5.069447e-001 1.386809e+000
<VARIANCE> 25
 5.668391e+001 4.258580e+001 2.669183e+001 2.669058e+001 2.105071e+001 3.793448e+001 3.212717e+001 3.920537e+001 2.784962e+001 2.944284e+001 3.115167e+001 2.151213e+001 7.524557e+000 6.394923e+000 2.500373e+000 3.453192e+000 2.242943e+000 6.169538e+000 5.264091e+000 2.864753e+000 3.229253e+000 2.707632e+000 3.729378e+000 2.626107e+000 5.277190e+000
<GCONST> 1.048264e+002
<STATE> 3
<MEAN> 25
 -5.998176e+000 1.725878e+000 1.908846e+000 6.488876e+000 -3.711000e+000 -3.294510e-002 1.427932e-001 -5.029193e+000 5.423755e+000 -4.881504e+000 1.046518e+000 8.674665e-001 7.472561e-002 -7.175744e-001 -3.122607e-001 -8.020812e-001 -3.775120e-001 -1.018014e+000 -1.184503e+000 -2.766815e-001 5.273489e-001 1.004316e-001 8.176900e-001 3.518264e-001 1.239881e+000
<VARIANCE> 25
 5.644221e+001 3.098287e+001 2.800865e+001 3.129495e+001 2.315014e+001 5.082207e+001 3.921017e+001 3.621341e+001 3.167936e+001 3.157046e+001 2.357232e+001 3.055791e+001 1.338942e+001 4.138960e+000 2.100358e+000 2.596373e+000 2.856846e+000 7.043380e+000 5.503670e+000 3.106714e+000 4.209575e+000 4.005460e+000 2.985623e+000 2.658752e+000 3.637458e+000
<GCONST> 1.057457e+002
<STATE> 4
<MEAN> 25
 -1.031650e+000 -6.697764e-001 1.016273e+000 3.886704e+000 -4.366739e+000 -2.819301e+000 -2.819064e+000 -4.836665e+000 6.310859e+000 -2.669320e+000 3.145678e+000 4.417044e-001 2.177970e+000 -8.162943e-001 -2.887879e-001 -1.086451e+000 1.747867e-001 4.238844e-002 -6.495464e-001 7.369667e-001 -3.493972e-001 1.117320e+000 5.816232e-001 -5.590374e-001 -1.513765e-002
<VARIANCE> 25
 4.711927e+001 2.636380e+001 2.522486e+001 2.495607e+001 3.265392e+001 3.922509e+001 3.417116e+001 3.686995e+001 3.555610e+001 3.233798e+001 2.134626e+001 3.346982e+001 5.869543e+000 3.212845e+000 2.163054e+000 1.779657e+000 3.148917e+000 9.531955e+000 4.699768e+000 3.300662e+000 3.963342e+000 3.602621e+000 3.002863e+000 2.206181e+000 2.034717e+000
<GCONST> 1.031176e+002
<TRANSP> 5
 0.000000e+000 1.000000e+000 0.000000e+000 0.000000e+000 0.000000e+000
 0.000000e+000 6.666825e-001 3.333175e-001 0.000000e+000 0.000000e+000
 0.000000e+000 0.000000e+000 5.966851e-001 4.033149e-001 0.000000e+000
 0.000000e+000 0.000000e+000 0.000000e+000 6.496338e-001 3.503662e-001
 0.000000e+000 0.000000e+000 0.000000e+000 0.000000e+000 0.000000e+000
<ENDHMM>
~h "a:"
<BEGINHMM>
<NUMSTATES> 5
<STATE> 2
<MEAN> 25
 2.978409e+000 -7.304977e+000 -7.260958e+000 -1.309738e+000 4.399905e+000 2.759478e+000 9.724790e-001 9.130331e-001 2.724526e+000 -4.151163e-001 -3.625782e+000 -5.071023e+000 2.711967e-001 -1.906738e-001 -3.031496e-001 1.667465e-001 3.348796e-001 6.810333e-001 2.153011e-001 1.003119e-001 -5.369120e-002 -1.935838e-001 -3.040367e-001 -6.679063e-001 -3.689741e-003
<VARIANCE> 25
 1.016518e+001 1.606676e+001 1.592330e+001 1.735593e+001 2.185480e+001 4.200931e+001 2.290045e+001 2.981179e+001 1.965557e+001 2.079610e+001 2.677571e+001 2.337635e+001 1.010730e+000 1.976575e+000 1.406464e+000 1.563826e+000 1.866268e+000 2.580788e+000 2.019311e+000 2.364861e+000 1.739052e+000 1.946087e+000 2.168862e+000 2.041347e+000 2.232130e+000
<GCONST> 9.059077e+001
<STATE> 3
<MEAN> 25
 3.716417e+000 -6.418374e+000 -7.216361e+000 -5.877081e-001 4.470335e+000 3.492142e+000 1.325646e+000 1.026944e+000 2.359898e+000 -4.286846e-001 -4.047205e+000 -6.119494e+000 2.376829e-001 6.013523e-001 2.234646e-001 2.494801e-001 -1.145714e-001 7.659973e-002 2.057101e-001 1.474359e-001 -9.093528e-002 3.350926e-002 -1.433445e-001 -1.742758e-001 -7.739898e-001
<VARIANCE> 25
 1.038072e+001 2.188403e+001 1.709156e+001 1.875692e+001 2.182037e+001 3.632914e+001 2.449805e+001 2.984642e+001 2.167017e+001 2.247506e+001 2.822915e+001 2.289140e+001 8.534888e-001 2.036755e+000 1.268512e+000 1.402654e+000 1.601745e+000 2.290514e+000 2.080145e+000 2.193758e+000 1.859627e+000 1.900273e+000 2.085759e+000 1.983479e+000 2.246234e+000
<GCONST> 9.051105e+001
<STATE> 4
<MEAN> 25
 4.131470e+000 -3.687933e+000 -5.988200e+000 8.540343e-002 3.694176e+000 3.019888e+000 2.249654e+000 1.612439e+000 2.296137e+000 -2.830129e-001 -4.549351e+000 -5.756857e+000 -1.184899e-001 9.864345e-001 5.789418e-001 1.144266e-001 -3.623514e-001 -2.839768e-001 2.834997e-001 9.980630e-002 -3.708242e-002 1.364518e-002 1.719761e-003 4.305423e-001 -9.931651e-001
<VARIANCE> 25
 1.415675e+001 3.246331e+001 2.081953e+001 2.113174e+001 2.321649e+001 3.750082e+001 2.978688e+001 3.240591e+001 2.842742e+001 2.497299e+001 3.209236e+001 2.620823e+001 1.730772e+000 2.555204e+000 1.488092e+000 1.718757e+000 1.873699e+000 2.335218e+000 2.572153e+000 2.492715e+000 2.313322e+000 2.255051e+000 2.451477e+000 2.287321e+000 2.580213e+000
<GCONST> 9.518910e+001
<TRANSP> 5
 0.000000e+000 1.000000e+000 0.000000e+000 0.000000e+000 0.000000e+000
 0.000000e+000 6.733996e-001 3.266004e-001 0.000000e+000 0.000000e+000
 0.000000e+000 0.000000e+000 6.328422e-001 3.671578e-001 0.000000e+000
 0.000000e+000 0.000000e+000 0.000000e+000 6.965851e-001 3.034149e-001
 0.000000e+000 0.000000e+000 0.000000e+000 0.000000e+000 0.000000e+000
<ENDHMM>
~h "cc"
<BEGINHMM>
<NUMSTATES> 5
<STATE> 2
<MEAN> 25
 -1.102815e+001 6.018969e+000 7.638701e+000 7.707852e-001 -4.724006e+000 5.423053e+000 -1.589438e+000 8.008184e-001 2.304587e+000 -1.495334e+000 -8.879440e-001 4.230714e+000 -2.555275e+000 -3.903989e-001 -1.267761e-002 -3.728242e-001 -4.940955e-001 1.309126e+000 3.604985e-001 -2.671944e-001 2.438065e-001 -7.246295e-002 1.880835e-001 2.919318e-001 4.633373e-001
<VARIANCE> 25
 5.258982e+001 2.605547e+001 2.071439e+001 3.245102e+001 2.880577e+001 4.797858e+001 2.787696e+001 3.056797e+001 2.788306e+001 1.988729e+001 2.457403e+001 1.713140e+001 4.930991e+000 4.337136e+000 2.085594e+000 2.118193e+000 2.594668e+000 4.604913e+000 3.181384e+000 2.433451e+000 2.987475e+000 1.959865e+000 2.192210e+000 1.596556e+000 1.834595e+000
<GCONST> 9.872249e+001
<STATE> 3
<MEAN> 25
 -1.530602e+001 2.102624e+000 6.371838e+000 6.004363e-001 -6.421315e+000 6.421820e+000 1.598694e-001 2.817462e-001 1.688517e+000 -1.722349e+000 4.559280e-001 4.732756e+000 1.355985e-001 -1.312567e+000 -4.769251e-001 1.120872e-001 -5.088826e-001 -7.072294e-001 3.161453e-001 -3.375062e-002 -4.328966e-001 -1.423550e-001 4.648402e-001 9.538140e-002 5.207418e-001
<VARIANCE> 25
 3.586048e+001 2.808640e+001 1.809112e+001 2.725032e+001 2.767346e+001 4.275346e+001 2.888578e+001 2.475243e+001 2.381797e+001 1.885718e+001 2.151914e+001 1.537583e+001 9.703288e+000 2.165657e+000 1.839062e+000 1.906775e+000 2.390093e+000 6.074521e+000 3.627309e+000 2.433089e+000 2.566942e+000 1.866860e+000 1.947112e+000 1.512875e+000 1.272498e+000
<GCONST> 9.666087e+001
<STATE> 4
<MEAN> 25
 -1.014959e+001 -1.465188e+000 4.923812e+000 1.423328e+000 -7.560310e+000 1.522631e+000 6.825348e-002 4.685874e-001 2.553376e-001 -2.233530e+000 1.604365e+000 4.536013e+000 2.690540e+000 -6.449770e-001 -1.957827e-001 1.621385e-001 1.498030e-001 -1.798036e+000 -6.381564e-001 4.256130e-002 -4.631629e-001 5.791178e-002 2.569318e-001 -3.691700e-001 2.503732e-001
<VARIANCE> 25
 7.376743e+001 2.105367e+001 1.964920e+001 2.129074e+001 2.871472e+001 5.715100e+001 3.183195e+001 2.384700e+001 2.893480e+001 1.788452e+001 1.952573e+001 1.442197e+001 6.503948e+000 2.095167e+000 2.152892e+000 1.681853e+000 2.843776e+000 4.718302e+000 4.139772e+000 2.570853e+000 2.940448e+000 1.990731e+000 2.105564e+000 1.702906e+000 1.554650e+000
<GCONST> 9.760137e+001
<TRANSP> 5
 0.000000e+000 1.000000e+000 0.000000e+000 0.000000e+000 0.000000e+000
 0.000000e+000 7.076117e-001 2.923883e-001 0.000000e+000 0.000000e+000
 0.000000e+000 0.000000e+000 6.800929e-001 3.199071e-001 0.000000e+000
 0.000000e+000 0.000000e+000 0.000000e+000 7.391179e-001 2.608822e-001
 0.000000e+000 0.000000e+000 0.000000e+000 0.000000e+000 0.000000e+000
<ENDHMM>
~h "e:"
<BEGINHMM>
<NUMSTATES> 5
<STATE> 2
<MEAN> 25
 2.178910e+000 -3.458148e+000 2.288743e+000 1.049980e+000 -5.236311e+000 -6.451221e+000 1.542877e-001 3.666588e+000 -3.694454e-001 8.492258e-001 1.424969e+000 4.839525e-001 3.111687e-001 6.216758e-002 6.796405e-002 1.004962e-001 2.622325e-002 -1.822422e-001 3.627439e-001 7.106825e-001 -1.019341e-001 1.661404e-001 -3.902234e-002 -7.470039e-002 -4.408476e-002
<VARIANCE> 25
 1.362732e+001 2.229480e+001 2.196209e+001 1.469616e+001 3.620411e+001 3.850856e+001 3.167065e+001 3.001167e+001 2.777101e+001 1.865422e+001 3.231918e+001 1.906159e+001 1.936523e+000 2.759994e+000 2.033137e+000 1.659623e+000 3.071980e+000 2.799186e+000 3.126899e+000 3.258653e+000 2.914931e+000 2.216146e+000 2.388700e+000 1.880127e+000 3.134516e+000
<GCONST> 9.608617e+001
<STATE> 3
<MEAN> 25
 2.446314e+000 -2.713648e+000 2.459176e+000 1.340556e+000 -4.736012e+000 -6.168007e+000 7.136525e-001 4.479565e+000 -5.468266e-001 1.013276e+000 9.848981e-001 2.671678e-001 -1.652830e-002 6.021655e-001 -9.767966e-003 1.843479e-001 5.203891e-001 2.252636e-001 2.808840e-001 2.185095e-001 1.048139e-001 -1.732486e-002 -3.292595e-001 -5.547348e-002 -6.749879e-001
<VARIANCE> 25
 1.529668e+001 2.638989e+001 2.061831e+001 1.518079e+001 3.632746e+001 3.473317e+001 3.375130e+001 2.918629e+001 3.010352e+001 1.976772e+001 3.255270e+001 2.058242e+001 1.838843e+000 2.996520e+000 1.775436e+000 1.570858e+000 2.736707e+000 2.356580e+000 3.128120e+000 3.083674e+000 2.976314e+000 2.036688e+000 2.102510e+000 1.941564e+000 2.989234e+000
<GCONST> 9.578916e+001
<STATE> 4
<MEAN> 25
 2.030487e+000 -9.922786e-001 2.380124e+000 1.757614e+000 -3.528313e+000 -5.585220e+000 1.347749e+000 4.313752e+000 -1.173671e-001 8.471916e-001 2.127342e-001 3.481307e-001 -4.672703e-001 8.222333e-001 -2.271626e-001 1.182863e-001 8.418276e-001 4.259730e-001 2.531401e-001 -3.232663e-001 3.349302e-001 -1.270413e-001 -3.220221e-001 1.030541e-001 -7.947512e-001
<VARIANCE> 25
 2.333304e+001 3.311516e+001 2.185442e+001 1.607951e+001 3.833291e+001 3.484411e+001 3.815785e+001 3.041881e+001 3.356854e+001 2.181056e+001 3.165668e+001 2.460450e+001 2.833100e+000 3.401312e+000 1.875304e+000 1.807653e+000 2.776945e+000 2.444924e+000 3.424837e+000 3.315542e+000 3.021400e+000 2.267702e+000 2.153891e+000 2.246296e+000 2.921108e+000
<GCONST> 9.837096e+001
<TRANSP> 5
 0.000000e+000 1.000000e+000 0.000000e+000 0.000000e+000 0.000000e+000
 0.000000e+000 4.560820e-001 5.439180e-001 0.000000e+000 0.000000e+000
 0.000000e+000 0.000000e+000 4.460778e-001 5.539222e-001 0.000000e+000
 0.000000e+000 0.000000e+000 0.000000e+000 5.220270e-001 4.779730e-001
 0.000000e+000 0.000000e+000 0.000000e+000 0.000000e+000 0.000000e+000
<ENDHMM>
~h "dz"
<BEGINHMM>
<NUMSTATES> 5
<STATE> 2
<MEAN> 25
 -4.692387e+000 4.251296e+000 9.126141e+000 2.950296e+000 -5.919389e+000 1.757470e+000 -3.035530e+000 7.086329e-001 8.532308e-001 -2.850550e+000 -7.309151e-001 4.438725e+000 -1.387429e+000 8.237361e-001 3.669818e-001 6.104378e-001 -8.362076e-001 6.196431e-001 2.374781e-001 -5.110474e-001 3.559565e-001 -5.563918e-001 -2.410307e-001 5.842714e-001 -1.556472e-001
<VARIANCE> 25
 4.376093e+001 3.124752e+001 2.504198e+001 2.525150e+001 2.250860e+001 3.630761e+001 2.969506e+001 3.674439e+001 3.008650e+001 1.627445e+001 1.894851e+001 1.783917e+001 5.772232e+000 6.228104e+000 2.234060e+000 2.304527e+000 2.315857e+000 5.616502e+000 2.931144e+000 2.102504e+000 3.801365e+000 2.181889e+000 2.687211e+000 1.779739e+000 1.477999e+000
<GCONST> 9.901078e+001
<STATE> 3
<MEAN> 25
 -6.713968e+000 4.211441e+000 8.830114e+000 4.097246e+000 -7.296106e+000 1.928777e+000 -2.527895e+000 -3.757044e-001 1.009727e+000 -3.392889e+000 -5.209907e-001 5.073065e+000 6.985418e-002 -6.375454e-001 -4.159698e-001 4.399257e-001 -2.722791e-001 -4.919485e-001 -7.540918e-002 -3.963833e-001 -1.790707e-001 -9.822428e-002 3.287873e-001 5.819655e-002 3.765038e-001
<VARIANCE> 25
 3.992289e+001 2.737748e+001 2.151446e+001 2.933863e+001 2.331709e+001 3.728040e+001 2.887883e+001 3.221188e+001 2.972943e+001 1.583193e+001 1.889120e+001 1.520157e+001 8.775599e+000 5.038450e+000 2.117036e+000 2.460864e+000 2.932513e+000 5.996859e+000 3.382251e+000 2.359892e+000 3.757739e+000 2.164309e+000 2.403701e+000 1.794948e+000 1.002912e+000
<GCONST> 9.875326e+001
<STATE> 4
<MEAN> 25
 -4.404458e+000 1.293176e+000 7.064462e+000 4.702546e+000 -7.000512e+000 -5.506095e-001 -3.152445e+000 -9.852056e-001 2.411010e-001 -3.161762e+000 6.824387e-001 4.617294e+000 1.590183e+000 -1.221140e+000 -9.399322e-001 -7.012881e-002 6.556188e-001 -8.785805e-001 -3.797965e-001 -1.596989e-001 -1.591646e-001 2.765128e-001 4.233243e-001 -5.163724e-001 3.647477e-001
<VARIANCE> 25
 4.621096e+001 2.949049e+001 2.093094e+001 3.313495e+001 2.460395e+001 3.776598e+001 3.470268e+001 3.076990e+001 2.765215e+001 1.737315e+001 1.948499e+001 1.471620e+001 6.280451e+000 3.073099e+000 1.799393e+000 2.603691e+000 3.249194e+000 5.021381e+000 4.330012e+000 2.948999e+000 3.530039e+000 2.386243e+000 2.428630e+000 2.031777e+000 9.632235e-001
<GCONST> 9.888037e+001
<TRANSP> 5
 0.000000e+000 1.000000e+000 0.000000e+000 0.000000e+000 0.000000e+000
 0.000000e+000 5.781439e-001 4.218561e-001 0.000000e+000 0.000000e+000
 0.000000e+000 0.000000e+000 5.533419e-001 4.466581e-001 0.000000e+000
 0.000000e+000 0.000000e+000 0.000000e+000 6.008810e-001 3.991190e-001
 0.000000e+000 0.000000e+000 0.000000e+000 0.000000e+000 0.000000e+000
<ENDHMM>
~h "i:"
<BEGINHMM>
<NUMSTATES> 5
<STATE> 2
<MEAN> 25
 -8.877215e-001 8.685207e-001 1.171111e+001 3.825250e-001 -9.131504e+000 -1.851127e-002 -3.137152e+000 -3.777367e+000 -6.884519e+000 4.943305e-001 2.923900e+000 -5.143809e-001 8.474755e-002 2.706894e-001 1.295473e+000 -1.501437e-001 -1.018186e+000 4.256096e-001 -3.061841e-001 -3.485686e-001 -1.027406e+000 2.385014e-001 3.741691e-001 -3.707795e-001 5.240774e-001
<VARIANCE> 25
 1.752691e+001 2.212620e+001 3.042777e+001 2.715396e+001 3.115425e+001 5.361020e+001 3.077250e+001 2.889969e+001 3.355558e+001 1.985393e+001 2.797618e+001 1.883188e+001 2.283520e+000 2.253105e+000 3.779186e+000 2.939260e+000 4.714644e+000 3.865008e+000 4.130796e+000 2.874125e+000 4.259807e+000 2.075549e+000 2.641013e+000 2.183635e+000 2.763844e+000
<GCONST> 9.997473e+001
<STATE> 3
<MEAN> 25
 -6.154528e-001 1.748435e+000 1.283795e+001 6.289918e-001 -9.350348e+000 7.040154e-001 -3.016645e+000 -3.961424e+000 -7.785498e+000 7.672208e-001 3.118542e+000 -1.003030e+000 -7.842944e-002 4.669394e-001 -2.219584e-001 3.129901e-001 6.483314e-001 -1.028839e-001 3.202801e-001 1.688857e-001 1.595857e-001 -1.117109e-001 -1.698817e-001 1.512590e-001 -1.956467e-001
<VARIANCE> 25
 1.413171e+001 2.183438e+001 2.187761e+001 2.688367e+001 2.954325e+001 5.458238e+001 2.901452e+001 2.625195e+001 2.910740e+001 1.972587e+001 2.707706e+001 1.815927e+001 2.169899e+000 2.520661e+000 3.224934e+000 2.506520e+000 4.556906e+000 4.019520e+000 3.460410e+000 2.705815e+000 3.771049e+000 1.976949e+000 2.573377e+000 2.370364e+000 2.236924e+000
<GCONST> 9.818359e+001
<STATE> 4
<MEAN> 25
 -1.091582e+000 2.860103e+000 1.048719e+001 1.876747e+000 -5.985962e+000 -3.591566e-001 -1.667475e+000 -3.048346e+000 -5.974478e+000 -7.594375e-002 2.076264e+000 1.461042e-001 -4.456631e-001 2.882361e-001 -1.441731e+000 4.503956e-001 1.700160e+000 -4.179227e-001 4.411985e-001 4.003267e-001 1.006518e+000 -3.464032e-001 -5.160179e-001 5.682978e-001 -3.414559e-001
<VARIANCE> 25
 2.583130e+001 2.920185e+001 2.897429e+001 2.764229e+001 4.183801e+001 5.793120e+001 3.926208e+001 2.941579e+001 3.281380e+001 2.212421e+001 2.700688e+001 2.309203e+001 3.039642e+000 3.057346e+000 2.750182e+000 2.799631e+000 3.918149e+000 3.992836e+000 3.382882e+000 3.242986e+000 3.474898e+000 2.388285e+000 2.519326e+000 2.567947e+000 1.886280e+000
<GCONST> 1.011601e+002
<TRANSP> 5
 0.000000e+000 1.000000e+000 0.000000e+000 0.000000e+000 0.000000e+000
 0.000000e+000 6.681026e-001 3.318974e-001 0.000000e+000 0.000000e+000
 0.000000e+000 0.000000e+000 6.118497e-001 3.881504e-001 0.000000e+000
 0.000000e+000 0.000000e+000 0.000000e+000 6.520462e-001 3.479538e-001
 0.000000e+000 0.000000e+000 0.000000e+000 0.000000e+000 0.000000e+000
<ENDHMM>
~h "o:"
<BEGINHMM>
<NUMSTATES> 5
<STATE> 2
<MEAN> 25
 5.173542e+000 -1.074452e+000 -7.082876e+000 -9.766473e+000 -3.084345e+000 9.327964e+000 -9.734084e-001 -2.990350e+000 -8.289206e-001 5.687697e-002 4.442985e+000 -4.933931e-001 5.975969e-001 -5.639152e-002 -1.428146e-001 -1.153818e+000 -3.565692e-001 9.628607e-001 -1.492002e-001 -1.020741e-001 -1.220104e-001 3.339796e-001 6.895319e-001 -3.261300e-001 8.183450e-001
<VARIANCE> 25
 1.552295e+001 2.568863e+001 2.299790e+001 4.506770e+001 3.967319e+001 4.159118e+001 4.417171e+001 2.962232e+001 3.102079e+001 3.167554e+001 3.189569e+001 2.530645e+001 1.954878e+000 2.568578e+000 2.823927e+000 5.555501e+000 3.843029e+000 4.344196e+000 3.925503e+000 3.041914e+000 3.011490e+000 3.053938e+000 2.866328e+000 2.411576e+000 3.199188e+000
<GCONST> 1.020245e+002
<STATE> 3
<MEAN> 25
 5.914456e+000 -1.257561e+000 -6.497733e+000 -1.004379e+001 -2.677707e+000 1.006154e+001 -1.618459e+000 -3.075910e+000 -8.926297e-001 1.276801e+000 5.478629e+000 -1.263611e+000 1.119488e-001 8.706364e-002 5.337650e-001 5.340381e-001 4.040637e-001 -3.404580e-001 -2.907098e-001 1.651301e-001 1.935672e-001 4.059199e-001 3.681396e-002 -3.017506e-001 -6.776948e-002
<VARIANCE> 25
 1.061608e+001 2.364427e+001 1.995782e+001 3.783527e+001 3.586429e+001 3.986155e+001 4.823116e+001 2.778508e+001 3.059272e+001 3.567192e+001 3.107651e+001 2.491065e+001 1.464020e+000 2.653087e+000 2.122300e+000 4.359895e+000 3.317562e+000 4.340711e+000 4.345141e+000 2.887380e+000 3.043221e+000 3.009646e+000 3.035672e+000 2.662190e+000 3.053373e+000
<GCONST> 1.004109e+002
<STATE> 4
<MEAN> 25
 5.765337e+000 -7.440986e-001 -4.800337e+000 -7.342717e+000 -1.139440e+000 7.859788e+000 -2.328946e+000 -2.405854e+000 -1.161208e-001 2.143916e+000 4.694242e+000 -1.797458e+000 -5.350711e-001 4.364770e-001 9.627968e-001 1.482196e+000 6.277308e-001 -1.453260e+000 -9.072435e-003 5.448379e-001 5.188735e-001 -4.450505e-003 -7.271895e-001 2.542243e-002 -6.762738e-001
<VARIANCE> 25
 1.321730e+001 3.042203e+001 2.286472e+001 4.181310e+001 3.469751e+001 4.728802e+001 5.751577e+001 3.138069e+001 3.220808e+001 3.569683e+001 3.421315e+001 2.655659e+001 2.552784e+000 3.204431e+000 2.081742e+000 3.278936e+000 3.259392e+000 3.972837e+000 4.650062e+000 3.437397e+000 3.503703e+000 3.247337e+000 3.149842e+000 2.965231e+000 2.562629e+000
<GCONST> 1.025288e+002
<TRANSP> 5
 0.000000e+000 1.000000e+000 0.000000e+000 0.000000e+000 0.000000e+000
 0.000000e+000 6.144413e-001 3.855586e-001 0.000000e+000 0.000000e+000
 0.000000e+000 0.000000e+000 5.611729e-001 4.388271e-001 0.000000e+000
 0.000000e+000 0.000000e+000 0.000000e+000 6.007845e-001 3.992154e-001
 0.000000e+000 0.000000e+000 0.000000e+000 0.000000e+000 0.000000e+000
<ENDHMM>
~h "r:"
<BEGINHMM>
<NUMSTATES> 5
<STATE> 2
<MEAN> 25
 2.854384e+000 -4.672973e+000 -1.793060e+000 1.286742e+000 -5.556795e-001 -5.453823e+000 -3.268051e+000 -7.505109e-001 3.692907e+000 3.146603e+000 1.216481e+000 -1.354813e+000 7.407591e-001 -1.076166e-001 7.476724e-001 7.228412e-001 -4.891040e-001 -6.106440e-002 -5.938946e-002 -3.425286e-001 -9.337381e-003 4.744966e-001 4.324816e-001 -4.102831e-001 7.169843e-002
<VARIANCE> 25
 1.785453e+001 2.320580e+001 2.991446e+001 2.025854e+001 2.322245e+001 3.140522e+001 2.430616e+001 2.454565e+001 2.646961e+001 2.118160e+001 2.073289e+001 2.096633e+001 2.711538e+000 2.706231e+000 2.588780e+000 2.919147e+000 2.251792e+000 3.297049e+000 3.060546e+000 2.866126e+000 2.669518e+000 2.337997e+000 2.349866e+000 2.081198e+000 2.905520e+000
<GCONST> 9.644460e+001
<STATE> 3
<MEAN> 25
 3.397312e+000 -4.416288e+000 -6.987822e-001 2.424551e+000 -1.204425e+000 -5.063471e+000 -2.902371e+000 -1.725765e+000 3.574890e+000 3.579441e+000 1.759066e+000 -1.601662e+000 1.681219e-001 2.569566e-001 5.088583e-001 2.813331e-001 -3.036605e-001 4.333087e-001 7.055651e-002 -5.037892e-001 -2.216530e-001 7.206146e-002 2.096232e-001 -5.373492e-002 -4.034647e-001
<VARIANCE> 25
 1.961579e+001 2.558071e+001 3.330011e+001 1.989693e+001 2.349492e+001 3.239820e+001 2.480210e+001 2.608815e+001 3.148095e+001 2.122234e+001 2.162557e+001 1.998645e+001 2.026596e+000 2.700325e+000 2.084430e+000 2.904089e+000 1.972950e+000 3.473228e+000 2.746732e+000 2.635563e+000 2.708516e+000 2.185363e+000 2.397763e+000 1.868556e+000 2.393431e+000
<GCONST> 9.589697e+001
<STATE> 4
<MEAN> 25
 3.357695e+000 -3.319877e+000 -1.938299e-001 2.247161e+000 -1.507085e+000 -3.641672e+000 -2.642309e+000 -2.565969e+000 2.937364e+000 3.282531e+000 1.953333e+000 -1.349898e+000 -1.190974e-001 6.542903e-001 3.300210e-001 -1.721647e-001 -9.246252e-002 8.740440e-001 9.965916e-002 -4.178522e-001 -4.606614e-001 -2.439784e-001 1.152554e-001 1.546972e-001 -5.502434e-001
<VARIANCE> 25
 3.040787e+001 3.079938e+001 4.075080e+001 2.111599e+001 2.630820e+001 3.559512e+001 2.689160e+001 2.779513e+001 3.903664e+001 2.146475e+001 2.573381e+001 2.019846e+001 2.197205e+000 3.003215e+000 1.851888e+000 2.473769e+000 2.041389e+000 3.614269e+000 2.691150e+000 2.591167e+000 3.057297e+000 2.141805e+000 2.721638e+000 1.955347e+000 2.336638e+000
<GCONST> 9.773883e+001
<TRANSP> 5
 0.000000e+000 1.000000e+000 0.000000e+000 0.000000e+000 0.000000e+000
 0.000000e+000 4.996961e-001 5.003038e-001 0.000000e+000 0.000000e+000
 0.000000e+000 0.000000e+000 4.894282e-001 5.105718e-001 0.000000e+000
 0.000000e+000 0.000000e+000 0.000000e+000 5.519510e-001 4.480490e-001
 0.000000e+000 0.000000e+000 0.000000e+000 0.000000e+000 0.000000e+000
<ENDHMM>
~h "u:"
<BEGINHMM>
<NUMSTATES> 5
<STATE> 2
<MEAN> 25
 5.246951e+000 2.464764e+000 -1.904380e+000 -6.862877e+000 -3.634346e+000 7.044108e+000 -6.810998e+000 -5.118553e+000 -1.732777e+000 -2.801824e+000 4.910861e+000 -6.507346e-001 1.084405e+000 5.403819e-001 -9.259266e-002 -1.526549e+000 -5.234798e-001 1.423422e+000 -2.187742e-001 -6.834120e-001 -7.128776e-001 -3.599713e-001 9.252123e-001 -2.671770e-001 3.600094e-001
<VARIANCE> 25
 2.171751e+001 3.959821e+001 2.530973e+001 6.569543e+001 3.730717e+001 5.196699e+001 6.001875e+001 4.598497e+001 4.121471e+001 3.486210e+001 4.784266e+001 2.741354e+001 3.135609e+000 3.617014e+000 3.203479e+000 6.427200e+000 4.614461e+000 5.228168e+000 6.560403e+000 5.560889e+000 5.603303e+000 3.936556e+000 5.326529e+000 2.974024e+000 2.525215e+000
<GCONST> 1.090779e+002
<STATE> 3
<MEAN> 25
 6.693266e+000 3.363607e+000 -1.445242e+000 -8.345054e+000 -4.111977e+000 9.400343e+000 -6.057570e+000 -5.657240e+000 -2.581430e+000 -3.445992e+000 5.992326e+000 -8.676777e-001 1.442583e-001 1.331380e-001 2.081816e-001 4.247342e-001 2.734993e-001 1.011450e-001 4.657201e-001 -9.978464e-002 1.305214e-001 6.311601e-002 -1.777439e-001 3.716119e-002 -2.100653e-001
<VARIANCE> 25
 1.230324e+001 3.413773e+001 2.050879e+001 5.182072e+001 3.609270e+001 4.679242e+001 5.892912e+001 4.687971e+001 3.758146e+001 3.582262e+001 4.823836e+001 2.982559e+001 1.943637e+000 3.358076e+000 2.083207e+000 6.940546e+000 4.326746e+000 5.697500e+000 5.925116e+000 5.069018e+000 4.794106e+000 3.950063e+000 5.557712e+000 2.964172e+000 2.271898e+000
<GCONST> 1.065061e+002
<STATE> 4
<MEAN> 25
 6.033829e+000 3.240796e+000 -8.941109e-001 -4.780200e+000 -2.213243e+000 7.608469e+000 -4.478076e+000 -5.327184e+000 -1.232390e+000 -2.501594e+000 4.124574e+000 -5.402012e-001 -7.230040e-001 -1.561151e-001 2.891123e-001 1.544814e+000 8.468175e-001 -1.205650e+000 7.138022e-001 3.326924e-001 5.351536e-001 4.173245e-001 -9.558963e-001 2.419350e-001 -3.652585e-001
<VARIANCE> 25
 1.689107e+001 3.764450e+001 2.449866e+001 5.612941e+001 4.139013e+001 4.827181e+001 6.480344e+001 5.093786e+001 3.741677e+001 3.542555e+001 4.711708e+001 3.194759e+001 2.346648e+000 3.568458e+000 2.357162e+000 5.159392e+000 4.412259e+000 5.715068e+000 5.854479e+000 5.310055e+000 4.464606e+000 3.914067e+000 4.979158e+000 3.176516e+000 2.567848e+000
<GCONST> 1.076889e+002
<TRANSP> 5
 0.000000e+000 1.000000e+000 0.000000e+000 0.000000e+000 0.000000e+000
 0.000000e+000 6.932383e-001 3.067617e-001 0.000000e+000 0.000000e+000
 0.000000e+000 0.000000e+000 6.448029e-001 3.551971e-001 0.000000e+000
 0.000000e+000 0.000000e+000 0.000000e+000 6.837977e-001 3.162023e-001
 0.000000e+000 0.000000e+000 0.000000e+000 0.000000e+000 0.000000e+000
<ENDHMM>
~h "sil"
<BEGINHMM>
<NUMSTATES> 5
<STATE> 2
<MEAN> 25
 -3.006198e+000 -4.025410e-003 -1.163749e+000 1.088973e+000 1.419135e+000 1.070768e+000 4.514154e+000 9.220775e-001 2.180413e+000 -1.971659e+000 -1.700962e+000 2.484243e+000 -2.333736e-001 -1.315120e-001 5.238666e-002 -8.793738e-002 -1.152070e-002 -1.686462e-002 -9.447468e-002 -2.384596e-002 1.802076e-002 -3.216375e-002 8.602184e-002 1.206650e-001 -1.657383e-001
<VARIANCE> 25
 2.087419e+001 3.376548e+001 2.340243e+001 1.790939e+001 2.388829e+001 2.408623e+001 2.446295e+001 2.752683e+001 2.919170e+001 2.198252e+001 2.382088e+001 2.225871e+001 7.856222e-001 1.406190e+000 1.141235e+000 1.197374e+000 1.542538e+000 1.756085e+000 1.907340e+000 1.991444e+000 2.125613e+000 1.839780e+000 1.718582e+000 1.655387e+000 1.536673e+000
<GCONST> 8.972961e+001
<STATE> 3
<MEAN> 25
 -2.859564e+000 -7.857075e-001 -1.097561e+000 4.775624e-001 8.709842e-001 8.662363e-001 3.522746e+000 4.706838e-001 1.715565e+000 -1.815364e+000 -1.524644e+000 2.046818e+000 -8.034304e-002 -9.412915e-002 5.794873e-002 -9.343669e-002 -8.652997e-002 -6.978758e-002 -1.627285e-001 -2.935950e-002 5.288079e-002 1.548749e-002 1.074388e-001 -1.328260e-002 1.116402e-001
<VARIANCE> 25
 2.531515e+001 3.770953e+001 2.995911e+001 2.257267e+001 2.870056e+001 2.897612e+001 2.981919e+001 3.028839e+001 3.178972e+001 2.341634e+001 2.580663e+001 2.594566e+001 1.171925e+000 2.088172e+000 1.671438e+000 1.611419e+000 2.011007e+000 2.249346e+000 2.521444e+000 2.444331e+000 2.509929e+000 2.105957e+000 1.985461e+000 1.972942e+000 3.264342e+000
<GCONST> 9.540041e+001
<STATE> 4
<MEAN> 25
