~o
<STREAMINFO> 1 25
<VECSIZE> 25<NULLD><MFCC_D_N_Z_0><DIAGC>
~s "silst"
<MEAN> 25
 -2.291136e+000 9.196165e-001 -1.096015e+000 8.073034e-001 1.454346e+000 1.942322e-001 3.177438e+000 1.131902e+000 2.627168e+000 -1.122053e+000 -2.054031e+000 1.607405e+000 -1.585347e-001 7.850161e-002 6.288707e-002 -1.717371e-002 -1.028139e-001 4.783024e-002 -3.428241e-002 -1.053983e-001 -1.675672e-002 -4.516915e-003 1.185852e-002 5.892369e-002 -2.816367e-001
<VARIANCE> 25
 3.018332e+001 4.367376e+001 2.868915e+001 2.345984e+001 3.124707e+001 3.657309e+001 3.532547e+001 3.281190e+001 2.989394e+001 2.630269e+001 3.046139e+001 2.819649e+001 1.962632e+000 2.689439e+000 1.975658e+000 1.985213e+000 2.463110e+000 2.718675e+000 3.037367e+000 2.867294e+000 2.611717e+000 2.360503e+000 2.229465e+000 2.048148e+000 2.996124e+000
<GCONST> 9.869347e+001
~h "C"
<BEGINHMM>
<NUMSTATES> 5
<STATE> 2
<MEAN> 25
 -5.879195e+000 -1.518926e+000 1.065948e+000 4.493795e+000 -4.429019e+000 2.990467e+000 3.018393e+000 -2.026033e+000 4.324581e+000 -1.829651e+000 3.916560e-002 2.634303e+000 -4.610127e+000 -1.142113e+000 -9.749936e-001 1.430651e-001 -8.249852e-001 7.193971e-001 -4.798520e-001 -4.767146e-001 7.528429e-001 -1.039865e+000 2.379099e-001 1.191253e+000 2.815160e+000
<VARIANCE> 25
 5.014664e+001 4.699047e+001 3.229918e+001 2.678959e+001 2.921635e+001 3.802673e+001 3.272064e+001 3.512698e+001 2.557303e+001 2.355561e+001 2.786352e+001 2.247924e+001 2.346417e+000 4.922766e+000 3.042540e+000 2.195741e+000 3.597975e+000 3.874729e+000 4.581437e+000 4.788153e+000 4.163097e+000 3.290230e+000 3.198528e+000 2.601887e+000 2.672908e+000
<GCONST> 1.031640e+002
<STATE> 3
<MEAN> 25
 -1.785372e+001 1.213193e+000 7.602198e-001 4.297109e+000 -2.672343e+000 2.797746e+000 -1.332291e+000 4.183525e-001 9.796808e+000 -5.597788e+000 -1.278367e+000 4.500422e+000 -2.195144e-002 2.661655e-001 -5.224761e-002 -5.220095e-002 7.976640e-001 -9.437571e-001 -9.345040e-001 8.565890e-001 6.615601e-001 -7.849061e-001 -9.066007e-002 -1.659764e-001 -5.786293e-001
<VARIANCE> 25
 1.223111e+001 1.727030e+001 2.058279e+001 2.359237e+001 2.798746e+001 3.281050e+001 3.726006e+001 4.790918e+001 4.277116e+001 3.392347e+001 2.834446e+001 2.953926e+001 5.696875e+000 2.923245e+000 2.027665e+000 1.617226e+000 2.447149e+000 3.494743e+000 3.698688e+000 5.079891e+000 4.788284e+000 2.867430e+000 2.261276e+000 2.183315e+000 1.633491e+000
<GCONST> 9.959187e+001
<STATE> 4
<MEAN> 25
 -8.142941e+000 -1.652580e+000 -1.828847e-001 3.357722e+000 -3.070850e+000 -2.018678e+000 -2.924355e+000 8.188534e-001 5.815640e+000 -5.755871e+000 7.270910e-001 2.411317e+000 4.581481e+000 -8.273124e-001 2.010820e-001 -6.980899e-001 -1.999127e-001 -1.355103e+000 -4.185058e-001 -4.676035e-001 -2.064537e+000 1.362813e+000 7.918525e-001 -1.268729e+000 3.004672e-001
<VARIANCE> 25
 4.833358e+001 1.742031e+001 2.132902e+001 2.104474e+001 3.649364e+001 3.712957e+001 3.266812e+001 5.489846e+001 5.384268e+001 3.056446e+001 2.359596e+001 2.490305e+001 2.379724e+000 2.020004e+000 2.436526e+000 2.006125e+000 2.306428e+000 4.637287e+000 3.488697e+000 3.630909e+000 3.301200e+000 2.984068e+000 2.673728e+000 2.058141e+000 2.261141e+000
<GCONST> 1.001492e+002
<TRANSP> 5
 0.000000e+000 1.000000e+000 0.000000e+000 0.000000e+000 0.000000e+000
 0.000000e+000 6.610205e-001 3.389795e-001 0.000000e+000 0.000000e+000
 0.000000e+000 0.000000e+000 6.515630e-001 3.484370e-001 0.000000e+000
 0.000000e+000 0.000000e+000 0.000000e+000 5.924885e-001 4.075115e-001
 0.000000e+000 0.000000e+000 0.000000e+000 0.000000e+000 0.000000e+000
<ENDHMM>
~h "L"
<BEGINHMM>
<NUMSTATES> 5
<STATE> 2
<MEAN> 25
 1.814951e+000 -8.786422e-001 7.839593e+000 2.609405e+000 -3.630460e+000 -4.587707e+000 -2.406677e+000 6.556626e-001 -3.055835e+000 -1.985708e+000 4.313389e-001 2.531253e+000 -1.743064e-001 6.253518e-001 1.824306e+000 8.005743e-002 -5.532150e-001 -2.255510e-002 -1.346063e-002 -3.796966e-002 -1.502177e+000 -6.667415e-001 1.385179e-001 2.581830e-001 -2.261577e-001
<VARIANCE> 25
 1.357836e+001 2.382736e+001 1.898156e+001 2.235411e+001 2.047975e+001 2.467546e+001 3.296322e+001 2.708007e+001 3.194514e+001 2.302177e+001 2.363856e+001 1.618305e+001 1.639158e+000 2.136223e+000 2.600858e+000 2.415796e+000 2.455422e+000 2.771114e+000 3.660246e+000 3.391407e+000 3.082259e+000 2.386011e+000 2.243866e+000 1.819690e+000 1.754272e+000
<GCONST> 9.483508e+001
<STATE> 3
<MEAN> 25
 5.939884e-001 3.179469e-001 1.062050e+001 1.237973e+000 -4.284920e+000 -3.501372e+000 -3.390598e+000 1.415848e-001 -6.498900e+000 -2.123249e+000 1.892387e+000 3.151804e+000 -9.423805e-002 -6.517192e-001 -1.399263e-001 -7.750990e-001 -9.937902e-001 5.685434e-002 -6.168913e-001 4.880788e-001 2.221805e-002 5.289048e-001 7.976389e-001 3.380036e-001 1.014344e+000
<VARIANCE> 25
 7.492805e+000 1.733116e+001 1.562711e+001 1.933994e+001 2.155941e+001 2.425923e+001 2.394355e+001 2.224681e+001 2.063045e+001 2.024111e+001 1.995549e+001 1.600028e+001 1.208172e+000 1.619395e+000 1.718156e+000 1.969687e+000 1.981367e+000 2.022560e+000 3.210568e+000 2.471891e+000 2.638552e+000 1.677743e+000 1.738337e+000 1.873599e+000 9.332027e-001
<GCONST> 8.881187e+001
<STATE> 4
<MEAN> 25
 1.565690e+000 -2.731457e+000 6.718961e+000 3.646618e-001 -6.641097e+000 -4.334269e+000 -3.543703e+000 3.144614e+000 -3.415090e+000 -6.393763e-001 3.051131e+000 2.834401e+000 5.073990e-001 -5.361469e-001 -1.607765e+000 -5.565581e-002 2.397950e-001 3.383045e-001 1.895976e-002 6.494333e-001 7.704962e-001 4.770490e-001 -4.271812e-002 -9.110118e-001 4.312434e-001
<VARIANCE> 25
 6.010054e+000 1.437747e+001 1.941917e+001 2.092677e+001 1.760765e+001 2.530558e+001 4.435480e+001 2.237082e+001 2.010442e+001 1.965835e+001 1.802798e+001 1.456867e+001 6.842658e-001 1.450323e+000 2.012128e+000 1.440826e+000 2.406212e+000 2.117250e+000 4.618870e+000 2.893721e+000 2.226699e+000 2.019778e+000 2.473429e+000 1.862656e+000 7.810821e-001
<GCONST> 8.902458e+001
<TRANSP> 5
 0.000000e+000 1.000000e+000 0.000000e+000 0.000000e+000 0.000000e+000
 0.000000e+000 5.221009e-001 4.778991e-001 0.000000e+000 0.000000e+000
 0.000000e+000 0.000000e+000 5.217276e-001 4.782724e-001 0.000000e+000
 0.000000e+000 0.000000e+000 0.000000e+000 5.129081e-001 4.870919e-001
 0.000000e+000 0.000000e+000 0.000000e+000 0.000000e+000 0.000000e+000
<ENDHMM>
~h "N"
<BEGINHMM>
<NUMSTATES> 5
<STATE> 2
<MEAN> 25
 3.752058e+000 2.352702e+000 4.584812e+000 9.992019e-001 1.445665e-001 2.038932e+000 1.964532e+000 5.172324e-001 -4.952734e+000 -1.956924e+000 -4.587956e+000 -2.792414e-001 3.847150e-001 1.464166e+000 8.372998e-001 -4.570780e-002 2.877832e-001 4.680842e-001 -6.174458e-001 -8.887361e-001 -4.334349e-001 1.653512e-001 -1.684360e-001 7.305029e-002 -7.506729e-001
<VARIANCE> 25
 1.443846e+001 3.103554e+001 1.631243e+001 2.312681e+001 2.192839e+001 2.624865e+001 2.948298e+001 3.545923e+001 2.190140e+001 2.123356e+001 2.209819e+001 1.564034e+001 2.081416e+000 2.267409e+000 2.349054e+000 2.731417e+000 2.385367e+000 2.780077e+000 2.486000e+000 2.695958e+000 3.007938e+000 1.843433e+000 1.732942e+000 1.588944e+000 2.444162e+000
<GCONST> 9.410421e+001
<STATE> 3
<MEAN> 25
 1.291676e+000 4.662946e+000 8.993495e+000 -2.676165e+000 -6.054062e-001 6.395394e+000 -9.499860e-001 -2.594587e+000 -6.161029e+000 2.768368e-001 -3.017843e+000 -1.031837e+000 -6.800433e-001 -1.160023e+000 1.290584e+000 -1.362062e+000 -1.547520e+000 1.177403e+000 6.393770e-001 5.549959e-001 -7.449823e-001 7.152234e-001 5.563344e-001 -6.602738e-001 1.464090e+000
<VARIANCE> 25
 1.035730e+001 1.949534e+001 1.694584e+001 2.165787e+001 2.363826e+001 2.794340e+001 2.294039e+001 2.088492e+001 1.715478e+001 1.693194e+001 1.660753e+001 1.272696e+001 1.976295e+000 1.748990e+000 1.581983e+000 2.100362e+000 2.171098e+000 2.757215e+000 2.125142e+000 2.455637e+000 1.884464e+000 1.805415e+000 1.815346e+000 1.353215e+000 1.021494e+000
<GCONST> 8.887740e+001
<STATE> 4
<MEAN> 25
 1.004224e+000 -5.634707e-001 8.285787e+000 -2.304250e+000 -4.934702e+000 5.341592e+000 4.296128e+000 1.236405e+000 -6.231150e+000 -2.575099e-001 -2.033235e+000 -2.299244e+000 3.224618e-001 -9.797189e-001 -9.480639e-001 8.234989e-001 4.305984e-002 -1.023086e+000 8.224947e-001 1.090834e+000 4.495117e-001 -4.905363e-001 2.542850e-002 -1.050513e-001 2.126152e-001
<VARIANCE> 25
 6.966936e+000 1.959437e+001 1.751450e+001 2.014518e+001 1.859332e+001 2.687942e+001 2.884773e+001 2.436657e+001 1.794474e+001 2.357121e+001 2.357771e+001 1.221174e+001 5.643076e-001 1.699745e+000 1.676374e+000 1.535941e+000 2.623601e+000 1.921865e+000 2.783868e+000 2.161020e+000 1.943887e+000 1.874296e+000 1.705036e+000 1.085341e+000 1.143476e+000
<GCONST> 8.756760e+001
<TRANSP> 5
 0.000000e+000 1.000000e+000 0.000000e+000 0.000000e+000 0.000000e+000
 0.000000e+000 6.834774e-001 3.165227e-001 0.000000e+000 0.000000e+000
 0.000000e+000 0.000000e+000 5.725511e-001 4.274489e-001 0.000000e+000
 0.000000e+000 0.000000e+000 0.000000e+000 6.533578e-001 3.466422e-001
 0.000000e+000 0.000000e+000 0.000000e+000 0.000000e+000 0.000000e+000
<ENDHMM>
~h "S"
<BEGINHMM>
<NUMSTATES> 5
<STATE> 2
<MEAN> 25
 -7.719693e+000 -1.177268e+000 4.995393e+000 7.488037e+000 -5.441347e-002 3.794278e-001 9.341783e-002 -1.989579e+000 7.912231e+000 -1.390262e+000 -5.752841e-001 1.652703e+000 -4.568460e+000 -1.497347e-001 6.805433e-001 1.244495e+000 6.778233e-001 3.247028e-001 5.544844e-001 -1.985110e-001 2.563387e+000 2.897803e-002 -9.925330e-001 -4.577839e-002 9.548163e-001
<VARIANCE> 25
 3.934402e+001 1.808384e+001 3.094829e+001 2.507300e+001 4.310718e+001 3.413259e+001 4.599730e+001 4.598959e+001 3.172556e+001 3.325591e+001 4.652763e+001 4.064297e+001 1.639490e+000 2.885077e+000 3.101202e+000 2.458514e+000 3.770978e+000 4.510278e+000 3.284688e+000 3.203755e+000 4.160433e+000 2.730869e+000 3.586407e+000 3.363894e+000 1.074715e+000
<GCONST> 1.023907e+002
<STATE> 3
<MEAN> 25
 -1.747049e+001 -3.289087e+000 4.299284e+000 6.703207e+000 1.227075e-001 2.290138e+000 3.448199e-002 -3.726345e+000 1.205504e+001 -6.537443e-001 -3.145314e+000 4.758290e-001 -3.450391e-001 -1.979028e-001 -6.492813e-001 -6.349564e-001 7.389493e-002 4.584070e-001 -4.373814e-001 2.694218e-002 3.103227e-001 -1.535766e-001 -2.487160e-001 2.100185e-001 -6.706241e-001
<VARIANCE> 25
 8.615923e+000 2.562888e+001 1.524838e+001 2.012479e+001 2.938712e+001 3.542757e+001 3.827282e+001 3.942543e+001 3.007091e+001 3.690490e+001 3.885875e+001 3.630249e+001 2.783230e+000 1.498415e+000 1.126509e+000 1.363982e+000 2.171297e+000 2.228441e+000 2.835270e+000 3.649994e+000 2.771120e+000 2.645149e+000 2.461952e+000 2.644431e+000 5.901716e-001
<GCONST> 9.471069e+001
<STATE> 4
<MEAN> 25
 -9.419038e+000 -2.374391e+000 9.036878e-001 2.792283e+000 -5.994276e-001 1.851781e+000 -3.169553e+000 -1.939943e+000 9.181667e+000 -2.701525e+000 -1.868526e+000 2.310379e+000 3.846190e+000 3.480154e-001 -4.357046e-001 -1.231494e+000 -7.161983e-001 -1.226129e+000 -3.396863e-002 2.250313e-001 -2.146159e+000 -1.123957e-002 1.121615e+000 -2.471189e-001 -6.822745e-001
<VARIANCE> 25
 5.016235e+001 3.177516e+001 2.101211e+001 2.110272e+001 3.543893e+001 3.955500e+001 4.064482e+001 5.399612e+001 4.285400e+001 3.427755e+001 3.485947e+001 2.767249e+001 4.489488e+000 1.563862e+000 2.104627e+000 1.639453e+000 2.281667e+000 4.226348e+000 3.360715e+000 3.462548e+000 3.842005e+000 3.074829e+000 3.481924e+000 2.635734e+000 3.410125e+000
<GCONST> 1.023393e+002
<TRANSP> 5
 0.000000e+000 1.000000e+000 0.000000e+000 0.000000e+000 0.000000e+000
 0.000000e+000 6.396608e-001 3.603392e-001 0.000000e+000 0.000000e+000
 0.000000e+000 0.000000e+000 7.718980e-001 2.281021e-001 0.000000e+000
 0.000000e+000 0.000000e+000 0.000000e+000 6.520453e-001 3.479547e-001
 0.000000e+000 0.000000e+000 0.000000e+000 0.000000e+000 0.000000e+000
<ENDHMM>
~h "Z"
<BEGINHMM>
<NUMSTATES> 5
<STATE> 2
<MEAN> 25
 -2.850735e+000 3.564285e-001 2.367452e+000 2.753146e+000 1.816433e+000 -3.264262e+000 3.860194e-001 -1.056879e+001 5.095233e+000 1.927348e+000 2.412703e+000 1.829804e+000 -3.515415e+000 1.513624e+000 1.663463e+000 1.049375e+000 4.599389e-001 -7.181764e-001 1.556344e+000 -6.582940e-001 1.485135e+000 -3.359573e-001 -7.718018e-001 -1.107577e-001 2.839209e-001
<VARIANCE> 25
 2.385986e+001 1.225017e+001 2.313253e+001 2.414379e+001 6.032465e+001 3.456199e+001 3.178776e+001 5.230959e+001 4.217340e+001 2.260659e+001 3.210100e+001 3.205012e+001 1.200446e+000 1.782961e+000 1.887902e+000 1.961295e+000 5.461168e+000 7.094919e+000 3.452335e+000 4.400913e+000 3.491185e+000 2.524441e+000 2.635948e+000 2.836069e+000 5.057389e-001
<GCONST> 9.875904e+001
<STATE> 3
<MEAN> 25
 -1.145183e+001 2.689438e+000 7.226667e+000 5.201062e+000 -1.618890e+000 -7.750207e-001 1.589971e+000 -9.315544e+000 8.778747e+000 2.546173e-002 -4.528560e-001 -5.016341e-001 -5.834947e-001 2.011339e-001 4.224033e-002 -4.614497e-002 -2.666359e-001 7.625325e-001 -5.411413e-001 -6.669880e-002 2.776456e-001 -6.246195e-001 -5.681511e-001 1.557332e-001 -2.804407e-001
<VARIANCE> 25
 1.525597e+001 1.301611e+001 1.931226e+001 1.885763e+001 4.081247e+001 3.992155e+001 3.502630e+001 4.041384e+001 3.531324e+001 2.501676e+001 3.318095e+001 2.508980e+001 3.321871e+000 9.699218e-001 1.658119e+000 1.500008e+000 2.345922e+000 2.273422e+000 3.403275e+000 2.635755e+000 2.727922e+000 2.168175e+000 2.214115e+000 2.535798e+000 4.589069e-001
<GCONST> 9.396806e+001
<STATE> 4
<MEAN> 25
 -4.924087e+000 5.737548e-001 2.965604e+000 2.774605e+000 -1.954581e+000 -1.676722e-001 -4.123436e+000 -8.172803e+000 7.633162e+000 -1.817543e+000 -4.926084e-001 1.596459e+000 3.398870e+000 -1.415685e+000 -1.467262e+000 -6.236207e-001 -1.666254e-001 -5.120043e-001 -1.046378e+000 1.331335e+000 -1.528296e+000 8.401187e-002 6.721271e-001 -1.463660e-001 -8.738992e-002
<VARIANCE> 25
 3.707471e+001 2.119109e+001 2.698167e+001 2.081007e+001 2.993626e+001 3.135714e+001 3.453636e+001 4.511555e+001 3.525204e+001 2.827028e+001 2.600226e+001 2.701986e+001 1.793468e+000 1.604159e+000 2.313687e+000 1.654580e+000 1.876497e+000 3.703635e+000 3.123082e+000 4.237081e+000 3.666662e+000 2.211554e+000 3.426872e+000 2.474099e+000 7.211337e-001
<GCONST> 9.742300e+001
<TRANSP> 5
 0.000000e+000 1.000000e+000 0.000000e+000 0.000000e+000 0.000000e+000
 0.000000e+000 6.137958e-001 3.862042e-001 0.000000e+000 0.000000e+000
 0.000000e+000 0.000000e+000 6.791906e-001 3.208095e-001 0.000000e+000
 0.000000e+000 0.000000e+000 0.000000e+000 6.344873e-001 3.655126e-001
 0.000000e+000 0.000000e+000 0.000000e+000 0.000000e+000 0.000000e+000
<ENDHMM>
~h "a"
<BEGINHMM>
<NUMSTATES> 5
<STATE> 2
<MEAN> 25
 3.910787e+000 -7.053304e+000 -5.080097e+000 -1.890415e+000 2.033598e+000 -1.573238e+000 -1.815485e+000 3.835744e+000 2.042488e+000 1.829086e+000 -2.856705e+000 -3.887375e+000 7.617101e-001 -5.334310e-001 -1.426819e-001 2.447877e-002 4.750597e-001 7.511557e-001 1.983882e-001 7.999973e-001 -1.164767e-001 1.493084e-001 -5.373445e-001 -9.550340e-001 5.315207e-001
<VARIANCE> 25
 6.739144e+000 1.077199e+001 1.508462e+001 1.486053e+001 2.100379e+001 4.306426e+001 2.775293e+001 2.244573e+001 1.986093e+001 2.095630e+001 2.554599e+001 2.003611e+001 1.851913e+000 1.229450e+000 1.545313e+000 1.562117e+000 1.906234e+000 3.089885e+000 2.525114e+000 2.484524e+000 2.046928e+000 2.126175e+000 2.680701e+000 2.151773e+000 1.607936e+000
<GCONST> 9.016692e+001
<STATE> 3
<MEAN> 25
 5.179611e+000 -6.153625e+000 -5.201078e+000 -7.043903e-001 3.827089e+000 1.325985e+000 -8.002420e-001 3.659868e+000 9.640622e-001 1.815894e+000 -3.950702e+000 -6.119520e+000 3.622977e-001 1.248614e+000 4.055750e-001 6.748889e-001 9.604782e-002 1.935238e-001 6.733875e-001 -1.493989e-001 7.967564e-002 9.894030e-003 -2.283842e-001 -9.350550e-002 -1.464169e+000
<VARIANCE> 25
 7.227413e+000 1.422628e+001 1.885156e+001 1.909691e+001 2.492493e+001 4.198504e+001 3.028668e+001 2.600638e+001 2.421794e+001 2.816319e+001 3.744772e+001 2.454520e+001 6.686702e-001 1.649683e+000 1.297104e+000 1.500912e+000 1.746187e+000 2.535109e+000 2.031931e+000 2.370446e+000 2.213655e+000 1.865164e+000 2.301640e+000 1.783538e+000 1.681043e+000
<GCONST> 9.061052e+001
<STATE> 4
<MEAN> 25
 4.753303e+000 -3.616445e-001 -3.620297e+000 1.258570e+000 2.658429e+000 3.647723e-001 3.073773e+000 3.742886e+000 3.670437e+000 5.283742e-001 -5.161736e+000 -4.115668e+000 -5.712082e-001 1.614945e+000 7.406662e-001 3.251613e-001 -4.369772e-001 -9.141275e-002 9.572966e-001 -3.269854e-001 4.504884e-001 -4.425471e-001 -7.962998e-003 7.140169e-001 -1.782446e+000
<VARIANCE> 25
 9.788321e+000 2.504387e+001 2.022883e+001 2.123282e+001 2.635291e+001 4.050862e+001 3.795534e+001 3.490295e+001 3.737279e+001 2.974536e+001 3.647160e+001 2.348159e+001 1.231701e+000 1.977197e+000 1.471967e+000 1.884999e+000 2.061157e+000 2.266413e+000 2.435509e+000 2.906225e+000 3.056540e+000 2.230322e+000 2.447129e+000 1.906399e+000 1.353352e+000
<GCONST> 9.461107e+001
<TRANSP> 5
 0.000000e+000 1.000000e+000 0.000000e+000 0.000000e+000 0.000000e+000
 0.000000e+000 4.749939e-001 5.250061e-001 0.000000e+000 0.000000e+000
 0.000000e+000 0.000000e+000 5.047947e-001 4.952053e-001 0.000000e+000
 0.000000e+000 0.000000e+000 0.000000e+000 5.186815e-001 4.813185e-001
 0.000000e+000 0.000000e+000 0.000000e+000 0.000000e+000 0.000000e+000
<ENDHMM>
~h "b"
<BEGINHMM>
<NUMSTATES> 5
<STATE> 2
<MEAN> 25
 5.828741e+000 8.994646e+000 1.295661e+000 1.363308e+000 2.110167e+000 2.245245e+000 2.253238e+000 -2.940308e+000 1.424701e-001 -2.994102e+000 -2.062093e+000 -7.842244e-001 -3.601544e-001 4.914088e-001 2.657279e-001 7.766542e-001 5.447488e-001 -4.810636e-002 3.986521e-001 -9.283626e-002 8.061613e-002 -5.754392e-001 -6.230804e-001 3.055924e-002 -6.578765e-001
<VARIANCE> 25
 1.765223e+001 1.971088e+001 2.066068e+001 2.770417e+001 2.424649e+001 3.159725e+001 3.079651e+001 2.751901e+001 2.665001e+001 2.483633e+001 2.511963e+001 2.289688e+001 2.004236e+000 2.683702e+000 1.476969e+000 1.984428e+000 1.626036e+000 2.686098e+000 2.797637e+000 2.439250e+000 2.459271e+000 1.985211e+000 1.998396e+000 1.797899e+000 2.529906e+000
<GCONST> 9.432736e+001
<STATE> 3
<MEAN> 25
 4.369901e+000 7.574320e+000 1.067814e+000 2.617999e+000 3.077216e+000 2.139634e+000 2.129277e+000 -2.866309e+000 7.687913e-001 -3.643176e+000 -2.836874e+000 -1.553373e-001 -1.346563e+000 -3.094308e+000 -8.420551e-001 -8.795641e-003 -3.284117e-001 -7.939156e-001 -1.741095e+000 -2.944455e-001 -1.955474e-001 7.151588e-001 9.173942e-001 3.275507e-001 2.694494e+000
<VARIANCE> 25
 1.665757e+001 2.646558e+001 1.747200e+001 2.543593e+001 2.179784e+001 2.868091e+001 2.670193e+001 2.413302e+001 2.339765e+001 2.250537e+001 2.344867e+001 1.858282e+001 1.812172e+000 2.170378e+000 4.229200e+000 4.470959e+000 3.263699e+000 5.169674e+000 3.218759e+000 3.734887e+000 3.966402e+000 3.131661e+000 3.059793e+000 2.522491e+000 1.701504e+000
<GCONST> 9.809816e+001
<STATE> 4
<MEAN> 25
 1.803622e+000 -1.707857e+000 -2.764377e+000 8.972488e-001 1.814474e+000 5.167837e-001 -3.154669e+000 -3.739249e+000 7.618247e-001 -2.119336e-001 7.407287e-001 3.057842e-001 -2.309548e-001 -3.163481e+000 -4.921170e-001 -1.447509e+000 -1.933304e+000 -2.863469e-001 -2.015216e+000 6.689856e-002 -7.944072e-001 1.349291e+000 1.884678e+000 -1.188690e-001 3.338768e+000
<VARIANCE> 25
 1.689552e+001 1.780028e+001 3.212037e+001 4.424927e+001 2.529425e+001 4.815046e+001 3.051696e+001 2.704402e+001 2.726597e+001 2.621987e+001 2.961677e+001 1.544025e+001 2.016689e+000 2.245645e+000 6.034235e+000 5.263623e+000 4.172823e+000 6.036472e+000 3.829117e+000 4.763944e+000 5.683901e+000 3.928088e+000 3.771946e+000 2.954401e+000 1.520198e+000
<GCONST> 1.024650e+002
<TRANSP> 5
 0.000000e+000 1.000000e+000 0.000000e+000 0.000000e+000 0.000000e+000
 0.000000e+000 5.673349e-001 4.326651e-001 0.000000e+000 0.000000e+000
 0.000000e+000 0.000000e+000 2.716127e-001 7.283873e-001 0.000000e+000
 0.000000e+000 0.000000e+000 0.000000e+000 3.139204e-001 6.860796e-001
 0.000000e+000 0.000000e+000 0.000000e+000 0.000000e+000 0.000000e+000
<ENDHMM>
~h "c"
<BEGINHMM>
<NUMSTATES> 5
<STATE> 2
<MEAN> 25
 -9.007228e+000 9.726933e+000 -2.685990e+000 4.326031e+000 2.607394e+000 -2.401789e+000 6.244717e+000 -1.212537e+000 3.730949e+000 -2.272230e+000 -1.472495e+000 3.036453e+000 -3.454158e+000 3.893952e-001 -1.644894e+000 -7.148409e-001 1.087072e+000 -1.893533e-001 8.344128e-001 -1.710911e-001 -6.924043e-002 -8.386149e-002 3.567150e-001 1.182765e+000 9.436297e-001
<VARIANCE> 25
 2.989735e+001 1.311649e+001 2.755519e+001 1.894792e+001 2.366096e+001 2.811425e+001 2.307200e+001 2.826136e+001 2.896183e+001 2.119743e+001 2.356176e+001 2.089099e+001 1.200547e+000 2.382417e+000 1.564645e+000 1.512520e+000 2.105713e+000 2.458610e+000 2.199251e+000 2.555847e+000 2.663723e+000 1.906027e+000 2.148718e+000 1.687551e+000 1.105240e+000
<GCONST> 9.207151e+001
<STATE> 3
<MEAN> 25
 -1.844028e+001 6.845328e+000 -6.781431e+000 -8.752497e-002 6.439749e+000 -5.423967e+000 9.158523e+000 2.051225e+000 7.144524e-001 -1.325040e+000 7.097097e-001 7.451816e+000 -5.744478e-001 -1.548625e+000 4.456396e-001 -9.410054e-001 1.351987e-002 -8.815338e-001 -1.201859e-001 1.417203e+000 -6.561645e-001 3.477725e-001 2.703679e-001 4.488838e-001 3.952328e-001
<VARIANCE> 25
 5.506082e+000 1.651923e+001 1.687732e+001 1.597323e+001 1.726051e+001 2.010556e+001 2.260169e+001 2.650392e+001 2.340447e+001 1.978224e+001 2.169613e+001 1.623775e+001 1.189391e+000 1.233837e+000 1.779801e+000 1.266409e+000 2.497088e+000 2.224863e+000 2.550633e+000 2.186930e+000 2.215546e+000 1.931133e+000 1.895183e+000 1.744496e+000 4.115449e-001
<GCONST> 8.669258e+001
<STATE> 4
<MEAN> 25
 -1.354966e+001 1.220770e+000 -2.220777e+000 -1.112073e+000 2.592966e+000 -8.985628e+000 3.808861e+000 4.028529e+000 -2.627551e-001 -4.819139e-001 -2.274217e-001 5.513159e+000 3.703291e+000 -1.184444e+000 1.454933e+000 2.715727e-001 -1.484589e+000 -6.276569e-001 -2.415352e+000 -1.045567e+000 -5.259304e-001 3.389284e-001 -6.045771e-002 -1.487333e+000 2.712632e-001
<VARIANCE> 25
 4.109073e+001 1.654019e+001 2.279770e+001 1.428028e+001 3.174823e+001 3.543506e+001 5.329766e+001 3.657610e+001 3.692217e+001 2.089005e+001 2.314555e+001 2.024190e+001 3.674457e+000 1.921289e+000 2.289994e+000 1.429585e+000 2.323372e+000 2.972937e+000 3.232625e+000 3.278358e+000 2.800210e+000 2.166566e+000 2.163435e+000 2.040616e+000 1.827159e+000
<GCONST> 9.697660e+001
<TRANSP> 5
 0.000000e+000 1.000000e+000 0.000000e+000 0.000000e+000 0.000000e+000
 0.000000e+000 7.512673e-001 2.487327e-001 0.000000e+000 0.000000e+000
 0.000000e+000 0.000000e+000 7.100030e-001 2.899970e-001 0.000000e+000
 0.000000e+000 0.000000e+000 0.000000e+000 6.573230e-001 3.426770e-001
 0.000000e+000 0.000000e+000 0.000000e+000 0.000000e+000 0.000000e+000
<ENDHMM>
~h "d"
<BEGINHMM>
<NUMSTATES> 5
<STATE> 2
<MEAN> 25
 4.993550e+000 6.344450e+000 2.522255e+000 3.051896e+000 2.183494e+000 -1.303906e+000 -1.605104e+000 -9.915696e-001 3.319161e+000 -2.996174e-001 -2.981706e+000 -3.987415e+000 -4.928417e-001 6.933246e-001 3.851222e-001 4.419480e-001 3.854855e-001 2.232993e-003 9.417022e-001 -2.255603e-001 2.149893e-001 -8.698076e-001 -7.104082e-001 4.091282e-001 -5.875398e-001
<VARIANCE> 25
 1.260925e+001 2.532907e+001 2.298782e+001 2.220807e+001 2.046752e+001 3.122805e+001 3.445183e+001 3.220782e+001 2.571617e+001 2.436563e+001 2.967785e+001 2.522136e+001 2.223456e+000 3.097892e+000 1.774419e+000 1.851591e+000 1.976421e+000 2.838984e+000 3.713270e+000 2.716188e+000 2.176481e+000 2.221843e+000 2.333975e+000 2.824808e+000 2.627154e+000
<GCONST> 9.606219e+001
<STATE> 3
<MEAN> 25
 2.697865e+000 5.486082e+000 2.993800e+000 3.191458e+000 2.789385e+000 -1.238422e+000 6.049643e-001 -1.270647e+000 2.876526e+000 -1.791302e+000 -2.809415e+000 -1.948731e+000 -1.622059e+000 -2.060425e+000 -4.436276e-001 -6.985248e-001 -1.621105e-001 -3.945119e-001 -5.683510e-002 -2.240196e-001 -6.589116e-001 -3.313409e-001 5.660335e-001 1.156101e+000 1.977827e+000
<VARIANCE> 25
 1.591645e+001 3.209929e+001 2.658518e+001 2.315579e+001 2.446152e+001 2.872190e+001 3.414787e+001 2.779661e+001 2.626564e+001 2.390536e+001 2.590214e+001 2.194322e+001 1.744954e+000 4.047091e+000 2.881005e+000 2.686345e+000 2.849730e+000 4.168207e+000 3.853674e+000 3.629263e+000 2.925983e+000 2.283028e+000 2.829775e+000 2.704703e+000 2.506261e+000
<GCONST> 9.876817e+001
<STATE> 4
<MEAN> 25
 -4.566174e-001 -1.657662e+000 3.697390e-001 3.964754e-002 1.784839e+000 -2.308906e+000 -1.885652e+000 -9.495215e-001 2.079376e+000 -1.107708e+000 -6.401373e-001 -2.053446e-002 -3.561373e-001 -2.193177e+000 -9.255059e-001 -1.265571e+000 -1.384744e+000 -5.531491e-001 -1.817530e+000 3.504338e-001 -6.560014e-001 1.142316e+000 9.880478e-001 1.814365e-001 2.812680e+000
<VARIANCE> 25
 1.668255e+001 2.664127e+001 2.999965e+001 2.352716e+001 2.903037e+001 3.709610e+001 5.052215e+001 2.502000e+001 2.482239e+001 2.568499e+001 2.015908e+001 2.272486e+001 2.055772e+000 3.315034e+000 3.784118e+000 3.148082e+000 3.381194e+000 3.864502e+000 4.431034e+000 4.684787e+000 3.817997e+000 3.002845e+000 3.285796e+000 2.799864e+000 2.324409e+000
<GCONST> 1.008135e+002
<TRANSP> 5
 0.000000e+000 1.000000e+000 0.000000e+000 0.000000e+000 0.000000e+000
 0.000000e+000 3.866183e-001 6.133817e-001 0.000000e+000 0.000000e+000
 0.000000e+000 0.000000e+000 1.791786e-001 8.208214e-001 0.000000e+000
 0.000000e+000 0.000000e+000 0.000000e+000 3.576316e-001 6.423684e-001
 0.000000e+000 0.000000e+000 0.000000e+000 0.000000e+000 0.000000e+000
<ENDHMM>
~h "e"
<BEGINHMM>
<NUMSTATES> 5
<STATE> 2
<MEAN> 25
 2.752059e+000 -4.659425e+000 2.550409e+000 4.129169e-001 -4.143353e+000 -7.474737e+000 -2.104627e+000 5.583808e+000 -1.716522e+000 9.615408e-001 1.734927e+000 6.788753e-001 7.962500e-001 6.364446e-002 3.543032e-001 2.342036e-001 6.906746e-002 1.567505e-003 -1.226680e-001 6.259649e-001 -8.469290e-002 3.346032e-001 1.345770e-001 -2.304320e-001 -9.408011e-002
<VARIANCE> 25
 7.007143e+000 1.606886e+001 1.877382e+001 1.142892e+001 2.206333e+001 3.101445e+001 3.240469e+001 2.342383e+001 2.480550e+001 1.630893e+001 2.418015e+001 1.575911e+001 1.982729e+000 1.509169e+000 1.644463e+000 1.295750e+000 2.315125e+000 2.300339e+000 2.974631e+000 2.153643e+000 2.508331e+000 1.889866e+000 2.036872e+000 1.768000e+000 1.722717e+000
<GCONST> 8.990913e+001
<STATE> 3
<MEAN> 25
 3.950339e+000 -2.246104e+000 3.230653e+000 1.660592e+000 -2.897013e+000 -6.464553e+000 -1.801720e+000 5.638160e+000 -1.492417e+000 1.378141e+000 9.137834e-001 1.273125e-001 2.568695e-001 1.613332e+000 1.524285e-001 7.534212e-001 6.514179e-001 4.844181e-001 6.243053e-001 -4.436795e-001 8.029528e-001 -1.250010e-001 -5.274859e-001 -1.021831e-001 -1.871262e+000
<VARIANCE> 25
 7.870854e+000 2.347490e+001 2.202810e+001 1.516787e+001 2.562336e+001 3.221788e+001 4.000135e+001 2.672305e+001 3.170863e+001 2.146214e+001 2.825973e+001 1.970630e+001 1.006500e+000 1.836788e+000 1.522901e+000 1.311880e+000 2.100371e+000 2.295764e+000 2.747683e+000 2.132730e+000 2.786025e+000 1.918318e+000 1.947343e+000 1.819204e+000 1.867478e+000
<GCONST> 9.172668e+001
<STATE> 4
<MEAN> 25
 3.351757e+000 2.197575e+000 3.068587e+000 3.309622e+000 -1.886264e+000 -5.110864e+000 8.539688e-001 3.606894e+000 1.525153e+000 1.627941e-001 -7.035658e-001 5.705519e-001 -5.511644e-001 1.375413e+000 -1.888417e-001 3.203741e-001 6.156578e-001 8.089536e-001 6.560814e-001 -1.037102e+000 7.064219e-001 -2.291743e-001 -4.104969e-001 1.711165e-001 -1.604119e+000
<VARIANCE> 25
 1.101992e+001 3.232924e+001 2.195346e+001 1.617925e+001 2.661310e+001 3.227594e+001 4.405357e+001 2.777652e+001 3.511771e+001 2.388097e+001 2.930951e+001 2.463099e+001 1.706819e+000 2.358552e+000 1.660097e+000 1.850549e+000 2.258922e+000 2.666402e+000 2.801893e+000 2.774772e+000 3.058012e+000 2.295101e+000 2.214193e+000 2.013027e+000 1.511305e+000
<GCONST> 9.509185e+001
<TRANSP> 5
 0.000000e+000 1.000000e+000 0.000000e+000 0.000000e+000 0.000000e+000
 0.000000e+000 4.343004e-001 5.656996e-001 0.000000e+000 0.000000e+000
 0.000000e+000 0.000000e+000 3.846211e-001 6.153789e-001 0.000000e+000
 0.000000e+000 0.000000e+000 0.000000e+000 3.426740e-001 6.573260e-001
 0.000000e+000 0.000000e+000 0.000000e+000 0.000000e+000 0.000000e+000
<ENDHMM>
~h "f"
<BEGINHMM>
<NUMSTATES> 5
<STATE> 2
<MEAN> 25
 -3.284794e+000 3.591459e+000 -1.111750e+000 4.194766e+000 1.681776e+000 2.311519e+000 3.382158e+000 1.671405e+000 6.046841e+000 4.239613e-001 -1.664924e+000 1.977053e+000 -2.669883e+000 -4.897867e-001 -2.434440e-001 8.694369e-001 2.792653e-001 1.621820e-001 -6.946293e-002 2.245444e-001 1.444785e+000 -4.247802e-002 -2.742309e-001 1.958302e-001 9.008874e-002
<VARIANCE> 25
 1.782260e+001 1.332499e+001 2.464350e+001 2.032441e+001 2.151990e+001 3.405014e+001 2.781084e+001 2.653640e+001 2.459518e+001 2.135969e+001 1.980429e+001 2.074042e+001 1.689795e+000 1.900305e+000 1.993059e+000 1.708760e+000 1.855087e+000 2.237637e+000 2.470327e+000 2.467401e+000 2.405783e+000 2.474235e+000 2.329151e+000 1.993454e+000 9.169050e-001
<GCONST> 9.197152e+001
<STATE> 3
<MEAN> 25
 -8.600898e+000 -3.993415e-001 -2.846365e+000 4.945326e+000 3.064647e+000 1.960937e+000 2.236771e+000 1.286165e+000 6.682627e+000 9.899981e-001 -1.612598e+000 2.109459e+000 -6.700006e-001 -1.466544e+000 -8.619640e-001 -4.632505e-001 -1.233875e-001 -2.883569e-001 -2.574888e-001 -2.710729e-001 -6.993223e-002 9.180139e-002 2.384114e-001 1.579604e-001 2.344414e-001
<VARIANCE> 25
 1.427181e+001 1.224056e+001 1.691412e+001 1.841895e+001 1.927526e+001 2.341252e+001 2.473911e+001 1.958961e+001 2.120160e+001 2.189176e+001 1.959290e+001 1.807012e+001 1.964454e+000 1.116982e+000 1.799881e+000 1.401264e+000 2.049907e+000 2.831812e+000 2.689520e+000 1.963513e+000 2.304078e+000 1.694117e+000 1.628458e+000 1.519284e+000 8.163222e-001
<GCONST> 8.835511e+001
<STATE> 4
<MEAN> 25
 -5.375966e+000 -3.817387e+000 -5.794084e+000 1.260797e+000 1.001347e+000 3.010107e-001 1.370945e+000 -3.203180e-001 5.121320e+000 7.860698e-001 -1.058360e+000 1.960307e+000 2.990631e+000 -7.035676e-001 -1.963227e-001 -1.773593e+000 -1.502660e+000 -8.522633e-001 -1.047297e+000 -9.028010e-001 -1.847466e+000 -2.693773e-002 7.288097e-001 -4.429371e-001 1.007402e+000
<VARIANCE> 25
 3.140518e+001 1.066420e+001 3.006881e+001 2.296415e+001 2.941199e+001 3.419408e+001 2.701554e+001 2.637899e+001 2.626449e+001 2.203957e+001 2.359421e+001 1.921264e+001 2.075062e+000 2.134023e+000 3.997089e+000 2.896609e+000 2.414497e+000 3.036293e+000 2.389170e+000 3.233936e+000 3.341193e+000 2.169307e+000 2.288138e+000 2.239554e+000 2.055926e+000
<GCONST> 9.656763e+001
<TRANSP> 5
 0.000000e+000 1.000000e+000 0.000000e+000 0.000000e+000 0.000000e+000
 0.000000e+000 5.016245e-001 4.983755e-001 0.000000e+000 0.000000e+000
 0.000000e+000 0.000000e+000 5.872061e-001 4.127939e-001 0.000000e+000
 0.000000e+000 0.000000e+000 0.000000e+000 5.516111e-001 4.483889e-001
 0.000000e+000 0.000000e+000 0.000000e+000 0.000000e+000 0.000000e+000
<ENDHMM>
~h "g"
<BEGINHMM>
<NUMSTATES> 5
<STATE> 2
<MEAN> 25
 5.540735e+000 7.051269e+000 -5.050090e-001 -8.040169e-001 -2.698500e-001 1.231667e+000 2.056519e+000 -2.453531e-001 -1.979300e+000 -2.339952e+000 1.355310e+000 6.361302e-001 -7.275213e-001 -6.720264e-002 -4.362822e-001 6.154199e-001 7.062647e-001 -3.420349e-001 -1.976481e-001 -4.307647e-001 4.222833e-001 3.136806e-001 -4.877361e-001 1.839252e-001 -5.396981e-001
<VARIANCE> 25
 1.542391e+001 2.446416e+001 2.854889e+001 3.810818e+001 3.037491e+001 3.918566e+001 4.342685e+001 3.049552e+001 4.004103e+001 3.077691e+001 4.108476e+001 2.914593e+001 9.718796e-001 2.113359e+000 2.401062e+000 3.386337e+000 2.764482e+000 4.270784e+000 3.232136e+000 3.250310e+000 4.028996e+000 2.679555e+000 3.229582e+000 2.451499e+000 1.282641e+000
<GCONST> 9.968041e+001
<STATE> 3
<MEAN> 25
 4.023552e+000 5.333754e+000 -1.537834e+000 6.444289e-001 1.774063e+000 7.517323e-001 2.776662e-001 -1.083105e+000 -1.808437e+000 -8.631551e-001 1.468978e+000 4.232497e-001 -8.345813e-001 -1.791867e+000 -7.701796e-001 -2.793863e-001 3.295505e-001 -2.844038e-001 -1.349228e+000 -4.386595e-001 -2.258134e-001 7.497478e-001 4.460415e-001 -2.970264e-003 1.350203e+000
<VARIANCE> 25
 1.612041e+001 2.595994e+001 3.250860e+001 3.563821e+001 3.457613e+001 4.313411e+001 3.884285e+001 3.136509e+001 3.943459e+001 3.074031e+001 3.652975e+001 2.486880e+001 1.725665e+000 3.330293e+000 4.153459e+000 5.141632e+000 3.843187e+000 6.285556e+000 4.140911e+000 4.898811e+000 5.442915e+000 3.211928e+000 4.869551e+000 2.970824e+000 1.889541e+000
<GCONST> 1.045370e+002
<STATE> 4
<MEAN> 25
 2.617067e+000 -2.096048e-002 -2.642395e+000 -2.094885e-001 1.317829e+000 -1.166008e+000 -3.350668e+000 -1.020479e+000 -2.371530e+000 8.467922e-001 3.210846e+000 4.001840e-001 -4.286799e-001 -2.118492e+000 -1.922611e-001 -8.676039e-001 -8.525386e-001 -4.405103e-001 -1.140495e+000 -8.876564e-003 -1.543825e-001 7.705335e-001 5.843742e-001 -1.026431e-001 2.410344e+000
<VARIANCE> 25
 1.928280e+001 3.351804e+001 4.414631e+001 4.479926e+001 4.384005e+001 6.493193e+001 4.822057e+001 4.211429e+001 4.515139e+001 3.034118e+001 3.594910e+001 2.313998e+001 2.273293e+000 3.157142e+000 3.189645e+000 4.379859e+000 3.693837e+000 5.347576e+000 4.585126e+000 4.705927e+000 4.806187e+000 2.998008e+000 5.532097e+000 2.660107e+000 2.392136e+000
<GCONST> 1.064159e+002
<TRANSP> 5
 0.000000e+000 1.000000e+000 0.000000e+000 0.000000e+000 0.000000e+000
 0.000000e+000 2.851788e-001 7.148212e-001 0.000000e+000 0.000000e+000
 0.000000e+000 0.000000e+000 1.351338e-001 8.648661e-001 0.000000e+000
 0.000000e+000 0.000000e+000 0.000000e+000 2.789502e-001 7.210498e-001
 0.000000e+000 0.000000e+000 0.000000e+000 0.000000e+000 0.000000e+000
<ENDHMM>
~h "h"
<BEGINHMM>
<NUMSTATES> 5
<STATE> 2
<MEAN> 25
 -4.116617e+000 1.285222e+000 5.141124e+000 3.061917e+000 2.972269e+000 4.057068e-002 4.055208e+000 -4.722073e-001 1.375072e-002 7.418391e-001 -2.034155e+000 2.862551e+000 -1.296412e+000 -1.331609e+000 -1.850067e+000 2.044945e-001 2.187651e+000 -5.048483e-001 -4.749593e-001 5.335656e-001 1.685938e+000 2.488018e-001 -1.800996e-003 7.899396e-001 1.493586e-001
<VARIANCE> 25
 2.377373e+001 2.352411e+001 8.728407e+001 3.693871e+001 4.990821e+001 5.379474e+001 3.413179e+001 3.877525e+001 3.518732e+001 2.412115e+001 2.790455e+001 2.040337e+001 1.747691e+000 1.933558e+000 3.861793e+000 2.579495e+000 4.043695e+000 3.738705e+000 4.076029e+000 3.765428e+000 3.535517e+000 3.141734e+000 2.470511e+000 2.305134e+000 9.238862e-001
<GCONST> 1.015549e+002
<STATE> 3
<MEAN> 25
 -6.099689e+000 -3.106409e+000 -2.900424e+000 1.814240e+000 8.135848e+000 2.558235e-001 3.893633e-001 1.003093e-001 5.058455e+000 3.061206e+000 -1.957861e+000 2.816105e+000 -3.354884e-001 -6.285821e-001 -1.437358e+000 -7.681713e-001 2.532562e-001 1.948090e-001 -2.984413e-001 -4.850254e-001 3.103122e-001 2.293124e-001 3.578933e-001 1.891536e-002 -2.626601e-003
<VARIANCE> 25
 2.446367e+001 2.655723e+001 8.320155e+001 3.533123e+001 5.978593e+001 5.172363e+001 5.104568e+001 3.337554e+001 3.757718e+001 3.395810e+001 2.884109e+001 2.424582e+001 1.714290e+000 1.114597e+000 2.867552e+000 1.860828e+000 2.757255e+000 4.278185e+000 2.842324e+000 3.414894e+000 3.014755e+000 3.035855e+000 2.595871e+000 2.161282e+000 1.209650e+000
<GCONST> 1.007797e+002
<STATE> 4
<MEAN> 25
 -4.940520e+000 -2.447677e+000 -3.298850e+000 -1.460922e+000 4.444316e+000 1.246764e+000 1.747250e+000 -2.458956e+000 2.015224e+000 1.221287e+000 -6.971465e-001 2.714600e+000 1.702414e+000 4.710433e-001 -5.910230e-002 -7.024099e-001 -1.871981e+000 -4.215384e-001 -3.064007e-001 -4.198943e-001 -1.111354e+000 -8.600281e-001 2.575399e-001 -5.945706e-001 4.247305e-001
<VARIANCE> 25
 3.316710e+001 3.433016e+001 1.044232e+002 4.059398e+001 5.530001e+001 5.206071e+001 3.407359e+001 3.523015e+001 3.537669e+001 2.847457e+001 3.151634e+001 2.455828e+001 2.575590e+000 1.834529e+000 3.336149e+000 3.803114e+000 4.382000e+000 3.833617e+000 4.290857e+000 3.052607e+000 3.682361e+000 2.854958e+000 2.687189e+000 2.914433e+000 2.435362e+000
<GCONST> 1.047470e+002
<TRANSP> 5
 0.000000e+000 1.000000e+000 0.000000e+000 0.000000e+000 0.000000e+000
 0.000000e+000 5.288550e-001 4.711451e-001 0.000000e+000 0.000000e+000
 0.000000e+000 0.000000e+000 5.275211e-001 4.724788e-001 0.000000e+000
 0.000000e+000 0.000000e+000 0.000000e+000 5.249623e-001 4.750377e-001
 0.000000e+000 0.000000e+000 0.000000e+000 0.000000e+000 0.000000e+000
<ENDHMM>
~h "i"
<BEGINHMM>
<NUMSTATES> 5
<STATE> 2
<MEAN> 25
 -6.468546e-002 -4.804744e-001 9.689509e+000 1.204013e+000 -7.594973e+000 -3.717185e+000 -2.404983e+000 -7.787323e-001 -7.636245e+000 -8.502159e-001 3.817468e+000 3.133823e-001 7.012876e-001 1.332086e-001 1.934979e+000 -1.507752e-001 -1.526659e+000 3.694561e-001 -8.049610e-001 -2.619574e-001 -1.880360e+000 5.808504e-001 9.903900e-001 -6.832908e-001 8.872078e-001
<VARIANCE> 25
 1.553255e+001 2.268990e+001 2.248160e+001 1.806351e+001 2.473622e+001 4.131344e+001 3.375148e+001 3.442863e+001 2.593622e+001 1.968386e+001 2.255040e+001 1.670327e+001 3.589827e+000 2.079121e+000 2.709679e+000 2.543231e+000 3.059392e+000 3.207292e+000 5.057524e+000 3.005199e+000 3.383557e+000 2.539871e+000 2.301412e+000 2.117862e+000 2.174964e+000
<GCONST> 9.742970e+001
<STATE> 3
<MEAN> 25
 4.050846e-001 1.586165e+000 1.360714e+001 1.079869e-002 -9.468798e+000 3.693222e-001 -3.623962e+000 -2.261456e+000 -9.485117e+000 1.567554e+000 3.656358e+000 -1.574649e+000 2.318215e-001 7.125260e-001 2.124397e-002 3.796430e-001 4.084798e-001 2.589061e-001 2.769880e-001 -9.964868e-002 2.934205e-001 7.684345e-002 -2.725375e-001 -1.344588e-002 -5.969232e-001
<VARIANCE> 25
 9.305917e+000 2.348488e+001 2.227669e+001 1.945906e+001 2.099594e+001 4.564759e+001 2.888959e+001 2.783449e+001 2.228147e+001 1.967962e+001 2.319518e+001 1.665471e+001 1.336423e+000 1.974974e+000 1.625108e+000 1.503858e+000 1.900614e+000 2.378996e+000 2.402700e+000 2.050055e+000 2.079907e+000 1.525255e+000 1.563227e+000 1.316876e+000 1.558314e+000
<GCONST> 9.028838e+001
<STATE> 4
<MEAN> 25
 1.401019e+000 4.545189e+000 9.149436e+000 3.914719e+000 -4.344972e+000 -2.133340e+000 1.689103e-001 -1.404080e+000 -4.378684e+000 -6.931517e-001 1.595393e+000 3.428794e-001 -2.848198e-001 9.356173e-001 -1.330012e+000 6.783848e-001 1.658085e+000 9.957807e-002 6.918349e-001 -1.868817e-001 1.713292e+000 -3.335937e-001 -1.011612e+000 4.354408e-001 -1.443752e+000
<VARIANCE> 25
 1.305590e+001 2.860382e+001 2.169415e+001 1.693006e+001 2.656372e+001 3.737975e+001 3.741131e+001 3.018159e+001 2.932936e+001 2.107615e+001 2.387259e+001 1.940617e+001 2.113860e+000 2.774259e+000 2.105318e+000 2.106391e+000 2.426035e+000 3.022229e+000 3.106523e+000 2.853238e+000 2.762897e+000 2.286369e+000 2.130392e+000 2.105046e+000 1.883550e+000
<GCONST> 9.568037e+001
<TRANSP> 5
 0.000000e+000 1.000000e+000 0.000000e+000 0.000000e+000 0.000000e+000
 0.000000e+000 4.327445e-001 5.672556e-001 0.000000e+000 0.000000e+000
 0.000000e+000 0.000000e+000 6.084596e-001 3.915404e-001 0.000000e+000
 0.000000e+000 0.000000e+000 0.000000e+000 5.602419e-001 4.397581e-001
 0.000000e+000 0.000000e+000 0.000000e+000 0.000000e+000 0.000000e+000
<ENDHMM>
~h "j"
<BEGINHMM>
<NUMSTATES> 5
<STATE> 2
<MEAN> 25
 5.114861e-002 1.159910e-001 8.783847e+000 1.968586e-001 -6.476495e+000 -2.243744e+000 -2.436503e+000 5.694306e-001 -5.802227e+000 -1.109926e-001 2.113830e+000 2.910522e-001 1.690501e-001 -1.836638e-001 1.265401e+000 -1.876838e-001 -1.520210e+000 -1.939611e-001 -3.966283e-001 5.653193e-002 -8.144124e-001 2.982376e-001 8.354022e-001 7.031555e-003 7.917898e-001
<VARIANCE> 25
 1.765020e+001 3.658770e+001 4.724104e+001 2.362865e+001 3.043834e+001 4.975735e+001 4.683563e+001 4.112562e+001 3.321545e+001 1.983929e+001 2.475128e+001 1.834960e+001 2.830979e+000 2.500599e+000 3.656478e+000 2.674473e+000 3.470650e+000 3.460249e+000 4.474133e+000 2.922597e+000 3.394304e+000 2.506186e+000 2.288571e+000 1.893211e+000 2.469636e+000
<GCONST> 1.007354e+002
<STATE> 3
<MEAN> 25
 6.849163e-001 -1.602764e+000 9.020453e+000 -1.294616e-002 -9.431252e+000 -2.961608e+000 -1.977500e+000 6.392322e-001 -5.491155e+000 1.669912e+000 4.738120e+000 4.295530e-001 2.525433e-001 -2.949684e-001 -4.892753e-001 1.476877e-001 -1.958740e-001 -5.822946e-001 2.649013e-001 6.550814e-001 4.217565e-001 1.082249e-001 3.625606e-001 1.519819e-001 1.770957e-001
<VARIANCE> 25
 8.896208e+000 1.797403e+001 2.649339e+001 1.696387e+001 2.692159e+001 4.291307e+001 3.395594e+001 3.727712e+001 2.512020e+001 1.783500e+001 2.079768e+001 1.499938e+001 1.100029e+000 1.573540e+000 2.606259e+000 1.275824e+000 1.479544e+000 2.148501e+000 2.443817e+000 2.418668e+000 2.319200e+000 1.394797e+000 1.393741e+000 1.130987e+000 9.541891e-001
<GCONST> 8.943831e+001
<STATE> 4
<MEAN> 25
 1.859491e+000 -2.897264e+000 4.954574e+000 1.290095e+000 -7.326829e+000 -5.472074e+000 -1.295802e+000 4.328531e+000 -3.286984e+000 2.162424e-001 4.026947e+000 1.003103e+000 3.974811e-001 -1.760854e-001 -1.384129e+000 1.967648e-001 1.372192e+000 1.799040e-002 -2.803272e-002 7.738043e-001 1.108748e+000 -2.655513e-001 -8.246328e-001 -1.028475e-001 -2.961247e-001
<VARIANCE> 25
 9.705519e+000 2.048824e+001 2.393621e+001 1.818302e+001 2.800141e+001 3.182576e+001 5.217234e+001 2.740161e+001 2.966833e+001 2.041913e+001 2.334416e+001 1.526009e+001 1.277350e+000 2.125537e+000 3.445920e+000 1.347375e+000 2.450479e+000 2.547073e+000 3.789766e+000 3.588344e+000 3.028199e+000 1.990749e+000 2.285298e+000 1.670864e+000 1.207148e+000
<GCONST> 9.395514e+001
<TRANSP> 5
 0.000000e+000 1.000000e+000 0.000000e+000 0.000000e+000 0.000000e+000
 0.000000e+000 4.304275e-001 5.695725e-001 0.000000e+000 0.000000e+000
 0.000000e+000 0.000000e+000 5.114933e-001 4.885068e-001 0.000000e+000
 0.000000e+000 0.000000e+000 0.000000e+000 3.370671e-001 6.629329e-001
 0.000000e+000 0.000000e+000 0.000000e+000 0.000000e+000 0.000000e+000
<ENDHMM>
~h "k"
<BEGINHMM>
<NUMSTATES> 5
<STATE> 2
<MEAN> 25
 -3.530300e+000 3.445074e+000 -1.941883e+000 2.722746e+000 3.937288e+000 -5.793981e-001 2.730942e+000 2.803804e+000 3.851476e+000 2.650730e-002 -2.192360e+000 1.266465e+000 -6.082525e-001 -1.276466e+000 -1.481760e+000 -7.096316e-001 6.538525e-001 4.041858e-001 -1.692839e-001 -5.170907e-001 -6.097745e-001 6.647742e-001 4.324881e-001 5.526904e-001 4.175815e-001
<VARIANCE> 25
 2.663250e+001 2.263449e+001 2.867385e+001 2.732194e+001 4.012135e+001 3.911021e+001 4.093193e+001 3.520783e+001 3.454097e+001 2.699542e+001 3.051820e+001 2.219823e+001 2.476437e+000 3.629609e+000 4.121098e+000 3.024427e+000 5.184670e+000 5.096914e+000 4.145942e+000 4.022957e+000 4.251552e+000 3.104491e+000 2.715675e+000 2.590878e+000 3.376222e+000
<GCONST> 1.035550e+002
<STATE> 3
<MEAN> 25
 -4.548840e+000 -1.499935e+000 -7.207861e+000 -5.757253e-001 6.156432e+000 1.322864e+000 1.500050e+000 1.152362e+000 1.612246e+000 2.538572e+000 -6.609034e-002 2.189363e+000 3.082937e-001 -1.613586e+000 -1.447710e+000 -1.827044e+000 -5.931255e-001 -2.438402e-001 -1.061818e+000 -1.100181e+000 -1.282502e+000 5.284614e-001 1.009762e+000 1.819085e-001 1.878374e+000
<VARIANCE> 25
 2.165193e+001 2.753236e+001 5.872017e+001 3.993832e+001 4.022680e+001 6.011508e+001 4.169024e+001 3.063993e+001 3.603275e+001 2.888517e+001 2.800533e+001 2.344097e+001 3.047053e+000 2.546108e+000 5.499451e+000 3.898393e+000 5.920382e+000 5.474005e+000 3.659587e+000 4.351295e+000 4.694482e+000 3.212176e+000 3.228804e+000 2.725279e+000 2.171098e+000
<GCONST> 1.054989e+002
<STATE> 4
<MEAN> 25
 -2.698513e+000 -2.095824e+000 -7.227188e+000 -4.599028e+000 1.751730e+000 -7.976644e-001 -7.210039e-001 -1.421630e+000 -9.907321e-001 1.584817e+000 1.630278e+000 2.133553e+000 2.020946e+000 -2.615074e-001 1.024973e+000 -9.000013e-001 -2.103705e+000 -5.456388e-001 -1.284176e+000 -5.449249e-001 -1.426179e+000 -4.952435e-001 9.034697e-001 -5.900256e-001 2.108257e+000
<VARIANCE> 25
 2.947043e+001 2.079476e+001 7.775851e+001 4.343432e+001 4.545237e+001 6.854310e+001 3.948120e+001 3.494929e+001 3.515736e+001 2.725016e+001 3.207056e+001 2.312555e+001 2.722367e+000 2.457210e+000 4.071310e+000 3.781827e+000 3.695918e+000 3.582491e+000 3.993980e+000 3.686964e+000 3.852557e+000 2.895998e+000 3.079923e+000 2.536540e+000 2.036712e+000
<GCONST> 1.043242e+002
<TRANSP> 5
 0.000000e+000 1.000000e+000 0.000000e+000 0.000000e+000 0.000000e+000
 0.000000e+000 4.925874e-001 5.074126e-001 0.000000e+000 0.000000e+000
 0.000000e+000 0.000000e+000 3.334585e-001 6.665415e-001 0.000000e+000
 0.000000e+000 0.000000e+000 0.000000e+000 4.594477e-001 5.405524e-001
 0.000000e+000 0.000000e+000 0.000000e+000 0.000000e+000 0.000000e+000
<ENDHMM>
~h "l"
<BEGINHMM>
<NUMSTATES> 5
<STATE> 2
<MEAN> 25
 3.870006e+000 -3.506069e+000 -7.697173e-001 -1.739954e+000 -1.222240e+000 2.644646e+000 -5.091717e+000 -6.521286e+000 4.835201e-002 2.184625e+000 5.105856e+000 -2.343060e+000 1.048457e+000 2.900553e-002 3.530875e-001 -1.393209e+000 3.364669e-001 9.825224e-001 -1.603616e+000 -8.653235e-001 -4.841013e-001 7.558476e-001 8.154663e-001 -9.466497e-001 4.459314e-001
<VARIANCE> 25
 2.147960e+001 1.903243e+001 3.924624e+001 3.599651e+001 2.797566e+001 4.190599e+001 5.222694e+001 4.522175e+001 3.910315e+001 3.462300e+001 4.082870e+001 3.338928e+001 3.519593e+000 2.179222e+000 3.193607e+000 3.888017e+000 3.602458e+000 4.337383e+000 4.584760e+000 4.802907e+000 3.724620e+000 3.839342e+000 3.880270e+000 3.009786e+000 2.261829e+000
<GCONST> 1.048072e+002
<STATE> 3
<MEAN> 25
 5.054233e+000 -3.151027e+000 -1.419206e-001 -5.084619e+000 -1.813820e-002 5.120492e+000 -7.643827e+000 -6.294591e+000 -3.519980e-001 3.223850e+000 6.581294e+000 -3.904063e+000 2.944605e-001 -1.685198e-001 8.535568e-002 -6.367325e-001 2.815090e-001 2.830287e-001 -4.923369e-001 8.762238e-001 1.555653e-001 -9.073779e-002 -1.949611e-001 -1.557972e-001 5.548606e-001
<VARIANCE> 25
 1.171897e+001 1.664657e+001 3.814061e+001 3.997265e+001 2.905725e+001 4.302777e+001 5.683860e+001 4.066172e+001 3.205647e+001 3.568258e+001 4.183543e+001 3.248554e+001 1.772330e+000 1.780794e+000 2.539180e+000 2.825144e+000 2.631289e+000 3.770512e+000 3.287381e+000 3.884036e+000 3.768995e+000 2.909388e+000 3.624693e+000 2.584412e+000 1.373743e+000
<GCONST> 1.005941e+002
<STATE> 4
<MEAN> 25
 4.441263e+000 -4.372104e+000 -1.566098e-001 -3.680200e+000 3.745324e-001 2.896595e+000 -6.990565e+000 -2.391876e+000 1.152861e+000 2.138862e+000 3.857842e+000 -3.314070e+000 -1.931292e-001 -4.376744e-001 -3.156812e-001 8.467667e-001 -3.865009e-001 -1.003642e+000 1.315699e+000 1.765895e+000 -3.510467e-002 -5.834717e-001 -8.209677e-001 4.160905e-001 4.910520e-001
<VARIANCE> 25
 9.521238e+000 1.741415e+001 4.638117e+001 3.372020e+001 2.586419e+001 5.362024e+001 4.838220e+001 4.403456e+001 3.008633e+001 3.355120e+001 3.081959e+001 3.007284e+001 9.928607e-001 1.709636e+000 2.046760e+000 3.356617e+000 3.484673e+000 5.729977e+000 4.315224e+000 4.038369e+000 4.589203e+000 2.705501e+000 5.026861e+000 2.832962e+000 8.613541e-001
<GCONST> 1.003948e+002
<TRANSP> 5
 0.000000e+000 1.000000e+000 0.000000e+000 0.000000e+000 0.000000e+000
 0.000000e+000 3.221704e-001 6.778296e-001 0.000000e+000 0.000000e+000
 0.000000e+000 0.000000e+000 2.511613e-001 7.488387e-001 0.000000e+000
 0.000000e+000 0.000000e+000 0.000000e+000 3.474960e-001 6.525040e-001
 0.000000e+000 0.000000e+000 0.000000e+000 0.000000e+000 0.000000e+000
<ENDHMM>
~h "m"
<BEGINHMM>
<NUMSTATES> 5
<STATE> 2
<MEAN> 25
 7.193761e+000 8.435901e-001 9.077419e-001 5.665022e+000 1.361320e+000 1.995358e+000 2.598454e+000 -5.155364e+000 -5.481733e+000 1.857345e+000 -2.030174e+000 -4.460992e+000 4.229180e-001 8.516151e-001 5.589751e-001 1.978956e+000 -5.801453e-002 -4.282917e-001 3.538944e-001 -2.036241e+000 -9.029431e-001 6.947369e-001 -1.355416e-001 -1.290798e-002 -7.719733e-001
<VARIANCE> 25
 8.531267e+000 1.995444e+001 1.366355e+001 1.824734e+001 1.843375e+001 2.508968e+001 2.140461e+001 2.765023e+001 2.394795e+001 1.985642e+001 2.518190e+001 1.963013e+001 9.277432e-001 1.910280e+000 1.873740e+000 1.855025e+000 2.140532e+000 2.379641e+000 2.005543e+000 2.505631e+000 2.621776e+000 1.811043e+000 2.199609e+000 1.820459e+000 1.882474e+000
<GCONST> 9.012860e+001
<STATE> 3
<MEAN> 25
 7.057227e+000 2.279464e+000 2.110506e+000 8.111406e+000 1.708903e+000 2.081878e+000 2.627704e+000 -8.492903e+000 -6.783828e+000 2.513570e+000 -2.243361e+000 -3.213133e+000 -2.923062e-001 1.224960e-002 1.228256e-001 -1.837189e-001 2.148673e-001 2.568935e-001 -2.401393e-001 3.124982e-001 3.497043e-001 -5.177576e-001 -2.535625e-001 2.736304e-001 1.426532e-001
<VARIANCE> 25
 7.029996e+000 2.266628e+001 1.161158e+001 1.448954e+001 1.783093e+001 2.306665e+001 1.855409e+001 2.246121e+001 2.493719e+001 2.237986e+001 2.538397e+001 1.916611e+001 5.918165e-001 1.960919e+000 1.367635e+000 1.491971e+000 1.416234e+000 1.633023e+000 1.496209e+000 2.111168e+000 2.096171e+000 1.731412e+000 1.604479e+000 1.369466e+000 1.710834e+000
<GCONST> 8.617090e+001
<STATE> 4
<MEAN> 25
 5.753601e+000 -4.470856e-001 5.915790e-001 3.961085e+000 2.835137e+000 3.468375e+000 1.268160e+000 -3.350822e+000 -3.778402e+000 -6.213844e-001 -3.524693e+000 -3.405629e+000 -1.065956e+000 -1.121725e+000 -1.386055e-001 -2.270942e+000 -2.778023e-002 8.248949e-001 -3.237469e-001 2.477104e+000 1.184985e+000 -1.150400e+000 -5.513786e-001 1.813801e-001 1.461339e+000
<VARIANCE> 25
 9.253099e+000 3.333676e+001 2.653265e+001 3.377768e+001 2.540833e+001 3.409613e+001 2.350321e+001 3.927943e+001 2.695695e+001 2.405872e+001 2.393424e+001 1.884080e+001 1.304072e+000 2.061298e+000 4.246818e+000 3.020479e+000 3.607035e+000 3.305881e+000 2.624181e+000 3.453115e+000 3.433600e+000 2.616698e+000 3.182409e+000 2.516723e+000 1.572342e+000
<GCONST> 9.760663e+001
<TRANSP> 5
 0.000000e+000 1.000000e+000 0.000000e+000 0.000000e+000 0.000000e+000
 0.000000e+000 5.195967e-001 4.804033e-001 0.000000e+000 0.000000e+000
 0.000000e+000 0.000000e+000 5.787293e-001 4.212706e-001 0.000000e+000
 0.000000e+000 0.000000e+000 0.000000e+000 4.790437e-001 5.209563e-001
 0.000000e+000 0.000000e+000 0.000000e+000 0.000000e+000 0.000000e+000
<ENDHMM>
~h "n"
<BEGINHMM>
<NUMSTATES> 5
<STATE> 2
<MEAN> 25
 6.169652e+000 5.499688e-001 1.578172e+000 6.718318e+000 3.994784e-001 1.196087e+000 2.161686e+000 -4.593810e+000 -2.814773e+000 1.073435e+000 -6.045108e+000 -3.943520e+000 4.383551e-001 6.582097e-001 4.841361e-001 1.227444e+000 -9.960379e-002 -2.655400e-001 1.538648e-001 -1.215678e+000 -3.237374e-001 4.095277e-001 -7.186830e-001 -4.460122e-002 -4.349180e-001
<VARIANCE> 25
 1.126529e+001 2.319922e+001 1.861658e+001 1.942168e+001 2.142560e+001 2.997247e+001 2.448989e+001 3.483846e+001 2.500913e+001 2.386022e+001 3.041886e+001 2.426567e+001 1.255585e+000 2.603295e+000 1.997300e+000 2.157526e+000 2.301356e+000 2.504967e+000 2.223204e+000 3.485677e+000 2.691968e+000 2.103516e+000 2.360552e+000 2.119978e+000 2.322018e+000
<GCONST> 9.424378e+001
<STATE> 3
<MEAN> 25
 6.307946e+000 6.246743e-001 1.838707e+000 7.701601e+000 8.612911e-001 1.490553e+000 1.395530e+000 -6.228137e+000 -2.968503e+000 1.882443e+000 -6.135412e+000 -3.582670e+000 -2.705369e-001 -8.727987e-001 -2.345029e-001 -1.018868e+000 7.767680e-001 8.512846e-001 -3.848235e-001 1.133157e+000 -3.475884e-002 -5.851036e-001 -3.536967e-002 -2.967930e-001 9.432696e-001
<VARIANCE> 25
 9.260707e+000 2.496705e+001 1.824744e+001 2.063646e+001 2.271067e+001 2.736299e+001 2.472688e+001 3.342147e+001 2.270511e+001 2.413408e+001 2.794912e+001 2.181946e+001 1.080008e+000 2.975426e+000 2.570371e+000 2.230300e+000 2.327297e+000 2.834925e+000 2.220192e+000 3.433896e+000 2.678160e+000 2.301761e+000 2.279095e+000 2.234574e+000 2.154785e+000
<GCONST> 9.423575e+001
<STATE> 4
<MEAN> 25
 4.763750e+000 -3.063669e+000 1.780542e-001 2.621999e+000 3.682292e+000 4.001239e+000 5.752016e-001 3.663112e-002 -2.603516e+000 -1.560015e+000 -6.353359e+000 -4.837676e+000 -7.792736e-001 -8.402869e-001 -4.596768e-001 -1.832301e+000 4.696157e-001 7.488841e-001 2.577970e-001 1.854668e+000 1.505570e-002 -9.129121e-001 4.454192e-001 4.321570e-003 1.193753e+000
<VARIANCE> 25
 1.030902e+001 3.443299e+001 2.976054e+001 2.220375e+001 2.779906e+001 3.319049e+001 3.267855e+001 3.565446e+001 2.664383e+001 2.448055e+001 3.286014e+001 2.450282e+001 1.280679e+000 2.814637e+000 3.127982e+000 2.885990e+000 2.808909e+000 3.198003e+000 2.829292e+000 3.836501e+000 2.871679e+000 2.801673e+000 2.862195e+000 2.296651e+000 1.744869e+000
<GCONST> 9.795898e+001
<TRANSP> 5
 0.000000e+000 1.000000e+000 0.000000e+000 0.000000e+000 0.000000e+000
 0.000000e+000 4.662239e-001 5.337762e-001 0.000000e+000 0.000000e+000
 0.000000e+000 0.000000e+000 3.694991e-001 6.305009e-001 0.000000e+000
 0.000000e+000 0.000000e+000 0.000000e+000 3.749915e-001 6.250085e-001
 0.000000e+000 0.000000e+000 0.000000e+000 0.000000e+000 0.000000e+000
<ENDHMM>
~h "o"
<BEGINHMM>
<NUMSTATES> 5
<STATE> 2
<MEAN> 25
 5.847452e+000 -2.995480e+000 -6.208465e+000 -6.810914e+000 -7.889001e-001 6.188633e+000 -4.858287e+000 -2.425315e+000 -1.884627e+000 3.059593e+000 4.299161e+000 -2.110239e+000 1.003688e+000 -2.469831e-002 -7.959468e-002 -9.718769e-001 -3.491653e-001 1.173140e+000 -2.705327e-001 -1.359333e-001 -6.162471e-001 8.750100e-001 8.842442e-001 -4.047198e-001 9.058960e-001
<VARIANCE> 25
 9.996507e+000 2.312266e+001 1.968843e+001 3.901902e+001 3.132418e+001 4.668904e+001 4.944225e+001 2.586553e+001 3.417233e+001 3.010897e+001 3.811700e+001 2.808952e+001 2.028795e+000 2.192944e+000 2.586063e+000 3.476130e+000 3.439693e+000 3.569651e+000 4.280482e+000 3.038845e+000 3.276263e+000 3.286835e+000 3.066996e+000 2.761400e+000 2.332771e+000
<GCONST> 1.005102e+002
<STATE> 3
<MEAN> 25
 6.857171e+000 -2.096035e+000 -5.855122e+000 -7.868191e+000 -3.784455e-001 8.809253e+000 -3.321418e+000 -2.657233e+000 -3.352234e+000 3.992708e+000 5.802346e+000 -1.817474e+000 1.861627e-001 7.359024e-001 6.494220e-001 6.088251e-001 3.384609e-001 -2.963693e-001 3.419253e-001 7.203477e-002 8.453987e-002 7.524540e-002 -1.798015e-001 9.571934e-002 -7.031246e-001
<VARIANCE> 25
 8.114611e+000 2.010089e+001 1.738263e+001 3.334499e+001 2.908967e+001 3.851103e+001 4.952282e+001 2.445379e+001 3.226067e+001 3.166690e+001 3.864008e+001 2.735912e+001 7.136610e-001 2.051937e+000 1.431699e+000 2.531795e+000 2.104286e+000 2.763762e+000 3.415414e+000 2.068093e+000 2.800579e+000 2.034927e+000 2.082877e+000 2.358641e+000 1.639780e+000
<GCONST> 9.462815e+001
<STATE> 4
<MEAN> 25
 6.513624e+000 1.256718e+000 -2.930902e+000 -3.574046e+000 1.467078e+000 4.951112e+000 -2.310476e+000 -1.754635e+000 -3.382418e-001 3.218239e+000 2.874322e+000 -1.649908e+000 -6.981639e-001 1.441787e+000 1.086605e+000 1.582224e+000 1.508647e-001 -1.359779e+000 1.225899e+000 4.193266e-001 1.044045e+000 -9.456326e-001 -1.105588e+000 5.331352e-001 -1.649677e+000
<VARIANCE> 25
 9.817601e+000 3.445924e+001 2.020629e+001 3.137879e+001 2.873534e+001 3.702375e+001 6.650187e+001 2.835638e+001 3.902609e+001 3.135201e+001 3.780637e+001 3.103355e+001 1.674262e+000 2.282738e+000 1.664826e+000 2.416714e+000 2.403785e+000 2.726602e+000 3.061462e+000 2.985494e+000 3.257995e+000 2.500664e+000 2.522098e+000 2.103392e+000 1.861333e+000
<GCONST> 9.812507e+001
<TRANSP> 5
 0.000000e+000 1.000000e+000 0.000000e+000 0.000000e+000 0.000000e+000
 0.000000e+000 4.032467e-001 5.967532e-001 0.000000e+000 0.000000e+000
 0.000000e+000 0.000000e+000 5.104033e-001 4.895966e-001 0.000000e+000
 0.000000e+000 0.000000e+000 0.000000e+000 4.676037e-001 5.323963e-001
 0.000000e+000 0.000000e+000 0.000000e+000 0.000000e+000 0.000000e+000
<ENDHMM>
~h "p"
<BEGINHMM>
<NUMSTATES> 5
<STATE> 2
<MEAN> 25
 1.468726e+000 7.014504e+000 -3.349655e-001 3.112138e-001 -6.221076e-001 2.504885e-001 4.406743e+000 1.007770e+000 4.079388e+000 -2.288862e+000 -1.951222e+000 1.723681e+000 -1.659922e+000 -1.971685e+000 -1.107574e+000 1.107474e-001 2.571584e-001 -1.325809e-001 -7.236712e-001 -4.442317e-001 3.686844e-001 4.348709e-001 2.475544e-001 4.424939e-001 1.088245e+000
<VARIANCE> 25
 1.638461e+001 1.580263e+001 2.017207e+001 2.389816e+001 2.327799e+001 2.727811e+001 2.590767e+001 2.373478e+001 2.220563e+001 1.971734e+001 2.327013e+001 2.185724e+001 1.477276e+000 2.883986e+000 2.725832e+000 2.123406e+000 2.313931e+000 2.998015e+000 2.940591e+000 2.814381e+000 2.446252e+000 2.039137e+000 2.133602e+000 1.959374e+000 3.659899e+000
<GCONST> 9.446054e+001
<STATE> 3
<MEAN> 25
 -3.771257e+000 -1.137562e+000 -3.578753e+000 1.516349e+000 1.739242e+000 5.797970e-001 1.367699e+000 -5.180620e-001 5.026494e+000 -3.864786e-001 -1.210202e+000 2.365536e+000 -2.763406e-001 -3.135113e+000 -1.969933e+000 -8.862795e-001 -5.065627e-001 -1.829363e-001 -2.180067e+000 -1.278936e+000 -5.254235e-001 9.389158e-001 8.351865e-001 2.106800e-001 3.594379e+000
<VARIANCE> 25
 1.274886e+001 2.889095e+001 2.108617e+001 1.898316e+001 2.322878e+001 2.682488e+001 2.736568e+001 2.198717e+001 2.131740e+001 2.001916e+001 1.928537e+001 1.617560e+001 2.435684e+000 2.339338e+000 3.938463e+000 3.597056e+000 3.356942e+000 4.885347e+000 3.501751e+000 3.862434e+000 3.815602e+000 2.852545e+000 3.083242e+000 2.772326e+000 2.851349e+000
<GCONST> 9.785521e+001
<STATE> 4
<MEAN> 25
 -1.337457e+000 -4.476598e+000 -7.949806e+000 -1.898686e+000 -1.122517e+000 -9.376048e-001 -3.527896e+000 -3.847397e+000 2.693400e+000 1.090938e+000 6.592853e-001 2.505113e+000 1.960415e+000 -1.294557e+000 -6.819156e-001 -1.630299e+000 -1.301006e+000 7.207667e-001 -1.455942e+000 -8.408291e-001 -1.213874e+000 6.137043e-001 1.078750e+000 -4.413887e-001 3.082220e+000
<VARIANCE> 25
 1.815331e+001 1.518221e+001 2.471351e+001 2.265025e+001 2.293451e+001 3.815705e+001 2.577212e+001 2.653966e+001 2.525917e+001 2.120837e+001 2.018960e+001 1.774995e+001 2.398651e+000 2.899986e+000 3.671668e+000 6.024761e+000 3.598873e+000 5.738330e+000 3.420870e+000 3.254703e+000 3.523102e+000 2.999810e+000 2.752226e+000 2.525629e+000 3.164004e+000
<GCONST> 9.928340e+001
<TRANSP> 5
 0.000000e+000 1.000000e+000 0.000000e+000 0.000000e+000 0.000000e+000
 0.000000e+000 4.945776e-001 5.054224e-001 0.000000e+000 0.000000e+000
 0.000000e+000 0.000000e+000 2.213136e-001 7.786864e-001 0.000000e+000
 0.000000e+000 0.000000e+000 0.000000e+000 2.751161e-001 7.248839e-001
 0.000000e+000 0.000000e+000 0.000000e+000 0.000000e+000 0.000000e+000
<ENDHMM>
~h "r"
<BEGINHMM>
<NUMSTATES> 5
<STATE> 2
<MEAN> 25
 3.652226e+000 -4.334829e+000 -1.880607e+000 2.316560e+000 -2.270311e+000 -3.367675e+000 -4.313374e+000 1.392495e-002 3.881442e+000 1.909835e+000 1.336822e+000 -1.151839e+000 8.773022e-001 -2.018530e-001 6.850941e-001 1.343437e+000 -4.335550e-001 -5.402737e-001 2.064327e-001 -2.351275e-001 2.097290e-001 2.805623e-001 8.370114e-002 -1.402568e-001 -8.116568e-003
<VARIANCE> 25
 1.388518e+001 1.954841e+001 2.975609e+001 1.907550e+001 2.415710e+001 3.758168e+001 3.689066e+001 3.460915e+001 2.838823e+001 2.154792e+001 2.858290e+001 2.025615e+001 2.303200e+000 2.362474e+000 3.437023e+000 2.713339e+000 2.651277e+000 3.638665e+000 3.755660e+000 3.211362e+000 2.856210e+000 2.690549e+000 2.859405e+000 2.513173e+000 2.067810e+000
<GCONST> 9.805408e+001
<STATE> 3
<MEAN> 25
 3.933612e+000 -3.856931e+000 -7.268296e-001 5.023814e+000 -2.124164e+000 -3.673390e+000 -2.323394e+000 -6.293569e-001 4.229894e+000 2.292631e+000 9.838014e-001 -7.694353e-001 1.113512e-001 -4.723326e-001 2.117724e-001 1.663880e-001 -1.760603e-001 -5.136969e-001 7.383782e-001 -1.083657e-002 -3.411787e-001 -7.533459e-002 1.030711e-002 1.432600e-001 2.221585e-001
<VARIANCE> 25
 1.285467e+001 2.170403e+001 3.281993e+001 1.795768e+001 2.687685e+001 3.266320e+001 3.433687e+001 3.461247e+001 2.874530e+001 2.449158e+001 2.785950e+001 2.157434e+001 1.493477e+000 2.128170e+000 3.114841e+000 2.009636e+000 2.329581e+000 3.278296e+000 3.191925e+000 2.886441e+000 2.751588e+000 2.331756e+000 2.883914e+000 2.083675e+000 1.562501e+000
<GCONST> 9.611314e+001
<STATE> 4
<MEAN> 25
 3.678370e+000 -5.764509e+000 -1.659772e+000 3.119188e+000 -2.658060e+000 -4.808711e+000 -1.603548e+000 4.190482e-002 3.291674e+000 1.699638e+000 1.142769e+000 -5.910777e-001 9.957712e-003 -6.508924e-001 -1.418530e-001 -1.005647e+000 1.862454e-002 -1.972964e-001 4.952478e-001 4.511601e-001 -8.879910e-001 -2.977376e-001 1.447241e-001 -1.484969e-001 8.191258e-001
<VARIANCE> 25
 1.324909e+001 2.304571e+001 4.100424e+001 1.765918e+001 2.762510e+001 3.994337e+001 3.674100e+001 3.209457e+001 2.827048e+001 2.489617e+001 3.193062e+001 2.217911e+001 1.533337e+000 2.113942e+000 2.453331e+000 2.115024e+000 2.662675e+000 3.513785e+000 3.124856e+000 3.298363e+000 3.298146e+000 2.454398e+000 3.911758e+000 2.123489e+000 1.460514e+000
<GCONST> 9.742971e+001
<TRANSP> 5
 0.000000e+000 1.000000e+000 0.000000e+000 0.000000e+000 0.000000e+000
 0.000000e+000 2.309511e-001 7.690489e-001 0.000000e+000 0.000000e+000
 0.000000e+000 0.000000e+000 1.879743e-001 8.120257e-001 0.000000e+000
 0.000000e+000 0.000000e+000 0.000000e+000 1.933660e-001 8.066339e-001
 0.000000e+000 0.000000e+000 0.000000e+000 0.000000e+000 0.000000e+000
<ENDHMM>
~h "s"
<BEGINHMM>
<NUMSTATES> 5
<STATE> 2
<MEAN> 25
 -9.250165e+000 6.681499e+000 2.928428e+000 1.586555e+000 6.638014e+000 -5.441264e+000 2.813585e+000 4.613654e+000 1.923779e+000 -1.884810e+000 -1.858866e+000 4.228610e+000 -4.148068e+000 1.349832e+000 -7.870175e-001 -3.278795e-001 1.813328e+000 -3.220026e-001 1.351285e+000 1.373522e+000 6.525437e-001 -9.426891e-001 4.842610e-001 1.484661e+000 5.435331e-001
<VARIANCE> 25
 3.478891e+001 2.012493e+001 2.380021e+001 1.816736e+001 2.913083e+001 4.323772e+001 6.179210e+001 2.973725e+001 3.772555e+001 2.343974e+001 2.760401e+001 2.536724e+001 1.725831e+000 2.479333e+000 2.643473e+000 1.936177e+000 2.387300e+000 3.112391e+000 3.221892e+000 3.397239e+000 2.974600e+000 2.569359e+000 2.581382e+000 2.014170e+000 9.560399e-001
<GCONST> 9.768072e+001
<STATE> 3
<MEAN> 25
 -1.710585e+001 6.479949e+000 -3.350480e+000 -1.029301e+000 8.911203e+000 -5.255063e+000 4.895169e+000 6.318919e+000 1.045284e+000 -2.206159e+000 3.284226e-001 6.651005e+000 -3.602822e-001 -7.738431e-001 -8.993229e-001 -1.146982e-001 -2.471364e-001 8.663519e-002 -1.507666e-001 -8.466960e-002 2.422680e-001 1.214150e-001 3.544568e-002 6.102463e-002 -5.721268e-001
<VARIANCE> 25
 6.780643e+000 1.683200e+001 1.851396e+001 1.601526e+001 1.990459e+001 2.981557e+001 4.187263e+001 2.881398e+001 2.782304e+001 2.159939e+001 2.250422e+001 1.973653e+001 1.205456e+000 1.671830e+000 1.978032e+000 1.423504e+000 1.842835e+000 2.254265e+000 2.662998e+000 2.651118e+000 2.632493e+000 1.897707e+000 1.767397e+000 1.625621e+000 5.410935e-001
<GCONST> 8.951690e+001
<STATE> 4
<MEAN> 25
 -1.175416e+001 2.587103e+000 -3.069736e+000 3.848040e-001 5.530670e+000 -5.116899e+000 9.471285e-001 3.371490e+000 3.173445e+000 -1.206593e+000 -9.741040e-001 4.331374e+000 3.066222e+000 -7.051038e-001 4.861019e-001 1.774896e-001 -1.249564e+000 4.450203e-002 -1.050541e+000 -1.605663e+000 -2.795574e-001 5.155703e-001 -9.467599e-002 -1.165724e+000 -8.550269e-001
<VARIANCE> 25
 3.110270e+001 2.643620e+001 2.147563e+001 1.928369e+001 3.629882e+001 4.841124e+001 5.874525e+001 4.051129e+001 4.026546e+001 2.297679e+001 2.109451e+001 2.222119e+001 3.658660e+000 2.079370e+000 1.717804e+000 1.726382e+000 2.395630e+000 3.068274e+000 4.265168e+000 3.730712e+000 3.079212e+000 2.303023e+000 2.270772e+000 2.177652e+000 2.777014e+000
<GCONST> 9.936820e+001
<TRANSP> 5
 0.000000e+000 1.000000e+000 0.000000e+000 0.000000e+000 0.000000e+000
 0.000000e+000 6.374294e-001 3.625707e-001 0.000000e+000 0.000000e+000
 0.000000e+000 0.000000e+000 7.447947e-001 2.552053e-001 0.000000e+000
 0.000000e+000 0.000000e+000 0.000000e+000 6.667362e-001 3.332638e-001
 0.000000e+000 0.000000e+000 0.000000e+000 0.000000e+000 0.000000e+000
<ENDHMM>
~h "t"
<BEGINHMM>
<NUMSTATES> 5
<STATE> 2
<MEAN> 25
 -2.883081e+000 6.309556e+000 4.885840e-001 1.351169e+000 1.562536e+000 -1.687566e+000 4.556507e+000 1.297879e+000 4.712895e+000 -1.534519e+000 -1.708864e+000 2.062573e+000 -1.161750e+000 -1.547958e+000 -4.442496e-001 -6.505393e-001 1.781979e-001 3.278698e-001 2.487802e-001 -5.481143e-001 -6.138367e-002 -2.950073e-001 3.810265e-001 7.354898e-001 3.337419e-001
<VARIANCE> 25
 3.208057e+001 1.659055e+001 2.166537e+001 2.031012e+001 2.728841e+001 3.335271e+001 2.904922e+001 2.836619e+001 2.506602e+001 2.117670e+001 2.400711e+001 2.035392e+001 3.070649e+000 3.382263e+000 2.178335e+000 1.921821e+000 2.519864e+000 3.041499e+000 2.712535e+000 3.286615e+000 2.316959e+000 1.953803e+000 2.338385e+000 2.201209e+000 3.395717e+000
<GCONST> 9.667226e+001
<STATE> 3
<MEAN> 25
 -6.803207e+000 -9.982718e-001 -9.172378e-001 -7.758219e-001 2.775506e+000 -4.192021e-001 4.473814e+000 -3.040183e-001 3.546354e+000 -2.153112e+000 1.504156e-001 4.287238e+000 -6.442048e-001 -2.458687e+000 -1.052650e+000 -9.355440e-001 -7.523345e-001 -9.843071e-001 -1.005079e+000 -6.660458e-001 -6.006089e-001 -1.843173e-002 5.685781e-001 4.845087e-001 2.324020e+000
<VARIANCE> 25
 1.719058e+001 4.294928e+001 2.782560e+001 2.211848e+001 2.574420e+001 2.965516e+001 3.240401e+001 2.643542e+001 2.181382e+001 1.812255e+001 2.074812e+001 1.704939e+001 3.815320e+000 3.131374e+000 2.894146e+000 2.444994e+000 3.661908e+000 3.982475e+000 4.360659e+000 3.547099e+000 3.146881e+000 2.368807e+000 2.869948e+000 2.937960e+000 3.177712e+000
<GCONST> 9.936562e+001
<STATE> 4
<MEAN> 25
 -5.214767e+000 -2.325274e+000 -3.453690e+000 -2.202980e+000 -8.865092e-001 -4.961650e+000 9.508195e-001 -6.872451e-001 2.677259e+000 -1.568704e+000 1.407526e-001 3.681083e+000 2.095000e+000 -5.889620e-001 1.725631e-001 -8.864965e-002 -1.338797e+000 -8.395930e-001 -2.367951e+000 -2.104896e-001 -1.051986e+000 8.796349e-001 4.117626e-001 -1.459675e+000 1.990427e+000
<VARIANCE> 25
 2.060781e+001 2.837344e+001 2.584082e+001 2.126399e+001 2.966954e+001 3.038453e+001 5.212872e+001 2.725414e+001 2.557831e+001 1.964482e+001 2.001224e+001 2.277255e+001 3.288593e+000 3.552087e+000 4.690473e+000 2.840827e+000 4.047396e+000 3.694745e+000 3.459035e+000 4.121503e+000 3.623832e+000 2.474877e+000 2.948133e+000 2.601912e+000 2.943655e+000
<GCONST> 1.007521e+002
<TRANSP> 5
 0.000000e+000 1.000000e+000 0.000000e+000 0.000000e+000 0.000000e+000
 0.000000e+000 4.585951e-001 5.414049e-001 0.000000e+000 0.000000e+000
 0.000000e+000 0.000000e+000 3.382131e-001 6.617869e-001 0.000000e+000
 0.000000e+000 0.000000e+000 0.000000e+000 3.919809e-001 6.080191e-001
 0.000000e+000 0.000000e+000 0.000000e+000 0.000000e+000 0.000000e+000
<ENDHMM>
~h "u"
<BEGINHMM>
<NUMSTATES> 5
<STATE> 2
<MEAN> 25
 5.462164e+000 9.201754e-001 -2.257974e+000 -3.735981e+000 -1.633222e+000 4.566422e+000 -7.532156e+000 -5.038731e+000 -1.713063e+000 -4.609004e-002 4.125752e+000 -1.142354e+000 1.506250e+000 8.980355e-001 -6.651811e-002 -1.751956e+000 -5.125825e-001 1.684982e+000 -5.752376e-001 -1.015360e+000 -1.340941e+000 4.913393e-002 1.361745e+000 -2.839341e-001 4.478377e-001
<VARIANCE> 25
 1.519775e+001 3.921966e+001 2.601956e+001 5.024270e+001 3.579714e+001 4.790194e+001 6.237820e+001 3.952644e+001 3.471939e+001 4.036103e+001 4.082365e+001 2.604073e+001 3.020515e+000 3.091325e+000 2.936319e+000 3.450439e+000 4.439431e+000 4.339777e+000 5.786357e+000 5.070928e+000 4.384793e+000 3.649466e+000 3.654220e+000 3.494287e+000 2.900817e+000
<GCONST> 1.062561e+002
<STATE> 3
<MEAN> 25
 7.837590e+000 5.220531e+000 -2.221103e+000 -8.658227e+000 -3.934065e+000 8.030431e+000 -3.610878e+000 -3.824740e+000 -4.574368e+000 -2.144425e+000 4.309698e+000 6.909692e-002 7.673378e-003 5.811805e-001 3.546684e-001 3.460009e-001 1.662591e-001 -1.288938e-001 3.494627e-001 5.977977e-002 2.774948e-001 -8.808194e-002 -2.988583e-001 1.587683e-001 -4.807826e-001
<VARIANCE> 25
 8.047991e+000 3.702829e+001 2.002677e+001 4.412634e+001 3.489719e+001 3.939114e+001 5.197691e+001 3.583448e+001 3.659701e+001 3.301183e+001 4.330762e+001 2.815381e+001 6.840773e-001 2.827354e+000 1.333013e+000 3.606683e+000 2.638426e+000 2.755271e+000 4.646017e+000 2.972291e+000 2.959174e+000 3.314886e+000 3.281590e+000 2.302727e+000 1.773985e+000
<GCONST> 9.910457e+001
<STATE> 4
<MEAN> 25
 5.705569e+000 5.207912e+000 2.493449e-001 -1.375981e+000 -5.086741e-001 3.907360e+000 -3.696458e+000 -3.786531e+000 2.422250e-002 -7.456458e-001 1.662607e+000 4.605210e-001 -1.239782e+000 4.808953e-001 8.225226e-001 1.804749e+000 5.416833e-001 -1.602548e+000 1.086706e+000 9.450921e-001 1.235190e+000 -1.364558e-001 -1.307279e+000 4.650111e-001 -9.862971e-001
<VARIANCE> 25
 1.144678e+001 4.297961e+001 2.545304e+001 3.792876e+001 3.553584e+001 4.003324e+001 8.148357e+001 3.952838e+001 3.008838e+001 2.977554e+001 3.706887e+001 2.902913e+001 1.802684e+000 2.779244e+000 1.932500e+000 3.307841e+000 3.385160e+000 3.579301e+000 3.944792e+000 3.477832e+000 3.508522e+000 2.880565e+000 3.077545e+000 2.409174e+000 2.029918e+000
<GCONST> 1.017390e+002
<TRANSP> 5
 0.000000e+000 1.000000e+000 0.000000e+000 0.000000e+000 0.000000e+000
 0.000000e+000 4.587720e-001 5.412279e-001 0.000000e+000 0.000000e+000
 0.000000e+000 0.000000e+000 6.573036e-001 3.426964e-001 0.000000e+000
 0.000000e+000 0.000000e+000 0.000000e+000 5.329278e-001 4.670722e-001
 0.000000e+000 0.000000e+000 0.000000e+000 0.000000e+000 0.000000e+000
<ENDHMM>
~h "v"
<BEGINHMM>
<NUMSTATES> 5
<STATE> 2
<MEAN> 25
 3.844396e+000 2.355197e-001 -2.652361e+000 2.693649e-002 1.891165e+000 1.439248e+000 -3.076990e+000 -3.992196e+000 -3.236180e-001 2.590768e+000 1.546876e+000 1.519204e-002 7.566738e-001 -3.655899e-002 -2.065875e-001 -2.750362e-001 1.027333e-002 2.907917e-001 -5.378778e-001 -4.777261e-001 -4.810786e-001 3.504058e-001 3.436047e-001 -1.956446e-001 3.039748e-001
<VARIANCE> 25
 2.726918e+001 2.476654e+001 2.864542e+001 3.559514e+001 2.201545e+001 4.064505e+001 3.896325e+001 3.138188e+001 2.906105e+001 2.507122e+001 3.302303e+001 2.234426e+001 3.023469e+000 3.227595e+000 2.520918e+000 3.738841e+000 2.540523e+000 4.408752e+000 3.609972e+000 3.811782e+000 3.257622e+000 3.133683e+000 2.936019e+000 2.656626e+000 3.092766e+000
<GCONST> 1.015554e+002
<STATE> 3
<MEAN> 25
 5.118984e+000 -1.125662e+000 -2.856480e+000 -1.357524e+000 1.345167e+000 1.771417e+000 -3.578583e+000 -3.108255e+000 -1.018569e+000 2.878505e+000 1.957285e+000 -6.416317e-001 2.105574e-001 -8.760526e-001 4.990542e-002 -4.611716e-001 -5.132961e-001 -2.179875e-001 -4.624593e-002 8.863215e-001 -1.898851e-001 -2.003647e-001 -1.202267e-001 -2.629581e-001 9.823343e-001
<VARIANCE> 25
 1.764996e+001 2.372427e+001 3.415136e+001 4.086701e+001 2.288974e+001 4.672336e+001 3.712017e+001 3.262103e+001 2.752298e+001 2.626667e+001 3.784512e+001 2.527154e+001 2.514261e+000 3.282396e+000 2.619056e+000 3.668043e+000 2.641206e+000 3.907617e+000 2.821498e+000 3.726517e+000 3.661322e+000 2.714398e+000 2.645829e+000 2.616740e+000 2.721969e+000
<GCONST> 1.010384e+002
<STATE> 4
<MEAN> 25
 5.015991e+000 -2.901953e+000 -2.760229e+000 -1.792999e+000 4.893042e-001 8.236374e-001 -3.419075e+000 -4.354609e-001 -7.827384e-001 2.032471e+000 9.694778e-001 -1.266720e+000 -1.765195e-001 -7.151625e-001 4.360952e-001 -2.354478e-002 -7.796144e-001 -3.663560e-001 4.906352e-001 1.105163e+000 -1.059797e-001 -4.554379e-001 -3.087282e-001 -1.354339e-001 8.692271e-001
<VARIANCE> 25
 1.444025e+001 2.873300e+001 3.949234e+001 3.872068e+001 2.597332e+001 5.569825e+001 3.887415e+001 3.495996e+001 3.056856e+001 2.951061e+001 3.957945e+001 3.011370e+001 1.822295e+000 2.288407e+000 2.731700e+000 3.024599e+000 3.127237e+000 3.353472e+000 2.738204e+000 3.415795e+000 4.024533e+000 2.550144e+000 3.163135e+000 2.395998e+000 1.615326e+000
<GCONST> 1.006460e+002
<TRANSP> 5
 0.000000e+000 1.000000e+000 0.000000e+000 0.000000e+000 0.000000e+000
 0.000000e+000 2.772986e-001 7.227014e-001 0.000000e+000 0.000000e+000
 0.000000e+000 0.000000e+000 1.359392e-001 8.640608e-001 0.000000e+000
 0.000000e+000 0.000000e+000 0.000000e+000 1.466067e-001 8.533933e-001
 0.000000e+000 0.000000e+000 0.000000e+000 0.000000e+000 0.000000e+000
<ENDHMM>
~h "z"
<BEGINHMM>
<NUMSTATES> 5
<STATE> 2
<MEAN> 25
 -5.401894e+000 9.662315e+000 1.280373e+000 1.998915e-001 6.746492e+000 -9.604371e+000 -1.517854e+000 -1.501469e+000 5.005866e-001 1.658584e+000 -2.483521e+000 2.380020e+000 -2.992287e+000 2.780225e+000 -2.495380e-001 2.477266e-001 1.556223e+000 -1.170369e+000 1.405533e+000 5.258605e-001 7.126516e-001 -1.179398e+000 -4.509651e-001 1.722209e+000 -2.873369e-002
<VARIANCE> 25
 2.137440e+001 2.463336e+001 2.589411e+001 1.838646e+001 2.434128e+001 3.570844e+001 4.845797e+001 2.646416e+001 3.239230e+001 2.613083e+001 1.974068e+001 2.548557e+001 1.372850e+000 2.691020e+000 1.726414e+000 1.346245e+000 2.114360e+000 3.084927e+000 2.550659e+000 3.493018e+000 2.088696e+000 1.937858e+000 2.153931e+000 1.678090e+000 8.652682e-001
<GCONST> 9.401566e+001
<STATE> 3
<MEAN> 25
 -1.236343e+001 1.224275e+001 6.478480e-001 1.240809e+000 8.811254e+000 -9.657887e+000 1.758835e+000 1.819556e+000 3.266252e-001 -2.044675e+000 -1.953765e+000 6.150515e+000 -1.997492e-002 -8.630166e-001 -2.901531e-001 3.613014e-002 -4.649573e-002 1.362360e-001 -4.442447e-001 7.998291e-002 -8.633286e-002 -1.810456e-001 3.455988e-002 9.460229e-002 -1.491169e-001
<VARIANCE> 25
 1.161336e+001 1.183764e+001 1.993446e+001 1.551669e+001 1.949563e+001 3.082378e+001 4.245625e+001 2.971885e+001 2.903445e+001 2.247098e+001 2.032639e+001 1.797575e+001 2.450942e+000 1.550467e+000 1.488974e+000 1.257336e+000 1.861410e+000 2.381983e+000 2.822984e+000 2.646310e+000 2.240409e+000 1.888841e+000 1.582417e+000 1.473614e+000 5.512469e-001
<GCONST> 8.968118e+001
<STATE> 4
<MEAN> 25
 -4.854368e+000 4.789245e+000 -9.457881e-001 -4.449646e-001 5.786192e+000 -9.786452e+000 -3.904533e+000 -5.168945e-001 9.203062e-001 1.527567e+000 -2.393869e+000 2.706779e+000 3.147451e+000 -3.003482e+000 -3.025096e-001 -4.743107e-001 -1.425158e+000 9.380935e-001 -9.601753e-001 -1.856279e-002 7.340984e-002 1.171827e+000 2.290341e-001 -1.676657e+000 4.462487e-001
<VARIANCE> 25
 2.725989e+001 2.777742e+001 2.161858e+001 1.678369e+001 2.048986e+001 3.143033e+001 3.533458e+001 2.429165e+001 2.372013e+001 2.517919e+001 1.488477e+001 1.841821e+001 1.496928e+000 1.989423e+000 1.511098e+000 1.630221e+000 1.723633e+000 3.066750e+000 3.117997e+000 4.003926e+000 2.222452e+000 2.101109e+000 1.874562e+000 1.507961e+000 1.210657e+000
<GCONST> 9.265295e+001
<TRANSP> 5
 0.000000e+000 1.000000e+000 0.000000e+000 0.000000e+000 0.000000e+000
 0.000000e+000 6.286240e-001 3.713761e-001 0.000000e+000 0.000000e+000
 0.000000e+000 0.000000e+000 6.695501e-001 3.304499e-001 0.000000e+000
 0.000000e+000 0.000000e+000 0.000000e+000 6.071628e-001 3.928372e-001
 0.000000e+000 0.000000e+000 0.000000e+000 0.000000e+000 0.000000e+000
<ENDHMM>
~h "DZ"
<BEGINHMM>
<NUMSTATES> 5
<STATE> 2
<MEAN> 25
 5.738658e-001 4.288025e+000 3.132748e+000 8.463622e+000 -1.995639e+000 1.339663e+000 2.737115e+000 -3.155186e+000 3.070331e+000 -2.764127e+000 -2.358409e+000 -1.737886e+000 -3.227652e+000 -4.316673e-001 -1.832076e-001 5.557356e-001 -4.130625e-001 1.016339e+000 7.504609e-001 -8.760684e-001 1.726028e-003 -1.213384e+000 4.369208e-001 7.224374e-001 1.901710e+000
<VARIANCE> 25
 3.684754e+001 4.414807e+001 2.365303e+001 2.430439e+001 2.146591e+001 3.733756e+001 2.830198e+001 3.690879e+001 2.844051e+001 2.398582e+001 3.119231e+001 1.619844e+001 4.762581e+000 5.846721e+000 2.576427e+000 2.709733e+000 2.072521e+000 4.771794e+000 3.525360e+000 2.808995e+000 2.788353e+000 2.217345e+000 4.040087e+000 2.250063e+000 4.505201e+000
<GCONST> 1.014721e+002
<STATE> 3
<MEAN> 25
 -1.188004e+001 3.501309e+000 3.150312e+000 5.290790e+000 -4.337979e+000 2.506298e+000 4.356337e-001 -4.040931e+000 5.017529e+000 -7.299052e+000 2.960756e-001 3.142414e+000 2.609093e-001 -6.080614e-001 -3.774977e-001 -1.074494e+000 -8.275436e-001 -2.461289e+000 -2.286058e+000 -3.631516e-001 1.124064e+000 -4.106800e-002 9.603044e-001 6.598119e-001 1.459421e+000
<VARIANCE> 25
 2.031430e+001 2.040916e+001 3.242832e+001 3.249887e+001 1.804652e+001 4.154191e+001 3.505059e+001 2.975835e+001 2.624881e+001 2.637621e+001 1.584920e+001 2.906437e+001 9.827459e+000 3.343711e+000 1.645571e+000 2.259487e+000 2.619823e+000 3.278926e+000 3.207343e+000 2.735976e+000 4.505658e+000 3.066998e+000 1.900160e+000 2.493695e+000 1.913253e+000
<GCONST> 9.913533e+001
<STATE> 4
<MEAN> 25
 9.356466e-001 -2.465597e+000 1.139928e-001 3.643466e+000 -4.478917e+000 -4.862363e+000 -5.870715e+000 -5.886472e+000 7.753463e+000 -1.433188e+000 4.372994e+000 -9.797494e-001 3.183245e+000 -1.430550e+000 -5.613763e-001 -1.298728e+000 5.927856e-001 1.969379e-001 -9.236469e-001 7.561318e-001 -3.425734e-001 1.845421e+000 1.147681e+000 -1.134338e+000 5.828878e-003
<VARIANCE> 25
 1.997186e+001 1.465716e+001 2.078241e+001 2.095884e+001 2.758986e+001 2.726687e+001 2.644801e+001 3.198701e+001 2.797349e+001 2.233776e+001 2.190848e+001 3.840558e+001 2.575752e+000 2.077890e+000 1.722344e+000 1.331252e+000 2.372259e+000 8.224338e+000 4.631694e+000 2.744770e+000 3.514989e+000 2.121280e+000 2.386921e+000 1.685848e+000 8.970408e-001
<GCONST> 9.555263e+001
<TRANSP> 5
 0.000000e+000 1.000000e+000 0.000000e+000 0.000000e+000 0.000000e+000
 0.000000e+000 6.522797e-001 3.477203e-001 0.000000e+000 0.000000e+000
 0.000000e+000 0.000000e+000 5.652370e-001 4.347630e-001 0.000000e+000
 0.000000e+000 0.000000e+000 0.000000e+000 6.374078e-001 3.625922e-001
 0.000000e+000 0.000000e+000 0.000000e+000 0.000000e+000 0.000000e+000
<ENDHMM>
~h "a:"
<BEGINHMM>
<NUMSTATES> 5
<STATE> 2
<MEAN> 25
 3.049333e+000 -8.153551e+000 -6.929537e+000 -2.278861e+000 3.796428e+000 1.097712e+000 7.334113e-001 2.135507e+000 3.357830e+000 3.703391e-002 -3.765177e+000 -4.116088e+000 2.334987e-001 -5.898927e-001 -4.769821e-001 2.382838e-001 7.342057e-001 1.335986e+000 3.822349e-001 -1.715064e-002 -1.121589e-001 -5.022585e-001 -3.788092e-001 -9.424476e-001 2.422075e-001
<VARIANCE> 25
 5.133911e+000 6.997904e+000 9.468549e+000 1.298821e+001 1.773193e+001 4.203786e+001 2.163296e+001 2.506189e+001 1.586716e+001 1.804185e+001 2.293100e+001 1.566737e+001 8.168306e-001 8.585899e-001 1.090655e+000 1.396827e+000 1.775118e+000 2.300545e+000 2.018388e+000 2.282340e+000 1.625951e+000 1.757291e+000 2.353915e+000 1.829168e+000 9.411708e-001
<GCONST> 8.424083e+001
<STATE> 3
<MEAN> 25
 3.640310e+000 -8.239435e+000 -8.157952e+000 -6.806972e-001 5.398615e+000 5.393775e+000 1.017198e+000 -3.713088e-001 1.612067e+000 -1.203638e+000 -3.404202e+000 -7.021624e+000 3.999929e-001 5.275480e-001 2.402944e-001 2.339726e-001 -3.091682e-001 -2.160048e-001 -1.345448e-001 2.729699e-001 -2.671712e-001 4.337973e-001 -2.199531e-002 -2.972678e-001 -6.622244e-001
<VARIANCE> 25
 6.103160e+000 8.657497e+000 1.307141e+001 1.880719e+001 2.099010e+001 3.198148e+001 2.039747e+001 2.766855e+001 1.839162e+001 2.076237e+001 3.019298e+001 1.772903e+001 4.495329e-001 9.567444e-001 8.450718e-001 1.222881e+000 1.212406e+000 1.772931e+000 1.444676e+000 1.804148e+000 1.396725e+000 1.474631e+000 1.850789e+000 1.385615e+000 6.608322e-001
<GCONST> 8.265395e+001
<STATE> 4
<MEAN> 25
 5.620964e+000 -2.184471e+000 -5.753596e+000 4.336253e-001 3.076203e+000 2.302830e+000 2.040584e+000 2.697001e+000 2.836313e+000 7.242529e-001 -4.562081e+000 -6.402749e+000 -8.208480e-002 1.945566e+000 8.530480e-001 3.596007e-001 -3.620625e-001 -2.946740e-001 9.287652e-001 2.046807e-001 4.156048e-001 -2.875124e-001 -4.562011e-001 6.709397e-001 -2.162342e+000
<VARIANCE> 25
 8.735723e+000 2.227818e+001 1.730654e+001 2.231883e+001 2.219868e+001 3.812518e+001 3.597868e+001 3.244681e+001 3.046803e+001 2.672404e+001 3.485426e+001 2.320051e+001 1.395382e+000 1.677320e+000 1.381092e+000 1.749387e+000 1.969636e+000 2.187103e+000 2.475977e+000 2.528077e+000 2.553195e+000 2.320630e+000 2.447592e+000 1.981511e+000 1.385982e+000
<GCONST> 9.308708e+001
<TRANSP> 5
 0.000000e+000 1.000000e+000 0.000000e+000 0.000000e+000 0.000000e+000
 0.000000e+000 6.412498e-001 3.587501e-001 0.000000e+000 0.000000e+000
 0.000000e+000 0.000000e+000 7.089803e-001 2.910197e-001 0.000000e+000
 0.000000e+000 0.000000e+000 0.000000e+000 6.376114e-001 3.623886e-001
 0.000000e+000 0.000000e+000 0.000000e+000 0.000000e+000 0.000000e+000
<ENDHMM>
~h "cc"
<BEGINHMM>
<NUMSTATES> 5
<STATE> 2
<MEAN> 25
 -8.637805e+000 7.951060e+000 7.718368e+000 9.009688e-001 -3.858435e+000 4.646667e+000 -2.275274e+000 1.364693e+000 2.947174e+000 -1.278142e+000 -1.878564e+000 3.774630e+000 -3.514945e+000 4.346965e-002 2.191946e-001 -7.281498e-001 -4.629007e-001 2.152685e+000 9.204084e-002 -4.600245e-001 4.972440e-001 -1.357906e-004 4.943380e-002 2.634751e-001 4.531836e-001
<VARIANCE> 25
 3.728151e+001 1.707445e+001 2.290068e+001 3.723312e+001 3.129263e+001 4.438396e+001 2.745471e+001 3.385033e+001 2.922483e+001 2.106806e+001 2.679649e+001 1.900236e+001 1.658301e+000 4.114209e+000 1.977813e+000 1.970851e+000 2.684476e+000 2.468784e+000 3.024374e+000 2.423467e+000 2.999117e+000 1.998462e+000 2.171324e+000 1.679507e+000 2.061728e+000
<GCONST> 9.684962e+001
<STATE> 3
<MEAN> 25
 -1.880479e+001 1.404168e+000 6.355105e+000 3.822435e-001 -6.350659e+000 9.125465e+000 1.245897e+000 -1.038341e-001 1.980183e+000 -1.471043e+000 5.944331e-001 4.777483e+000 -1.522294e-001 -1.840172e+000 -8.615487e-001 3.939410e-001 -7.709250e-001 -8.019634e-001 1.161530e+000 2.999537e-001 -4.866749e-001 -2.397258e-001 6.131275e-001 2.909101e-001 4.198529e-001
<VARIANCE> 25
 7.693848e+000 1.741584e+001 1.448612e+001 2.516837e+001 2.375150e+001 2.452103e+001 2.379157e+001 2.099689e+001 1.883262e+001 1.741019e+001 1.986115e+001 1.507550e+001 3.133748e+000 1.192216e+000 1.291516e+000 1.638206e+000 2.040063e+000 2.845831e+000 2.236662e+000 2.208085e+000 2.023712e+000 1.809158e+000 1.893579e+000 1.378023e+000 8.994476e-001
<GCONST> 8.839322e+001
<STATE> 4
<MEAN> 25
 -1.000536e+001 -2.643943e+000 3.884946e+000 1.902550e+000 -8.746178e+000 1.512471e-001 3.555328e-001 7.523002e-001 -1.084941e-002 -2.950573e+000 1.673179e+000 5.061673e+000 4.337582e+000 -5.707582e-001 -3.138362e-002 1.694306e-001 1.856196e-001 -2.990493e+000 -1.640067e+000 -1.902651e-001 -6.959735e-001 -1.116859e-002 2.182056e-001 -5.180742e-001 4.346071e-001
<VARIANCE> 25
 5.253405e+001 1.455159e+001 1.577691e+001 2.230662e+001 2.308829e+001 4.312165e+001 3.210083e+001 2.273013e+001 2.700703e+001 1.745977e+001 1.649827e+001 1.299163e+001 2.623882e+000 1.681722e+000 2.238893e+000 1.682099e+000 2.730942e+000 3.379023e+000 2.949974e+000 2.552382e+000 3.288090e+000 2.091617e+000 2.089716e+000 1.616873e+000 1.440090e+000
<GCONST> 9.403103e+001
<TRANSP> 5
 0.000000e+000 1.000000e+000 0.000000e+000 0.000000e+000 0.000000e+000
 0.000000e+000 7.316964e-001 2.683036e-001 0.000000e+000 0.000000e+000
 0.000000e+000 0.000000e+000 7.140785e-001 2.859214e-001 0.000000e+000
 0.000000e+000 0.000000e+000 0.000000e+000 6.589829e-001 3.410171e-001
 0.000000e+000 0.000000e+000 0.000000e+000 0.000000e+000 0.000000e+000
<ENDHMM>
~h "e:"
<BEGINHMM>
<NUMSTATES> 5
<STATE> 2
<MEAN> 25
 2.264785e+000 -5.440807e+000 1.720284e+000 4.160546e-001 -6.268507e+000 -8.119283e+000 4.144878e-001 4.615847e+000 2.853257e-001 4.342887e-001 2.564561e+000 8.545817e-001 4.882011e-001 -7.932123e-002 3.801823e-001 2.319479e-002 -1.743170e-001 7.188223e-002 1.761161e-001 8.756462e-001 -6.044907e-001 4.099178e-001 3.206039e-001 -2.851432e-001 -2.915401e-002
<VARIANCE> 25
 6.577702e+000 9.399421e+000 1.588119e+001 1.011692e+001 2.280578e+001 3.599294e+001 2.999207e+001 2.010166e+001 2.202210e+001 1.335295e+001 2.528701e+001 1.509128e+001 9.966103e-001 1.070320e+000 1.630717e+000 1.211248e+000 2.693750e+000 2.772186e+000 3.106177e+000 2.301805e+000 2.577179e+000 1.866721e+000 2.379064e+000 1.490389e+000 1.375552e+000
<GCONST> 8.776923e+001
<STATE> 3
<MEAN> 25
 3.797939e+000 -4.055741e+000 3.039860e+000 6.740634e-001 -5.549312e+000 -5.713373e+000 -9.736029e-001 5.923276e+000 -2.468186e+000 2.138997e+000 1.767301e+000 -6.646938e-001 3.434029e-001 1.386536e+000 2.001489e-001 6.386411e-001 8.131333e-001 3.787848e-001 1.791192e-001 -8.848931e-002 1.931456e-001 2.084693e-002 -7.706909e-001 -1.440341e-001 -1.636994e+000
<VARIANCE> 25
 7.842858e+000 1.630053e+001 2.231418e+001 1.516078e+001 3.198145e+001 3.034918e+001 3.477751e+001 2.360324e+001 3.121331e+001 2.141476e+001 3.004518e+001 1.749810e+001 7.211372e-001 1.755635e+000 1.272339e+000 1.130738e+000 1.937835e+000 2.028345e+000 2.773383e+000 1.932524e+000 2.639137e+000 1.623027e+000 1.603142e+000 1.773746e+000 1.489499e+000
<GCONST> 8.952522e+001
<STATE> 4
<MEAN> 25
 3.530199e+000 1.103977e+000 3.026060e+000 2.866134e+000 -3.751514e+000 -5.593013e+000 1.561170e+000 4.762221e+000 8.409494e-001 7.551168e-001 -3.477396e-001 1.435364e-001 -7.157522e-001 1.680183e+000 -1.978457e-001 4.115477e-001 9.740680e-001 3.304394e-001 8.185970e-001 -8.914289e-001 1.065194e+000 -3.526733e-001 -5.856005e-001 3.286577e-001 -1.667771e+000
<VARIANCE> 25
 1.023626e+001 2.500879e+001 2.002700e+001 1.600407e+001 2.884698e+001 3.280214e+001 3.759649e+001 2.887448e+001 3.519713e+001 2.235221e+001 2.826134e+001 2.296138e+001 2.073482e+000 2.832629e+000 1.586524e+000 1.784784e+000 2.624743e+000 2.404074e+000 3.467129e+000 2.763996e+000 2.921670e+000 2.504022e+000 1.978562e+000 2.264025e+000 1.829888e+000
<GCONST> 9.525484e+001
<TRANSP> 5
 0.000000e+000 1.000000e+000 0.000000e+000 0.000000e+000 0.000000e+000
 0.000000e+000 5.696745e-001 4.303255e-001 0.000000e+000 0.000000e+000
 0.000000e+000 0.000000e+000 4.708056e-001 5.291944e-001 0.000000e+000
 0.000000e+000 0.000000e+000 0.000000e+000 4.092170e-001 5.907829e-001
 0.000000e+000 0.000000e+000 0.000000e+000 0.000000e+000 0.000000e+000
<ENDHMM>
~h "dz"
<BEGINHMM>
<NUMSTATES> 5
<STATE> 2
<MEAN> 25
 -3.852564e+000 6.308189e+000 9.300900e+000 2.122326e+000 -5.056060e+000 1.749145e+000 -3.372368e+000 1.950238e+000 1.812949e+000 -3.300008e+000 -1.491247e+000 4.368920e+000 -2.958890e+000 2.155633e+000 7.173887e-001 1.503507e-001 -8.791358e-001 1.930373e+000 5.371175e-001 -5.497701e-001 1.248380e+000 -6.937949e-001 -5.781040e-001 6.554971e-001 -3.550753e-001
<VARIANCE> 25
 2.614851e+001 2.586232e+001 2.425776e+001 2.359034e+001 2.140007e+001 3.074150e+001 2.706146e+001 3.564502e+001 2.892131e+001 1.345132e+001 1.853208e+001 1.700053e+001 1.628478e+000 2.801414e+000 1.298331e+000 1.839565e+000 2.073449e+000 2.240362e+000 2.700924e+000 1.919462e+000 2.795755e+000 1.948416e+000 2.156538e+000 1.643016e+000 1.245858e+000
<GCONST> 9.264006e+001
<STATE> 3
<MEAN> 25
 -1.212199e+001 6.369506e+000 1.075428e+001 3.913102e+000 -7.776818e+000 5.263513e+000 -5.195719e-001 -9.944533e-001 1.554831e+000 -3.295391e+000 -6.703057e-001 5.386370e+000 2.906623e-001 -1.839192e+000 -6.365822e-001 1.105351e+000 -7.361454e-001 -1.434604e+000 4.303458e-002 -8.176078e-001 -1.365480e+000 -1.922667e-001 8.493669e-001 3.028377e-001 7.775016e-001
<VARIANCE> 25
 1.782612e+001 1.368304e+001 1.917868e+001 2.762793e+001 2.130470e+001 3.212194e+001 2.479250e+001 2.574379e+001 2.427468e+001 1.548057e+001 1.557424e+001 1.274715e+001 5.333088e+000 1.650240e+000 1.640154e+000 2.067384e+000 1.985351e+000 4.182063e+000 2.480623e+000 1.935887e+000 2.241351e+000 1.856021e+000 1.752156e+000 1.288741e+000 3.892786e-001
<GCONST> 9.030169e+001
<STATE> 4
<MEAN> 25
 -2.689461e+000 -7.765633e-001 6.456415e+000 5.767610e+000 -8.250538e+000 -3.684654e+000 -4.288137e+000 -1.973637e+000 -1.532534e+000 -4.224835e+000 2.074128e+000 5.451373e+000 3.309530e+000 -1.929884e+000 -1.401979e+000 -5.197996e-001 1.193773e+000 -1.519700e+000 -1.304460e+000 1.385895e-001 2.405058e-001 5.638364e-001 5.464393e-001 -1.087197e+000 5.340601e-001
<VARIANCE> 25
 2.110931e+001 1.358706e+001 1.318882e+001 3.085536e+001 1.621702e+001 1.915936e+001 2.576605e+001 2.109048e+001 2.595120e+001 1.482537e+001 1.290828e+001 1.090014e+001 1.698815e+000 1.449684e+000 1.442768e+000 2.015451e+000 2.782521e+000 4.088265e+000 5.071549e+000 2.931732e+000 3.102078e+000 2.573090e+000 2.023103e+000 1.792885e+000 5.560356e-001
<GCONST> 9.042849e+001
<TRANSP> 5
 0.000000e+000 1.000000e+000 0.000000e+000 0.000000e+000 0.000000e+000
 0.000000e+000 6.676484e-001 3.323516e-001 0.000000e+000 0.000000e+000
 0.000000e+000 0.000000e+000 6.419765e-001 3.580235e-001 0.000000e+000
 0.000000e+000 0.000000e+000 0.000000e+000 6.199782e-001 3.800218e-001
 0.000000e+000 0.000000e+000 0.000000e+000 0.000000e+000 0.000000e+000
<ENDHMM>
~h "i:"
<BEGINHMM>
<NUMSTATES> 5
<STATE> 2
<MEAN> 25
 -6.232913e-001 -2.737826e-001 1.147206e+001 6.932396e-001 -9.922983e+000 -1.699719e+000 -3.277112e+000 -3.208287e+000 -7.266050e+000 -2.994176e-002 3.857884e+000 -2.192908e-001 1.694832e-001 1.220300e-001 2.193414e+000 -7.407849e-001 -1.991621e+000 9.977289e-001 -7.095657e-001 -7.349201e-001 -1.855673e+000 6.985347e-001 9.535745e-001 -9.216173e-001 1.163319e+000
<VARIANCE> 25
 1.069415e+001 2.122392e+001 2.071323e+001 2.222390e+001 2.206556e+001 5.110867e+001 2.676111e+001 3.075563e+001 2.641063e+001 1.896508e+001 2.684354e+001 1.505122e+001 2.755398e+000 1.855574e+000 2.551975e+000 3.552480e+000 3.082811e+000 3.930395e+000 4.634035e+000 2.813383e+000 3.749695e+000 2.144408e+000 2.653911e+000 1.957855e+000 2.461323e+000
<GCONST> 9.699432e+001
<STATE> 3
<MEAN> 25
 -4.014928e-001 1.285902e+000 1.438602e+001 -1.924633e+000 -1.067585e+001 4.665574e+000 -4.274719e+000 -5.345000e+000 -8.103227e+000 2.182708e+000 2.799727e+000 -2.425077e+000 2.421195e-001 2.200101e-001 -2.614411e-001 4.242665e-001 4.182553e-001 2.096243e-002 2.404590e-001 3.163947e-001 -8.558714e-002 -9.928796e-002 -5.965073e-002 -6.819609e-002 -2.614629e-001
<VARIANCE> 25
 6.333485e+000 1.649365e+001 1.396909e+001 2.698276e+001 2.040538e+001 6.034159e+001 1.999652e+001 2.189795e+001 2.600126e+001 1.678711e+001 3.075359e+001 1.462803e+001 7.103027e-001 1.674623e+000 1.271400e+000 1.789744e+000 1.653331e+000 3.059070e+000 1.963574e+000 2.216273e+000 1.843035e+000 1.454756e+000 1.702748e+000 1.245200e+000 9.165756e-001
<GCONST> 8.765116e+001
<STATE> 4
<MEAN> 25
 7.713298e-001 2.538017e+000 1.075211e+001 3.302584e+000 -6.891365e+000 -1.995297e+000 -1.468443e+000 -1.919471e+000 -6.958919e+000 -8.462715e-001 3.015924e+000 -3.281427e-001 -5.091001e-001 1.058559e+000 -1.577573e+000 9.787576e-001 2.465381e+000 -9.774700e-001 9.361184e-001 3.211080e-001 1.728518e+000 -6.123223e-001 -1.169106e+000 1.091984e+000 -1.086295e+000
<VARIANCE> 25
 1.285448e+001 2.564816e+001 1.687186e+001 1.716138e+001 2.523694e+001 4.007496e+001 3.232112e+001 2.529033e+001 2.938981e+001 1.877602e+001 2.526797e+001 1.847546e+001 2.855585e+000 3.168245e+000 1.829858e+000 2.718728e+000 2.666614e+000 3.791070e+000 3.727791e+000 3.014932e+000 3.033157e+000 2.286058e+000 2.154806e+000 2.522055e+000 1.743478e+000
<GCONST> 9.622261e+001
<TRANSP> 5
 0.000000e+000 1.000000e+000 0.000000e+000 0.000000e+000 0.000000e+000
 0.000000e+000 5.655504e-001 4.344495e-001 0.000000e+000 0.000000e+000
 0.000000e+000 0.000000e+000 6.820530e-001 3.179470e-001 0.000000e+000
 0.000000e+000 0.000000e+000 0.000000e+000 5.732198e-001 4.267802e-001
 0.000000e+000 0.000000e+000 0.000000e+000 0.000000e+000 0.000000e+000
<ENDHMM>
~h "o:"
<BEGINHMM>
<NUMSTATES> 5
<STATE> 2
<MEAN> 25
 5.954567e+000 -8.382836e-001 -7.633669e+000 -1.018322e+001 -3.739241e+000 8.903975e+000 -5.893362e-001 -2.603841e+000 -8.127846e-001 -6.069002e-001 4.051183e+000 -6.337515e-001 9.627692e-001 1.153802e-001 -2.659959e-001 -1.929862e+000 -1.104015e+000 1.851000e+000 3.933258e-001 -1.633610e-001 -3.313852e-001 1.178256e-001 9.441708e-001 -2.788618e-001 1.113824e+000
<VARIANCE> 25
 1.020163e+001 2.759172e+001 1.602451e+001 3.802017e+001 4.101385e+001 3.628306e+001 4.520048e+001 3.139317e+001 3.242440e+001 3.116037e+001 3.033799e+001 2.692906e+001 1.944496e+000 2.247115e+000 2.443120e+000 4.016106e+000 3.269183e+000 3.298529e+000 3.341748e+000 3.038047e+000 2.789163e+000 2.793525e+000 2.550247e+000 2.380466e+000 2.724797e+000
<GCONST> 9.949874e+001
<STATE> 3
<MEAN> 25
 6.267827e+000 -1.729825e+000 -7.216965e+000 -1.123887e+001 -3.881480e+000 1.215886e+001 -1.219295e-001 -3.932135e+000 -1.868974e+000 8.022703e-001 6.277920e+000 -7.338716e-001 3.918153e-002 -2.196629e-001 4.568265e-001 8.687577e-001 7.985866e-001 -4.875317e-001 -6.946448e-001 -4.201638e-002 3.893377e-002 8.343907e-001 2.836769e-001 -5.088147e-001 -4.268283e-002
<VARIANCE> 25
 7.366789e+000 1.603374e+001 1.289548e+001 2.522217e+001 3.164836e+001 2.738737e+001 3.476481e+001 2.427158e+001 2.758979e+001 3.046614e+001 2.770528e+001 2.193737e+001 5.750844e-001 2.025341e+000 1.188351e+000 2.518994e+000 2.537636e+000 2.509480e+000 3.354100e+000 2.114054e+000 2.472298e+000 2.541240e+000 2.184993e+000 2.364999e+000 1.696612e+000
<GCONST> 9.221761e+001
<STATE> 4
<MEAN> 25
 6.321709e+000 -1.069901e+000 -3.905107e+000 -5.786336e+000 4.982326e-001 6.209365e+000 -4.332885e+000 -1.893134e+000 3.980672e-001 3.778404e+000 4.838968e+000 -3.200213e+000 -6.387409e-001 1.111164e+000 1.410189e+000 1.810186e+000 7.250348e-001 -1.911094e+000 4.003267e-001 1.025330e+000 1.080282e+000 -4.530744e-001 -1.466720e+000 2.339657e-001 -1.446290e+000
<VARIANCE> 25
 8.092815e+000 3.310580e+001 1.977159e+001 3.038906e+001 2.840399e+001 3.772592e+001 6.350447e+001 2.938891e+001 3.015462e+001 3.455411e+001 3.307448e+001 2.751550e+001 2.219248e+000 2.793217e+000 1.691123e+000 2.484531e+000 2.921927e+000 3.122922e+000 4.720821e+000 3.165408e+000 3.116998e+000 2.756459e+000 2.336921e+000 2.832357e+000 2.159704e+000
<GCONST> 9.919277e+001
<TRANSP> 5
 0.000000e+000 1.000000e+000 0.000000e+000 0.000000e+000 0.000000e+000
 0.000000e+000 5.901414e-001 4.098586e-001 0.000000e+000 0.000000e+000
 0.000000e+000 0.000000e+000 6.744706e-001 3.255294e-001 0.000000e+000
 0.000000e+000 0.000000e+000 0.000000e+000 5.927532e-001 4.072468e-001
 0.000000e+000 0.000000e+000 0.000000e+000 0.000000e+000 0.000000e+000
<ENDHMM>
~h "r:"
<BEGINHMM>
<NUMSTATES> 5
<STATE> 2
<MEAN> 25
 2.793002e+000 -5.889319e+000 -3.877702e+000 -1.807940e+000 -9.669520e-001 -6.831492e+000 -5.071912e+000 1.093908e+000 3.359863e+000 2.441303e+000 6.514917e-001 -1.404798e+000 2.181336e+000 -2.450525e-001 1.397100e+000 1.254754e+000 -6.376198e-001 -3.727550e-001 -7.173198e-001 7.440227e-002 1.812370e-001 1.069633e+000 1.003818e+000 -1.173717e+000 6.333333e-001
<VARIANCE> 25
 1.035543e+001 1.068441e+001 1.500481e+001 1.111575e+001 1.946712e+001 3.322184e+001 1.923923e+001 1.804839e+001 1.940853e+001 1.597634e+001 1.632460e+001 1.663597e+001 1.760671e+000 1.992604e+000 2.643577e+000 2.104537e+000 2.499084e+000 2.662385e+000 3.743269e+000 2.949100e+000 2.811011e+000 2.197368e+000 2.336392e+000 1.867361e+000 1.842206e+000
<GCONST> 9.060583e+001
<STATE> 3
<MEAN> 25
 4.847877e+000 -6.756567e+000 -1.877945e+000 3.256190e+000 -1.098192e+000 -7.044636e+000 -3.082404e+000 -1.715383e+000 4.041264e+000 4.671539e+000 2.272822e+000 -2.393035e+000 3.406766e-001 9.695262e-002 5.525214e-001 6.102737e-001 -2.292842e-001 2.586745e-001 2.226922e-002 -6.234535e-001 -1.408210e-001 8.738311e-002 1.837362e-001 8.139018e-002 -5.560787e-001
<VARIANCE> 25
 8.966752e+000 1.272479e+001 1.625126e+001 1.765428e+001 1.496509e+001 2.744621e+001 2.498499e+001 2.431656e+001 2.051305e+001 1.866173e+001 1.875959e+001 1.862221e+001 8.531498e-001 1.530995e+000 2.031523e+000 3.406550e+000 1.417551e+000 3.588432e+000 2.540459e+000 2.549267e+000 1.973950e+000 1.827912e+000 2.172341e+000 1.498668e+000 1.379084e+000
<GCONST> 8.905552e+001
<STATE> 4
<MEAN> 25
 5.504217e+000 -3.015077e+000 -1.123502e+000 2.309449e+000 -8.507186e-001 -2.621795e+000 -3.814128e+000 -2.154924e+000 3.075541e+000 3.042941e+000 2.775818e+000 -1.317482e+000 -1.737490e-001 1.814645e+000 4.756555e-001 6.303621e-003 1.915935e-001 1.573677e+000 5.893800e-001 -3.530250e-001 -4.937944e-001 -7.005764e-001 2.074254e-003 4.714897e-001 -1.507260e+000
<VARIANCE> 25
 1.808198e+001 2.799224e+001 2.763277e+001 2.081783e+001 2.147831e+001 2.952732e+001 2.765783e+001 3.283167e+001 3.427146e+001 2.277247e+001 2.620754e+001 2.273159e+001 1.788290e+000 2.127943e+000 1.691855e+000 2.204888e+000 1.998881e+000 3.643387e+000 2.540385e+000 2.643953e+000 3.405084e+000 1.794944e+000 3.152176e+000 1.740932e+000 1.166727e+000
<GCONST> 9.505188e+001
<TRANSP> 5
 0.000000e+000 1.000000e+000 0.000000e+000 0.000000e+000 0.000000e+000
 0.000000e+000 3.820883e-001 6.179116e-001 0.000000e+000 0.000000e+000
 0.000000e+000 0.000000e+000 6.353964e-001 3.646036e-001 0.000000e+000
 0.000000e+000 0.000000e+000 0.000000e+000 4.980658e-001 5.019342e-001
 0.000000e+000 0.000000e+000 0.000000e+000 0.000000e+000 0.000000e+000
<ENDHMM>
~h "u:"
<BEGINHMM>
<NUMSTATES> 5
<STATE> 2
<MEAN> 25
 5.036542e+000 1.293185e+000 -2.533699e+000 -5.342340e+000 -2.536811e+000 5.419267e+000 -9.237566e+000 -6.493120e+000 -1.558931e+000 -8.415700e-001 6.169277e+000 -1.074406e+000 1.976175e+000 1.149640e+000 -9.691052e-002 -2.807516e+000 -1.061503e+000 2.444991e+000 -4.369915e-002 -9.216677e-001 -1.564837e+000 -5.291725e-001 1.602432e+000 -4.156591e-001 4.462736e-001
<VARIANCE> 25
 1.441205e+001 3.428345e+001 1.939955e+001 4.824036e+001 3.062265e+001 4.551189e+001 5.991275e+001 4.281803e+001 3.246706e+001 3.133918e+001 4.245023e+001 2.740696e+001 3.184455e+000 2.828431e+000 3.707855e+000 3.444482e+000 4.777634e+000 3.604369e+000 6.083513e+000 5.973062e+000 5.755735e+000 3.925098e+000 4.013856e+000 3.192366e+000 2.208919e+000
<GCONST> 1.057097e+002
<STATE> 3
<MEAN> 25
 7.778918e+000 4.903853e+000 -1.754876e+000 -1.143338e+001 -6.437569e+000 1.066414e+001 -4.090964e+000 -3.512774e+000 -3.549516e+000 -5.163226e+000 4.951762e+000 -1.138993e+000 1.203720e-001 -2.139268e-002 1.072117e-001 4.108051e-001 8.351254e-002 4.384012e-001 4.480433e-001 -1.736763e-001 7.462454e-002 -9.403456e-002 -1.247935e-001 -5.767792e-002 -1.520252e-001
<VARIANCE> 25
 6.392777e+000 2.648467e+001 1.475503e+001 3.219168e+001 2.928025e+001 3.991147e+001 3.912268e+001 4.161025e+001 3.697783e+001 2.906901e+001 4.710128e+001 2.929531e+001 5.004310e-001 2.939217e+000 1.303758e+000 4.135064e+000 3.251562e+000 3.226149e+000 4.853306e+000 4.464632e+000 2.982656e+000 3.703516e+000 4.403561e+000 2.670120e+000 1.435390e+000
<GCONST> 9.863525e+001
<STATE> 4
<MEAN> 25
 6.656156e+000 2.746613e+000 -5.712116e-001 -3.606872e+000 -1.404381e+000 8.114183e+000 -5.785128e+000 -7.039822e+000 -6.971341e-001 -1.155931e+000 5.108876e+000 -7.460303e-001 -8.994704e-001 3.396793e-001 6.617696e-001 2.535336e+000 1.342124e+000 -2.192552e+000 1.221716e+000 5.372959e-001 1.260545e+000 5.130489e-001 -1.865790e+000 5.399876e-001 -1.156603e+000
<VARIANCE> 25
 9.362217e+000 3.940607e+001 2.368873e+001 3.565635e+001 3.130823e+001 4.008436e+001 8.111658e+001 5.051786e+001 3.287434e+001 3.338977e+001 4.680551e+001 3.316057e+001 1.761563e+000 3.068063e+000 1.832895e+000 3.441543e+000 4.115462e+000 3.948917e+000 5.632764e+000 4.529623e+000 4.275052e+000 3.767667e+000 3.401201e+000 2.942339e+000 2.147019e+000
<GCONST> 1.038010e+002
<TRANSP> 5
 0.000000e+000 1.000000e+000 0.000000e+000 0.000000e+000 0.000000e+000
 0.000000e+000 5.557252e-001 4.442748e-001 0.000000e+000 0.000000e+000
 0.000000e+000 0.000000e+000 7.280843e-001 2.719157e-001 0.000000e+000
 0.000000e+000 0.000000e+000 0.000000e+000 5.877160e-001 4.122840e-001
 0.000000e+000 0.000000e+000 0.000000e+000 0.000000e+000 0.000000e+000
<ENDHMM>
~h "uzdah"
<BEGINHMM>
<NUMSTATES> 3
<STATE> 2
~s "silst"
<TRANSP> 3
 0.000000e+000 1.470917e-001 8.529083e-001
 0.000000e+000 8.395869e-001 1.604131e-001
 0.000000e+000 0.000000e+000 0.000000e+000
<ENDHMM>
~h "sil"
<BEGINHMM>
<NUMSTATES> 5
<STATE> 2
<MEAN> 25
 -2.079734e+000 2.351437e+000 -1.745407e+000 2.175390e+000 2.242137e+000 2.144950e+000 5.348329e+000 8.109431e-001 3.562648e+000 -2.228502e+000 -2.196295e+000 1.833414e+000 -2.871008e-001 2.103186e-003 -2.065074e-002 -2.382893e-002 3.985603e-002 1.247464e-002 -2.802944e-002 3.171150e-002 1.257454e-001 2.545324e-002 2.362446e-001 2.324481e-001 -3.170784e-001
<VARIANCE> 25
 1.510355e+001 2.481433e+001 1.942664e+001 1.631748e+001 2.241406e+001 2.169488e+001 2.436430e+001 2.699093e+001 2.421212e+001 2.118704e+001 2.365397e+001 2.101099e+001 7.633833e-001 1.571549e+000 1.163835e+000 1.198743e+000 1.584740e+000 1.776332e+000 1.898032e+000 2.071240e+000 2.014440e+000 1.880630e+000 1.812709e+000 1.688794e+000 1.158807e+000
<GCONST> 8.827354e+001
<STATE> 3
<MEAN> 25
