~o
<STREAMINFO> 1 25
<VECSIZE> 25<NULLD><MFCC_D_N_Z_0><DIAGC>
~h "proto"
<BEGINHMM>
<NUMSTATES> 5
<STATE> 2
<MEAN> 25
 1.758059e-009 6.569589e-009 -2.437159e-009 -5.072320e-009 2.362288e-010 7.538945e-009 -6.539847e-009 9.577897e-009 -1.934581e-010 4.869636e-009 1.202332e-009 -1.029390e-009 4.030446e-003 1.091484e-003 1.259130e-003 5.051256e-003 3.062224e-003 1.618352e-003 7.453394e-003 6.292212e-003 3.221246e-003 1.764193e-003 -1.848529e-003 -9.028321e-004 -3.415929e-003
<VARIANCE> 25
 5.625790e+001 4.169550e+001 4.921779e+001 3.648018e+001 4.574784e+001 5.696038e+001 4.695587e+001 4.160025e+001 4.318676e+001 2.776617e+001 3.776233e+001 3.233307e+001 3.438521e+000 3.302766e+000 2.644270e+000 2.858146e+000 3.117050e+000 3.456229e+000 3.661772e+000 3.472605e+000 3.371007e+000 2.554014e+000 2.759205e+000 2.403064e+000 3.047584e+000
<GCONST> 1.053711e+002
<STATE> 3
<MEAN> 25
 1.758059e-009 6.569589e-009 -2.437159e-009 -5.072320e-009 2.362288e-010 7.538945e-009 -6.539847e-009 9.577897e-009 -1.934581e-010 4.869636e-009 1.202332e-009 -1.029390e-009 4.030446e-003 1.091484e-003 1.259130e-003 5.051256e-003 3.062224e-003 1.618352e-003 7.453394e-003 6.292212e-003 3.221246e-003 1.764193e-003 -1.848529e-003 -9.028321e-004 -3.415929e-003
<VARIANCE> 25
 5.625790e+001 4.169550e+001 4.921779e+001 3.648018e+001 4.574784e+001 5.696038e+001 4.695587e+001 4.160025e+001 4.318676e+001 2.776617e+001 3.776233e+001 3.233307e+001 3.438521e+000 3.302766e+000 2.644270e+000 2.858146e+000 3.117050e+000 3.456229e+000 3.661772e+000 3.472605e+000 3.371007e+000 2.554014e+000 2.759205e+000 2.403064e+000 3.047584e+000
<GCONST> 1.053711e+002
<STATE> 4
<MEAN> 25
 1.758059e-009 6.569589e-009 -2.437159e-009 -5.072320e-009 2.362288e-010 7.538945e-009 -6.539847e-009 9.577897e-009 -1.934581e-010 4.869636e-009 1.202332e-009 -1.029390e-009 4.030446e-003 1.091484e-003 1.259130e-003 5.051256e-003 3.062224e-003 1.618352e-003 7.453394e-003 6.292212e-003 3.221246e-003 1.764193e-003 -1.848529e-003 -9.028321e-004 -3.415929e-003
<VARIANCE> 25
 5.625790e+001 4.169550e+001 4.921779e+001 3.648018e+001 4.574784e+001 5.696038e+001 4.695587e+001 4.160025e+001 4.318676e+001 2.776617e+001 3.776233e+001 3.233307e+001 3.438521e+000 3.302766e+000 2.644270e+000 2.858146e+000 3.117050e+000 3.456229e+000 3.661772e+000 3.472605e+000 3.371007e+000 2.554014e+000 2.759205e+000 2.403064e+000 3.047584e+000
<GCONST> 1.053711e+002
<TRANSP> 5
 0.000000e+000 1.000000e+000 0.000000e+000 0.000000e+000 0.000000e+000
 0.000000e+000 6.000000e-001 4.000000e-001 0.000000e+000 0.000000e+000
 0.000000e+000 0.000000e+000 6.000000e-001 4.000000e-001 0.000000e+000
 0.000000e+000 0.000000e+000 0.000000e+000 7.000000e-001 3.000000e-001
 0.000000e+000 0.000000e+000 0.000000e+000 0.000000e+000 0.000000e+000
<ENDHMM>
