~o
<STREAMINFO> 1 25
<VECSIZE> 25<NULLD><MFCC_D_N_Z_0><DIAGC>
~h "C"
<BEGINHMM>
<NUMSTATES> 5
<STATE> 2
<MEAN> 25
 -6.515212e+000 -9.385334e-001 1.433371e+000 4.603180e+000 -4.240605e+000 3.067278e+000 2.841029e+000 -1.570688e+000 4.894717e+000 -1.920720e+000 -3.136978e-001 2.667616e+000 -4.236760e+000 -9.419293e-001 -8.695436e-001 1.492513e-001 -7.022898e-001 6.861539e-001 -3.894379e-001 -3.852307e-001 8.362374e-001 -1.015100e+000 1.519123e-001 1.111959e+000 2.395077e+000
<VARIANCE> 25
 5.730551e+001 4.636275e+001 2.984591e+001 2.645525e+001 2.844820e+001 3.721237e+001 3.340355e+001 3.622832e+001 2.674782e+001 2.384147e+001 2.766099e+001 2.254199e+001 3.536319e+000 5.138576e+000 3.011340e+000 2.125613e+000 3.650867e+000 3.818037e+000 4.589652e+000 4.751069e+000 4.117404e+000 3.204758e+000 3.161214e+000 2.615124e+000 3.973756e+000
<GCONST> 1.040049e+002
<STATE> 3
<MEAN> 25
 -1.737035e+001 6.993334e-001 2.504406e-001 4.260753e+000 -2.881664e+000 2.675811e+000 -1.205102e+000 3.434304e-001 9.715015e+000 -5.818536e+000 -1.009804e+000 4.818145e+000 -1.429055e-001 2.434634e-001 -1.047428e-001 -9.839174e-002 7.252214e-001 -1.054461e+000 -1.081259e+000 9.036068e-001 7.010766e-001 -8.607382e-001 -2.232157e-002 -9.740469e-002 -3.903674e-001
<VARIANCE> 25
 1.524310e+001 1.962577e+001 2.096426e+001 2.391167e+001 2.817375e+001 3.304241e+001 3.742494e+001 4.714348e+001 4.304519e+001 3.360354e+001 2.830566e+001 2.885798e+001 7.012829e+000 2.850264e+000 2.132132e+000 1.642015e+000 2.573798e+000 3.517617e+000 3.613307e+000 5.130991e+000 4.881972e+000 2.995308e+000 2.314716e+000 2.254778e+000 2.219696e+000
<GCONST> 1.006627e+002
<STATE> 4
<MEAN> 25
 -8.784558e+000 -1.257042e+000 1.746493e-002 3.378473e+000 -2.740176e+000 -1.515061e+000 -2.771782e+000 4.800593e-001 6.007263e+000 -5.531257e+000 6.529500e-001 2.349511e+000 4.103323e+000 -6.668231e-001 2.199393e-001 -6.686984e-001 -1.157376e-001 -1.169918e+000 -3.204357e-001 -3.562128e-001 -1.975942e+000 1.186974e+000 6.988574e-001 -1.168759e+000 1.402027e-001
<VARIANCE> 25
 5.407369e+001 1.777990e+001 2.213256e+001 2.094605e+001 3.600459e+001 3.895789e+001 3.345668e+001 5.738374e+001 5.563868e+001 3.047669e+001 2.542879e+001 2.543321e+001 3.662123e+000 2.240084e+000 2.312567e+000 2.097877e+000 2.395967e+000 4.563798e+000 3.576584e+000 3.876480e+000 3.692898e+000 3.221222e+000 2.711380e+000 2.181304e+000 2.378683e+000
<GCONST> 1.014935e+002
<TRANSP> 5
 0.000000e+000 1.000000e+000 0.000000e+000 0.000000e+000 0.000000e+000
 0.000000e+000 6.832083e-001 3.167917e-001 0.000000e+000 0.000000e+000
 0.000000e+000 0.000000e+000 6.040259e-001 3.959742e-001 0.000000e+000
 0.000000e+000 0.000000e+000 0.000000e+000 6.571699e-001 3.428301e-001
 0.000000e+000 0.000000e+000 0.000000e+000 0.000000e+000 0.000000e+000
<ENDHMM>
~h "L"
<BEGINHMM>
<NUMSTATES> 5
<STATE> 2
<MEAN> 25
 1.780042e+000 -1.358150e+000 7.682428e+000 2.327497e+000 -3.652999e+000 -4.859784e+000 -2.745639e+000 1.023716e+000 -3.374289e+000 -1.620806e+000 7.262917e-001 2.636325e+000 -1.455215e-001 4.956115e-001 1.730661e+000 1.327144e-001 -6.075575e-001 -8.009331e-002 -3.853780e-002 2.517369e-003 -1.454786e+000 -5.902893e-001 1.796831e-001 2.695182e-001 -1.611374e-001
<VARIANCE> 25
 1.374831e+001 2.312762e+001 1.837033e+001 2.127135e+001 2.000819e+001 2.315723e+001 3.190238e+001 2.659846e+001 3.118824e+001 2.155597e+001 2.307586e+001 1.535474e+001 1.561221e+000 2.240625e+000 2.575831e+000 2.536405e+000 2.370230e+000 2.628966e+000 3.731016e+000 3.350580e+000 2.982616e+000 2.436788e+000 2.248444e+000 1.839575e+000 1.952279e+000
<GCONST> 9.449664e+001
<STATE> 3
<MEAN> 25
 1.013651e+000 -3.004465e-001 1.027615e+001 1.532975e+000 -4.806970e+000 -3.932865e+000 -3.501416e+000 6.870622e-001 -6.127568e+000 -2.081223e+000 2.130517e+000 3.026732e+000 -7.013870e-002 -3.564827e-001 -1.070388e-001 -5.343875e-001 -7.283549e-001 1.487501e-001 -4.495612e-001 3.631355e-001 1.224683e-002 3.334528e-001 5.954698e-001 1.642084e-001 6.993330e-001
<VARIANCE> 25
 7.204545e+000 1.714745e+001 1.539264e+001 1.940870e+001 2.028696e+001 2.301504e+001 2.560485e+001 2.176849e+001 2.195533e+001 1.999902e+001 2.050371e+001 1.496992e+001 1.043698e+000 1.795133e+000 1.933084e+000 1.875528e+000 2.064902e+000 1.865005e+000 3.325714e+000 2.474143e+000 2.696715e+000 1.743095e+000 1.772621e+000 1.899715e+000 1.212013e+000
<GCONST> 8.906973e+001
<STATE> 4
<MEAN> 25
 1.535338e+000 -1.937094e+000 7.203357e+000 5.733632e-001 -6.331365e+000 -3.977656e+000 -3.557847e+000 2.670991e+000 -3.759360e+000 -6.501030e-001 3.025431e+000 2.670888e+000 4.121199e-001 -3.591004e-001 -1.464531e+000 -7.971399e-002 3.184447e-001 3.901863e-001 4.814404e-002 4.666204e-001 7.303546e-001 4.842210e-001 -9.810508e-002 -7.420474e-001 2.376354e-001
<VARIANCE> 25
 6.123034e+000 1.898358e+001 2.159104e+001 2.030776e+001 2.115219e+001 2.433301e+001 4.189219e+001 2.527180e+001 2.169874e+001 2.019970e+001 1.900447e+001 1.625027e+001 6.897178e-001 1.666032e+000 2.000285e+000 1.584161e+000 2.436237e+000 2.131395e+000 4.040706e+000 2.957297e+000 2.173930e+000 2.007925e+000 2.417146e+000 1.953728e+000 1.122816e+000
<GCONST> 9.037196e+001
<TRANSP> 5
 0.000000e+000 1.000000e+000 0.000000e+000 0.000000e+000 0.000000e+000
 0.000000e+000 5.519183e-001 4.480817e-001 0.000000e+000 0.000000e+000
 0.000000e+000 0.000000e+000 5.416088e-001 4.583912e-001 0.000000e+000
 0.000000e+000 0.000000e+000 0.000000e+000 5.750770e-001 4.249230e-001
 0.000000e+000 0.000000e+000 0.000000e+000 0.000000e+000 0.000000e+000
<ENDHMM>
~h "N"
<BEGINHMM>
<NUMSTATES> 5
<STATE> 2
<MEAN> 25
 3.261698e+000 1.755812e+000 4.907703e+000 5.657309e-001 -2.190730e-001 2.175546e+000 1.789391e+000 6.843826e-001 -5.071366e+000 -2.095619e+000 -4.110059e+000 -4.482980e-001 2.685696e-001 1.195241e+000 1.147604e+000 -4.047627e-001 -1.019977e-002 8.041319e-001 -4.489807e-001 -6.281633e-001 -7.070472e-001 3.271436e-001 -1.648658e-001 -1.069642e-001 -4.348052e-001
<VARIANCE> 25
 1.477400e+001 3.204027e+001 1.804667e+001 2.328316e+001 2.432056e+001 2.564014e+001 3.271761e+001 3.593799e+001 2.153754e+001 2.058837e+001 2.359215e+001 1.575121e+001 2.260836e+000 2.885611e+000 2.229386e+000 2.868947e+000 2.750006e+000 2.950567e+000 2.772525e+000 3.131394e+000 2.947878e+000 1.934461e+000 1.872247e+000 1.689535e+000 3.071517e+000
<GCONST> 9.566568e+001
<STATE> 3
<MEAN> 25
 2.107176e+000 3.864819e+000 8.322606e+000 -2.169988e+000 -1.058822e+000 5.855980e+000 1.385421e-001 -1.572389e+000 -6.413447e+000 2.765125e-001 -3.256112e+000 -1.379104e+000 -3.819218e-001 -5.177801e-001 7.654754e-001 -6.800185e-001 -7.981626e-001 6.881804e-001 4.122172e-001 2.167203e-001 -3.710449e-001 4.332535e-001 2.954921e-001 -3.547806e-001 7.278733e-001
<VARIANCE> 25
 1.103102e+001 2.255624e+001 1.726532e+001 2.344025e+001 2.484850e+001 2.659934e+001 2.412911e+001 2.216384e+001 1.688099e+001 1.776945e+001 1.836320e+001 1.365518e+001 1.691612e+000 2.872958e+000 1.862558e+000 2.776793e+000 3.079893e+000 2.776101e+000 2.494216e+000 2.882797e+000 1.902095e+000 1.867048e+000 1.775458e+000 1.370326e+000 2.147073e+000
<GCONST> 9.173399e+001
<STATE> 4
<MEAN> 25
 1.099006e+000 3.933356e-001 8.040212e+000 -1.825431e+000 -3.823953e+000 5.186926e+000 4.357628e+000 1.051388e+000 -5.742458e+000 -3.235054e-001 -2.768331e+000 -2.140947e+000 1.822164e-001 -6.507025e-001 -8.092964e-001 7.003570e-001 1.073769e-001 -8.206702e-001 5.859753e-001 7.630308e-001 5.614061e-001 -3.830360e-001 2.286177e-002 -5.531735e-002 -5.598802e-002
<VARIANCE> 25
 8.168667e+000 2.530754e+001 1.934689e+001 2.302505e+001 2.283845e+001 2.734794e+001 3.148006e+001 2.627631e+001 2.066808e+001 2.481638e+001 2.371231e+001 1.308899e+001 7.141373e-001 2.257514e+000 1.846124e+000 1.891086e+000 2.873962e+000 2.182852e+000 2.806635e+000 2.309864e+000 2.093267e+000 2.007162e+000 1.742052e+000 1.192976e+000 1.772160e+000
<GCONST> 9.068290e+001
<TRANSP> 5
 0.000000e+000 1.000000e+000 0.000000e+000 0.000000e+000 0.000000e+000
 0.000000e+000 6.449211e-001 3.550790e-001 0.000000e+000 0.000000e+000
 0.000000e+000 0.000000e+000 6.029721e-001 3.970279e-001 0.000000e+000
 0.000000e+000 0.000000e+000 0.000000e+000 7.167501e-001 2.832499e-001
 0.000000e+000 0.000000e+000 0.000000e+000 0.000000e+000 0.000000e+000
<ENDHMM>
~h "S"
<BEGINHMM>
<NUMSTATES> 5
<STATE> 2
<MEAN> 25
 -9.286102e+000 -1.522042e+000 5.237799e+000 7.807394e+000 -7.015961e-002 4.546502e-001 9.625400e-002 -2.031670e+000 8.483276e+000 -1.411671e+000 -9.527212e-001 1.514837e+000 -4.038462e+000 -2.250015e-001 4.519896e-001 9.627931e-001 5.393944e-001 4.325126e-001 4.423776e-001 -3.090003e-001 2.352882e+000 5.391640e-002 -1.004069e+000 -1.155979e-001 7.682329e-001
<VARIANCE> 25
 4.056836e+001 1.855454e+001 2.660986e+001 2.418198e+001 4.146510e+001 3.357071e+001 4.609678e+001 4.421442e+001 3.085548e+001 3.527938e+001 4.556099e+001 4.193261e+001 2.874662e+000 2.617931e+000 2.893984e+000 2.541370e+000 3.386824e+000 3.807984e+000 3.204013e+000 3.208692e+000 4.176590e+000 2.650887e+000 3.366401e+000 3.282620e+000 1.187115e+000
<GCONST> 1.023229e+002
<STATE> 3
<MEAN> 25
 -1.725487e+001 -3.313854e+000 4.058241e+000 6.509772e+000 1.474212e-001 2.542478e+000 -4.333840e-002 -3.614857e+000 1.228343e+001 -6.881062e-001 -3.364227e+000 4.768663e-001 -6.694061e-002 -1.247436e-001 -6.492075e-001 -6.859143e-001 1.497057e-002 3.584499e-001 -4.666973e-001 1.180151e-001 1.575066e-001 -2.264311e-001 -1.431539e-001 2.804984e-001 -7.471939e-001
<VARIANCE> 25
 1.112451e+001 2.673511e+001 1.509476e+001 1.899077e+001 2.754555e+001 3.472788e+001 3.861158e+001 4.080238e+001 3.012438e+001 3.634647e+001 3.853660e+001 3.576811e+001 3.638493e+000 1.509907e+000 1.168809e+000 1.380361e+000 2.124714e+000 2.383822e+000 2.841826e+000 3.579730e+000 2.842246e+000 2.642368e+000 2.417203e+000 2.547233e+000 7.794514e-001
<GCONST> 9.546188e+001
<STATE> 4
<MEAN> 25
 -9.191385e+000 -2.412746e+000 9.978200e-001 2.644319e+000 -7.456043e-001 1.574607e+000 -2.874377e+000 -1.971081e+000 8.856129e+000 -2.624716e+000 -1.598404e+000 2.215868e+000 3.657545e+000 2.697374e-001 -4.310521e-001 -1.192851e+000 -6.591336e-001 -1.148164e+000 -7.504795e-002 2.604373e-001 -2.153439e+000 4.641835e-002 1.143273e+000 -2.559336e-001 -5.371107e-001
<VARIANCE> 25
 5.270784e+001 3.106671e+001 2.091862e+001 2.085781e+001 3.592085e+001 4.066420e+001 4.072488e+001 5.238477e+001 4.372728e+001 3.336905e+001 3.418557e+001 2.639029e+001 5.130445e+000 1.677349e+000 2.109337e+000 1.716494e+000 2.428826e+000 4.357834e+000 3.349182e+000 3.624067e+000 3.868985e+000 3.075265e+000 3.474785e+000 2.704685e+000 3.235687e+000
<GCONST> 1.026546e+002
<TRANSP> 5
 0.000000e+000 1.000000e+000 0.000000e+000 0.000000e+000 0.000000e+000
 0.000000e+000 6.809940e-001 3.190060e-001 0.000000e+000 0.000000e+000
 0.000000e+000 0.000000e+000 7.536356e-001 2.463645e-001 0.000000e+000
 0.000000e+000 0.000000e+000 0.000000e+000 6.571596e-001 3.428403e-001
 0.000000e+000 0.000000e+000 0.000000e+000 0.000000e+000 0.000000e+000
<ENDHMM>
~h "Z"
<BEGINHMM>
<NUMSTATES> 5
<STATE> 2
<MEAN> 25
 -3.554587e+000 4.241203e-001 3.081789e+000 3.035512e+000 1.057140e+000 -2.844709e+000 4.141869e-001 -1.029893e+001 5.433719e+000 1.910092e+000 2.108061e+000 1.411988e+000 -3.283321e+000 1.382222e+000 1.527584e+000 9.717249e-001 4.287753e-001 -6.030565e-001 1.507391e+000 -7.959644e-001 1.500672e+000 -3.174023e-001 -7.875342e-001 -9.403579e-002 2.421909e-001
<VARIANCE> 25
 3.043416e+001 1.318119e+001 2.600856e+001 2.407761e+001 5.979229e+001 3.640283e+001 3.393353e+001 5.203814e+001 4.222083e+001 2.353409e+001 3.304588e+001 3.235835e+001 1.601622e+000 1.756263e+000 1.993614e+000 1.931599e+000 5.133237e+000 6.949275e+000 3.587753e+000 4.140531e+000 3.417795e+000 2.484107e+000 2.623696e+000 2.814591e+000 5.232332e-001
<GCONST> 9.956483e+001
<STATE> 3
<MEAN> 25
 -1.115433e+001 2.644995e+000 6.847908e+000 4.959828e+000 -9.864975e-001 -1.104682e+000 1.653787e+000 -9.954129e+000 8.767405e+000 2.916216e-002 -2.975063e-001 -2.658969e-001 -3.830361e-001 1.577314e-001 -7.424734e-002 -6.401076e-002 -3.177697e-001 7.363750e-001 -6.697192e-001 1.340491e-002 2.535523e-001 -6.590927e-001 -5.380054e-001 1.650512e-001 -2.723692e-001
<VARIANCE> 25
 1.823614e+001 1.254711e+001 2.036768e+001 1.905350e+001 4.450891e+001 4.145578e+001 3.371788e+001 4.152278e+001 3.611562e+001 2.477610e+001 3.342199e+001 2.529588e+001 4.190089e+000 1.183008e+000 1.956734e+000 1.674495e+000 2.416106e+000 2.425326e+000 3.491191e+000 2.758124e+000 2.827699e+000 2.141532e+000 2.278666e+000 2.605655e+000 4.593447e-001
<GCONST> 9.526686e+001
<STATE> 4
<MEAN> 25
 -4.850669e+000 6.957264e-001 2.871025e+000 2.978679e+000 -1.866025e+000 4.381571e-002 -3.648114e+000 -8.286620e+000 7.472744e+000 -1.662952e+000 -4.407236e-001 1.344244e+000 3.121619e+000 -1.246161e+000 -1.321821e+000 -5.994459e-001 -1.891329e-001 -2.656405e-001 -9.958354e-001 1.375997e+000 -1.446300e+000 2.400771e-002 5.206612e-001 -1.160310e-001 -1.546156e-001
<VARIANCE> 25
 4.169621e+001 2.234707e+001 2.927887e+001 2.162173e+001 2.864075e+001 3.073234e+001 3.614321e+001 4.429205e+001 3.510948e+001 2.720206e+001 2.763048e+001 2.654177e+001 2.344645e+000 1.816442e+000 2.300923e+000 1.598258e+000 2.008132e+000 4.055675e+000 3.076377e+000 3.995412e+000 3.426018e+000 2.286756e+000 3.524475e+000 2.494238e+000 8.236867e-001
<GCONST> 9.824818e+001
<TRANSP> 5
 0.000000e+000 1.000000e+000 0.000000e+000 0.000000e+000 0.000000e+000
 0.000000e+000 6.519993e-001 3.480007e-001 0.000000e+000 0.000000e+000
 0.000000e+000 0.000000e+000 6.342182e-001 3.657819e-001 0.000000e+000
 0.000000e+000 0.000000e+000 0.000000e+000 6.707559e-001 3.292440e-001
 0.000000e+000 0.000000e+000 0.000000e+000 0.000000e+000 0.000000e+000
<ENDHMM>
~h "a"
<BEGINHMM>
<NUMSTATES> 5
<STATE> 2
<MEAN> 25
 3.997869e+000 -6.802008e+000 -5.235178e+000 -1.679865e+000 2.346289e+000 -1.173278e+000 -1.731464e+000 3.760516e+000 1.916146e+000 1.776597e+000 -3.056163e+000 -4.189174e+000 7.155369e-001 -3.339220e-001 -1.387745e-001 1.243521e-001 4.583294e-001 6.475221e-001 2.874756e-001 7.494422e-001 -1.484142e-002 9.729434e-002 -6.139293e-001 -8.722525e-001 3.383383e-001
<VARIANCE> 25
 7.617609e+000 1.214561e+001 1.578542e+001 1.599136e+001 2.213053e+001 4.425471e+001 2.820494e+001 2.336384e+001 2.027161e+001 2.220163e+001 2.633527e+001 2.174449e+001 1.796892e+000 1.789654e+000 1.539347e+000 1.661627e+000 1.942855e+000 3.155524e+000 2.534511e+000 2.605122e+000 2.106694e+000 2.150764e+000 2.599218e+000 2.208995e+000 2.203815e+000
<GCONST> 9.169967e+001
<STATE> 3
<MEAN> 25
 4.968568e+000 -5.464372e+000 -5.017647e+000 -4.304759e-001 3.539192e+000 5.917477e-001 -3.116083e-001 4.028287e+000 1.715712e+000 1.675970e+000 -4.148748e+000 -5.525466e+000 2.476296e-001 1.171395e+000 4.372954e-001 5.738588e-001 8.386046e-002 2.337429e-001 7.557681e-001 -1.317661e-002 1.820303e-001 -9.496242e-002 -2.548515e-001 -5.733375e-002 -1.431506e+000
<VARIANCE> 25
 7.383194e+000 1.857415e+001 1.829165e+001 1.880198e+001 2.380097e+001 4.087927e+001 3.129404e+001 2.603469e+001 2.479364e+001 2.691297e+001 3.349909e+001 2.368499e+001 8.198085e-001 1.990435e+000 1.324464e+000 1.506819e+000 1.825484e+000 2.612685e+000 2.219924e+000 2.350827e+000 2.397379e+000 1.973472e+000 2.291107e+000 1.904309e+000 2.024764e+000
<GCONST> 9.159899e+001
<STATE> 4
<MEAN> 25
 3.975038e+000 -6.812319e-001 -3.581877e+000 1.007063e+000 2.758042e+000 6.401072e-001 3.129636e+000 3.593256e+000 3.520960e+000 3.598985e-001 -5.123726e+000 -3.809118e+000 -5.655097e-001 1.306140e+000 6.951151e-001 2.758809e-001 -3.656017e-001 -5.460839e-002 7.037662e-001 -4.518408e-001 1.948318e-001 -2.900546e-001 1.448322e-001 6.694716e-001 -1.447891e+000
<VARIANCE> 25
 1.490450e+001 2.965733e+001 2.013903e+001 2.085767e+001 2.577691e+001 3.929618e+001 3.760288e+001 3.304741e+001 3.618372e+001 2.950871e+001 3.547458e+001 2.717312e+001 1.465953e+000 2.315159e+000 1.488751e+000 1.832335e+000 2.038835e+000 2.293140e+000 2.537794e+000 2.789064e+000 2.957348e+000 2.240632e+000 2.388571e+000 2.004674e+000 1.640223e+000
<GCONST> 9.564552e+001
<TRANSP> 5
 0.000000e+000 1.000000e+000 0.000000e+000 0.000000e+000 0.000000e+000
 0.000000e+000 4.633927e-001 5.366074e-001 0.000000e+000 0.000000e+000
 0.000000e+000 0.000000e+000 4.775262e-001 5.224738e-001 0.000000e+000
 0.000000e+000 0.000000e+000 0.000000e+000 5.634280e-001 4.365720e-001
 0.000000e+000 0.000000e+000 0.000000e+000 0.000000e+000 0.000000e+000
<ENDHMM>
~h "b"
<BEGINHMM>
<NUMSTATES> 5
<STATE> 2
<MEAN> 25
 5.970885e+000 8.610195e+000 8.421847e-001 8.874609e-001 1.717820e+000 2.740906e+000 2.255415e+000 -3.072501e+000 2.092338e-002 -3.069697e+000 -1.882902e+000 -5.476223e-001 -3.982926e-001 2.790724e-001 2.070552e-001 7.519937e-001 5.007328e-001 -1.472685e-001 1.791065e-001 -1.580453e-001 5.552777e-002 -4.765084e-001 -5.380079e-001 3.453667e-002 -3.309731e-001
<VARIANCE> 25
 1.720429e+001 2.453731e+001 2.068889e+001 3.373184e+001 2.529144e+001 3.233435e+001 3.250697e+001 2.736436e+001 2.654712e+001 2.553075e+001 2.544960e+001 2.248592e+001 2.183268e+000 3.863517e+000 1.931208e+000 2.692752e+000 1.932949e+000 3.059252e+000 3.386699e+000 2.727380e+000 2.778996e+000 2.364473e+000 2.427841e+000 1.953779e+000 3.390048e+000
<GCONST> 9.734779e+001
<STATE> 3
<MEAN> 25
 4.105547e+000 6.720615e+000 6.050330e-001 2.397373e+000 3.125610e+000 2.236731e+000 1.540290e+000 -3.263415e+000 7.798467e-001 -3.173296e+000 -2.343561e+000 -3.336862e-002 -1.145509e+000 -2.896018e+000 -7.584069e-001 -8.240325e-002 -3.809253e-001 -6.578989e-001 -1.674617e+000 -2.341604e-001 -2.111860e-001 7.355584e-001 8.898211e-001 1.875398e-001 2.534223e+000
<VARIANCE> 25
 1.741918e+001 3.297715e+001 1.916434e+001 2.724432e+001 2.241623e+001 2.845324e+001 2.885208e+001 2.400529e+001 2.360541e+001 2.379253e+001 2.429847e+001 1.776353e+001 1.933125e+000 2.900683e+000 4.175543e+000 4.624213e+000 3.088101e+000 5.107631e+000 3.571989e+000 3.687483e+000 3.852638e+000 3.249861e+000 3.385535e+000 2.474333e+000 2.382870e+000
<GCONST> 9.949728e+001
<STATE> 4
<MEAN> 25
 2.175481e+000 -1.331465e+000 -2.279639e+000 9.374256e-001 1.383818e+000 3.938143e-001 -3.258460e+000 -3.496936e+000 5.519269e-001 -3.560570e-001 7.487610e-001 5.856556e-002 -2.615139e-001 -2.967262e+000 -3.093791e-001 -1.280515e+000 -1.913488e+000 -3.942731e-001 -1.857076e+000 1.810285e-001 -7.960334e-001 1.238536e+000 1.756409e+000 -1.036131e-001 3.149521e+000
<VARIANCE> 25
 1.686770e+001 2.453132e+001 3.554629e+001 4.538673e+001 2.766021e+001 4.907380e+001 3.340356e+001 2.799730e+001 2.872949e+001 2.836403e+001 3.221818e+001 1.595910e+001 2.114552e+000 2.658430e+000 5.954273e+000 5.452881e+000 4.397120e+000 5.974114e+000 3.975430e+000 4.786155e+000 5.694300e+000 3.959077e+000 3.952570e+000 2.938586e+000 1.891172e+000
<GCONST> 1.039841e+002
<TRANSP> 5
 0.000000e+000 1.000000e+000 0.000000e+000 0.000000e+000 0.000000e+000
 0.000000e+000 5.262464e-001 4.737536e-001 0.000000e+000 0.000000e+000
 0.000000e+000 0.000000e+000 2.694184e-001 7.305815e-001 0.000000e+000
 0.000000e+000 0.000000e+000 0.000000e+000 3.429406e-001 6.570594e-001
 0.000000e+000 0.000000e+000 0.000000e+000 0.000000e+000 0.000000e+000
<ENDHMM>
~h "c"
<BEGINHMM>
<NUMSTATES> 5
<STATE> 2
<MEAN> 25
 -9.328495e+000 9.656566e+000 -3.004852e+000 4.358399e+000 2.774618e+000 -2.503407e+000 6.512714e+000 -1.212624e+000 3.724651e+000 -2.339166e+000 -1.383014e+000 3.174214e+000 -3.305249e+000 3.838148e-001 -1.557714e+000 -7.299897e-001 1.088621e+000 -2.436668e-001 8.938245e-001 -6.492210e-002 -4.051844e-002 -7.231542e-002 3.300765e-001 1.204235e+000 8.615266e-001
<VARIANCE> 25
 3.451509e+001 1.311412e+001 2.772231e+001 1.806498e+001 2.356847e+001 2.683627e+001 2.318549e+001 2.720855e+001 2.832366e+001 2.097053e+001 2.350229e+001 2.107395e+001 1.456497e+000 2.523229e+000 1.600290e+000 1.484212e+000 2.040125e+000 2.438492e+000 2.132857e+000 2.678306e+000 2.691525e+000 1.897641e+000 2.138854e+000 1.648807e+000 1.165654e+000
<GCONST> 9.232491e+001
<STATE> 3
<MEAN> 25
 -1.813807e+001 6.899411e+000 -6.669994e+000 -9.872258e-002 6.532687e+000 -5.507763e+000 8.959866e+000 2.140303e+000 9.267679e-001 -1.247972e+000 4.664525e-001 7.465228e+000 -5.860220e-001 -1.555006e+000 3.885560e-001 -9.425333e-001 3.768495e-002 -8.922057e-001 -2.214499e-001 1.360497e+000 -7.061299e-001 3.457395e-001 2.761044e-001 4.298035e-001 4.443206e-001
<VARIANCE> 25
 6.785521e+000 1.624759e+001 1.755453e+001 1.534017e+001 1.789778e+001 2.155979e+001 2.361226e+001 2.627480e+001 2.326735e+001 1.998340e+001 2.220194e+001 1.654008e+001 1.759283e+000 1.299936e+000 1.746584e+000 1.319272e+000 2.442245e+000 2.303160e+000 2.635950e+000 2.336469e+000 2.218959e+000 1.961036e+000 1.954199e+000 1.760991e+000 5.128101e-001
<GCONST> 8.792482e+001
<STATE> 4
<MEAN> 25
 -1.344677e+001 1.612637e+000 -2.296267e+000 -1.212352e+000 2.850806e+000 -8.700083e+000 4.179200e+000 3.915011e+000 -4.167454e-001 -3.932358e-001 -9.012309e-002 5.540746e+000 3.344688e+000 -1.179185e+000 1.441813e+000 2.171624e-001 -1.463152e+000 -4.998387e-001 -2.145084e+000 -8.619679e-001 -5.288885e-001 3.284727e-001 -3.433419e-003 -1.364277e+000 1.971307e-001
<VARIANCE> 25
 4.376122e+001 1.777891e+001 2.307733e+001 1.438626e+001 3.113455e+001 3.411708e+001 5.189209e+001 3.584673e+001 3.609951e+001 2.029845e+001 2.316289e+001 2.013677e+001 4.446894e+000 1.876860e+000 2.239949e+000 1.431037e+000 2.253556e+000 3.024430e+000 3.846917e+000 3.521255e+000 2.707687e+000 2.172107e+000 2.127325e+000 2.111440e+000 1.877264e+000
<GCONST> 9.736309e+001
<TRANSP> 5
 0.000000e+000 1.000000e+000 0.000000e+000 0.000000e+000 0.000000e+000
 0.000000e+000 7.639570e-001 2.360431e-001 0.000000e+000 0.000000e+000
 0.000000e+000 0.000000e+000 6.788728e-001 3.211272e-001 0.000000e+000
 0.000000e+000 0.000000e+000 0.000000e+000 7.020241e-001 2.979759e-001
 0.000000e+000 0.000000e+000 0.000000e+000 0.000000e+000 0.000000e+000
<ENDHMM>
~h "d"
<BEGINHMM>
<NUMSTATES> 5
<STATE> 2
<MEAN> 25
 4.380024e+000 4.996459e+000 2.124737e+000 2.488599e+000 2.393858e+000 -1.382414e+000 -2.078260e+000 -9.035035e-001 3.185559e+000 6.450435e-002 -2.285710e+000 -3.649599e+000 -3.638889e-001 6.537097e-001 3.589739e-001 4.216631e-001 3.141972e-001 -1.626079e-001 6.592255e-001 -1.924875e-001 2.822801e-001 -7.141986e-001 -6.446612e-001 2.845105e-001 -5.197036e-001
<VARIANCE> 25
 1.517516e+001 3.115265e+001 2.306252e+001 2.358311e+001 2.121692e+001 3.023932e+001 4.071003e+001 3.084722e+001 2.521253e+001 2.728104e+001 2.961930e+001 2.745578e+001 2.288461e+000 4.482057e+000 2.159319e+000 2.184051e+000 2.098525e+000 2.952928e+000 4.362741e+000 2.849416e+000 2.314352e+000 2.472559e+000 2.585402e+000 2.861616e+000 4.011429e+000
<GCONST> 9.859621e+001
<STATE> 3
<MEAN> 25
 2.692050e+000 4.483949e+000 2.334312e+000 2.696322e+000 2.856527e+000 -1.548577e+000 -4.176201e-001 -1.076965e+000 3.137367e+000 -1.299336e+000 -2.549996e+000 -2.141001e+000 -1.196916e+000 -1.527036e+000 -3.381035e-001 -5.461617e-001 -2.921300e-001 -3.495554e-001 -1.136089e-001 -9.553340e-002 -4.625323e-001 -2.022846e-001 3.469401e-001 8.804007e-001 1.575840e+000
<VARIANCE> 25
 1.814982e+001 3.712616e+001 2.493901e+001 2.304298e+001 2.317573e+001 2.776191e+001 3.749649e+001 2.763146e+001 2.553642e+001 2.538498e+001 2.607017e+001 2.438606e+001 1.912173e+000 4.879167e+000 2.800462e+000 2.750337e+000 2.685838e+000 3.770461e+000 4.976585e+000 3.485801e+000 2.756804e+000 2.764294e+000 2.877512e+000 2.802922e+000 3.806198e+000
<GCONST> 1.000512e+002
<STATE> 4
<MEAN> 25
 1.304923e-001 -7.050598e-001 6.568103e-001 4.105086e-001 1.565120e+000 -2.273539e+000 -1.961212e+000 -8.219441e-001 2.209576e+000 -8.252695e-001 -9.511657e-001 -3.969724e-001 -4.329963e-001 -1.945751e+000 -7.416205e-001 -1.095486e+000 -1.232139e+000 -2.740155e-001 -1.306035e+000 2.871468e-001 -7.433643e-001 8.873611e-001 8.742824e-001 3.106491e-001 2.472279e+000
<VARIANCE> 25
 1.750367e+001 3.490541e+001 3.031794e+001 2.398869e+001 2.781930e+001 3.504306e+001 4.852723e+001 2.693479e+001 2.550638e+001 2.637786e+001 2.171356e+001 2.275497e+001 2.274297e+000 3.983477e+000 3.568344e+000 3.167971e+000 3.376619e+000 3.906706e+000 5.040217e+000 4.547249e+000 3.539335e+000 3.209833e+000 3.299063e+000 2.948851e+000 3.030524e+000
<GCONST> 1.018778e+002
<TRANSP> 5
 0.000000e+000 1.000000e+000 0.000000e+000 0.000000e+000 0.000000e+000
 0.000000e+000 3.717179e-001 6.282821e-001 0.000000e+000 0.000000e+000
 0.000000e+000 0.000000e+000 2.373293e-001 7.626706e-001 0.000000e+000
 0.000000e+000 0.000000e+000 0.000000e+000 3.613592e-001 6.386408e-001
 0.000000e+000 0.000000e+000 0.000000e+000 0.000000e+000 0.000000e+000
<ENDHMM>
~h "e"
<BEGINHMM>
<NUMSTATES> 5
<STATE> 2
<MEAN> 25
 2.619041e+000 -3.927040e+000 2.529709e+000 7.028150e-001 -3.840849e+000 -7.454390e+000 -1.985144e+000 4.966273e+000 -1.670884e+000 8.215089e-001 1.427259e+000 7.657363e-001 8.855851e-001 2.172511e-001 3.403165e-001 3.419133e-001 6.445963e-002 -6.735846e-002 -8.850661e-002 5.480162e-001 8.994760e-002 2.872877e-001 7.661255e-002 -2.156474e-001 -2.181450e-001
<VARIANCE> 25
 1.004361e+001 1.964091e+001 1.947700e+001 1.287683e+001 2.314994e+001 3.272231e+001 3.461874e+001 2.492017e+001 2.590055e+001 1.731549e+001 2.480393e+001 1.684225e+001 2.401299e+000 2.099495e+000 1.743221e+000 1.430262e+000 2.596848e+000 2.460739e+000 3.389481e+000 2.556325e+000 2.791417e+000 2.072962e+000 2.201401e+000 1.949978e+000 2.450832e+000
<GCONST> 9.294119e+001
<STATE> 3
<MEAN> 25
 3.608343e+000 -1.967375e+000 3.077330e+000 1.832103e+000 -2.908940e+000 -6.679430e+000 -1.386490e+000 5.391591e+000 -8.143169e-001 1.105977e+000 7.966097e-001 4.619676e-001 1.906523e-001 1.325252e+000 1.394030e-001 5.873074e-001 5.815316e-001 4.993847e-001 4.829411e-001 -3.355931e-001 6.873944e-001 -5.038402e-002 -4.149550e-001 -9.800775e-002 -1.575297e+000
<VARIANCE> 25
 8.908023e+000 2.703637e+001 1.998366e+001 1.522404e+001 2.462002e+001 3.145018e+001 3.864347e+001 2.680241e+001 3.005475e+001 2.030980e+001 2.653695e+001 1.903231e+001 1.249388e+000 2.192746e+000 1.566728e+000 1.369855e+000 2.128086e+000 2.269592e+000 2.911149e+000 2.261617e+000 2.822174e+000 1.947293e+000 2.009050e+000 1.852616e+000 2.140821e+000
<GCONST> 9.239284e+001
<STATE> 4
<MEAN> 25
 2.611360e+000 1.843937e+000 2.705868e+000 2.910899e+000 -1.703752e+000 -4.820496e+000 7.750368e-001 3.457477e+000 1.583190e+000 2.791533e-001 -4.820480e-001 8.807893e-001 -5.236678e-001 1.060935e+000 -2.312613e-001 2.333280e-001 6.393400e-001 8.398926e-001 4.955995e-001 -9.519013e-001 5.163609e-001 -1.736070e-001 -3.344868e-001 1.031358e-001 -1.270016e+000
<VARIANCE> 25
 1.664533e+001 3.480768e+001 2.134951e+001 1.678078e+001 2.558709e+001 3.419624e+001 4.195652e+001 2.899622e+001 3.450589e+001 2.339092e+001 2.726724e+001 2.355766e+001 1.858736e+000 2.815703e+000 1.694398e+000 1.787106e+000 2.193090e+000 2.527285e+000 2.818494e+000 2.733593e+000 2.979295e+000 2.255108e+000 2.181577e+000 1.986659e+000 1.951782e+000
<GCONST> 9.578422e+001
<TRANSP> 5
 0.000000e+000 1.000000e+000 0.000000e+000 0.000000e+000 0.000000e+000
 0.000000e+000 3.456521e-001 6.543479e-001 0.000000e+000 0.000000e+000
 0.000000e+000 0.000000e+000 3.720555e-001 6.279446e-001 0.000000e+000
 0.000000e+000 0.000000e+000 0.000000e+000 4.350060e-001 5.649940e-001
 0.000000e+000 0.000000e+000 0.000000e+000 0.000000e+000 0.000000e+000
<ENDHMM>
~h "f"
<BEGINHMM>
<NUMSTATES> 5
<STATE> 2
<MEAN> 25
 -3.424099e+000 3.196261e+000 -1.224662e+000 4.209344e+000 2.104261e+000 2.324686e+000 3.087142e+000 1.569234e+000 5.971753e+000 7.767420e-001 -1.516625e+000 1.988934e+000 -2.483675e+000 -5.066220e-001 -3.697197e-001 8.208959e-001 2.741030e-001 2.200016e-001 6.781159e-003 1.742933e-001 1.386578e+000 2.839584e-002 -2.023834e-001 2.471784e-001 4.193613e-002
<VARIANCE> 25
 1.977087e+001 1.435032e+001 2.269044e+001 2.045246e+001 2.143444e+001 3.201128e+001 2.807624e+001 2.439740e+001 2.528758e+001 2.121795e+001 1.892714e+001 1.936244e+001 2.028916e+000 1.902048e+000 1.947642e+000 1.725109e+000 1.889625e+000 2.426132e+000 2.444230e+000 2.502642e+000 2.785309e+000 2.447751e+000 2.303675e+000 1.841484e+000 9.383577e-001
<GCONST> 9.218162e+001
<STATE> 3
<MEAN> 25
 -8.085436e+000 -2.187483e-001 -2.637066e+000 4.687510e+000 2.812782e+000 2.262053e+000 2.407439e+000 1.303267e+000 6.597820e+000 9.536391e-001 -1.682250e+000 2.025439e+000 -8.179153e-001 -1.384400e+000 -8.054246e-001 -3.104223e-001 -4.360769e-002 -2.966752e-001 -3.184557e-001 -2.043225e-001 2.950286e-002 3.294144e-002 1.121801e-001 9.959248e-002 2.687619e-001
<VARIANCE> 25
 1.512300e+001 1.565254e+001 1.874050e+001 1.889635e+001 1.937013e+001 2.351246e+001 2.521390e+001 2.024387e+001 2.124998e+001 2.224783e+001 2.001509e+001 1.846936e+001 2.331584e+000 1.261082e+000 1.814871e+000 1.501627e+000 1.903756e+000 2.738117e+000 2.568857e+000 2.067361e+000 2.359719e+000 1.723477e+000 1.799617e+000 1.619842e+000 8.158396e-001
<GCONST> 8.938231e+001
<STATE> 4
<MEAN> 25
 -6.349184e+000 -3.446819e+000 -5.378174e+000 2.050186e+000 1.393153e+000 6.206812e-001 1.592855e+000 -1.207032e-002 5.583243e+000 6.583917e-001 -1.190973e+000 2.112519e+000 2.516948e+000 -8.719227e-001 -2.660117e-001 -1.615219e+000 -1.385758e+000 -9.006115e-001 -9.148396e-001 -8.253914e-001 -1.584145e+000 -4.729312e-002 6.391489e-001 -3.387680e-001 8.107030e-001
<VARIANCE> 25
 2.927296e+001 1.059906e+001 2.775369e+001 2.209819e+001 2.698182e+001 3.117816e+001 2.683879e+001 2.578843e+001 2.486889e+001 2.207330e+001 2.266216e+001 1.783100e+001 3.057796e+000 1.984689e+000 3.695420e+000 2.849752e+000 2.360128e+000 2.883039e+000 2.619972e+000 3.072234e+000 3.596084e+000 2.128261e+000 2.147902e+000 2.152274e+000 1.770594e+000
<GCONST> 9.598560e+001
<TRANSP> 5
 0.000000e+000 1.000000e+000 0.000000e+000 0.000000e+000 0.000000e+000
 0.000000e+000 5.088946e-001 4.911054e-001 0.000000e+000 0.000000e+000
 0.000000e+000 0.000000e+000 5.326504e-001 4.673496e-001 0.000000e+000
 0.000000e+000 0.000000e+000 0.000000e+000 5.917379e-001 4.082621e-001
 0.000000e+000 0.000000e+000 0.000000e+000 0.000000e+000 0.000000e+000
<ENDHMM>
~h "g"
<BEGINHMM>
<NUMSTATES> 5
<STATE> 2
<MEAN> 25
 5.342737e+000 5.839476e+000 -9.420474e-001 -6.492086e-001 2.427323e-001 1.420845e+000 1.205656e+000 -6.550700e-001 -2.880190e+000 -2.073200e+000 2.375447e+000 8.614976e-001 -5.494221e-001 -9.477723e-002 -4.175031e-001 4.350076e-001 4.836447e-001 -3.316162e-001 -2.704218e-001 -5.686301e-001 1.682856e-001 3.377567e-001 -2.251597e-001 2.517549e-001 -3.503916e-001
<VARIANCE> 25
 1.936963e+001 2.773764e+001 2.793958e+001 4.169762e+001 3.089697e+001 4.228466e+001 4.273899e+001 3.166617e+001 4.481842e+001 2.955181e+001 4.524399e+001 3.025711e+001 1.174250e+000 3.580183e+000 2.856993e+000 3.872899e+000 3.094770e+000 4.489885e+000 3.715039e+000 3.486368e+000 4.491879e+000 2.808614e+000 3.952148e+000 2.480207e+000 2.674721e+000
<GCONST> 1.029239e+002
<STATE> 3
<MEAN> 25
 4.138929e+000 4.304459e+000 -1.904764e+000 -1.076927e-001 1.397746e+000 8.720307e-001 -2.823215e-001 -1.479671e+000 -2.638654e+000 -6.578748e-001 2.642698e+000 8.271216e-001 -6.315851e-001 -1.535250e+000 -5.309464e-001 -2.805544e-001 5.499757e-003 -3.717218e-001 -1.238888e+000 -3.492029e-001 -8.227321e-003 8.075809e-001 3.392193e-001 -1.081115e-001 1.239346e+000
<VARIANCE> 25
 1.906162e+001 3.062743e+001 3.415990e+001 3.939407e+001 3.528728e+001 4.591295e+001 4.326871e+001 3.519698e+001 4.223375e+001 2.975633e+001 3.966192e+001 2.522557e+001 1.590451e+000 3.805212e+000 3.411912e+000 4.843328e+000 3.675675e+000 5.567092e+000 4.262422e+000 4.303439e+000 5.448003e+000 3.118400e+000 5.360079e+000 2.733091e+000 3.094635e+000
<GCONST> 1.054641e+002
<STATE> 4
<MEAN> 25
 3.234701e+000 1.249910e-001 -2.666726e+000 -8.588348e-001 7.318396e-001 -7.349371e-001 -3.247921e+000 -9.732283e-001 -2.230179e+000 1.127050e+000 3.166909e+000 2.348798e-001 -3.858659e-001 -1.674552e+000 -1.261311e-001 -6.395728e-001 -5.690688e-001 -2.918354e-001 -8.044914e-001 1.020425e-001 1.198779e-001 6.977628e-001 1.497680e-001 -2.613280e-001 1.921299e+000
<VARIANCE> 25
 1.906267e+001 3.951096e+001 3.874501e+001 4.299933e+001 3.949818e+001 5.886549e+001 4.763183e+001 4.414265e+001 4.501419e+001 3.004803e+001 3.942595e+001 2.329153e+001 2.076854e+000 3.359181e+000 3.004743e+000 4.291337e+000 3.759265e+000 5.213390e+000 4.801175e+000 4.193092e+000 4.641811e+000 3.014048e+000 5.227684e+000 2.557635e+000 3.064512e+000
<GCONST> 1.062526e+002
<TRANSP> 5
 0.000000e+000 1.000000e+000 0.000000e+000 0.000000e+000 0.000000e+000
 0.000000e+000 2.623123e-001 7.376876e-001 0.000000e+000 0.000000e+000
 0.000000e+000 0.000000e+000 2.066182e-001 7.933818e-001 0.000000e+000
 0.000000e+000 0.000000e+000 0.000000e+000 2.968054e-001 7.031946e-001
 0.000000e+000 0.000000e+000 0.000000e+000 0.000000e+000 0.000000e+000
<ENDHMM>
~h "h"
<BEGINHMM>
<NUMSTATES> 5
<STATE> 2
<MEAN> 25
 -3.964643e+000 2.191070e-001 2.664020e+000 3.333219e+000 4.364399e+000 9.498602e-002 3.293892e+000 3.556379e-001 1.647883e+000 1.039764e+000 -2.459995e+000 2.613263e+000 -1.155192e+000 -1.160424e+000 -1.750490e+000 2.216222e-002 1.802630e+000 -2.993552e-001 -6.334631e-001 1.912659e-001 1.448113e+000 4.074230e-001 3.988334e-002 5.874675e-001 1.306038e-001
<VARIANCE> 25
 2.255666e+001 2.585198e+001 7.966734e+001 3.559975e+001 6.067692e+001 5.188925e+001 3.984876e+001 3.722064e+001 3.820002e+001 2.715609e+001 2.962506e+001 2.211613e+001 1.755189e+000 1.886663e+000 4.456641e+000 2.336497e+000 4.661697e+000 3.902036e+000 3.831316e+000 3.791037e+000 3.905637e+000 3.229166e+000 2.726046e+000 2.363392e+000 1.122078e+000
<GCONST> 1.026815e+002
<STATE> 3
<MEAN> 25
 -5.797686e+000 -2.412489e+000 -2.014380e+000 1.994544e+000 6.963250e+000 1.827810e-001 1.263286e+000 -9.536839e-002 4.205189e+000 2.592650e+000 -1.757926e+000 2.940835e+000 -2.626983e-001 -6.087773e-001 -1.371538e+000 -8.001528e-001 8.298939e-002 9.166110e-002 -3.145701e-001 -4.467556e-001 2.242108e-001 2.192429e-002 2.946967e-001 6.801573e-002 1.076297e-001
<VARIANCE> 25
 2.436340e+001 2.844672e+001 8.463064e+001 3.500729e+001 6.191437e+001 4.837945e+001 5.023728e+001 3.173845e+001 3.854900e+001 3.492633e+001 2.806036e+001 2.270178e+001 2.187538e+000 1.461659e+000 3.445030e+000 2.174695e+000 3.434426e+000 4.611380e+000 3.222155e+000 3.630886e+000 3.364071e+000 3.265795e+000 2.694725e+000 2.384258e+000 1.519436e+000
<GCONST> 1.025962e+002
<STATE> 4
<MEAN> 25
 -5.342649e+000 -2.891959e+000 -3.760984e+000 -1.082126e+000 5.068582e+000 8.895487e-001 1.451973e+000 -2.054864e+000 2.868934e+000 1.270676e+000 -1.059754e+000 2.725553e+000 1.431927e+000 2.555875e-001 -1.874164e-001 -7.855614e-001 -1.602992e+000 -2.437631e-001 -3.598128e-001 -5.120799e-001 -9.830619e-001 -6.725751e-001 3.038662e-001 -5.642595e-001 4.857403e-001
<VARIANCE> 25
 3.408198e+001 3.277354e+001 8.885495e+001 3.813146e+001 5.198601e+001 4.902895e+001 3.834300e+001 3.401655e+001 3.453286e+001 3.032498e+001 3.043023e+001 2.450939e+001 3.097005e+000 2.067770e+000 3.257513e+000 3.366391e+000 4.527401e+000 3.855887e+000 4.063170e+000 3.118848e+000 3.499750e+000 2.944463e+000 2.577142e+000 2.893476e+000 2.315387e+000
<GCONST> 1.045108e+002
<TRANSP> 5
 0.000000e+000 1.000000e+000 0.000000e+000 0.000000e+000 0.000000e+000
 0.000000e+000 5.314800e-001 4.685199e-001 0.000000e+000 0.000000e+000
 0.000000e+000 0.000000e+000 4.361598e-001 5.638403e-001 0.000000e+000
 0.000000e+000 0.000000e+000 0.000000e+000 5.230398e-001 4.769602e-001
 0.000000e+000 0.000000e+000 0.000000e+000 0.000000e+000 0.000000e+000
<ENDHMM>
~h "i"
<BEGINHMM>
<NUMSTATES> 5
<STATE> 2
<MEAN> 25
 -8.172318e-002 -2.545815e-001 1.007028e+001 9.742212e-001 -7.751558e+000 -3.326771e+000 -2.434594e+000 -9.139047e-001 -7.749966e+000 -4.539365e-001 3.809848e+000 1.544103e-001 5.613404e-001 2.601237e-001 1.750897e+000 -7.684458e-002 -1.314280e+000 3.789419e-001 -6.590092e-001 -2.737989e-001 -1.621430e+000 5.002646e-001 7.996998e-001 -5.692151e-001 6.712437e-001
<VARIANCE> 25
 1.560796e+001 2.231688e+001 2.479609e+001 1.886022e+001 2.564996e+001 4.172407e+001 3.370148e+001 3.278142e+001 2.785218e+001 2.063998e+001 2.337150e+001 1.708363e+001 3.164800e+000 2.172013e+000 2.765574e+000 2.336454e+000 3.202698e+000 3.074950e+000 4.665919e+000 2.872336e+000 3.701884e+000 2.423056e+000 2.354049e+000 2.016156e+000 2.342580e+000
<GCONST> 9.755337e+001
<STATE> 3
<MEAN> 25
 6.675682e-001 1.578583e+000 1.290019e+001 8.184027e-001 -8.848431e+000 -6.552112e-001 -3.169120e+000 -1.725438e+000 -9.177667e+000 1.035551e+000 3.903867e+000 -1.247661e+000 2.066218e-001 8.883274e-001 -3.404805e-002 4.423494e-001 5.458262e-001 3.008134e-001 3.656757e-001 -1.295998e-001 5.118693e-001 3.408467e-002 -3.945020e-001 -3.643733e-004 -7.782041e-001
<VARIANCE> 25
 1.000514e+001 2.229344e+001 2.362836e+001 2.012852e+001 2.381502e+001 4.428703e+001 3.090083e+001 2.722061e+001 2.409405e+001 2.065580e+001 2.148790e+001 1.721306e+001 1.591104e+000 2.218110e+000 1.734038e+000 1.570491e+000 2.216505e+000 2.437582e+000 2.758833e+000 2.154374e+000 2.640752e+000 1.661742e+000 1.820231e+000 1.484543e+000 1.956945e+000
<GCONST> 9.221435e+001
<STATE> 4
<MEAN> 25
 6.816230e-001 4.862819e+000 9.588237e+000 3.267480e+000 -4.564292e+000 -1.102257e+000 -2.365834e-002 -2.116834e+000 -4.286771e+000 -2.379556e-001 1.097931e+000 2.875302e-001 -3.166831e-001 5.452698e-001 -1.334477e+000 5.341112e-001 1.501196e+000 4.754701e-002 5.513889e-001 -8.926235e-002 1.428694e+000 -2.861699e-001 -8.081001e-001 4.343880e-001 -1.069365e+000
<VARIANCE> 25
 1.528406e+001 2.883291e+001 2.830875e+001 2.095229e+001 3.057990e+001 4.080194e+001 3.845429e+001 3.075782e+001 3.139910e+001 2.197774e+001 2.328180e+001 2.042019e+001 2.125355e+000 2.851019e+000 2.114376e+000 2.127532e+000 2.569670e+000 2.975767e+000 2.896327e+000 2.811012e+000 2.792408e+000 2.195425e+000 2.121313e+000 2.021346e+000 2.026105e+000
<GCONST> 9.673817e+001
<TRANSP> 5
 0.000000e+000 1.000000e+000 0.000000e+000 0.000000e+000 0.000000e+000
 0.000000e+000 5.135957e-001 4.864043e-001 0.000000e+000 0.000000e+000
 0.000000e+000 0.000000e+000 5.526714e-001 4.473286e-001 0.000000e+000
 0.000000e+000 0.000000e+000 0.000000e+000 6.126060e-001 3.873940e-001
 0.000000e+000 0.000000e+000 0.000000e+000 0.000000e+000 0.000000e+000
<ENDHMM>
~h "j"
<BEGINHMM>
<NUMSTATES> 5
<STATE> 2
<MEAN> 25
 1.967980e-001 -7.152612e-001 8.283823e+000 2.990139e-001 -6.616634e+000 -2.724219e+000 -2.304645e+000 1.017315e+000 -5.483729e+000 8.832693e-002 2.612825e+000 4.336834e-001 1.563573e-001 -1.636966e-001 1.186961e+000 -1.240330e-001 -1.415334e+000 -2.747126e-001 -3.235838e-001 1.303098e-001 -7.707630e-001 2.620850e-001 8.236533e-001 6.508433e-002 6.695834e-001
<VARIANCE> 25
 1.745313e+001 3.235649e+001 4.296878e+001 2.174295e+001 3.003425e+001 4.691592e+001 4.605909e+001 4.115315e+001 3.287175e+001 1.941754e+001 2.387169e+001 1.714572e+001 2.528405e+000 2.198657e+000 3.476629e+000 2.269134e+000 3.173078e+000 3.103082e+000 4.198149e+000 2.795817e+000 3.273919e+000 2.341949e+000 2.125072e+000 1.738762e+000 2.214895e+000
<GCONST> 9.906409e+001
<STATE> 3
<MEAN> 25
 8.820881e-001 -1.702252e+000 8.898373e+000 2.199166e-001 -8.906562e+000 -3.443280e+000 -2.286459e+000 1.461727e+000 -5.699869e+000 1.374049e+000 4.586833e+000 5.165670e-001 2.316287e-001 -1.697370e-001 -3.847842e-001 1.595850e-001 -1.403584e-001 -4.415623e-001 1.911806e-001 5.417773e-001 3.573090e-001 1.076889e-001 2.922593e-001 1.266377e-001 9.051474e-002
<VARIANCE> 25
 9.709574e+000 2.165541e+001 2.940242e+001 1.716055e+001 2.713131e+001 4.132506e+001 3.592592e+001 3.928904e+001 2.661951e+001 1.819279e+001 2.127092e+001 1.507566e+001 1.134180e+000 1.817291e+000 2.700274e+000 1.347006e+000 1.817441e+000 2.300580e+000 2.672649e+000 2.496716e+000 2.459229e+000 1.524795e+000 1.569956e+000 1.224025e+000 1.175735e+000
<GCONST> 9.122656e+001
<STATE> 4
<MEAN> 25
 1.740181e+000 -2.444267e+000 5.673071e+000 1.032081e+000 -7.610020e+000 -5.144177e+000 -1.257671e+000 3.912627e+000 -3.550237e+000 7.890104e-001 4.155997e+000 9.918236e-001 2.981273e-001 -3.283749e-002 -1.298590e+000 2.325387e-001 1.195705e+000 -4.594261e-002 1.650335e-001 6.461704e-001 1.093428e+000 -2.236588e-001 -7.355611e-001 -2.660956e-002 -3.905438e-001
<VARIANCE> 25
 1.012697e+001 2.192407e+001 2.468742e+001 1.769206e+001 2.885842e+001 3.249725e+001 4.684993e+001 3.126250e+001 2.847435e+001 2.065951e+001 2.239895e+001 1.530579e+001 1.195634e+000 2.164125e+000 2.950578e+000 1.305097e+000 2.367451e+000 2.509595e+000 3.292069e+000 3.327382e+000 2.700907e+000 1.827331e+000 2.158669e+000 1.559099e+000 1.394885e+000
<GCONST> 9.339394e+001
<TRANSP> 5
 0.000000e+000 1.000000e+000 0.000000e+000 0.000000e+000 0.000000e+000
 0.000000e+000 4.715954e-001 5.284046e-001 0.000000e+000 0.000000e+000
 0.000000e+000 0.000000e+000 4.645204e-001 5.354797e-001 0.000000e+000
 0.000000e+000 0.000000e+000 0.000000e+000 4.446847e-001 5.553153e-001
 0.000000e+000 0.000000e+000 0.000000e+000 0.000000e+000 0.000000e+000
<ENDHMM>
~h "k"
<BEGINHMM>
<NUMSTATES> 5
<STATE> 2
<MEAN> 25
 -3.822907e+000 2.316358e+000 -2.431927e+000 2.587313e+000 4.387436e+000 -3.124308e-001 2.374059e+000 2.682441e+000 3.844847e+000 2.885860e-001 -1.933551e+000 1.427303e+000 -4.568775e-001 -1.221329e+000 -1.412589e+000 -7.601479e-001 5.134438e-001 2.879677e-001 -2.737635e-001 -5.618895e-001 -5.810350e-001 6.504732e-001 4.293060e-001 4.670811e-001 4.958408e-001
<VARIANCE> 25
 2.720659e+001 2.958454e+001 3.073722e+001 2.701602e+001 3.992685e+001 3.985286e+001 4.441302e+001 3.376996e+001 3.390681e+001 2.809683e+001 3.020600e+001 2.295952e+001 2.670081e+000 3.885023e+000 4.390656e+000 3.136891e+000 5.391985e+000 5.223633e+000 4.153596e+000 3.978830e+000 4.300550e+000 3.137758e+000 2.811377e+000 2.606778e+000 3.744367e+000
<GCONST> 1.044652e+002
<STATE> 3
<MEAN> 25
 -4.587283e+000 -1.286278e+000 -6.432151e+000 -4.478715e-001 5.321012e+000 6.078192e-001 1.372422e+000 1.120035e+000 1.871363e+000 2.242611e+000 -2.544088e-001 2.324099e+000 3.898137e-001 -1.370832e+000 -1.161365e+000 -1.711778e+000 -7.117133e-001 -1.924696e-001 -9.352782e-001 -9.902800e-001 -1.267833e+000 3.731372e-001 9.261959e-001 1.326307e-001 1.692867e+000
<VARIANCE> 25
 2.192652e+001 2.845738e+001 5.620703e+001 3.736908e+001 4.187595e+001 5.932767e+001 4.192024e+001 3.174552e+001 3.506645e+001 2.898105e+001 2.792168e+001 2.294162e+001 3.143584e+000 2.867996e+000 5.576653e+000 3.714706e+000 5.807683e+000 5.321180e+000 3.801257e+000 4.312273e+000 4.530172e+000 3.198423e+000 3.134414e+000 2.640115e+000 2.585237e+000
<GCONST> 1.056245e+002
<STATE> 4
<MEAN> 25
 -2.473142e+000 -2.089170e+000 -7.352775e+000 -4.415385e+000 2.003414e+000 -4.847641e-001 -7.007626e-001 -1.051610e+000 -7.709391e-001 1.552027e+000 1.565704e+000 1.999442e+000 1.873031e+000 -3.441233e-001 7.535425e-001 -1.004454e+000 -1.847350e+000 -3.693219e-001 -1.216773e+000 -6.066692e-001 -1.391144e+000 -3.795297e-001 9.233606e-001 -5.834718e-001 2.018490e+000
<VARIANCE> 25
 2.913918e+001 2.290388e+001 7.462437e+001 4.423562e+001 4.655714e+001 6.970353e+001 4.017043e+001 3.520647e+001 3.490439e+001 2.780565e+001 3.167645e+001 2.331139e+001 2.951823e+000 2.578762e+000 4.676018e+000 4.058980e+000 4.279664e+000 3.976379e+000 4.041929e+000 3.727163e+000 3.962341e+000 3.061233e+000 3.271631e+000 2.625892e+000 2.242442e+000
<GCONST> 1.053476e+002
<TRANSP> 5
 0.000000e+000 1.000000e+000 0.000000e+000 0.000000e+000 0.000000e+000
 0.000000e+000 4.747609e-001 5.252391e-001 0.000000e+000 0.000000e+000
 0.000000e+000 0.000000e+000 3.291173e-001 6.708827e-001 0.000000e+000
 0.000000e+000 0.000000e+000 0.000000e+000 4.426566e-001 5.573435e-001
 0.000000e+000 0.000000e+000 0.000000e+000 0.000000e+000 0.000000e+000
<ENDHMM>
~h "l"
<BEGINHMM>
<NUMSTATES> 5
<STATE> 2
<MEAN> 25
 4.045600e+000 -3.774068e+000 -9.624572e-001 -2.475486e+000 -1.047354e+000 3.320274e+000 -5.549348e+000 -6.395396e+000 1.413148e-001 2.497045e+000 5.404975e+000 -2.832540e+000 9.458048e-001 -4.369289e-002 3.163585e-001 -1.301147e+000 3.102114e-001 9.250256e-001 -1.515531e+000 -6.956907e-001 -3.835001e-001 7.459711e-001 7.595250e-001 -9.266123e-001 4.574606e-001
<VARIANCE> 25
 1.985146e+001 1.841842e+001 3.697319e+001 3.657174e+001 2.768551e+001 4.193693e+001 5.530639e+001 4.598975e+001 3.757932e+001 3.407459e+001 4.190613e+001 3.243623e+001 3.081068e+000 2.134451e+000 3.094734e+000 3.846810e+000 3.466556e+000 4.344943e+000 4.368747e+000 4.998794e+000 3.803601e+000 3.732747e+000 3.914113e+000 2.925981e+000 2.179448e+000
<GCONST> 1.043528e+002
<STATE> 3
<MEAN> 25
 4.970975e+000 -3.614391e+000 -1.818817e-001 -4.775012e+000 -3.809922e-002 4.960498e+000 -7.654737e+000 -5.801725e+000 6.874678e-002 3.278675e+000 6.190794e+000 -3.910911e+000 2.511331e-001 -1.849602e-001 8.617692e-003 -3.624298e-001 2.060401e-001 5.430242e-002 -2.053430e-001 1.008764e+000 1.189182e-001 -1.312781e-001 -3.024325e-001 -1.109855e-001 5.070672e-001
<VARIANCE> 25
 1.131088e+001 1.598181e+001 3.889715e+001 3.861876e+001 2.808083e+001 4.344858e+001 5.738522e+001 4.098903e+001 3.182879e+001 3.453123e+001 3.932900e+001 3.183245e+001 1.666594e+000 1.815333e+000 2.520644e+000 3.157151e+000 2.802865e+000 4.424518e+000 3.793563e+000 4.533288e+000 3.922532e+000 3.002784e+000 4.104264e+000 2.675827e+000 1.298563e+000
<GCONST> 1.011309e+002
<STATE> 4
<MEAN> 25
 4.591506e+000 -4.245314e+000 -7.457886e-001 -3.553458e+000 2.574010e-001 3.080265e+000 -6.252687e+000 -2.357279e+000 1.012896e+000 2.173735e+000 3.929950e+000 -3.377437e+000 -1.642574e-001 -2.150748e-001 -2.653736e-001 7.826992e-001 -2.749175e-001 -8.630661e-001 1.257255e+000 1.553524e+000 -7.397110e-002 -5.535827e-001 -8.631724e-001 4.210759e-001 2.956563e-001
<VARIANCE> 25
 9.508075e+000 1.929702e+001 4.342011e+001 3.376538e+001 2.649476e+001 5.584691e+001 4.687226e+001 4.523442e+001 3.056892e+001 3.168530e+001 3.228466e+001 3.052277e+001 9.949990e-001 1.897397e+000 1.926254e+000 3.216585e+000 3.328162e+000 5.342292e+000 4.210249e+000 3.958218e+000 4.275793e+000 2.621926e+000 4.628234e+000 2.736433e+000 1.034993e+000
<GCONST> 1.003180e+002
<TRANSP> 5
 0.000000e+000 1.000000e+000 0.000000e+000 0.000000e+000 0.000000e+000
 0.000000e+000 3.713559e-001 6.286441e-001 0.000000e+000 0.000000e+000
 0.000000e+000 0.000000e+000 2.744950e-001 7.255049e-001 0.000000e+000
 0.000000e+000 0.000000e+000 0.000000e+000 3.471310e-001 6.528689e-001
 0.000000e+000 0.000000e+000 0.000000e+000 0.000000e+000 0.000000e+000
<ENDHMM>
~h "m"
<BEGINHMM>
<NUMSTATES> 5
<STATE> 2
<MEAN> 25
 7.081349e+000 8.156745e-001 1.019388e+000 5.771975e+000 1.326903e+000 2.055586e+000 2.630117e+000 -5.469780e+000 -5.756018e+000 1.963721e+000 -1.951604e+000 -4.307425e+000 3.743810e-001 7.507991e-001 4.954510e-001 1.729497e+000 2.185344e-002 -3.064863e-001 2.927819e-001 -1.761612e+000 -7.527162e-001 5.614948e-001 -2.316908e-001 -7.512738e-003 -6.765116e-001
<VARIANCE> 25
 9.077771e+000 2.056547e+001 1.389117e+001 2.062434e+001 1.836871e+001 2.450006e+001 2.065530e+001 3.052097e+001 2.461511e+001 2.013915e+001 2.425619e+001 1.982046e+001 8.922749e-001 1.967882e+000 1.791010e+000 2.223206e+000 2.003543e+000 2.225294e+000 1.918937e+000 2.851490e+000 2.610538e+000 1.860357e+000 2.083890e+000 1.731427e+000 1.919222e+000
<GCONST> 9.042577e+001
<STATE> 3
<MEAN> 25
 7.075201e+000 2.013188e+000 1.890048e+000 7.793042e+000 1.751236e+000 2.088527e+000 2.573859e+000 -8.118111e+000 -6.678674e+000 2.471812e+000 -2.343603e+000 -3.305331e+000 -3.290311e-001 -1.081859e-001 1.110432e-001 -3.290996e-001 2.069915e-001 3.205719e-001 -2.676609e-001 4.467989e-001 3.934645e-001 -5.681299e-001 -3.086676e-001 2.558009e-001 3.135219e-001
<VARIANCE> 25
 7.362326e+000 2.247422e+001 1.242090e+001 1.703591e+001 1.797842e+001 2.377260e+001 1.889274e+001 2.571198e+001 2.512203e+001 2.248648e+001 2.550047e+001 1.921102e+001 6.852756e-001 2.182960e+000 1.659116e+000 2.164412e+000 1.635760e+000 1.934280e+000 1.630979e+000 2.826687e+000 2.351615e+000 1.905640e+000 1.830073e+000 1.519420e+000 1.921278e+000
<GCONST> 8.872157e+001
<STATE> 4
<MEAN> 25
 5.151765e+000 5.414364e-001 1.093699e+000 3.817211e+000 2.610045e+000 3.664436e+000 1.724934e+000 -3.113271e+000 -3.494422e+000 -9.720131e-001 -3.821741e+000 -3.048438e+000 -1.017615e+000 -8.308402e-001 -7.834155e-002 -1.940716e+000 -6.716798e-002 6.717163e-001 -2.876778e-001 2.079095e+000 1.028100e+000 -9.604890e-001 -3.281306e-001 2.372331e-001 1.091257e+000
<VARIANCE> 25
 1.182255e+001 3.712510e+001 2.796016e+001 3.617677e+001 2.765382e+001 3.361524e+001 2.493626e+001 4.257803e+001 2.756891e+001 2.536335e+001 2.365098e+001 1.921919e+001 1.255428e+000 2.224703e+000 3.728849e+000 3.332631e+000 3.290212e+000 3.133917e+000 2.465995e+000 3.800770e+000 3.244113e+000 2.748376e+000 2.874355e+000 2.258084e+000 1.923087e+000
<GCONST> 9.825227e+001
<TRANSP> 5
 0.000000e+000 1.000000e+000 0.000000e+000 0.000000e+000 0.000000e+000
 0.000000e+000 5.926528e-001 4.073472e-001 0.000000e+000 0.000000e+000
 0.000000e+000 0.000000e+000 5.238798e-001 4.761202e-001 0.000000e+000
 0.000000e+000 0.000000e+000 0.000000e+000 5.479963e-001 4.520037e-001
 0.000000e+000 0.000000e+000 0.000000e+000 0.000000e+000 0.000000e+000
<ENDHMM>
~h "n"
<BEGINHMM>
<NUMSTATES> 5
<STATE> 2
<MEAN> 25
 6.074795e+000 -4.629755e-002 1.363177e+000 6.127336e+000 5.629659e-001 1.585982e+000 1.891979e+000 -4.171339e+000 -2.879019e+000 1.135882e+000 -5.893762e+000 -4.128388e+000 4.421259e-001 4.985385e-001 4.136556e-001 1.133976e+000 6.603810e-003 -1.511614e-001 1.554821e-001 -1.039779e+000 -3.524225e-001 3.439631e-001 -8.338475e-001 -1.446588e-001 -3.300605e-001
<VARIANCE> 25
 1.157080e+001 2.362435e+001 2.043338e+001 2.389128e+001 2.316173e+001 3.139955e+001 2.407637e+001 4.016121e+001 2.562696e+001 2.413600e+001 2.972075e+001 2.449367e+001 1.156366e+000 2.911578e+000 2.183680e+000 2.719246e+000 2.444292e+000 2.815481e+000 2.291281e+000 4.196466e+000 2.643144e+000 2.199993e+000 2.303662e+000 2.193559e+000 2.633573e+000
<GCONST> 9.576579e+001
<STATE> 3
<MEAN> 25
 6.205235e+000 1.615908e-002 1.566008e+000 6.735128e+000 1.357610e+000 1.992709e+000 1.623310e+000 -4.876932e+000 -3.167246e+000 1.327398e+000 -6.688151e+000 -4.128130e+000 -2.766721e-001 -5.433361e-001 -1.628807e-001 -8.007973e-001 6.274574e-001 6.117540e-001 -1.616798e-001 9.287950e-001 -2.852540e-002 -5.459823e-001 -8.074930e-002 -1.396658e-001 6.724558e-001
<VARIANCE> 25
 9.454255e+000 2.748764e+001 2.033233e+001 2.421783e+001 2.379432e+001 2.853813e+001 2.566498e+001 3.820221e+001 2.368056e+001 2.497309e+001 2.931992e+001 2.264309e+001 9.324518e-001 3.337283e+000 2.493471e+000 2.847341e+000 2.324896e+000 2.848374e+000 2.175422e+000 4.233714e+000 2.523508e+000 2.364249e+000 2.150848e+000 2.096629e+000 2.375288e+000
<GCONST> 9.535914e+001
<STATE> 4
<MEAN> 25
 4.510178e+000 -1.427875e+000 4.854560e-001 2.988987e+000 3.201015e+000 3.956419e+000 1.665573e+000 -7.200420e-001 -2.544073e+000 -1.608612e+000 -6.271210e+000 -4.135314e+000 -7.535726e-001 -4.872560e-001 -2.950672e-001 -1.424231e+000 3.562339e-001 5.647238e-001 1.416817e-001 1.352727e+000 1.216438e-001 -7.049949e-001 5.830721e-001 1.465129e-001 7.369996e-001
<VARIANCE> 25
 1.229449e+001 4.128386e+001 2.996447e+001 2.997929e+001 2.981595e+001 3.338589e+001 3.371615e+001 3.940852e+001 2.705867e+001 2.673762e+001 3.316206e+001 2.394028e+001 1.279464e+000 3.039987e+000 2.747861e+000 3.119718e+000 2.709371e+000 3.024794e+000 2.625312e+000 3.838987e+000 2.761663e+000 2.780469e+000 2.608163e+000 2.119479e+000 2.195965e+000
<GCONST> 9.878897e+001
<TRANSP> 5
 0.000000e+000 1.000000e+000 0.000000e+000 0.000000e+000 0.000000e+000
 0.000000e+000 4.724702e-001 5.275298e-001 0.000000e+000 0.000000e+000
 0.000000e+000 0.000000e+000 4.094781e-001 5.905219e-001 0.000000e+000
 0.000000e+000 0.000000e+000 0.000000e+000 4.698598e-001 5.301403e-001
 0.000000e+000 0.000000e+000 0.000000e+000 0.000000e+000 0.000000e+000
<ENDHMM>
~h "o"
<BEGINHMM>
<NUMSTATES> 5
<STATE> 2
<MEAN> 25
 5.649828e+000 -2.878618e+000 -6.407177e+000 -7.054636e+000 -3.859440e-001 6.854634e+000 -4.629419e+000 -2.451248e+000 -2.011056e+000 3.155349e+000 4.462889e+000 -1.993593e+000 8.933985e-001 1.248825e-001 -3.910345e-002 -8.428062e-001 -2.935274e-001 9.306378e-001 -2.205413e-001 -1.437879e-001 -5.652111e-001 7.711658e-001 7.788380e-001 -3.032462e-001 6.781716e-001
<VARIANCE> 25
 1.207079e+001 2.145544e+001 2.030525e+001 3.730103e+001 3.122987e+001 4.703325e+001 4.855091e+001 2.500555e+001 3.285975e+001 3.039075e+001 3.751754e+001 2.787267e+001 1.982308e+000 2.237955e+000 2.511068e+000 3.416278e+000 3.293997e+000 3.663643e+000 4.181565e+000 2.877586e+000 3.222270e+000 3.158153e+000 2.863239e+000 2.725061e+000 2.505968e+000
<GCONST> 1.002969e+002
<STATE> 3
<MEAN> 25
 6.711183e+000 -2.110864e+000 -5.459278e+000 -7.234865e+000 1.369128e-001 8.042568e+000 -4.018615e+000 -2.490314e+000 -2.887908e+000 4.345267e+000 5.429169e+000 -2.169380e+000 1.935120e-001 8.092269e-001 7.855646e-001 7.214850e-001 2.906630e-001 -3.709960e-001 4.485413e-001 1.390114e-001 1.867347e-001 -1.333170e-002 -2.196208e-001 1.034618e-001 -7.303733e-001
<VARIANCE> 25
 8.533855e+000 2.036400e+001 1.895096e+001 3.544716e+001 2.883343e+001 4.060381e+001 5.142760e+001 2.456795e+001 3.320613e+001 3.167201e+001 3.944515e+001 2.683231e+001 1.040884e+000 2.339687e+000 1.591725e+000 2.724918e+000 2.353605e+000 3.194684e+000 3.741802e+000 2.347674e+000 3.182709e+000 2.293267e+000 2.375930e+000 2.501595e+000 2.125916e+000
<GCONST> 9.681634e+001
<STATE> 4
<MEAN> 25
 6.251248e+000 1.380896e+000 -3.223948e+000 -3.948092e+000 1.059434e+000 5.147029e+000 -1.753547e+000 -1.751001e+000 -4.816548e-001 3.015720e+000 2.987128e+000 -1.294305e+000 -7.213794e-001 1.202518e+000 1.029632e+000 1.469249e+000 1.620723e-001 -1.302024e+000 1.076849e+000 3.979374e-001 8.667200e-001 -8.526906e-001 -9.661098e-001 5.013926e-001 -1.410585e+000
<VARIANCE> 25
 1.154007e+001 3.397863e+001 2.084311e+001 3.497216e+001 2.946873e+001 3.884405e+001 6.484795e+001 2.863590e+001 4.014110e+001 3.104833e+001 3.744801e+001 2.971633e+001 1.916137e+000 2.564087e+000 1.694978e+000 2.470107e+000 2.426155e+000 2.779421e+000 3.212513e+000 2.921655e+000 3.271006e+000 2.560903e+000 2.491113e+000 2.197937e+000 1.982460e+000
<GCONST> 9.890389e+001
<TRANSP> 5
 0.000000e+000 1.000000e+000 0.000000e+000 0.000000e+000 0.000000e+000
 0.000000e+000 4.587201e-001 5.412799e-001 0.000000e+000 0.000000e+000
 0.000000e+000 0.000000e+000 4.123144e-001 5.876856e-001 0.000000e+000
 0.000000e+000 0.000000e+000 0.000000e+000 5.007012e-001 4.992988e-001
 0.000000e+000 0.000000e+000 0.000000e+000 0.000000e+000 0.000000e+000
<ENDHMM>
~h "p"
<BEGINHMM>
<NUMSTATES> 5
<STATE> 2
<MEAN> 25
 6.917515e-001 6.036883e+000 -5.240248e-001 7.278711e-001 6.894722e-003 3.272878e-001 3.856017e+000 7.461511e-001 4.157164e+000 -2.287427e+000 -1.943589e+000 2.002396e+000 -1.292941e+000 -1.640224e+000 -1.026401e+000 3.382285e-002 1.382270e-001 -1.561907e-001 -6.685299e-001 -4.556064e-001 3.210072e-001 3.908708e-001 2.385059e-001 3.971302e-001 9.480153e-001
<VARIANCE> 25
 1.932516e+001 2.343823e+001 1.909725e+001 2.225470e+001 2.317500e+001 2.694497e+001 2.901481e+001 2.452537e+001 2.206289e+001 1.989190e+001 2.174850e+001 2.014959e+001 2.098638e+000 4.385049e+000 3.108638e+000 2.203182e+000 2.403725e+000 3.091752e+000 3.519960e+000 3.173404e+000 2.646717e+000 2.196371e+000 2.242496e+000 2.003259e+000 4.773750e+000
<GCONST> 9.667434e+001
<STATE> 3
<MEAN> 25
 -3.166881e+000 -9.720563e-001 -4.057904e+000 8.496683e-001 9.639217e-001 1.282831e-001 9.110969e-001 -9.569156e-001 4.778308e+000 -3.388751e-001 -9.488425e-001 2.636901e+000 -1.813985e-001 -2.896454e+000 -1.793704e+000 -8.492893e-001 -4.859558e-001 -5.281711e-002 -2.014959e+000 -1.205849e+000 -5.739049e-001 9.004077e-001 8.349786e-001 1.300001e-001 3.398440e+000
<VARIANCE> 25
 1.532730e+001 3.297427e+001 2.340883e+001 2.090839e+001 2.493838e+001 2.843686e+001 2.900934e+001 2.352390e+001 2.199765e+001 2.031328e+001 1.943999e+001 1.669722e+001 3.012095e+000 2.789342e+000 3.845418e+000 3.855978e+000 3.382530e+000 4.715345e+000 3.626647e+000 3.725549e+000 3.628062e+000 2.780870e+000 2.922987e+000 2.631768e+000 3.381189e+000
<GCONST> 9.910793e+001
<STATE> 4
<MEAN> 25
 -6.786509e-001 -4.188892e+000 -7.483343e+000 -1.908962e+000 -1.224848e+000 -4.743236e-001 -3.223964e+000 -3.602551e+000 2.601384e+000 1.102044e+000 7.274626e-001 2.279363e+000 1.929159e+000 -1.151485e+000 -4.526224e-001 -1.442072e+000 -1.224700e+000 7.092479e-001 -1.337087e+000 -7.072977e-001 -1.180741e+000 6.098371e-001 1.035105e+000 -5.182274e-001 2.853801e+000
<VARIANCE> 25
 2.080450e+001 1.821574e+001 2.669873e+001 2.661541e+001 2.402039e+001 4.088465e+001 2.780840e+001 2.704316e+001 2.610234e+001 2.154852e+001 2.065327e+001 1.841712e+001 2.705140e+000 3.308911e+000 3.942211e+000 6.351662e+000 3.722298e+000 5.721065e+000 3.668114e+000 3.370572e+000 3.549728e+000 3.048236e+000 2.821974e+000 2.493290e+000 3.352102e+000
<GCONST> 1.007640e+002
<TRANSP> 5
 0.000000e+000 1.000000e+000 0.000000e+000 0.000000e+000 0.000000e+000
 0.000000e+000 5.055634e-001 4.944366e-001 0.000000e+000 0.000000e+000
 0.000000e+000 0.000000e+000 2.630247e-001 7.369753e-001 0.000000e+000
 0.000000e+000 0.000000e+000 0.000000e+000 3.091733e-001 6.908267e-001
 0.000000e+000 0.000000e+000 0.000000e+000 0.000000e+000 0.000000e+000
<ENDHMM>
~h "r"
<BEGINHMM>
<NUMSTATES> 5
<STATE> 2
<MEAN> 25
 3.465425e+000 -4.554474e+000 -2.037609e+000 2.608276e+000 -2.238139e+000 -3.517859e+000 -3.978511e+000 6.437588e-002 3.984419e+000 1.894863e+000 1.220356e+000 -9.817451e-001 8.055122e-001 -4.566675e-001 5.059361e-001 1.023341e+000 -4.781075e-001 -6.851058e-001 1.367007e-001 -6.903659e-002 9.086800e-002 2.624129e-001 1.114754e-001 -1.643646e-001 2.604187e-001
<VARIANCE> 25
 1.442366e+001 1.937766e+001 2.855400e+001 1.987148e+001 2.421653e+001 3.653825e+001 3.642146e+001 3.387783e+001 2.728000e+001 2.172400e+001 2.746278e+001 2.066817e+001 2.145960e+000 2.434419e+000 3.410685e+000 2.982310e+000 2.550486e+000 3.518272e+000 3.872522e+000 3.250316e+000 2.969072e+000 2.689955e+000 2.906133e+000 2.486780e+000 2.406587e+000
<GCONST> 9.818392e+001
<STATE> 3
<MEAN> 25
 4.071430e+000 -4.948002e+000 -1.306690e+000 4.065693e+000 -2.409347e+000 -4.374025e+000 -2.695186e+000 -7.934039e-002 3.934870e+000 2.204354e+000 1.278236e+000 -8.946528e-001 2.007198e-001 -4.317153e-001 2.025554e-001 3.243954e-002 -1.463722e-001 -4.032514e-001 6.608794e-001 1.282903e-001 -3.982321e-001 -5.595326e-002 6.710638e-002 6.650677e-003 3.148277e-001
<VARIANCE> 25
 1.207388e+001 2.073466e+001 3.202987e+001 1.886794e+001 2.551527e+001 3.525667e+001 3.505666e+001 3.401365e+001 2.821106e+001 2.309806e+001 2.822556e+001 2.136868e+001 1.415255e+000 2.134153e+000 2.992131e+000 2.568800e+000 2.335943e+000 3.306785e+000 3.186019e+000 3.057671e+000 2.862843e+000 2.371956e+000 3.007526e+000 2.159213e+000 1.805006e+000
<GCONST> 9.648376e+001
<STATE> 4
<MEAN> 25
 3.904085e+000 -5.447863e+000 -1.603988e+000 2.861148e+000 -2.455157e+000 -4.625130e+000 -1.399103e+000 5.501916e-001 3.058204e+000 1.778530e+000 1.275657e+000 -9.144030e-001 1.967402e-003 -1.970541e-001 3.319659e-002 -7.390352e-001 1.164231e-001 1.641636e-001 5.493225e-001 3.012180e-001 -8.278745e-001 -2.573797e-001 4.832968e-002 -1.476005e-001 3.789186e-001
<VARIANCE> 25
 1.311940e+001 2.426445e+001 3.839389e+001 1.912590e+001 2.753918e+001 3.911110e+001 3.631212e+001 3.473768e+001 2.932382e+001 2.443411e+001 3.384218e+001 2.239194e+001 1.366916e+000 2.187702e+000 2.248246e+000 2.207572e+000 2.480098e+000 3.293540e+000 2.920946e+000 3.143829e+000 3.158080e+000 2.193447e+000 3.489515e+000 2.052287e+000 1.752425e+000
<GCONST> 9.711597e+001
<TRANSP> 5
 0.000000e+000 1.000000e+000 0.000000e+000 0.000000e+000 0.000000e+000
 0.000000e+000 2.704922e-001 7.295078e-001 0.000000e+000 0.000000e+000
 0.000000e+000 0.000000e+000 2.447622e-001 7.552378e-001 0.000000e+000
 0.000000e+000 0.000000e+000 0.000000e+000 2.740033e-001 7.259967e-001
 0.000000e+000 0.000000e+000 0.000000e+000 0.000000e+000 0.000000e+000
<ENDHMM>
~h "s"
<BEGINHMM>
<NUMSTATES> 5
<STATE> 2
<MEAN> 25
 -1.066016e+001 6.932704e+000 2.157507e+000 1.279632e+000 7.264234e+000 -5.358342e+000 3.313085e+000 5.007900e+000 1.888680e+000 -2.081416e+000 -1.529533e+000 4.621483e+000 -3.659024e+000 1.029341e+000 -1.000626e+000 -4.117004e-001 1.566567e+000 -2.239570e-001 1.136776e+000 1.219862e+000 4.886830e-001 -7.754550e-001 4.729915e-001 1.300510e+000 4.345473e-001
<VARIANCE> 25
 3.314806e+001 1.975116e+001 2.362648e+001 1.785029e+001 2.703708e+001 4.073825e+001 5.878606e+001 2.879644e+001 3.567499e+001 2.308340e+001 2.752707e+001 2.514910e+001 2.788559e+000 2.666651e+000 2.577246e+000 1.781659e+000 2.415653e+000 2.971635e+000 3.281281e+000 3.345408e+000 2.975426e+000 2.530555e+000 2.454033e+000 2.050546e+000 1.021139e+000
<GCONST> 9.772070e+001
<STATE> 3
<MEAN> 25
 -1.690793e+001 6.207963e+000 -3.560762e+000 -9.338080e-001 8.895938e+000 -5.206806e+000 4.668718e+000 6.328187e+000 1.426632e+000 -2.156836e+000 1.442934e-001 6.543036e+000 -7.716265e-002 -7.842605e-001 -7.032303e-001 -6.043103e-002 -3.672383e-001 7.362609e-002 -2.414698e-001 -2.019686e-001 2.760949e-001 1.511520e-001 -1.586106e-002 -3.559075e-002 -6.936952e-001
<VARIANCE> 25
 8.166038e+000 1.744367e+001 1.793142e+001 1.666605e+001 2.073138e+001 3.083564e+001 4.312403e+001 2.942499e+001 2.820850e+001 2.164081e+001 2.262943e+001 1.993992e+001 1.669889e+000 1.676057e+000 1.860700e+000 1.406415e+000 1.794826e+000 2.275327e+000 2.748796e+000 2.678499e+000 2.581972e+000 1.899275e+000 1.762894e+000 1.645825e+000 7.737098e-001
<GCONST> 9.053156e+001
<STATE> 4
<MEAN> 25
 -1.149962e+001 2.621948e+000 -3.067427e+000 1.968826e-001 5.294756e+000 -5.083645e+000 1.113648e+000 3.151078e+000 2.972669e+000 -1.119215e+000 -8.533100e-001 4.265888e+000 2.962322e+000 -8.082101e-001 4.773779e-001 1.642195e-001 -1.289287e+000 7.228676e-002 -1.028038e+000 -1.583215e+000 -3.043694e-001 5.253305e-001 -4.461568e-002 -1.128915e+000 -6.959102e-001
<VARIANCE> 25
 3.331087e+001 2.645842e+001 2.144367e+001 1.910439e+001 3.460579e+001 4.681724e+001 5.781467e+001 4.043887e+001 3.979392e+001 2.254299e+001 2.098215e+001 2.212868e+001 4.116060e+000 2.087341e+000 1.754297e+000 1.767673e+000 2.362983e+000 3.096902e+000 4.213980e+000 3.819849e+000 3.122875e+000 2.277456e+000 2.275295e+000 2.245766e+000 2.696653e+000
<GCONST> 9.946717e+001
<TRANSP> 5
 0.000000e+000 1.000000e+000 0.000000e+000 0.000000e+000 0.000000e+000
 0.000000e+000 6.774055e-001 3.225945e-001 0.000000e+000 0.000000e+000
 0.000000e+000 0.000000e+000 7.270753e-001 2.729247e-001 0.000000e+000
 0.000000e+000 0.000000e+000 0.000000e+000 6.647303e-001 3.352697e-001
 0.000000e+000 0.000000e+000 0.000000e+000 0.000000e+000 0.000000e+000
<ENDHMM>
~h "t"
<BEGINHMM>
<NUMSTATES> 5
<STATE> 2
<MEAN> 25
 -3.462404e+000 5.275690e+000 2.478694e-001 1.262360e+000 1.969812e+000 -1.476578e+000 4.436947e+000 1.110705e+000 4.548045e+000 -1.644171e+000 -1.440005e+000 2.535759e+000 -9.922082e-001 -1.345309e+000 -4.550198e-001 -5.571388e-001 3.499632e-002 1.304738e-001 2.269529e-001 -4.284693e-001 3.372865e-002 -3.083503e-001 2.882136e-001 6.765700e-001 3.061497e-001
<VARIANCE> 25
 3.127649e+001 2.349274e+001 2.224154e+001 2.007079e+001 2.559466e+001 3.264859e+001 2.969191e+001 2.837135e+001 2.490737e+001 2.101621e+001 2.303797e+001 2.011430e+001 3.275964e+000 4.036771e+000 2.301137e+000 2.018431e+000 2.623522e+000 3.230989e+000 2.990989e+000 3.243123e+000 2.455860e+000 2.038463e+000 2.441961e+000 2.411514e+000 4.062063e+000
<GCONST> 9.782383e+001
<STATE> 3
<MEAN> 25
 -6.363329e+000 4.421666e-002 -1.147026e+000 -5.176101e-001 2.240268e+000 -1.166516e+000 4.491106e+000 -4.923669e-002 3.840905e+000 -2.153247e+000 -1.187946e-001 4.236776e+000 -4.254039e-001 -2.216173e+000 -8.370200e-001 -8.239700e-001 -7.344062e-001 -7.919716e-001 -9.984956e-001 -6.167423e-001 -6.150832e-001 3.886365e-002 5.085660e-001 2.910907e-001 2.032435e+000
<VARIANCE> 25
 1.964685e+001 4.113059e+001 2.678265e+001 2.137795e+001 2.574848e+001 3.105234e+001 3.217194e+001 2.647324e+001 2.234052e+001 1.861787e+001 2.071721e+001 1.791430e+001 4.224226e+000 3.692250e+000 3.001258e+000 2.407238e+000 3.577262e+000 4.063622e+000 4.238553e+000 3.484168e+000 3.052777e+000 2.303879e+000 2.758671e+000 3.004492e+000 3.590097e+000
<GCONST> 9.980746e+001
<STATE> 4
<MEAN> 25
 -4.990150e+000 -2.474909e+000 -3.000227e+000 -2.049367e+000 -7.218183e-001 -4.357813e+000 8.070350e-001 -8.078548e-001 2.614821e+000 -1.494946e+000 2.469053e-001 3.469015e+000 1.879906e+000 -7.661991e-001 1.211086e-001 -1.829312e-001 -1.245251e+000 -7.118835e-001 -2.271211e+000 -2.760129e-001 -1.081600e+000 8.402025e-001 4.831654e-001 -1.343563e+000 2.056385e+000
<VARIANCE> 25
 2.087175e+001 3.217091e+001 2.812371e+001 2.206870e+001 3.017972e+001 3.382911e+001 4.983048e+001 2.744534e+001 2.607949e+001 1.948059e+001 1.999733e+001 2.281360e+001 3.897639e+000 3.800743e+000 4.723633e+000 2.974293e+000 4.090269e+000 3.957393e+000 3.794526e+000 4.117581e+000 3.627444e+000 2.497479e+000 2.996170e+000 2.846095e+000 3.170767e+000
<GCONST> 1.017622e+002
<TRANSP> 5
 0.000000e+000 1.000000e+000 0.000000e+000 0.000000e+000 0.000000e+000
 0.000000e+000 4.527680e-001 5.472320e-001 0.000000e+000 0.000000e+000
 0.000000e+000 0.000000e+000 3.275812e-001 6.724188e-001 0.000000e+000
 0.000000e+000 0.000000e+000 0.000000e+000 4.192203e-001 5.807797e-001
 0.000000e+000 0.000000e+000 0.000000e+000 0.000000e+000 0.000000e+000
<ENDHMM>
~h "u"
<BEGINHMM>
<NUMSTATES> 5
<STATE> 2
<MEAN> 25
 5.484366e+000 1.511598e+000 -2.651486e+000 -4.519647e+000 -1.771984e+000 5.308365e+000 -6.429666e+000 -4.672100e+000 -2.049179e+000 -5.976593e-001 3.911251e+000 -5.830402e-001 1.244308e+000 9.519317e-001 3.674169e-002 -1.544181e+000 -5.313109e-001 1.394597e+000 -4.711015e-001 -8.330452e-001 -1.136630e+000 -1.102890e-001 1.130939e+000 -1.894472e-001 2.912824e-001
<VARIANCE> 25
 1.799125e+001 3.994371e+001 2.567272e+001 5.189774e+001 3.583543e+001 4.838753e+001 6.372894e+001 3.804987e+001 3.748313e+001 4.013075e+001 4.185366e+001 2.725188e+001 2.904427e+000 3.008725e+000 2.754450e+000 3.708716e+000 4.197258e+000 4.634933e+000 5.886276e+000 4.948298e+000 4.395586e+000 3.713670e+000 3.974208e+000 3.369038e+000 2.799192e+000
<GCONST> 1.065738e+002
<STATE> 3
<MEAN> 25
 7.425850e+000 4.337500e+000 -1.727826e+000 -7.657904e+000 -3.088716e+000 8.135638e+000 -5.074927e+000 -4.480460e+000 -4.297403e+000 -1.751165e+000 4.913335e+000 -2.620137e-001 -2.414424e-002 6.516751e-001 4.750824e-001 4.520171e-001 2.113197e-001 -1.787493e-001 4.143072e-001 1.251585e-001 3.439915e-001 -8.586339e-002 -3.737122e-001 1.689620e-001 -5.053285e-001
<VARIANCE> 25
 9.305328e+000 3.540955e+001 2.166165e+001 5.108288e+001 3.648395e+001 4.019080e+001 5.714498e+001 3.573772e+001 3.779292e+001 3.462204e+001 4.317605e+001 2.843850e+001 1.083001e+000 2.920301e+000 1.540443e+000 3.956760e+000 2.744853e+000 3.191669e+000 5.123417e+000 3.321225e+000 3.476415e+000 3.374278e+000 3.656758e+000 2.432125e+000 2.062386e+000
<GCONST> 1.012902e+002
<STATE> 4
<MEAN> 25
 5.695383e+000 6.429243e+000 -1.368125e-001 -2.866616e+000 -1.574332e+000 3.738949e+000 -2.438986e+000 -3.171166e+000 -2.297239e-001 -1.550830e+000 1.141982e+000 8.343204e-001 -1.083046e+000 2.231608e-001 5.820091e-001 1.505654e+000 5.576373e-001 -1.292855e+000 8.662247e-001 7.126517e-001 9.545653e-001 -8.358328e-003 -1.001148e+000 3.519987e-001 -7.219504e-001
<VARIANCE> 25
 1.510186e+001 4.209921e+001 2.405490e+001 4.887221e+001 4.114362e+001 4.075416e+001 7.047265e+001 3.799610e+001 3.289708e+001 2.978891e+001 3.582465e+001 2.762228e+001 2.037575e+000 2.925473e+000 1.871296e+000 3.405463e+000 3.226058e+000 3.739228e+000 3.987970e+000 3.535239e+000 3.333969e+000 2.906900e+000 3.171784e+000 2.389925e+000 2.079984e+000
<GCONST> 1.023760e+002
<TRANSP> 5
 0.000000e+000 1.000000e+000 0.000000e+000 0.000000e+000 0.000000e+000
 0.000000e+000 5.288475e-001 4.711524e-001 0.000000e+000 0.000000e+000
 0.000000e+000 0.000000e+000 5.508653e-001 4.491347e-001 0.000000e+000
 0.000000e+000 0.000000e+000 0.000000e+000 6.334018e-001 3.665982e-001
 0.000000e+000 0.000000e+000 0.000000e+000 0.000000e+000 0.000000e+000
<ENDHMM>
~h "v"
<BEGINHMM>
<NUMSTATES> 5
<STATE> 2
<MEAN> 25
 4.210696e+000 -7.838328e-001 -2.969153e+000 -8.367561e-001 1.874369e+000 1.844946e+000 -3.030138e+000 -3.231847e+000 -5.521525e-001 2.643127e+000 1.578220e+000 -4.597444e-001 6.578621e-001 -1.332160e-002 -2.361654e-001 -3.620116e-001 -4.593444e-002 3.317423e-001 -3.415714e-001 -2.649355e-001 -3.754986e-001 2.561929e-001 3.571819e-001 -9.392618e-002 2.039346e-001
<VARIANCE> 25
 2.703170e+001 2.756560e+001 2.820635e+001 3.522551e+001 2.398761e+001 4.104030e+001 4.053843e+001 3.410936e+001 2.849072e+001 2.703858e+001 3.757601e+001 2.599675e+001 2.599767e+000 3.442231e+000 2.454278e+000 3.597921e+000 2.541742e+000 4.297023e+000 3.306218e+000 3.951391e+000 3.157602e+000 2.957844e+000 2.770366e+000 2.581661e+000 3.202173e+000
<GCONST> 1.018128e+002
<STATE> 3
<MEAN> 25
 5.145403e+000 -1.421287e+000 -3.245647e+000 -1.717571e+000 1.370333e+000 2.102895e+000 -3.105680e+000 -2.485548e+000 -8.277059e-001 2.748238e+000 1.821403e+000 -7.073700e-001 1.519148e-001 -4.859197e-001 9.906793e-002 -2.056307e-001 -4.888512e-001 -1.874830e-001 1.237894e-001 6.515753e-001 -9.011924e-002 -1.881454e-001 -9.787413e-002 -1.041593e-001 5.774146e-001
<VARIANCE> 25
 1.969264e+001 2.667503e+001 3.174859e+001 3.811411e+001 2.488059e+001 4.607072e+001 3.935489e+001 3.423617e+001 2.857548e+001 2.714507e+001 3.930066e+001 2.584961e+001 1.895697e+000 3.222930e+000 2.304039e+000 3.264127e+000 2.308655e+000 3.632394e+000 2.806383e+000 3.538900e+000 3.228919e+000 2.626358e+000 2.598037e+000 2.437260e+000 2.555440e+000
<GCONST> 1.003082e+002
<STATE> 4
<MEAN> 25
 4.853456e+000 -2.487359e+000 -3.071970e+000 -1.699248e+000 6.886230e-001 1.310677e+000 -2.528041e+000 -5.365012e-001 -4.720518e-001 1.925518e+000 6.583660e-001 -1.214649e+000 -2.243125e-001 -3.734046e-001 4.959709e-001 1.748379e-001 -6.939886e-001 -4.212647e-001 4.454068e-001 8.135443e-001 -2.963676e-002 -3.736991e-001 -2.896542e-001 -9.034527e-002 5.026855e-001
<VARIANCE> 25
 1.720071e+001 2.997442e+001 3.793514e+001 3.847406e+001 2.792600e+001 5.439276e+001 4.092445e+001 3.535105e+001 3.079230e+001 2.879230e+001 3.956221e+001 2.906364e+001 1.497570e+000 2.677738e+000 2.254604e+000 2.778471e+000 2.826330e+000 3.088264e+000 2.713760e+000 3.200819e+000 3.730354e+000 2.528326e+000 3.076922e+000 2.332004e+000 2.044452e+000
<GCONST> 1.003975e+002
<TRANSP> 5
 0.000000e+000 1.000000e+000 0.000000e+000 0.000000e+000 0.000000e+000
 0.000000e+000 2.730359e-001 7.269641e-001 0.000000e+000 0.000000e+000
 0.000000e+000 0.000000e+000 1.998041e-001 8.001959e-001 0.000000e+000
 0.000000e+000 0.000000e+000 0.000000e+000 2.514283e-001 7.485717e-001
 0.000000e+000 0.000000e+000 0.000000e+000 0.000000e+000 0.000000e+000
<ENDHMM>
~h "z"
<BEGINHMM>
<NUMSTATES> 5
<STATE> 2
<MEAN> 25
 -6.133164e+000 9.937370e+000 1.145950e+000 3.889260e-001 6.993873e+000 -9.672712e+000 -1.085213e+000 -1.069600e+000 5.718510e-001 1.216246e+000 -2.433718e+000 2.856020e+000 -2.698083e+000 2.366585e+000 -2.750757e-001 2.418386e-001 1.440785e+000 -1.031088e+000 1.176186e+000 4.845502e-001 6.115311e-001 -1.055516e+000 -3.990756e-001 1.538225e+000 2.236612e-002
<VARIANCE> 25
 2.595434e+001 2.586197e+001 2.384299e+001 1.811350e+001 2.320380e+001 3.513245e+001 4.892353e+001 2.775591e+001 3.083368e+001 2.760842e+001 1.993217e+001 2.680206e+001 1.900502e+000 3.539833e+000 1.667516e+000 1.280289e+000 2.026990e+000 3.202432e+000 2.965240e+000 3.467880e+000 2.163856e+000 2.043371e+000 2.067512e+000 1.840237e+000 1.133831e+000
<GCONST> 9.528280e+001
<STATE> 3
<MEAN> 25
 -1.203627e+001 1.184684e+001 2.423983e-001 1.099949e+000 9.025343e+000 -9.835319e+000 1.412243e+000 1.630040e+000 6.215099e-001 -1.850251e+000 -2.185385e+000 6.050100e+000 2.712191e-001 -9.841822e-001 -2.568204e-001 -5.269417e-002 -2.036344e-001 1.115177e-001 -5.586381e-001 -3.290336e-003 -7.236509e-002 -3.511083e-002 1.745554e-002 -4.404232e-002 -1.275704e-001
<VARIANCE> 25
 1.450885e+001 1.350419e+001 1.942599e+001 1.574298e+001 1.843861e+001 3.009792e+001 4.219613e+001 3.011019e+001 2.716760e+001 2.282175e+001 1.979785e+001 1.761302e+001 2.982864e+000 2.003030e+000 1.369977e+000 1.286858e+000 1.747451e+000 2.417110e+000 2.972120e+000 2.548987e+000 2.153093e+000 2.046403e+000 1.578203e+000 1.594869e+000 7.909108e-001
<GCONST> 9.068948e+001
<STATE> 4
<MEAN> 25
 -4.686638e+000 4.812311e+000 -7.571191e-001 -3.264104e-001 5.695605e+000 -9.184464e+000 -3.606198e+000 -9.864286e-002 9.956216e-001 1.353865e+000 -2.331023e+000 2.534132e+000 2.894097e+000 -2.768284e+000 -2.595693e-001 -3.790266e-001 -1.326882e+000 1.025347e+000 -8.086467e-001 -1.889782e-002 1.208437e-002 9.977391e-001 2.501353e-001 -1.548334e+000 3.232524e-001
<VARIANCE> 25
 2.949223e+001 3.104533e+001 2.238989e+001 1.695124e+001 2.008566e+001 3.299495e+001 3.790094e+001 2.648094e+001 2.438348e+001 2.609363e+001 1.528748e+001 1.844082e+001 1.897395e+000 2.396203e+000 1.546692e+000 1.627321e+000 1.766718e+000 3.027265e+000 3.185930e+000 3.957726e+000 2.275557e+000 2.221554e+000 1.824904e+000 1.634018e+000 1.484053e+000
<GCONST> 9.396680e+001
<TRANSP> 5
 0.000000e+000 1.000000e+000 0.000000e+000 0.000000e+000 0.000000e+000
 0.000000e+000 6.716461e-001 3.283540e-001 0.000000e+000 0.000000e+000
 0.000000e+000 0.000000e+000 6.356775e-001 3.643225e-001 0.000000e+000
 0.000000e+000 0.000000e+000 0.000000e+000 6.376460e-001 3.623540e-001
 0.000000e+000 0.000000e+000 0.000000e+000 0.000000e+000 0.000000e+000
<ENDHMM>
~h "DZ"
<BEGINHMM>
<NUMSTATES> 5
<STATE> 2
<MEAN> 25
 -2.370932e-001 4.552782e+000 2.964938e+000 7.717123e+000 -1.766954e+000 1.489246e+000 2.722792e+000 -3.117090e+000 3.566175e+000 -2.979760e+000 -2.713667e+000 -1.068804e+000 -2.739157e+000 -1.522893e-001 -7.367779e-002 6.216385e-001 -3.950300e-001 6.751675e-001 6.281905e-001 -8.686340e-001 8.530666e-002 -1.158614e+000 2.725810e-001 6.178248e-001 1.693168e+000
<VARIANCE> 25
 4.238171e+001 4.010151e+001 2.514375e+001 2.588159e+001 1.924995e+001 3.491120e+001 2.800146e+001 3.372070e+001 2.777616e+001 2.460610e+001 2.847368e+001 2.161798e+001 5.984282e+000 6.177268e+000 2.594113e+000 2.653937e+000 1.834542e+000 4.775321e+000 3.645713e+000 2.670699e+000 2.800484e+000 2.413425e+000 3.899112e+000 2.608611e+000 4.559667e+000
<GCONST> 1.019067e+002
<STATE> 3
<MEAN> 25
 -1.129587e+001 2.924698e+000 2.579121e+000 6.075936e+000 -4.134295e+000 2.113616e+000 8.940073e-001 -4.539054e+000 5.023787e+000 -7.042799e+000 4.689114e-001 2.411779e+000 7.962401e-002 -6.908871e-001 -3.985041e-001 -1.119289e+000 -7.955712e-001 -2.235819e+000 -2.299829e+000 -5.015000e-001 1.137699e+000 -4.090096e-002 1.069315e+000 6.270307e-001 1.575727e+000
<VARIANCE> 25
 2.509826e+001 2.300358e+001 3.167896e+001 3.403596e+001 1.780412e+001 4.886953e+001 3.469204e+001 3.130524e+001 2.604220e+001 2.819016e+001 1.902054e+001 3.027212e+001 1.034404e+001 3.426853e+000 1.761804e+000 2.241266e+000 2.765127e+000 3.697418e+000 3.853289e+000 2.731302e+000 4.710599e+000 3.182262e+000 2.044959e+000 2.532546e+000 2.130840e+000
<GCONST> 1.007301e+002
<STATE> 4
<MEAN> 25
 -1.750256e-002 -1.816061e+000 5.138654e-001 3.597279e+000 -4.818443e+000 -4.531099e+000 -5.266147e+000 -5.663937e+000 7.473064e+000 -2.082735e+000 4.042128e+000 -1.307648e-001 3.247370e+000 -1.346289e+000 -4.648441e-001 -1.270332e+000 4.298599e-001 4.070808e-002 -9.880655e-001 8.007697e-001 -3.646133e-001 1.805827e+000 1.041988e+000 -1.017002e+000 -4.356857e-002
<VARIANCE> 25
 2.725937e+001 1.821904e+001 2.293492e+001 2.078591e+001 2.863072e+001 2.777412e+001 2.745314e+001 3.214013e+001 3.147864e+001 2.573795e+001 1.991057e+001 3.754448e+001 2.504350e+000 2.275057e+000 1.824531e+000 1.449056e+000 2.801667e+000 9.352703e+000 4.211177e+000 2.729776e+000 3.528729e+000 2.230501e+000 2.443919e+000 1.814299e+000 9.623536e-001
<GCONST> 9.703116e+001
<TRANSP> 5
 0.000000e+000 1.000000e+000 0.000000e+000 0.000000e+000 0.000000e+000
 0.000000e+000 6.903321e-001 3.096679e-001 0.000000e+000 0.000000e+000
 0.000000e+000 0.000000e+000 5.363472e-001 4.636528e-001 0.000000e+000
 0.000000e+000 0.000000e+000 0.000000e+000 6.437970e-001 3.562030e-001
 0.000000e+000 0.000000e+000 0.000000e+000 0.000000e+000 0.000000e+000
<ENDHMM>
~h "a:"
<BEGINHMM>
<NUMSTATES> 5
<STATE> 2
<MEAN> 25
 2.849563e+000 -8.161726e+000 -7.436662e+000 -2.087852e+000 4.416721e+000 2.539033e+000 7.836230e-001 1.081499e+000 3.025707e+000 -4.766037e-001 -3.444898e+000 -4.618651e+000 2.568667e-001 -4.706232e-001 -4.564665e-001 1.993983e-001 5.801588e-001 1.073376e+000 2.292740e-001 -2.826299e-002 -1.121109e-001 -3.639016e-001 -3.055542e-001 -9.087974e-001 2.320473e-001
<VARIANCE> 25
 6.721488e+000 8.889733e+000 1.145505e+001 1.442846e+001 1.947688e+001 4.337297e+001 2.030223e+001 2.830702e+001 1.658393e+001 1.870650e+001 2.441099e+001 1.823507e+001 8.134965e-001 1.159798e+000 1.139337e+000 1.440300e+000 1.736859e+000 2.364696e+000 1.912558e+000 2.221451e+000 1.563297e+000 1.749286e+000 2.186348e+000 1.822417e+000 1.508804e+000
<GCONST> 8.616953e+001
<STATE> 3
<MEAN> 25
 3.984540e+000 -7.654895e+000 -8.012092e+000 -6.388584e-001 5.059482e+000 4.706713e+000 8.733976e-001 2.424477e-001 1.807216e+000 -6.298043e-001 -3.580666e+000 -7.148109e+000 4.195344e-001 7.431777e-001 3.065322e-001 3.162495e-001 -2.722606e-001 -1.902821e-001 3.761330e-002 2.931101e-001 -1.656274e-001 3.393110e-001 -1.098282e-001 -2.206137e-001 -8.952451e-001
<VARIANCE> 25
 6.677284e+000 1.145488e+001 1.359365e+001 1.825527e+001 2.094498e+001 3.364531e+001 2.184628e+001 2.835954e+001 1.878957e+001 2.190307e+001 2.917183e+001 1.878232e+001 5.030153e-001 1.342773e+000 8.656107e-001 1.236505e+000 1.233774e+000 1.821899e+000 1.671084e+000 1.870368e+000 1.537318e+000 1.593448e+000 1.903934e+000 1.466059e+000 1.274754e+000
<GCONST> 8.490125e+001
<STATE> 4
<MEAN> 25
 5.113318e+000 -2.090259e+000 -5.757929e+000 5.754094e-001 3.244905e+000 2.706595e+000 2.748136e+000 2.539058e+000 2.813714e+000 6.601033e-002 -4.998151e+000 -5.991605e+000 -2.033476e-001 1.561850e+000 8.299451e-001 2.161584e-001 -4.466019e-001 -3.872945e-001 7.165978e-001 1.927859e-001 2.226808e-001 -1.791093e-001 -2.527388e-001 7.268575e-001 -1.722716e+000
<VARIANCE> 25
 1.078833e+001 2.611387e+001 1.793943e+001 2.175143e+001 2.205348e+001 3.677429e+001 3.388186e+001 3.306600e+001 3.096560e+001 2.698681e+001 3.377608e+001 2.461349e+001 1.532955e+000 2.150453e+000 1.429319e+000 1.774655e+000 1.978986e+000 2.250614e+000 2.630845e+000 2.583249e+000 2.619862e+000 2.434536e+000 2.572036e+000 2.072710e+000 1.974285e+000
<GCONST> 9.446593e+001
<TRANSP> 5
 0.000000e+000 1.000000e+000 0.000000e+000 0.000000e+000 0.000000e+000
 0.000000e+000 7.165430e-001 2.834570e-001 0.000000e+000 0.000000e+000
 0.000000e+000 0.000000e+000 6.690393e-001 3.309607e-001 0.000000e+000
 0.000000e+000 0.000000e+000 0.000000e+000 6.560235e-001 3.439765e-001
 0.000000e+000 0.000000e+000 0.000000e+000 0.000000e+000 0.000000e+000
<ENDHMM>
~h "cc"
<BEGINHMM>
<NUMSTATES> 5
<STATE> 2
<MEAN> 25
 -9.513165e+000 7.755991e+000 7.894544e+000 7.977099e-001 -3.888643e+000 5.195551e+000 -2.317444e+000 1.257459e+000 3.034616e+000 -1.339188e+000 -1.789173e+000 3.899591e+000 -3.346664e+000 -1.580105e-001 1.482767e-001 -6.617987e-001 -5.071355e-001 2.058323e+000 2.109107e-001 -4.622452e-001 4.346582e-001 1.372317e-002 1.066212e-001 2.701697e-001 5.051799e-001
<VARIANCE> 25
 4.116494e+001 1.720837e+001 2.117361e+001 3.650785e+001 2.969325e+001 4.441343e+001 2.646220e+001 3.355933e+001 2.831743e+001 2.084791e+001 2.659708e+001 1.851099e+001 1.992730e+000 4.160538e+000 1.953614e+000 1.977879e+000 2.542415e+000 2.573935e+000 3.007293e+000 2.372602e+000 2.893245e+000 1.973525e+000 2.125642e+000 1.633953e+000 1.978974e+000
<GCONST> 9.669387e+001
<STATE> 3
<MEAN> 25
 -1.839277e+001 1.404904e+000 6.252131e+000 3.995282e-001 -6.405577e+000 8.990379e+000 1.234398e+000 -1.224692e-001 2.004120e+000 -1.407483e+000 4.878703e-001 4.797144e+000 -9.497331e-003 -1.813044e+000 -8.411506e-001 3.784835e-001 -8.031680e-001 -9.510817e-001 1.015037e+000 2.395394e-001 -5.757881e-001 -2.544429e-001 6.471356e-001 2.804061e-001 4.650953e-001
<VARIANCE> 25
 1.063700e+001 1.644430e+001 1.429045e+001 2.600382e+001 2.324114e+001 2.551376e+001 2.361219e+001 2.169260e+001 1.928807e+001 1.771665e+001 1.983856e+001 1.508808e+001 4.376554e+000 1.237458e+000 1.375485e+000 1.701629e+000 2.042503e+000 3.318877e+000 2.646660e+000 2.243741e+000 2.034833e+000 1.811687e+000 1.849883e+000 1.391690e+000 9.076725e-001
<GCONST> 8.957688e+001
<STATE> 4
<MEAN> 25
 -9.746564e+000 -2.620299e+000 3.943559e+000 1.855322e+000 -8.372975e+000 4.047203e-001 5.500997e-001 6.528781e-001 2.205945e-001 -2.898962e+000 1.701807e+000 4.861382e+000 3.773147e+000 -5.180076e-001 -5.975346e-002 1.500327e-001 2.552319e-001 -2.551549e+000 -1.296092e+000 -5.316386e-002 -5.631006e-001 1.145345e-002 1.841361e-001 -5.031807e-001 2.757973e-001
<VARIANCE> 25
 5.730297e+001 1.519786e+001 1.647077e+001 2.083526e+001 2.548460e+001 4.478203e+001 3.213017e+001 2.229784e+001 2.724965e+001 1.767735e+001 1.753557e+001 1.362159e+001 3.913300e+000 1.675442e+000 2.126888e+000 1.647218e+000 2.730325e+000 3.924054e+000 3.460817e+000 2.586209e+000 3.229359e+000 2.091923e+000 2.087720e+000 1.606344e+000 1.643936e+000
<GCONST> 9.513699e+001
<TRANSP> 5
 0.000000e+000 1.000000e+000 0.000000e+000 0.000000e+000 0.000000e+000
 0.000000e+000 7.355170e-001 2.644830e-001 0.000000e+000 0.000000e+000
 0.000000e+000 0.000000e+000 6.885039e-001 3.114961e-001 0.000000e+000
 0.000000e+000 0.000000e+000 0.000000e+000 7.093604e-001 2.906396e-001
 0.000000e+000 0.000000e+000 0.000000e+000 0.000000e+000 0.000000e+000
<ENDHMM>
~h "e:"
<BEGINHMM>
<NUMSTATES> 5
<STATE> 2
<MEAN> 25
 2.282016e+000 -5.025943e+000 1.982197e+000 5.368262e-001 -6.323390e+000 -7.781003e+000 -2.727330e-002 4.356737e+000 -8.439086e-002 7.394390e-001 2.456433e+000 7.782497e-001 4.969853e-001 -1.149024e-001 3.146309e-001 1.570095e-002 -2.273287e-001 -1.466851e-001 2.737839e-001 9.698949e-001 -4.798929e-001 3.894449e-001 2.593413e-001 -2.200371e-001 1.181239e-001
<VARIANCE> 25
 8.415231e+000 1.229882e+001 1.712247e+001 1.152607e+001 2.687474e+001 3.589886e+001 2.953270e+001 2.325390e+001 2.286017e+001 1.488755e+001 2.790512e+001 1.562489e+001 1.257777e+000 1.650798e+000 1.838626e+000 1.376139e+000 2.921141e+000 2.783790e+000 3.091568e+000 2.615592e+000 2.715248e+000 2.034328e+000 2.441329e+000 1.604359e+000 2.244267e+000
<GCONST> 9.091049e+001
<STATE> 3
<MEAN> 25
 3.321884e+000 -3.707243e+000 2.808672e+000 9.703901e-001 -5.680618e+000 -6.419482e+000 1.891672e-002 5.766930e+000 -1.531815e+000 1.629241e+000 1.730322e+000 -1.256281e-001 2.170621e-001 1.077622e+000 1.446538e-001 4.342095e-001 6.996944e-001 3.510884e-001 2.333362e-001 1.224529e-001 1.674396e-001 -3.458600e-002 -6.320351e-001 -1.406734e-001 -1.338666e+000
<VARIANCE> 25
 8.354286e+000 1.849376e+001 1.921941e+001 1.396406e+001 2.990429e+001 2.943022e+001 3.306500e+001 2.384662e+001 2.964629e+001 1.969254e+001 2.929995e+001 1.726502e+001 8.790413e-001 2.247562e+000 1.362575e+000 1.245960e+000 2.092972e+000 1.980447e+000 2.976981e+000 2.089404e+000 2.849785e+000 1.678023e+000 1.720906e+000 1.734937e+000 2.063830e+000
<GCONST> 9.046867e+001
<STATE> 4
<MEAN> 25
 2.852131e+000 5.243968e-001 2.670292e+000 2.383019e+000 -3.443762e+000 -5.657595e+000 1.652649e+000 4.855760e+000 6.503798e-001 7.299955e-001 -4.133342e-001 2.307347e-001 -7.228302e-001 1.343085e+000 -2.847612e-001 2.912425e-001 1.113083e+000 4.586582e-001 5.791591e-001 -7.957870e-001 8.355408e-001 -2.993726e-001 -5.160922e-001 2.633015e-001 -1.332129e+000
<VARIANCE> 25
 1.694720e+001 3.034485e+001 2.022498e+001 1.575453e+001 3.171362e+001 3.098787e+001 3.946486e+001 2.776191e+001 3.513518e+001 2.272480e+001 2.922287e+001 2.327644e+001 2.507305e+000 3.207215e+000 1.656419e+000 1.773298e+000 2.521638e+000 2.417960e+000 3.565919e+000 2.909116e+000 2.939548e+000 2.425841e+000 2.038813e+000 2.394297e+000 2.257919e+000
<GCONST> 9.672173e+001
<TRANSP> 5
 0.000000e+000 1.000000e+000 0.000000e+000 0.000000e+000 0.000000e+000
 0.000000e+000 5.259260e-001 4.740740e-001 0.000000e+000 0.000000e+000
 0.000000e+000 0.000000e+000 4.986679e-001 5.013322e-001 0.000000e+000
 0.000000e+000 0.000000e+000 0.000000e+000 4.736560e-001 5.263439e-001
 0.000000e+000 0.000000e+000 0.000000e+000 0.000000e+000 0.000000e+000
<ENDHMM>
~h "dz"
<BEGINHMM>
<NUMSTATES> 5
<STATE> 2
<MEAN> 25
 -4.220334e+000 6.010204e+000 9.543962e+000 1.898409e+000 -5.042214e+000 2.055286e+000 -3.423513e+000 1.950615e+000 1.700692e+000 -3.218575e+000 -1.289526e+000 4.380339e+000 -2.757620e+000 1.915073e+000 7.182526e-001 3.225399e-001 -9.613706e-001 1.765023e+000 5.502555e-001 -6.298565e-001 1.043453e+000 -7.223228e-001 -6.005558e-001 7.241544e-001 -3.522859e-001
<VARIANCE> 25
 3.189031e+001 2.812807e+001 2.469146e+001 2.147244e+001 1.964425e+001 3.289944e+001 2.551796e+001 3.428258e+001 2.923662e+001 1.386125e+001 1.843901e+001 1.611284e+001 1.900501e+000 3.639477e+000 1.350327e+000 1.983929e+000 1.994314e+000 2.579970e+000 2.606756e+000 1.885142e+000 3.167569e+000 1.945168e+000 2.208801e+000 1.616419e+000 1.322201e+000
<GCONST> 9.348293e+001
<STATE> 3
<MEAN> 25
 -1.142118e+001 6.385233e+000 1.069254e+001 4.078865e+000 -7.974967e+000 5.000009e+000 -9.021693e-001 -1.099009e+000 1.519794e+000 -3.318501e+000 -9.158880e-001 5.521910e+000 1.103094e-001 -1.615455e+000 -5.862597e-001 1.013492e+000 -7.065634e-001 -1.274002e+000 9.898471e-002 -7.604461e-001 -1.180924e+000 -1.250355e-001 8.346837e-001 2.356635e-001 7.490092e-001
<VARIANCE> 25
 2.234336e+001 1.450609e+001 1.839337e+001 2.631886e+001 2.108983e+001 3.221058e+001 2.458787e+001 2.556168e+001 2.515880e+001 1.440986e+001 1.568168e+001 1.315410e+001 5.837114e+000 2.387768e+000 1.590306e+000 2.212216e+000 2.044358e+000 4.484477e+000 2.613947e+000 1.939411e+000 2.618687e+000 1.862163e+000 1.696832e+000 1.310444e+000 4.547914e-001
<GCONST> 9.142417e+001
<STATE> 4
<MEAN> 25
 -3.677879e+000 -2.399922e-001 6.679890e+000 5.920509e+000 -8.103573e+000 -2.940053e+000 -3.617320e+000 -1.936848e+000 -1.148280e+000 -4.183132e+000 1.937871e+000 5.348362e+000 3.097319e+000 -1.877726e+000 -1.368935e+000 -3.849553e-001 1.075738e+000 -1.562381e+000 -1.215813e+000 4.160932e-002 5.503715e-002 4.400668e-001 5.842481e-001 -9.314905e-001 5.216381e-001
<VARIANCE> 25
 3.062048e+001 1.603290e+001 1.490250e+001 3.199912e+001 1.774447e+001 2.478637e+001 3.112643e+001 2.285878e+001 2.532899e+001 1.573764e+001 1.354017e+001 1.127987e+001 2.160787e+000 1.548781e+000 1.434350e+000 2.160492e+000 2.884776e+000 4.204884e+000 4.770250e+000 2.952013e+000 3.371021e+000 2.619571e+000 2.080396e+000 1.841060e+000 5.816497e-001
<GCONST> 9.243973e+001
<TRANSP> 5
 0.000000e+000 1.000000e+000 0.000000e+000 0.000000e+000 0.000000e+000
 0.000000e+000 6.848505e-001 3.151496e-001 0.000000e+000 0.000000e+000
 0.000000e+000 0.000000e+000 5.861098e-001 4.138902e-001 0.000000e+000
 0.000000e+000 0.000000e+000 0.000000e+000 6.606840e-001 3.393160e-001
 0.000000e+000 0.000000e+000 0.000000e+000 0.000000e+000 0.000000e+000
<ENDHMM>
~h "i:"
<BEGINHMM>
<NUMSTATES> 5
<STATE> 2
<MEAN> 25
 -6.918403e-001 6.172422e-002 1.179745e+001 2.118596e-001 -9.770505e+000 -7.572308e-001 -3.374396e+000 -3.586099e+000 -7.119823e+000 3.272362e-001 3.500353e+000 -4.235916e-001 1.405620e-001 1.517155e-001 1.922944e+000 -6.069230e-001 -1.722521e+000 9.439944e-001 -6.561590e-001 -6.205542e-001 -1.619868e+000 6.001641e-001 7.939883e-001 -8.114626e-001 9.640534e-001
<VARIANCE> 25
 1.122795e+001 2.086443e+001 2.300632e+001 2.477945e+001 2.342622e+001 5.596455e+001 2.686430e+001 2.991952e+001 2.785292e+001 1.893476e+001 2.735189e+001 1.590533e+001 2.418600e+000 1.835148e+000 2.774272e+000 3.286701e+000 3.306198e+000 3.748263e+000 4.210795e+000 2.708614e+000 3.707630e+000 2.056614e+000 2.594903e+000 1.881664e+000 2.442002e+000
<GCONST> 9.712217e+001
<STATE> 3
<MEAN> 25
 -1.812442e-001 1.251752e+000 1.421851e+001 -9.775085e-001 -1.076340e+001 3.479926e+000 -4.235318e+000 -4.745120e+000 -8.530352e+000 1.709964e+000 3.329344e+000 -2.307741e+000 1.799836e-001 4.160466e-001 -3.967644e-001 5.180453e-001 6.714670e-001 -1.831403e-001 4.704621e-001 3.263368e-001 1.558700e-001 -1.645353e-001 -2.140901e-001 9.013413e-002 -4.418151e-001
<VARIANCE> 25
 7.022248e+000 1.651557e+001 1.425094e+001 2.735670e+001 1.856559e+001 5.926353e+001 2.045357e+001 2.294595e+001 2.441955e+001 1.779730e+001 2.828422e+001 1.424251e+001 9.431730e-001 2.057697e+000 1.369279e+000 1.687404e+000 2.147698e+000 3.116229e+000 2.319103e+000 2.203492e+000 2.277256e+000 1.478016e+000 1.956102e+000 1.521081e+000 1.303608e+000
<GCONST> 8.949565e+001
<STATE> 4
<MEAN> 25
 9.411592e-002 3.248674e+000 1.037171e+001 3.032133e+000 -5.873373e+000 -1.656066e+000 -8.792445e-001 -2.340302e+000 -6.094850e+000 -6.318215e-001 2.124784e+000 1.304229e-001 -6.516365e-001 7.304417e-001 -1.754428e+000 8.796684e-001 2.445280e+000 -9.240431e-001 8.071479e-001 4.246049e-001 1.607376e+000 -6.240210e-001 -9.845461e-001 1.068486e+000 -8.039047e-001
<VARIANCE> 25
 1.729478e+001 2.791526e+001 1.780048e+001 2.120338e+001 2.738868e+001 5.046880e+001 3.464860e+001 2.713102e+001 2.943064e+001 2.012731e+001 2.613440e+001 2.061991e+001 3.159692e+000 3.409786e+000 1.830241e+000 2.942741e+000 2.861547e+000 3.954707e+000 3.588998e+000 3.276057e+000 3.071745e+000 2.397342e+000 2.312636e+000 2.539996e+000 1.672207e+000
<GCONST> 9.804393e+001
<TRANSP> 5
 0.000000e+000 1.000000e+000 0.000000e+000 0.000000e+000 0.000000e+000
 0.000000e+000 6.454517e-001 3.545483e-001 0.000000e+000 0.000000e+000
 0.000000e+000 0.000000e+000 6.687607e-001 3.312394e-001 0.000000e+000
 0.000000e+000 0.000000e+000 0.000000e+000 5.748267e-001 4.251734e-001
 0.000000e+000 0.000000e+000 0.000000e+000 0.000000e+000 0.000000e+000
<ENDHMM>
~h "o:"
<BEGINHMM>
<NUMSTATES> 5
<STATE> 2
<MEAN> 25
 5.721436e+000 -8.462657e-001 -7.733955e+000 -1.035509e+001 -3.782285e+000 9.465053e+000 -2.938710e-001 -2.881632e+000 -8.946676e-001 -7.095370e-001 4.130263e+000 -3.250407e-001 8.107702e-001 -6.587763e-003 -2.641861e-001 -1.707857e+000 -8.897872e-001 1.618585e+000 2.037576e-001 -1.974977e-001 -2.718220e-001 2.373421e-001 9.691610e-001 -3.150955e-001 1.097855e+000
<VARIANCE> 25
 1.173816e+001 2.565825e+001 1.709968e+001 3.861747e+001 4.218225e+001 3.606286e+001 4.307718e+001 2.945791e+001 3.167458e+001 2.950151e+001 2.884149e+001 2.592736e+001 1.898586e+000 2.252763e+000 2.450353e+000 4.343543e+000 3.511922e+000 3.469978e+000 3.399551e+000 2.949133e+000 2.756488e+000 2.935758e+000 2.522441e+000 2.278504e+000 2.634802e+000
<GCONST> 9.950982e+001
<STATE> 3
<MEAN> 25
 6.279635e+000 -1.755746e+000 -7.087134e+000 -1.104907e+001 -3.562807e+000 1.185476e+001 -6.302139e-001 -3.844774e+000 -1.721875e+000 1.058881e+000 6.467153e+000 -1.036032e+000 9.580709e-002 -9.097308e-002 5.048109e-001 8.048048e-001 7.168576e-001 -4.458916e-001 -5.876932e-001 2.754007e-002 4.421566e-002 7.198786e-001 1.905517e-001 -4.577998e-001 -1.464324e-001
<VARIANCE> 25
 7.151963e+000 1.722862e+001 1.371886e+001 2.590673e+001 3.142202e+001 2.964754e+001 3.867530e+001 2.458661e+001 2.789581e+001 3.174956e+001 2.732833e+001 2.258616e+001 6.771371e-001 2.159642e+000 1.341394e+000 2.644089e+000 2.644687e+000 2.644338e+000 3.670094e+000 2.187283e+000 2.563987e+000 2.643071e+000 2.251574e+000 2.448606e+000 1.935009e+000
<GCONST> 9.349478e+001
<STATE> 4
<MEAN> 25
 6.280325e+000 -7.968426e-001 -4.220131e+000 -6.172792e+000 7.101143e-002 6.802088e+000 -3.543694e+000 -2.161588e+000 2.000979e-001 3.377760e+000 4.851323e+000 -2.749524e+000 -6.958604e-001 8.967990e-001 1.299017e+000 1.834825e+000 8.085986e-001 -1.978731e+000 2.245521e-001 9.558377e-001 1.003705e+000 -3.012972e-001 -1.352849e+000 1.561088e-001 -1.250714e+000
<VARIANCE> 25
 8.643804e+000 3.342442e+001 1.918691e+001 3.120718e+001 2.933671e+001 3.726995e+001 6.423903e+001 2.964530e+001 3.033741e+001 3.583836e+001 3.343588e+001 2.779376e+001 2.270429e+000 3.000583e+000 1.749882e+000 2.480549e+000 2.961466e+000 3.054995e+000 4.766562e+000 3.202424e+000 3.242840e+000 2.932825e+000 2.489248e+000 2.956580e+000 2.149328e+000
<GCONST> 9.971110e+001
<TRANSP> 5
 0.000000e+000 1.000000e+000 0.000000e+000 0.000000e+000 0.000000e+000
 0.000000e+000 6.398080e-001 3.601919e-001 0.000000e+000 0.000000e+000
 0.000000e+000 0.000000e+000 6.345901e-001 3.654098e-001 0.000000e+000
 0.000000e+000 0.000000e+000 0.000000e+000 6.141330e-001 3.858670e-001
 0.000000e+000 0.000000e+000 0.000000e+000 0.000000e+000 0.000000e+000
<ENDHMM>
~h "r:"
<BEGINHMM>
<NUMSTATES> 5
<STATE> 2
<MEAN> 25
 3.335975e+000 -5.925833e+000 -3.273729e+000 -1.215224e-001 -6.732893e-001 -6.834911e+000 -4.346533e+000 5.497971e-001 3.751840e+000 3.008934e+000 1.067681e+000 -1.690488e+000 1.581560e+000 -1.812153e-001 1.164650e+000 1.267856e+000 -5.507489e-001 -3.691844e-001 -2.852711e-001 -1.532764e-001 1.287084e-001 8.829038e-001 7.898590e-001 -8.204638e-001 2.206603e-001
<VARIANCE> 25
 1.091619e+001 1.143949e+001 1.633310e+001 1.685918e+001 1.812162e+001 2.829578e+001 2.146894e+001 1.994996e+001 1.948518e+001 1.728172e+001 1.685904e+001 1.702436e+001 2.080263e+000 1.933317e+000 2.597949e+000 2.459922e+000 2.252527e+000 2.873161e+000 3.488152e+000 2.948749e+000 2.503977e+000 2.169862e+000 2.324215e+000 1.924259e+000 2.159052e+000
<GCONST> 9.157576e+001
<STATE> 3
<MEAN> 25
 4.634236e+000 -6.058153e+000 -1.368236e+000 3.344793e+000 -1.298311e+000 -6.721340e+000 -3.176033e+000 -1.475622e+000 4.026594e+000 4.343800e+000 2.275234e+000 -2.204572e+000 2.525922e-001 3.081525e-001 5.809514e-001 5.157237e-001 -2.201056e-001 4.480674e-001 3.526871e-002 -6.351092e-001 -1.239084e-001 -6.788525e-003 1.244393e-001 8.148620e-002 -6.582831e-001
<VARIANCE> 25
 9.881814e+000 1.680523e+001 1.898698e+001 1.812459e+001 1.607672e+001 2.761688e+001 2.507926e+001 2.498712e+001 2.268814e+001 1.957831e+001 1.867327e+001 1.955293e+001 1.075103e+000 1.849449e+000 2.128330e+000 3.032054e+000 1.499591e+000 3.366562e+000 2.496891e+000 2.546977e+000 2.187970e+000 1.816925e+000 2.214649e+000 1.521811e+000 1.536672e+000
<GCONST> 9.047868e+001
<STATE> 4
<MEAN> 25
 4.840701e+000 -3.579370e+000 -9.088849e-001 2.634977e+000 -1.274578e+000 -3.699775e+000 -3.342232e+000 -2.426109e+000 3.377644e+000 3.352493e+000 2.350002e+000 -1.429123e+000 -1.260257e-001 1.317974e+000 3.724066e-001 -2.103865e-001 1.249602e-001 1.486665e+000 2.926116e-001 -4.409972e-001 -5.866874e-001 -5.794081e-001 1.157980e-001 3.965196e-001 -1.108244e+000
<VARIANCE> 25
 2.032615e+001 3.023031e+001 2.877738e+001 1.980589e+001 2.077860e+001 2.997923e+001 2.613182e+001 3.014791e+001 3.152729e+001 2.296840e+001 2.446516e+001 2.130024e+001 1.942363e+000 2.537316e+000 1.682901e+000 2.305083e+000 1.881144e+000 3.706162e+000 2.655673e+000 2.644810e+000 3.058565e+000 1.806364e+000 3.064048e+000 1.728796e+000 1.503422e+000
<GCONST> 9.528388e+001
<TRANSP> 5
 0.000000e+000 1.000000e+000 0.000000e+000 0.000000e+000 0.000000e+000
 0.000000e+000 5.219815e-001 4.780185e-001 0.000000e+000 0.000000e+000
 0.000000e+000 0.000000e+000 5.237823e-001 4.762177e-001 0.000000e+000
 0.000000e+000 0.000000e+000 0.000000e+000 4.930547e-001 5.069453e-001
 0.000000e+000 0.000000e+000 0.000000e+000 0.000000e+000 0.000000e+000
<ENDHMM>
~h "u:"
<BEGINHMM>
<NUMSTATES> 5
<STATE> 2
<MEAN> 25
 5.160879e+000 2.067843e+000 -2.524490e+000 -6.097875e+000 -3.162494e+000 5.675059e+000 -8.052232e+000 -5.791304e+000 -1.453818e+000 -1.725008e+000 5.098886e+000 -8.322016e-001 1.677587e+000 9.644361e-001 -5.786721e-002 -2.543362e+000 -9.957173e-001 2.250864e+000 -1.917854e-001 -8.299032e-001 -1.377418e+000 -5.617596e-001 1.501839e+000 -4.272594e-001 5.215425e-001
<VARIANCE> 25
 1.629185e+001 3.952349e+001 2.081525e+001 5.532709e+001 3.362188e+001 4.679564e+001 6.173288e+001 4.337511e+001 3.537867e+001 3.359898e+001 4.576467e+001 2.717596e+001 3.213967e+000 3.123584e+000 3.568248e+000 3.942135e+000 4.695156e+000 4.200152e+000 6.037159e+000 5.719879e+000 5.706867e+000 3.821515e+000 4.312896e+000 3.023869e+000 2.240790e+000
<GCONST> 1.068547e+002
<STATE> 3
<MEAN> 25
 7.654218e+000 4.068105e+000 -1.616500e+000 -1.114332e+001 -5.809156e+000 1.131545e+001 -5.327799e+000 -4.748629e+000 -3.911467e+000 -4.720278e+000 6.438538e+000 -1.140647e+000 1.433588e-001 6.567118e-002 1.727131e-001 4.855971e-001 1.705864e-001 2.532144e-001 4.998935e-001 -1.303350e-001 2.208466e-001 -4.991190e-002 -2.190880e-001 -1.661230e-002 -2.907842e-001
<VARIANCE> 25
 6.529176e+000 2.676915e+001 1.510989e+001 3.295592e+001 3.067016e+001 3.635811e+001 4.469560e+001 4.247752e+001 3.482445e+001 3.210063e+001 4.511581e+001 2.942573e+001 6.219144e-001 3.009411e+000 1.366251e+000 4.435362e+000 3.255872e+000 3.336495e+000 5.216379e+000 4.504315e+000 3.337775e+000 3.770709e+000 4.481861e+000 2.683907e+000 1.495466e+000
<GCONST> 9.948984e+001
<STATE> 4
<MEAN> 25
 6.662996e+000 3.692478e+000 -7.633313e-001 -4.016293e+000 -1.840512e+000 7.508717e+000 -4.455804e+000 -5.865822e+000 -5.658584e-001 -1.965032e+000 4.026426e+000 -4.641115e-001 -9.586355e-001 1.208668e-001 4.969592e-001 2.361945e+000 1.297406e+000 -1.972936e+000 1.153942e+000 5.282272e-001 9.920147e-001 5.182034e-001 -1.672936e+000 4.883237e-001 -9.266387e-001
<VARIANCE> 25
 1.043089e+001 3.999652e+001 2.277601e+001 3.918354e+001 3.610299e+001 4.097713e+001 7.534336e+001 5.366312e+001 3.300117e+001 3.437740e+001 4.415228e+001 3.414171e+001 1.902517e+000 3.256445e+000 1.960775e+000 3.506346e+000 4.223442e+000 4.534956e+000 5.423800e+000 4.866442e+000 4.227911e+000 3.788138e+000 3.734940e+000 3.128422e+000 2.227914e+000
<GCONST> 1.047410e+002
<TRANSP> 5
 0.000000e+000 1.000000e+000 0.000000e+000 0.000000e+000 0.000000e+000
 0.000000e+000 6.185299e-001 3.814702e-001 0.000000e+000 0.000000e+000
 0.000000e+000 0.000000e+000 6.900935e-001 3.099065e-001 0.000000e+000
 0.000000e+000 0.000000e+000 0.000000e+000 6.303228e-001 3.696773e-001
 0.000000e+000 0.000000e+000 0.000000e+000 0.000000e+000 0.000000e+000
<ENDHMM>
~h "sil"
<BEGINHMM>
<NUMSTATES> 5
<STATE> 2
<MEAN> 25
 -2.082883e+000 2.225994e+000 -1.658740e+000 1.903129e+000 2.034408e+000 1.646604e+000 5.201443e+000 7.396300e-001 3.290148e+000 -2.116797e+000 -2.050032e+000 1.913053e+000 -3.131971e-001 -8.753464e-002 9.614276e-003 -3.955095e-002 2.717481e-002 -1.018115e-002 -6.314638e-002 2.214645e-003 7.280847e-002 -3.591177e-002 1.622379e-001 2.097165e-001 -2.589294e-001
<VARIANCE> 25
 1.838494e+001 2.720908e+001 2.200582e+001 1.798746e+001 2.448452e+001 2.407444e+001 2.578652e+001 2.871981e+001 2.647345e+001 2.197042e+001 2.442701e+001 2.168335e+001 8.287708e-001 1.451708e+000 1.161909e+000 1.217980e+000 1.577726e+000 1.774170e+000 1.928486e+000 2.054538e+000 2.031515e+000 1.855445e+000 1.790751e+000 1.697769e+000 1.356451e+000
<GCONST> 8.944971e+001
<STATE> 3
<MEAN> 25
 -2.465404e+000 1.600949e-001 -1.641859e+000 6.715914e-001 8.762486e-001 6.627222e-001 3.263643e+000 -1.664819e-001 1.561174e+000 -2.186015e+000 -1.520895e+000 1.795106e+000 -4.781553e-002 -7.165036e-002 1.255264e-001 -1.067242e-001 -1.305830e-001 -1.665993e-001 -2.090032e-001 -8.108821e-002 -7.441953e-002 -1.817963e-003 1.683581e-001 -4.620223e-002 2.631662e-001
<VARIANCE> 25
 3.040391e+001 3.688716e+001 3.805625e+001 2.653851e+001 3.586021e+001 3.766863e+001 3.736642e+001 3.574646e+001 3.651184e+001 2.767377e+001 2.881404e+001 2.882662e+001 1.935971e+000 3.366743e+000 2.377530e+000 2.263116e+000 2.765384e+000 3.091119e+000 3.306781e+000 3.244045e+000 3.509989e+000 2.676613e+000 2.422964e+000 2.379674e+000 4.373523e+000
<GCONST> 1.014765e+002
<STATE> 4
<MEAN> 25
 -5.204771e+000 -3.039798e+000 7.309822e-002 -2.527387e-001 6.102676e-001 7.710218e-001 2.807585e+000 1.144249e+000 1.282889e+000 -1.465036e+000 -7.418971e-001 3.597047e+000 -6.417390e-003 -1.697563e-002 -3.319175e-002 -2.097967e-002 -1.736333e-002 4.137513e-002 -7.499679e-002 -2.651688e-002 1.829664e-002 5.451057e-003 -2.406493e-002 -1.771108e-002 1.050185e-002
