~o
<STREAMINFO> 1 25
<VECSIZE> 25<NULLD><MFCC_D_N_Z_0><DIAGC>
~s "silst"
<MEAN> 25
 -2.667887e+000 1.547421e+000 -7.105909e-001 1.006488e+000 1.036722e+000 -1.392321e-001 3.202616e+000 1.135388e+000 3.208523e+000 -1.029851e+000 -1.509507e+000 2.328747e+000 -1.883997e-001 3.418324e-002 3.559659e-002 1.941651e-002 -2.497043e-002 1.063880e-001 -3.578381e-002 -1.159946e-001 -1.998233e-002 -7.310072e-003 -2.229041e-002 3.851657e-002 -3.631295e-001
<VARIANCE> 25
 2.325777e+001 4.287689e+001 2.524983e+001 1.999726e+001 2.759798e+001 3.427967e+001 3.299335e+001 3.045789e+001 2.755083e+001 2.564323e+001 2.503537e+001 2.371005e+001 1.660314e+000 2.365349e+000 1.732962e+000 1.622634e+000 2.162078e+000 2.531742e+000 2.785841e+000 2.658223e+000 2.380127e+000 2.222701e+000 2.016825e+000 1.943437e+000 2.661082e+000
<GCONST> 9.590235e+001
~h "C"
<BEGINHMM>
<NUMSTATES> 5
<STATE> 2
<MEAN> 25
 -5.867102e+000 -1.447607e+000 1.049129e+000 4.425792e+000 -4.410364e+000 2.969999e+000 2.985201e+000 -1.965597e+000 4.306896e+000 -1.873932e+000 3.007093e-002 2.656032e+000 -4.585536e+000 -1.124723e+000 -9.701400e-001 1.390196e-001 -8.139689e-001 7.174347e-001 -4.882358e-001 -4.577241e-001 7.572808e-001 -1.042625e+000 2.286930e-001 1.191537e+000 2.784483e+000
<VARIANCE> 25
 5.090475e+001 4.678595e+001 3.260682e+001 2.690276e+001 2.936459e+001 3.816158e+001 3.280402e+001 3.555183e+001 2.560312e+001 2.365133e+001 2.798626e+001 2.269368e+001 2.368698e+000 4.967371e+000 3.039345e+000 2.192189e+000 3.596432e+000 3.894358e+000 4.562398e+000 4.834641e+000 4.154149e+000 3.290250e+000 3.185808e+000 2.579715e+000 2.695288e+000
<GCONST> 1.032502e+002
<STATE> 3
<MEAN> 25
 -1.777517e+001 1.151109e+000 7.986527e-001 4.349495e+000 -2.542251e+000 2.747225e+000 -1.306075e+000 3.343714e-001 9.812871e+000 -5.537391e+000 -1.285414e+000 4.365608e+000 1.138384e-001 2.319721e-001 -4.913413e-002 -4.928329e-002 7.700606e-001 -9.198658e-001 -8.771448e-001 7.892731e-001 5.701550e-001 -7.212999e-001 -6.681146e-002 -1.992892e-001 -6.300889e-001
<VARIANCE> 25
 1.266332e+001 1.757706e+001 2.033424e+001 2.347473e+001 2.854535e+001 3.287641e+001 3.737173e+001 4.937678e+001 4.332661e+001 3.417015e+001 2.833616e+001 2.997832e+001 5.694764e+000 2.897334e+000 2.019031e+000 1.624151e+000 2.488892e+000 3.504985e+000 3.738632e+000 5.084569e+000 4.904969e+000 2.902795e+000 2.274423e+000 2.172357e+000 1.601557e+000
<GCONST> 9.975617e+001
<STATE> 4
<MEAN> 25
 -7.800466e+000 -1.746049e+000 -1.815734e-001 3.233391e+000 -3.358163e+000 -2.377026e+000 -3.074540e+000 1.163393e+000 5.598145e+000 -5.882558e+000 8.443590e-001 2.504851e+000 4.691555e+000 -8.781366e-001 2.277796e-001 -7.162051e-001 -2.129335e-001 -1.447118e+000 -4.618175e-001 -4.689315e-001 -2.063198e+000 1.439156e+000 8.171746e-001 -1.303386e+000 4.025243e-001
<VARIANCE> 25
 4.772594e+001 1.707196e+001 2.102733e+001 2.097831e+001 3.566188e+001 3.680178e+001 3.223227e+001 5.165917e+001 5.288479e+001 3.001969e+001 2.321615e+001 2.429658e+001 2.116415e+000 1.938593e+000 2.443330e+000 1.961128e+000 2.259459e+000 4.613791e+000 3.447094e+000 3.597045e+000 3.223763e+000 2.920000e+000 2.644172e+000 2.021476e+000 2.131373e+000
<GCONST> 9.955704e+001
<TRANSP> 5
 0.000000e+000 1.000000e+000 0.000000e+000 0.000000e+000 0.000000e+000
 0.000000e+000 6.677283e-001 3.322717e-001 0.000000e+000 0.000000e+000
 0.000000e+000 0.000000e+000 6.625620e-001 3.374380e-001 0.000000e+000
 0.000000e+000 0.000000e+000 0.000000e+000 5.659289e-001 4.340711e-001
 0.000000e+000 0.000000e+000 0.000000e+000 0.000000e+000 0.000000e+000
<ENDHMM>
~h "L"
<BEGINHMM>
<NUMSTATES> 5
<STATE> 2
<MEAN> 25
 1.794004e+000 -6.998969e-001 7.975450e+000 2.669114e+000 -3.572447e+000 -4.446001e+000 -2.284750e+000 6.186192e-001 -3.104891e+000 -2.148871e+000 2.838247e-001 2.450074e+000 -2.055809e-001 6.588014e-001 1.749100e+000 6.137017e-002 -5.034271e-001 1.297538e-002 -3.133686e-003 -9.013916e-002 -1.409321e+000 -6.486723e-001 1.414581e-001 2.615661e-001 -2.353677e-001
<VARIANCE> 25
 1.380669e+001 2.428276e+001 1.999527e+001 2.271006e+001 2.018554e+001 2.517574e+001 3.332794e+001 2.717328e+001 3.220419e+001 2.348849e+001 2.425894e+001 1.715990e+001 1.624699e+000 2.098166e+000 2.670904e+000 2.325604e+000 2.460880e+000 2.667482e+000 3.529724e+000 3.410956e+000 3.128536e+000 2.347716e+000 2.202309e+000 1.815346e+000 1.675646e+000
<GCONST> 9.489823e+001
<STATE> 3
<MEAN> 25
 4.640673e-001 5.243332e-001 1.046433e+001 1.186519e+000 -4.127128e+000 -3.447657e+000 -3.234492e+000 2.711024e-002 -6.427314e+000 -2.085584e+000 1.782468e+000 3.255384e+000 -7.940082e-002 -7.463041e-001 -1.418139e-001 -8.267005e-001 -1.056701e+000 4.188231e-002 -6.659930e-001 5.292591e-001 -1.739157e-002 6.021179e-001 8.485147e-001 3.566085e-001 1.103277e+000
<VARIANCE> 25
 7.736958e+000 1.744088e+001 1.564619e+001 1.975772e+001 2.232772e+001 2.421778e+001 2.467399e+001 2.279699e+001 2.074241e+001 1.994382e+001 2.003142e+001 1.572530e+001 1.339970e+000 1.575918e+000 1.769884e+000 2.146997e+000 1.952083e+000 2.152553e+000 3.303076e+000 2.582180e+000 2.743851e+000 1.693335e+000 1.766177e+000 1.919795e+000 8.700843e-001
<GCONST> 8.926793e+001
<STATE> 4
<MEAN> 25
 1.510065e+000 -2.756712e+000 6.847009e+000 3.946725e-001 -6.669641e+000 -4.317298e+000 -3.612508e+000 3.089325e+000 -3.488229e+000 -6.557041e-001 3.073865e+000 2.845882e+000 5.177738e-001 -5.673394e-001 -1.602808e+000 -5.518256e-002 2.011772e-001 3.188212e-001 -8.447609e-003 6.629346e-001 7.620698e-001 4.813698e-001 -6.481832e-003 -9.063703e-001 4.710719e-001
<VARIANCE> 25
 5.992641e+000 1.373994e+001 1.932831e+001 2.104383e+001 1.731306e+001 2.571176e+001 4.420259e+001 2.217411e+001 2.000764e+001 1.967101e+001 1.800612e+001 1.417206e+001 6.959864e-001 1.409028e+000 2.035647e+000 1.443960e+000 2.435114e+000 2.144530e+000 4.716788e+000 2.876840e+000 2.280946e+000 2.040861e+000 2.520162e+000 1.893741e+000 7.386698e-001
<GCONST> 8.898666e+001
<TRANSP> 5
 0.000000e+000 1.000000e+000 0.000000e+000 0.000000e+000 0.000000e+000
 0.000000e+000 5.379176e-001 4.620824e-001 0.000000e+000 0.000000e+000
 0.000000e+000 0.000000e+000 4.974276e-001 5.025724e-001 0.000000e+000
 0.000000e+000 0.000000e+000 0.000000e+000 5.118285e-001 4.881715e-001
 0.000000e+000 0.000000e+000 0.000000e+000 0.000000e+000 0.000000e+000
<ENDHMM>
~h "N"
<BEGINHMM>
<NUMSTATES> 5
<STATE> 2
<MEAN> 25
 3.656081e+000 2.426407e+000 4.742536e+000 8.753413e-001 2.828048e-002 2.247489e+000 1.906076e+000 4.634083e-001 -4.974750e+000 -1.717258e+000 -4.530520e+000 -3.101662e-001 4.319625e-001 1.499142e+000 7.315308e-001 5.004466e-002 3.717709e-001 3.915613e-001 -6.332291e-001 -9.334417e-001 -3.689412e-001 1.147829e-001 -2.038375e-001 1.154461e-001 -8.205658e-001
<VARIANCE> 25
 1.493356e+001 2.955261e+001 1.694163e+001 2.346576e+001 2.219275e+001 2.786462e+001 2.940482e+001 3.486899e+001 2.252920e+001 2.228639e+001 2.197379e+001 1.593191e+001 1.995781e+000 2.165474e+000 2.324079e+000 2.606589e+000 2.337880e+000 2.669532e+000 2.428669e+000 2.598099e+000 2.948320e+000 1.805457e+000 1.704488e+000 1.587967e+000 2.274409e+000
<GCONST> 9.388667e+001
<STATE> 3
<MEAN> 25
 1.466702e+000 4.911410e+000 8.656640e+000 -2.228035e+000 -2.842640e-001 5.966510e+000 -9.563626e-001 -2.741586e+000 -6.018282e+000 1.411823e-002 -3.122213e+000 -8.397351e-001 -7.337337e-001 -1.161543e+000 1.406716e+000 -1.506398e+000 -1.575887e+000 1.305953e+000 5.834613e-001 5.454140e-001 -8.027437e-001 7.499997e-001 5.773018e-001 -6.830929e-001 1.549480e+000
<VARIANCE> 25
 1.125847e+001 1.904956e+001 1.812993e+001 2.289780e+001 2.308501e+001 2.927966e+001 2.275227e+001 2.070538e+001 1.740051e+001 1.724751e+001 1.661419e+001 1.288770e+001 2.156672e+000 1.738633e+000 1.555095e+000 2.019758e+000 2.088897e+000 2.746988e+000 2.146544e+000 2.430140e+000 1.941762e+000 1.828253e+000 1.829274e+000 1.388636e+000 9.392543e-001
<GCONST> 8.908719e+001
<STATE> 4
<MEAN> 25
 9.211528e-001 -5.108098e-001 8.425379e+000 -2.521886e+000 -4.989729e+000 5.413479e+000 3.967921e+000 1.104257e+000 -6.246428e+000 -2.173034e-001 -1.928799e+000 -2.268573e+000 3.216046e-001 -1.114110e+000 -9.308433e-001 8.057945e-001 -8.594063e-002 -1.028569e+000 9.175424e-001 1.162943e+000 4.053261e-001 -4.713626e-001 6.710564e-002 -1.537051e-001 3.405547e-001
<VARIANCE> 25
 7.018411e+000 1.919587e+001 1.716969e+001 2.004173e+001 1.798394e+001 2.669147e+001 2.838536e+001 2.440628e+001 1.767607e+001 2.242656e+001 2.324032e+001 1.199288e+001 5.787141e-001 1.505797e+000 1.675765e+000 1.499404e+000 2.622921e+000 1.900246e+000 2.708574e+000 2.131195e+000 1.953261e+000 1.857984e+000 1.692614e+000 1.063223e+000 9.597052e-001
<GCONST> 8.699685e+001
<TRANSP> 5
 0.000000e+000 1.000000e+000 0.000000e+000 0.000000e+000 0.000000e+000
 0.000000e+000 6.866956e-001 3.133045e-001 0.000000e+000 0.000000e+000
 0.000000e+000 0.000000e+000 5.634530e-001 4.365470e-001 0.000000e+000
 0.000000e+000 0.000000e+000 0.000000e+000 6.416672e-001 3.583328e-001
 0.000000e+000 0.000000e+000 0.000000e+000 0.000000e+000 0.000000e+000
<ENDHMM>
~h "S"
<BEGINHMM>
<NUMSTATES> 5
<STATE> 2
<MEAN> 25
 -7.075115e+000 -1.119985e+000 4.838368e+000 7.268004e+000 -8.163490e-002 3.247781e-001 7.392605e-002 -2.083804e+000 7.612324e+000 -1.357713e+000 -4.121502e-001 1.638103e+000 -4.648183e+000 -1.148460e-001 7.495623e-001 1.349415e+000 7.364305e-001 2.707036e-001 5.769655e-001 -1.691000e-001 2.647285e+000 -9.555593e-003 -9.986284e-001 2.422846e-002 9.895937e-001
<VARIANCE> 25
 4.095612e+001 1.844534e+001 3.297734e+001 2.547667e+001 4.362964e+001 3.369968e+001 4.524105e+001 4.679108e+001 3.339021e+001 3.279403e+001 4.639756e+001 4.013571e+001 1.484811e+000 3.010411e+000 3.166663e+000 2.479893e+000 3.981209e+000 4.715487e+000 3.360381e+000 3.255889e+000 4.232604e+000 2.808917e+000 3.663473e+000 3.450574e+000 1.131616e+000
<GCONST> 1.028062e+002
<STATE> 3
<MEAN> 25
 -1.743797e+001 -3.302562e+000 4.460412e+000 6.841156e+000 6.461796e-002 2.127478e+000 6.981675e-002 -3.668646e+000 1.195761e+001 -7.066640e-001 -3.111339e+000 4.852216e-001 -5.241409e-001 -2.354697e-001 -6.353246e-001 -6.020111e-001 8.254865e-002 4.882455e-001 -4.109881e-001 -1.921174e-003 3.867109e-001 -1.187656e-001 -2.930896e-001 1.651340e-001 -5.940766e-001
<VARIANCE> 25
 8.590311e+000 2.463390e+001 1.522393e+001 2.047438e+001 2.964009e+001 3.543699e+001 3.886242e+001 3.910703e+001 3.016270e+001 3.669376e+001 3.929414e+001 3.675951e+001 2.626147e+000 1.505150e+000 1.114171e+000 1.372074e+000 2.176917e+000 2.206943e+000 2.831937e+000 3.657328e+000 2.758489e+000 2.639247e+000 2.485295e+000 2.686261e+000 5.172260e-001
<GCONST> 9.454213e+001
<STATE> 4
<MEAN> 25
 -9.817093e+000 -2.372302e+000 9.486849e-001 2.961737e+000 -4.643143e-001 2.010539e+000 -3.031150e+000 -1.952946e+000 9.374600e+000 -2.546408e+000 -1.887052e+000 2.241929e+000 3.734167e+000 3.599521e-001 -4.664220e-001 -1.213498e+000 -6.744499e-001 -1.150869e+000 -5.768074e-002 2.344281e-001 -2.048518e+000 -4.903389e-002 1.059687e+000 -1.853810e-001 -7.738829e-001
<VARIANCE> 25
 5.025483e+001 3.228488e+001 2.067212e+001 2.132584e+001 3.526474e+001 3.979793e+001 4.112144e+001 5.360894e+001 4.271935e+001 3.519079e+001 3.528497e+001 2.828817e+001 4.479920e+000 1.542906e+000 2.070961e+000 1.612009e+000 2.301958e+000 4.234620e+000 3.339217e+000 3.421454e+000 3.864560e+000 3.051480e+000 3.461582e+000 2.619468e+000 3.363338e+000
<GCONST> 1.023303e+002
<TRANSP> 5
 0.000000e+000 1.000000e+000 0.000000e+000 0.000000e+000 0.000000e+000
 0.000000e+000 6.336892e-001 3.663108e-001 0.000000e+000 0.000000e+000
 0.000000e+000 0.000000e+000 7.691944e-001 2.308056e-001 0.000000e+000
 0.000000e+000 0.000000e+000 0.000000e+000 6.717981e-001 3.282018e-001
 0.000000e+000 0.000000e+000 0.000000e+000 0.000000e+000 0.000000e+000
<ENDHMM>
~h "Z"
<BEGINHMM>
<NUMSTATES> 5
<STATE> 2
<MEAN> 25
 -2.566292e+000 2.810318e-001 2.169025e+000 2.626424e+000 1.942649e+000 -3.283152e+000 3.674743e-001 -1.065212e+001 4.935529e+000 1.974656e+000 2.492369e+000 1.948224e+000 -3.537148e+000 1.541089e+000 1.663726e+000 1.071627e+000 5.171474e-001 -7.927181e-001 1.567603e+000 -6.643460e-001 1.511156e+000 -3.350612e-001 -7.884566e-001 -8.005843e-002 2.947937e-001
<VARIANCE> 25
 2.366922e+001 1.238718e+001 2.292063e+001 2.424963e+001 6.007585e+001 3.429993e+001 3.131053e+001 5.281360e+001 4.264304e+001 2.272351e+001 3.191038e+001 3.196644e+001 1.172739e+000 1.795362e+000 1.941736e+000 1.978798e+000 5.675408e+000 7.316245e+000 3.494998e+000 4.475329e+000 3.516128e+000 2.555513e+000 2.674887e+000 2.884952e+000 5.165216e-001
<GCONST> 9.893872e+001
<STATE> 3
<MEAN> 25
 -1.135475e+001 2.665096e+000 7.227074e+000 5.223155e+000 -1.706905e+000 -7.972511e-001 1.534019e+000 -9.227436e+000 8.761377e+000 3.927705e-002 -4.409424e-001 -5.016658e-001 -6.910112e-001 2.266820e-001 1.016529e-001 -1.938999e-002 -2.629632e-001 7.552118e-001 -4.732455e-001 -8.164907e-002 2.958571e-001 -6.132780e-001 -5.656874e-001 1.328304e-001 -2.655484e-001
<VARIANCE> 25
 1.532665e+001 1.302116e+001 1.922176e+001 1.885995e+001 4.044501e+001 3.974592e+001 3.543827e+001 4.042637e+001 3.505467e+001 2.517716e+001 3.317184e+001 2.506488e+001 3.292202e+000 9.745494e-001 1.648280e+000 1.493348e+000 2.352566e+000 2.276306e+000 3.441843e+000 2.647246e+000 2.753787e+000 2.178366e+000 2.227138e+000 2.525213e+000 4.608802e-001
<GCONST> 9.399001e+001
<STATE> 4
<MEAN> 25
 -5.079246e+000 5.466118e-001 3.069116e+000 2.750969e+000 -1.933744e+000 -2.249277e-001 -4.106555e+000 -8.177739e+000 7.703494e+000 -1.774791e+000 -4.919778e-001 1.608535e+000 3.403945e+000 -1.411966e+000 -1.490676e+000 -6.255726e-001 -1.735451e-001 -5.322525e-001 -1.065436e+000 1.318145e+000 -1.518732e+000 7.134860e-002 6.829714e-001 -1.293902e-001 -8.771447e-002
<VARIANCE> 25
 3.723819e+001 2.098245e+001 2.649290e+001 2.075525e+001 3.040698e+001 3.145592e+001 3.470225e+001 4.505445e+001 3.536556e+001 2.811206e+001 2.601414e+001 2.689372e+001 1.772022e+000 1.593861e+000 2.286451e+000 1.642152e+000 1.861701e+000 3.631964e+000 3.143009e+000 4.250970e+000 3.669585e+000 2.202893e+000 3.368909e+000 2.492018e+000 7.080075e-001
<GCONST> 9.732514e+001
<TRANSP> 5
 0.000000e+000 1.000000e+000 0.000000e+000 0.000000e+000 0.000000e+000
 0.000000e+000 6.038888e-001 3.961112e-001 0.000000e+000 0.000000e+000
 0.000000e+000 0.000000e+000 6.858143e-001 3.141857e-001 0.000000e+000
 0.000000e+000 0.000000e+000 0.000000e+000 6.312498e-001 3.687501e-001
 0.000000e+000 0.000000e+000 0.000000e+000 0.000000e+000 0.000000e+000
<ENDHMM>
~h "a"
<BEGINHMM>
<NUMSTATES> 5
<STATE> 2
<MEAN> 25
 3.861940e+000 -7.018414e+000 -5.000393e+000 -1.859855e+000 2.063566e+000 -1.616392e+000 -1.687603e+000 3.857422e+000 1.993563e+000 1.699870e+000 -3.060199e+000 -3.802631e+000 7.418165e-001 -5.845322e-001 -1.902480e-001 -1.677775e-002 4.590124e-001 7.424418e-001 2.421336e-001 8.504758e-001 -8.186133e-002 1.155121e-001 -5.427130e-001 -9.026221e-001 6.083419e-001
<VARIANCE> 25
 6.813688e+000 1.092591e+001 1.523931e+001 1.493680e+001 2.153812e+001 4.322071e+001 2.849756e+001 2.260122e+001 2.033183e+001 2.151081e+001 2.679960e+001 1.999305e+001 1.926465e+000 1.179491e+000 1.612290e+000 1.581609e+000 1.963583e+000 3.084064e+000 2.608256e+000 2.505589e+000 2.086000e+000 2.184251e+000 2.722306e+000 2.275420e+000 1.543336e+000
<GCONST> 9.056239e+001
<STATE> 3
<MEAN> 25
 4.956303e+000 -6.561014e+000 -5.327498e+000 -7.581221e-001 3.999768e+000 1.700552e+000 -5.782106e-001 3.613614e+000 8.129765e-001 1.454705e+000 -4.147349e+000 -6.151403e+000 3.796889e-001 1.109465e+000 3.367610e-001 6.058234e-001 7.837706e-002 2.365696e-001 5.604519e-001 -1.692280e-001 -1.585726e-002 9.540477e-002 -1.259169e-001 -1.258784e-001 -1.306127e+000
<VARIANCE> 25
 7.380911e+000 1.285787e+001 1.849545e+001 1.940730e+001 2.508560e+001 4.149296e+001 3.011396e+001 2.579919e+001 2.367547e+001 2.845217e+001 3.749214e+001 2.397974e+001 6.664717e-001 1.515343e+000 1.336971e+000 1.531301e+000 1.789798e+000 2.546329e+000 1.991288e+000 2.350946e+000 2.074040e+000 1.834843e+000 2.364705e+000 1.804475e+000 1.505558e+000
<GCONST> 9.028342e+001
<STATE> 4
<MEAN> 25
 4.935784e+000 -5.612654e-001 -3.661417e+000 1.216182e+000 2.770574e+000 3.968959e-001 2.832442e+000 3.834491e+000 3.466532e+000 6.997642e-001 -5.183572e+000 -4.340961e+000 -5.080897e-001 1.753919e+000 7.448326e-001 3.805583e-001 -4.411911e-001 -1.025211e-001 1.033821e+000 -2.904795e-001 5.527255e-001 -4.706530e-001 -6.714687e-002 6.856256e-001 -1.914329e+000
<VARIANCE> 25
 9.326097e+000 2.325392e+001 2.038856e+001 2.102001e+001 2.636000e+001 4.015203e+001 3.811887e+001 3.412633e+001 3.637390e+001 2.956266e+001 3.702053e+001 2.351885e+001 1.199184e+000 1.882632e+000 1.465633e+000 1.874918e+000 2.061612e+000 2.232146e+000 2.391393e+000 2.883830e+000 3.044105e+000 2.242238e+000 2.488014e+000 1.907620e+000 1.391919e+000
<GCONST> 9.436292e+001
<TRANSP> 5
 0.000000e+000 1.000000e+000 0.000000e+000 0.000000e+000 0.000000e+000
 0.000000e+000 4.466978e-001 5.533022e-001 0.000000e+000 0.000000e+000
 0.000000e+000 0.000000e+000 5.067634e-001 4.932366e-001 0.000000e+000
 0.000000e+000 0.000000e+000 0.000000e+000 5.289147e-001 4.710853e-001
 0.000000e+000 0.000000e+000 0.000000e+000 0.000000e+000 0.000000e+000
<ENDHMM>
~h "b"
<BEGINHMM>
<NUMSTATES> 5
<STATE> 2
<MEAN> 25
 5.845647e+000 9.025636e+000 1.368635e+000 1.410265e+000 2.152361e+000 2.232752e+000 2.340756e+000 -2.873882e+000 1.929296e-001 -3.079100e+000 -2.162747e+000 -8.125290e-001 -3.220771e-001 6.101645e-001 3.000022e-001 7.474402e-001 5.221413e-001 -3.157902e-002 4.645506e-001 -7.327730e-002 9.843899e-002 -6.007774e-001 -6.580912e-001 3.709915e-002 -7.686408e-001
<VARIANCE> 25
 1.763490e+001 1.920185e+001 2.040472e+001 2.653277e+001 2.349524e+001 3.121406e+001 3.059332e+001 2.691067e+001 2.653402e+001 2.471749e+001 2.522177e+001 2.260837e+001 1.886910e+000 2.308903e+000 1.400598e+000 1.887747e+000 1.571190e+000 2.579717e+000 2.623919e+000 2.351350e+000 2.378479e+000 1.873962e+000 1.961305e+000 1.741539e+000 2.264768e+000
<GCONST> 9.341243e+001
<STATE> 3
<MEAN> 25
 4.672360e+000 8.074329e+000 1.171013e+000 2.436383e+000 2.853660e+000 2.244450e+000 2.362161e+000 -2.787024e+000 6.672409e-001 -3.784220e+000 -2.900022e+000 -2.030627e-001 -1.399306e+000 -2.993989e+000 -8.350613e-001 9.824842e-002 -2.182685e-001 -7.979689e-001 -1.657977e+000 -2.880919e-001 -1.503279e-001 6.539571e-001 8.431938e-001 3.379859e-001 2.604995e+000
<VARIANCE> 25
 1.605698e+001 2.498475e+001 1.753492e+001 2.593445e+001 2.179844e+001 2.940703e+001 2.704448e+001 2.444655e+001 2.353294e+001 2.282028e+001 2.362493e+001 1.898058e+001 1.761975e+000 2.103572e+000 3.989714e+000 4.369237e+000 3.231995e+000 4.904928e+000 3.067352e+000 3.568091e+000 3.771545e+000 3.011003e+000 3.027949e+000 2.469774e+000 1.680460e+000
<GCONST> 9.769532e+001
<STATE> 4
<MEAN> 25
 1.691765e+000 -1.562598e+000 -2.828294e+000 1.082483e+000 2.096473e+000 5.879223e-001 -2.861020e+000 -3.727774e+000 8.693841e-001 -2.924386e-001 5.213342e-001 2.859982e-001 -2.404373e-001 -3.174181e+000 -5.766119e-001 -1.514751e+000 -1.907412e+000 -2.933501e-001 -2.025409e+000 4.330215e-002 -7.566977e-001 1.327124e+000 1.862238e+000 -9.644983e-002 3.364866e+000
<VARIANCE> 25
 1.663379e+001 1.782236e+001 3.101750e+001 4.204101e+001 2.432272e+001 4.592469e+001 3.005583e+001 2.632451e+001 2.633232e+001 2.580160e+001 2.828744e+001 1.519361e+001 2.007230e+000 2.264457e+000 5.918692e+000 5.308901e+000 4.017550e+000 5.981216e+000 3.773547e+000 4.693232e+000 5.571725e+000 3.902313e+000 3.685832e+000 2.922628e+000 1.463220e+000
<GCONST> 1.019404e+002
<TRANSP> 5
 0.000000e+000 1.000000e+000 0.000000e+000 0.000000e+000 0.000000e+000
 0.000000e+000 5.673549e-001 4.326452e-001 0.000000e+000 0.000000e+000
 0.000000e+000 0.000000e+000 2.939803e-001 7.060196e-001 0.000000e+000
 0.000000e+000 0.000000e+000 0.000000e+000 3.275625e-001 6.724375e-001
 0.000000e+000 0.000000e+000 0.000000e+000 0.000000e+000 0.000000e+000
<ENDHMM>
~h "c"
<BEGINHMM>
<NUMSTATES> 5
<STATE> 2
<MEAN> 25
 -8.931751e+000 9.706802e+000 -2.638450e+000 4.318357e+000 2.585403e+000 -2.403127e+000 6.227390e+000 -1.168187e+000 3.731691e+000 -2.257298e+000 -1.490387e+000 3.022460e+000 -3.450577e+000 4.015983e-001 -1.638936e+000 -7.086540e-001 1.086819e+000 -1.830037e-001 8.319818e-001 -1.714559e-001 -5.759322e-002 -9.046236e-002 3.481774e-001 1.180495e+000 9.255807e-001
<VARIANCE> 25
 3.038633e+001 1.324782e+001 2.784255e+001 1.905111e+001 2.384914e+001 2.828573e+001 2.319316e+001 2.846007e+001 2.903803e+001 2.120196e+001 2.370115e+001 2.097989e+001 1.191227e+000 2.412702e+000 1.578611e+000 1.517208e+000 2.121289e+000 2.465677e+000 2.214657e+000 2.559390e+000 2.683408e+000 1.908517e+000 2.159258e+000 1.693841e+000 1.136230e+000
<GCONST> 9.223309e+001
<STATE> 3
<MEAN> 25
 -1.845634e+001 6.817052e+000 -6.764446e+000 -1.024098e-001 6.418013e+000 -5.417542e+000 9.142302e+000 2.065198e+000 6.946543e-001 -1.329231e+000 7.359216e-001 7.444881e+000 -5.645816e-001 -1.548546e+000 4.542333e-001 -9.343816e-001 3.792262e-003 -8.755229e-001 -1.200064e-001 1.412552e+000 -6.475733e-001 3.438872e-001 2.658948e-001 4.434946e-001 3.872137e-001
<VARIANCE> 25
 5.493308e+000 1.655172e+001 1.696366e+001 1.608393e+001 1.737261e+001 2.016323e+001 2.278556e+001 2.667192e+001 2.345436e+001 1.984894e+001 2.166735e+001 1.624820e+001 1.155674e+000 1.234882e+000 1.790084e+000 1.271672e+000 2.508038e+000 2.223392e+000 2.550293e+000 2.193523e+000 2.233274e+000 1.936224e+000 1.893125e+000 1.750482e+000 4.086647e-001
<GCONST> 8.672730e+001
<STATE> 4
<MEAN> 25
 -1.351476e+001 1.153814e+000 -2.256750e+000 -1.099615e+000 2.623824e+000 -9.032419e+000 3.753374e+000 4.069199e+000 -2.159481e-001 -4.760520e-001 -2.534617e-001 5.508880e+000 3.727884e+000 -1.192095e+000 1.446110e+000 2.669629e-001 -1.479957e+000 -6.366506e-001 -2.430682e+000 -1.043980e+000 -5.215409e-001 3.518945e-001 -5.837412e-002 -1.496828e+000 2.801974e-001
<VARIANCE> 25
 4.167292e+001 1.653738e+001 2.258108e+001 1.425657e+001 3.179075e+001 3.542806e+001 5.375717e+001 3.619142e+001 3.682327e+001 2.093967e+001 2.304649e+001 2.025093e+001 3.593237e+000 1.918496e+000 2.288185e+000 1.430060e+000 2.321066e+000 2.982425e+000 3.171630e+000 3.272027e+000 2.784897e+000 2.155314e+000 2.161650e+000 2.027406e+000 1.828379e+000
<GCONST> 9.691389e+001
<TRANSP> 5
 0.000000e+000 1.000000e+000 0.000000e+000 0.000000e+000 0.000000e+000
 0.000000e+000 7.548851e-001 2.451149e-001 0.000000e+000 0.000000e+000
 0.000000e+000 0.000000e+000 7.107322e-001 2.892679e-001 0.000000e+000
 0.000000e+000 0.000000e+000 0.000000e+000 6.521572e-001 3.478428e-001
 0.000000e+000 0.000000e+000 0.000000e+000 0.000000e+000 0.000000e+000
<ENDHMM>
~h "d"
<BEGINHMM>
<NUMSTATES> 5
<STATE> 2
<MEAN> 25
 5.042253e+000 6.515425e+000 2.574255e+000 3.100673e+000 2.162187e+000 -1.296789e+000 -1.555864e+000 -1.008137e+000 3.344082e+000 -3.581510e-001 -3.040945e+000 -4.011474e+000 -5.275394e-001 6.473204e-001 3.641686e-001 4.326835e-001 4.011700e-001 1.347907e-002 9.610034e-001 -2.219560e-001 2.037932e-001 -8.792880e-001 -6.905043e-001 4.438911e-001 -5.674160e-001
<VARIANCE> 25
 1.241342e+001 2.461491e+001 2.306607e+001 2.223444e+001 2.034231e+001 3.121803e+001 3.327473e+001 3.208358e+001 2.560076e+001 2.408603e+001 2.973692e+001 2.486394e+001 2.169688e+000 2.948601e+000 1.737875e+000 1.813741e+000 1.987761e+000 2.865356e+000 3.617409e+000 2.648107e+000 2.170323e+000 2.188478e+000 2.308227e+000 2.772115e+000 2.447345e+000
<GCONST> 9.567841e+001
<STATE> 3
<MEAN> 25
 2.691828e+000 5.525156e+000 3.035491e+000 3.197720e+000 2.794098e+000 -1.195501e+000 6.549485e-001 -1.277274e+000 2.881876e+000 -1.818357e+000 -2.775339e+000 -1.936051e+000 -1.647861e+000 -2.100272e+000 -4.728437e-001 -6.962781e-001 -1.590862e-001 -4.231507e-001 -5.239388e-002 -2.393328e-001 -6.478683e-001 -3.379874e-001 5.708610e-001 1.183530e+000 2.005993e+000
<VARIANCE> 25
 1.557755e+001 3.148558e+001 2.676169e+001 2.327405e+001 2.444542e+001 2.919232e+001 3.403778e+001 2.771277e+001 2.606156e+001 2.418426e+001 2.575268e+001 2.208486e+001 1.716115e+000 4.053767e+000 2.901661e+000 2.694879e+000 2.846172e+000 4.156256e+000 3.812514e+000 3.624684e+000 2.945307e+000 2.255562e+000 2.862189e+000 2.669775e+000 2.495025e+000
<GCONST> 9.872039e+001
<STATE> 4
<MEAN> 25
 -4.310921e-001 -1.750133e+000 3.181025e-001 3.960973e-002 1.724354e+000 -2.428981e+000 -1.960887e+000 -9.033163e-001 2.119730e+000 -1.088836e+000 -6.174177e-001 -1.290603e-002 -3.477829e-001 -2.192334e+000 -9.221460e-001 -1.240743e+000 -1.388474e+000 -5.971043e-001 -1.841568e+000 3.564962e-001 -6.462938e-001 1.140857e+000 9.744779e-001 1.814275e-001 2.819301e+000
<VARIANCE> 25
 1.606658e+001 2.621588e+001 2.938078e+001 2.339452e+001 2.889650e+001 3.708360e+001 5.017838e+001 2.497661e+001 2.456632e+001 2.544521e+001 1.999848e+001 2.275546e+001 2.020023e+000 3.269482e+000 3.744951e+000 3.137307e+000 3.382889e+000 3.806348e+000 4.402771e+000 4.685460e+000 3.801697e+000 2.993044e+000 3.267184e+000 2.786634e+000 2.289552e+000
<GCONST> 1.005941e+002
<TRANSP> 5
 0.000000e+000 1.000000e+000 0.000000e+000 0.000000e+000 0.000000e+000
 0.000000e+000 3.761433e-001 6.238567e-001 0.000000e+000 0.000000e+000
 0.000000e+000 0.000000e+000 1.812832e-001 8.187168e-001 0.000000e+000
 0.000000e+000 0.000000e+000 0.000000e+000 3.603941e-001 6.396059e-001
 0.000000e+000 0.000000e+000 0.000000e+000 0.000000e+000 0.000000e+000
<ENDHMM>
~h "e"
<BEGINHMM>
<NUMSTATES> 5
<STATE> 2
<MEAN> 25
 2.794870e+000 -4.765704e+000 2.598604e+000 3.757450e-001 -4.182489e+000 -7.356699e+000 -2.037547e+000 5.867207e+000 -1.696337e+000 1.033156e+000 1.771140e+000 6.220710e-001 7.141523e-001 8.060999e-002 3.423475e-001 2.118465e-001 8.049432e-002 2.395217e-002 -7.152684e-002 5.938110e-001 -1.072470e-001 3.191140e-001 1.130859e-001 -2.132128e-001 -1.209127e-001
<VARIANCE> 25
 6.832561e+000 1.545561e+001 1.863110e+001 1.140037e+001 2.178433e+001 3.052772e+001 3.255593e+001 2.322214e+001 2.449088e+001 1.640035e+001 2.398058e+001 1.560294e+001 1.808935e+000 1.384739e+000 1.583703e+000 1.246980e+000 2.208972e+000 2.248243e+000 2.830547e+000 2.075881e+000 2.393539e+000 1.820061e+000 1.968405e+000 1.712975e+000 1.562545e+000
<GCONST> 8.911897e+001
<STATE> 3
<MEAN> 25
 3.973891e+000 -2.417876e+000 3.230762e+000 1.601873e+000 -2.852210e+000 -6.282378e+000 -1.950225e+000 5.577786e+000 -1.638789e+000 1.378041e+000 8.787819e-001 -5.012576e-003 2.895848e-001 1.649154e+000 1.648425e-001 7.954900e-001 6.873319e-001 5.001801e-001 6.181455e-001 -4.770772e-001 7.904833e-001 -1.205928e-001 -5.429549e-001 -1.209764e-001 -1.901650e+000
<VARIANCE> 25
 8.017168e+000 2.263544e+001 2.286373e+001 1.519816e+001 2.606568e+001 3.326670e+001 4.025317e+001 2.670342e+001 3.231408e+001 2.170387e+001 2.923102e+001 2.007054e+001 9.962866e-001 1.786863e+000 1.554898e+000 1.336963e+000 2.112216e+000 2.359277e+000 2.747797e+000 2.181263e+000 2.809570e+000 1.934753e+000 1.967942e+000 1.849200e+000 1.823493e+000
<GCONST> 9.196224e+001
<STATE> 4
<MEAN> 25
 3.503244e+000 2.087382e+000 3.144606e+000 3.340781e+000 -1.912587e+000 -5.144046e+000 7.776143e-001 3.700790e+000 1.377068e+000 1.944531e-001 -7.030603e-001 4.598023e-001 -5.171414e-001 1.491585e+000 -1.570829e-001 3.683520e-001 5.785779e-001 7.619584e-001 7.187162e-001 -1.036735e+000 7.718229e-001 -2.570613e-001 -4.403338e-001 1.811877e-001 -1.713805e+000
<VARIANCE> 25
 1.064453e+001 3.140580e+001 2.223511e+001 1.616142e+001 2.720472e+001 3.282529e+001 4.450043e+001 2.794521e+001 3.532100e+001 2.398434e+001 2.985532e+001 2.475400e+001 1.641083e+000 2.220890e+000 1.637216e+000 1.874982e+000 2.281029e+000 2.683926e+000 2.792846e+000 2.839329e+000 3.118089e+000 2.300745e+000 2.215064e+000 1.984319e+000 1.495908e+000
<GCONST> 9.506197e+001
<TRANSP> 5
 0.000000e+000 1.000000e+000 0.000000e+000 0.000000e+000 0.000000e+000
 0.000000e+000 4.734205e-001 5.265794e-001 0.000000e+000 0.000000e+000
 0.000000e+000 0.000000e+000 3.492473e-001 6.507527e-001 0.000000e+000
 0.000000e+000 0.000000e+000 0.000000e+000 3.412634e-001 6.587366e-001
 0.000000e+000 0.000000e+000 0.000000e+000 0.000000e+000 0.000000e+000
<ENDHMM>
~h "f"
<BEGINHMM>
<NUMSTATES> 5
<STATE> 2
<MEAN> 25
 -3.451405e+000 3.518116e+000 -1.246937e+000 4.155808e+000 1.555802e+000 2.266584e+000 3.354240e+000 1.810800e+000 6.209040e+000 4.985405e-001 -1.709380e+000 2.068746e+000 -2.645029e+000 -5.006512e-001 -2.306194e-001 8.313200e-001 2.765551e-001 1.503842e-001 -1.026660e-001 2.282466e-001 1.406340e+000 -6.083865e-002 -2.842474e-001 1.845789e-001 9.519405e-002
<VARIANCE> 25
 1.816432e+001 1.332103e+001 2.385692e+001 2.024773e+001 2.141188e+001 3.399785e+001 2.753324e+001 2.613819e+001 2.445895e+001 2.184139e+001 1.991226e+001 2.092548e+001 1.645334e+000 1.958386e+000 1.993220e+000 1.667027e+000 1.874074e+000 2.241320e+000 2.448392e+000 2.430931e+000 2.373072e+000 2.415523e+000 2.279011e+000 1.987329e+000 9.446939e-001
<GCONST> 9.188747e+001
<STATE> 3
<MEAN> 25
 -8.712938e+000 -6.516043e-001 -2.991131e+000 4.948091e+000 3.123218e+000 1.929009e+000 2.176036e+000 1.227741e+000 6.697175e+000 1.064087e+000 -1.596059e+000 2.140812e+000 -5.276312e-001 -1.458351e+000 -8.706100e-001 -5.650768e-001 -1.860835e-001 -3.178071e-001 -2.585683e-001 -3.054482e-001 -1.242756e-001 8.877995e-002 2.718459e-001 1.523521e-001 2.237655e-001
<VARIANCE> 25
 1.474276e+001 1.235937e+001 1.719538e+001 1.800315e+001 1.917811e+001 2.337876e+001 2.444683e+001 1.965051e+001 2.042722e+001 2.177488e+001 1.994608e+001 1.747090e+001 2.030689e+000 1.074999e+000 1.857501e+000 1.485464e+000 2.143728e+000 2.875435e+000 2.695196e+000 1.952561e+000 2.348599e+000 1.704982e+000 1.616340e+000 1.503628e+000 8.338422e-001
<GCONST> 8.848740e+001
<STATE> 4
<MEAN> 25
 -4.823046e+000 -3.862651e+000 -5.914541e+000 9.539487e-001 8.090946e-001 2.031270e-001 1.269905e+000 -3.307015e-001 4.943471e+000 7.880337e-001 -1.017247e+000 1.835109e+000 3.114368e+000 -6.903902e-001 -1.495873e-001 -1.780228e+000 -1.488011e+000 -8.206606e-001 -1.077610e+000 -8.802553e-001 -1.910874e+000 -3.883389e-002 8.010007e-001 -4.927568e-001 1.094292e+000
<VARIANCE> 25
 3.312648e+001 1.093032e+001 3.065350e+001 2.295918e+001 2.893087e+001 3.498283e+001 2.720111e+001 2.715056e+001 2.668633e+001 2.141536e+001 2.370278e+001 1.948837e+001 1.896812e+000 2.154189e+000 3.972338e+000 2.949366e+000 2.482697e+000 3.071761e+000 2.334551e+000 3.359736e+000 3.328772e+000 2.224252e+000 2.413891e+000 2.195540e+000 2.053849e+000
<GCONST> 9.675258e+001
<TRANSP> 5
 0.000000e+000 1.000000e+000 0.000000e+000 0.000000e+000 0.000000e+000
 0.000000e+000 5.149932e-001 4.850068e-001 0.000000e+000 0.000000e+000
 0.000000e+000 0.000000e+000 5.929956e-001 4.070043e-001 0.000000e+000
 0.000000e+000 0.000000e+000 0.000000e+000 5.314049e-001 4.685951e-001
 0.000000e+000 0.000000e+000 0.000000e+000 0.000000e+000 0.000000e+000
<ENDHMM>
~h "g"
<BEGINHMM>
<NUMSTATES> 5
<STATE> 2
<MEAN> 25
 5.702732e+000 7.287236e+000 -5.489454e-001 -1.224737e+000 -5.143844e-001 1.376230e+000 2.309181e+000 -1.268463e-001 -1.937876e+000 -2.406876e+000 1.286619e+000 6.892781e-001 -7.215782e-001 1.035745e-001 -3.339126e-001 7.332858e-001 6.935820e-001 -4.142648e-001 -7.000458e-002 -3.922593e-001 5.284938e-001 2.458269e-001 -6.247911e-001 1.897139e-001 -7.296597e-001
<VARIANCE> 25
 1.530762e+001 2.403216e+001 2.889499e+001 3.936548e+001 3.071140e+001 3.920328e+001 4.275777e+001 3.029212e+001 3.927128e+001 3.049630e+001 4.023917e+001 2.948689e+001 9.055341e-001 1.795710e+000 2.187290e+000 3.171402e+000 2.605362e+000 3.974935e+000 3.160599e+000 3.047992e+000 3.831703e+000 2.595141e+000 3.035950e+000 2.380036e+000 1.101405e+000
<GCONST> 9.871496e+001
<STATE> 3
<MEAN> 25
 4.121846e+000 5.768163e+000 -1.218393e+000 7.029279e-001 1.587256e+000 6.770008e-001 4.628319e-001 -9.578329e-001 -1.662622e+000 -9.900174e-001 1.182997e+000 3.198475e-001 -8.753543e-001 -1.690195e+000 -7.973657e-001 -1.940020e-001 4.456116e-001 -2.466965e-001 -1.229174e+000 -4.402943e-001 -1.935367e-001 6.845015e-001 3.443774e-001 5.998297e-002 1.196594e+000
<VARIANCE> 25
 1.608189e+001 2.533696e+001 3.157776e+001 3.433814e+001 3.345279e+001 4.076585e+001 3.820479e+001 3.085501e+001 3.876183e+001 3.114184e+001 3.670815e+001 2.476846e+001 1.686163e+000 3.110541e+000 4.173294e+000 5.148585e+000 3.933627e+000 6.386287e+000 4.113085e+000 4.875281e+000 5.367731e+000 3.196615e+000 4.595485e+000 2.967216e+000 1.598464e+000
<GCONST> 1.040154e+002
<STATE> 4
<MEAN> 25
 2.449942e+000 2.160823e-001 -2.621864e+000 -6.362115e-002 1.502707e+000 -1.055761e+000 -3.033335e+000 -1.085721e+000 -2.327713e+000 6.831405e-001 3.047007e+000 4.997529e-001 -4.467560e-001 -2.201670e+000 -2.334612e-001 -8.533583e-001 -8.633651e-001 -4.848726e-001 -1.215011e+000 -5.476065e-002 -2.093425e-001 7.696507e-001 6.966184e-001 -6.116245e-002 2.453158e+000
<VARIANCE> 25
 2.066293e+001 3.287615e+001 4.599751e+001 4.566827e+001 4.508424e+001 6.556017e+001 4.814733e+001 4.106953e+001 4.477555e+001 3.043123e+001 3.582427e+001 2.330036e+001 2.305024e+000 3.186360e+000 3.366636e+000 4.418888e+000 3.768815e+000 5.384975e+000 4.478610e+000 4.825125e+000 4.835749e+000 3.012582e+000 5.529092e+000 2.666281e+000 2.267898e+000
<GCONST> 1.066090e+002
<TRANSP> 5
 0.000000e+000 1.000000e+000 0.000000e+000 0.000000e+000 0.000000e+000
 0.000000e+000 3.362395e-001 6.637605e-001 0.000000e+000 0.000000e+000
 0.000000e+000 0.000000e+000 1.240915e-001 8.759084e-001 0.000000e+000
 0.000000e+000 0.000000e+000 0.000000e+000 3.291817e-001 6.708182e-001
 0.000000e+000 0.000000e+000 0.000000e+000 0.000000e+000 0.000000e+000
<ENDHMM>
~h "h"
<BEGINHMM>
<NUMSTATES> 5
<STATE> 2
<MEAN> 25
 -4.303737e+000 1.889623e+000 6.574662e+000 2.714747e+000 1.700273e+000 -1.073158e-001 4.415999e+000 -1.022313e+000 -6.945295e-001 8.693765e-001 -1.872578e+000 2.866110e+000 -1.304160e+000 -1.254671e+000 -1.713172e+000 2.689556e-001 2.164226e+000 -6.184785e-001 -3.119319e-001 5.974659e-001 1.630185e+000 8.526272e-002 -2.589206e-002 8.661149e-001 9.568641e-002
<VARIANCE> 25
 2.436998e+001 2.291155e+001 8.309616e+001 3.538039e+001 4.715062e+001 5.043868e+001 3.191744e+001 3.988607e+001 3.393166e+001 2.282714e+001 2.677399e+001 2.015825e+001 1.741960e+000 1.981897e+000 3.830178e+000 2.743908e+000 4.103636e+000 3.737594e+000 4.087096e+000 3.705468e+000 3.625932e+000 2.935668e+000 2.461564e+000 2.212600e+000 9.120849e-001
<GCONST> 1.011320e+002
<STATE> 3
<MEAN> 25
 -5.839197e+000 -3.252007e+000 -3.395175e+000 1.940114e+000 8.532095e+000 4.319662e-001 1.827236e-001 2.003197e-001 5.057751e+000 2.937853e+000 -2.043320e+000 2.737435e+000 -3.419787e-001 -6.436467e-001 -1.449987e+000 -7.205189e-001 3.390710e-001 2.081698e-001 -3.479769e-001 -4.894965e-001 4.006289e-001 3.021113e-001 3.454600e-001 -2.377459e-002 -1.417762e-002
<VARIANCE> 25
 2.442907e+001 2.532969e+001 7.835137e+001 3.685992e+001 5.873751e+001 5.374177e+001 4.938097e+001 3.379919e+001 3.819009e+001 3.429948e+001 2.992628e+001 2.450024e+001 1.722274e+000 1.115396e+000 2.965292e+000 1.860539e+000 3.071289e+000 4.107175e+000 2.962726e+000 3.340487e+000 3.294603e+000 3.193220e+000 2.587123e+000 2.195488e+000 1.168170e+000
<GCONST> 1.010289e+002
<STATE> 4
<MEAN> 25
 -4.698300e+000 -2.133411e+000 -2.821893e+000 -1.267788e+000 3.955238e+000 1.112307e+000 1.821723e+000 -2.549403e+000 1.653732e+000 1.080773e+000 -5.998805e-001 2.661044e+000 1.742228e+000 5.337314e-001 -7.529072e-002 -6.324251e-001 -1.807339e+000 -4.162964e-001 -2.945265e-001 -3.597404e-001 -1.043093e+000 -8.724838e-001 2.299358e-001 -5.880012e-001 3.729460e-001
<VARIANCE> 25
 3.299543e+001 3.620712e+001 1.082596e+002 4.199316e+001 5.727548e+001 5.195985e+001 3.327369e+001 3.507099e+001 3.532883e+001 2.855060e+001 3.159829e+001 2.421362e+001 2.488248e+000 1.748788e+000 3.370061e+000 4.014475e+000 4.756948e+000 3.864359e+000 4.298413e+000 3.096876e+000 3.922749e+000 2.860183e+000 2.733171e+000 2.872510e+000 2.592666e+000
<GCONST> 1.050779e+002
<TRANSP> 5
 0.000000e+000 1.000000e+000 0.000000e+000 0.000000e+000 0.000000e+000
 0.000000e+000 5.430031e-001 4.569969e-001 0.000000e+000 0.000000e+000
 0.000000e+000 0.000000e+000 5.638490e-001 4.361510e-001 0.000000e+000
 0.000000e+000 0.000000e+000 0.000000e+000 5.201753e-001 4.798248e-001
 0.000000e+000 0.000000e+000 0.000000e+000 0.000000e+000 0.000000e+000
<ENDHMM>
~h "i"
<BEGINHMM>
<NUMSTATES> 5
<STATE> 2
<MEAN> 25
 -1.051864e-001 -5.367568e-001 9.501356e+000 1.280501e+000 -7.467803e+000 -3.856849e+000 -2.312184e+000 -7.202597e-001 -7.558721e+000 -9.657359e-001 3.773215e+000 3.996016e-001 7.399052e-001 1.020162e-001 1.976434e+000 -1.530015e-001 -1.584982e+000 3.435486e-001 -8.288808e-001 -2.570705e-001 -1.948896e+000 5.865287e-001 1.029925e+000 -6.945103e-001 9.247366e-001
<VARIANCE> 25
 1.620771e+001 2.250003e+001 2.204060e+001 1.771470e+001 2.493771e+001 4.090566e+001 3.381930e+001 3.431590e+001 2.602500e+001 1.969620e+001 2.240908e+001 1.665768e+001 3.736777e+000 2.073626e+000 2.702927e+000 2.599049e+000 3.060377e+000 3.253966e+000 5.142404e+000 3.052027e+000 3.352163e+000 2.575619e+000 2.319204e+000 2.157199e+000 2.130538e+000
<GCONST> 9.753017e+001
<STATE> 3
<MEAN> 25
 3.116388e-001 1.655034e+000 1.366990e+001 -1.354365e-001 -9.496306e+000 5.904744e-001 -3.578383e+000 -2.431882e+000 -9.415008e+000 1.671209e+000 3.497716e+000 -1.588816e+000 2.329971e-001 6.611020e-001 9.760507e-002 3.320634e-001 3.209423e-001 2.894345e-001 2.255660e-001 -1.044395e-001 1.804118e-001 1.142475e-001 -2.115448e-001 -4.394072e-002 -5.177643e-001
<VARIANCE> 25
 9.270441e+000 2.406387e+001 2.208802e+001 1.937764e+001 2.095740e+001 4.630777e+001 2.912928e+001 2.797691e+001 2.252722e+001 1.946793e+001 2.387636e+001 1.664913e+001 1.334671e+000 1.891728e+000 1.623582e+000 1.523316e+000 1.868519e+000 2.397075e+000 2.346964e+000 2.046894e+000 1.978263e+000 1.542096e+000 1.525795e+000 1.306071e+000 1.453184e+000
<GCONST> 9.014249e+001
<STATE> 4
<MEAN> 25
 1.567029e+000 4.221611e+000 9.282368e+000 3.906870e+000 -4.567642e+000 -2.271468e+000 -1.734969e-003 -1.157725e+000 -4.782942e+000 -7.054002e-001 1.932025e+000 2.214806e-001 -2.256645e-001 1.055192e+000 -1.278154e+000 7.271971e-001 1.653833e+000 1.026939e-001 7.461082e-001 -2.119025e-001 1.744653e+000 -3.440097e-001 -1.057257e+000 4.149418e-001 -1.544470e+000
<VARIANCE> 25
 1.233871e+001 2.862807e+001 2.111821e+001 1.630697e+001 2.679383e+001 3.642969e+001 3.685218e+001 2.966810e+001 3.027487e+001 2.103725e+001 2.382178e+001 1.921202e+001 2.063008e+000 2.679339e+000 2.066983e+000 2.050620e+000 2.369893e+000 2.951191e+000 3.089682e+000 2.799426e+000 2.688648e+000 2.254235e+000 2.098457e+000 2.071962e+000 1.825811e+000
<GCONST> 9.524915e+001
<TRANSP> 5
 0.000000e+000 1.000000e+000 0.000000e+000 0.000000e+000 0.000000e+000
 0.000000e+000 4.117015e-001 5.882984e-001 0.000000e+000 0.000000e+000
 0.000000e+000 0.000000e+000 6.079372e-001 3.920628e-001 0.000000e+000
 0.000000e+000 0.000000e+000 0.000000e+000 5.651005e-001 4.348995e-001
 0.000000e+000 0.000000e+000 0.000000e+000 0.000000e+000 0.000000e+000
<ENDHMM>
~h "j"
<BEGINHMM>
<NUMSTATES> 5
<STATE> 2
<MEAN> 25
 -6.617290e-002 3.087839e-001 8.866601e+000 8.561708e-002 -6.484152e+000 -2.135982e+000 -2.396631e+000 3.878191e-001 -5.820239e+000 -1.195924e-001 2.037154e+000 2.885753e-001 1.865369e-001 -1.684607e-001 1.293121e+000 -2.115025e-001 -1.519086e+000 -1.704506e-001 -4.601049e-001 1.737342e-002 -8.171369e-001 2.897917e-001 8.199297e-001 -9.258536e-003 8.225509e-001
<VARIANCE> 25
 1.800228e+001 3.661826e+001 4.739838e+001 2.401919e+001 3.039579e+001 4.987176e+001 4.737224e+001 4.124178e+001 3.337730e+001 1.991639e+001 2.498421e+001 1.866750e+001 2.988558e+000 2.544646e+000 3.698327e+000 2.727588e+000 3.492630e+000 3.496173e+000 4.561380e+000 2.980109e+000 3.411088e+000 2.499032e+000 2.296719e+000 1.907241e+000 2.561260e+000
<GCONST> 1.010337e+002
<STATE> 3
<MEAN> 25
 5.951341e-001 -1.437647e+000 9.153651e+000 -1.362576e-002 -9.606938e+000 -2.917787e+000 -1.981959e+000 2.659693e-001 -5.541952e+000 1.659097e+000 4.765377e+000 4.527204e-001 2.874034e-001 -3.586001e-001 -5.568613e-001 1.702692e-001 -1.898791e-001 -6.174098e-001 2.578683e-001 7.181494e-001 4.748287e-001 8.866142e-002 3.697466e-001 1.629850e-001 2.146805e-001
<VARIANCE> 25
 8.933753e+000 1.752335e+001 2.668534e+001 1.714164e+001 2.684665e+001 4.306836e+001 3.406046e+001 3.494419e+001 2.552565e+001 1.798648e+001 2.089430e+001 1.512381e+001 1.175979e+000 1.602187e+000 2.753410e+000 1.326749e+000 1.558013e+000 2.196319e+000 2.540758e+000 2.515542e+000 2.418722e+000 1.431446e+000 1.441593e+000 1.151384e+000 9.617057e-001
<GCONST> 8.986957e+001
<STATE> 4
<MEAN> 25
 1.888904e+000 -2.955289e+000 4.945852e+000 1.369967e+000 -7.216746e+000 -5.501371e+000 -1.550598e+000 4.346633e+000 -3.335553e+000 8.515459e-002 4.031588e+000 9.753354e-001 4.188267e-001 -1.867789e-001 -1.381030e+000 1.825746e-001 1.385872e+000 6.504783e-002 -1.079251e-001 7.246192e-001 1.101114e+000 -2.290619e-001 -7.874100e-001 -1.250093e-001 -2.800208e-001
<VARIANCE> 25
 9.709976e+000 2.023042e+001 2.394101e+001 1.827548e+001 2.734706e+001 3.180221e+001 5.481369e+001 2.704851e+001 2.968513e+001 2.034292e+001 2.343661e+001 1.543796e+001 1.340346e+000 2.093731e+000 3.589358e+000 1.400690e+000 2.535865e+000 2.600084e+000 3.900509e+000 3.670101e+000 3.129128e+000 2.071977e+000 2.357854e+000 1.702828e+000 1.168440e+000
<GCONST> 9.428183e+001
<TRANSP> 5
 0.000000e+000 1.000000e+000 0.000000e+000 0.000000e+000 0.000000e+000
 0.000000e+000 4.368492e-001 5.631508e-001 0.000000e+000 0.000000e+000
 0.000000e+000 0.000000e+000 5.077128e-001 4.922871e-001 0.000000e+000
 0.000000e+000 0.000000e+000 0.000000e+000 3.153570e-001 6.846430e-001
 0.000000e+000 0.000000e+000 0.000000e+000 0.000000e+000 0.000000e+000
<ENDHMM>
~h "k"
<BEGINHMM>
<NUMSTATES> 5
<STATE> 2
<MEAN> 25
 -3.261979e+000 3.766410e+000 -1.655836e+000 2.681475e+000 3.515136e+000 -5.670970e-001 2.959680e+000 2.776406e+000 3.775600e+000 -1.072959e-001 -2.205824e+000 1.220123e+000 -6.355035e-001 -1.177320e+000 -1.442707e+000 -6.713974e-001 6.686543e-001 4.405671e-001 -1.030401e-001 -4.935101e-001 -5.908247e-001 6.170933e-001 3.756298e-001 5.614065e-001 2.955194e-001
<VARIANCE> 25
 2.687078e+001 2.132468e+001 2.898790e+001 2.715789e+001 3.949709e+001 3.924884e+001 3.993268e+001 3.557057e+001 3.476227e+001 2.692898e+001 3.067794e+001 2.220924e+001 2.401530e+000 3.521392e+000 4.002475e+000 2.987679e+000 5.002477e+000 4.860680e+000 3.967623e+000 3.964318e+000 4.228697e+000 3.067347e+000 2.707177e+000 2.527821e+000 3.155453e+000
<GCONST> 1.031351e+002
<STATE> 3
<MEAN> 25
 -4.344892e+000 -1.393843e+000 -7.515512e+000 -6.995131e-001 6.375855e+000 1.612586e+000 1.484842e+000 1.095106e+000 1.476484e+000 2.498884e+000 -1.625817e-002 2.051583e+000 2.448680e-001 -1.691699e+000 -1.549072e+000 -1.793151e+000 -4.844528e-001 -2.620102e-001 -1.101923e+000 -1.102108e+000 -1.231728e+000 5.753620e-001 1.029269e+000 2.069233e-001 1.914446e+000
<VARIANCE> 25
 2.180719e+001 2.740305e+001 5.972272e+001 4.387558e+001 3.955912e+001 5.876439e+001 4.232219e+001 3.070071e+001 3.670123e+001 2.913519e+001 2.884234e+001 2.386194e+001 3.090663e+000 2.551559e+000 5.366053e+000 4.023004e+000 5.988940e+000 5.525027e+000 3.698161e+000 4.335075e+000 4.831958e+000 3.264126e+000 3.264196e+000 2.767794e+000 2.162536e+000
<GCONST> 1.057823e+002
<STATE> 4
<MEAN> 25
 -2.874963e+000 -2.177352e+000 -6.854354e+000 -4.300372e+000 1.568533e+000 -1.162313e+000 -6.919088e-001 -1.350304e+000 -8.655265e-001 1.566769e+000 1.498783e+000 2.249423e+000 2.009372e+000 -2.364755e-001 1.099170e+000 -8.621014e-001 -2.138312e+000 -5.816228e-001 -1.273775e+000 -5.085258e-001 -1.397980e+000 -5.070190e-001 8.650647e-001 -5.887626e-001 2.089817e+000
<VARIANCE> 25
 2.996307e+001 2.074467e+001 7.637794e+001 4.278716e+001 4.495099e+001 6.778065e+001 3.903839e+001 3.528074e+001 3.549606e+001 2.710150e+001 3.196958e+001 2.281385e+001 2.767097e+000 2.473833e+000 3.834755e+000 3.691922e+000 3.602566e+000 3.546328e+000 3.986275e+000 3.690866e+000 3.815159e+000 2.861228e+000 3.037364e+000 2.510987e+000 2.079790e+000
<GCONST> 1.041463e+002
<TRANSP> 5
 0.000000e+000 1.000000e+000 0.000000e+000 0.000000e+000 0.000000e+000
 0.000000e+000 5.037988e-001 4.962012e-001 0.000000e+000 0.000000e+000
 0.000000e+000 0.000000e+000 3.652889e-001 6.347111e-001 0.000000e+000
 0.000000e+000 0.000000e+000 0.000000e+000 4.612632e-001 5.387368e-001
 0.000000e+000 0.000000e+000 0.000000e+000 0.000000e+000 0.000000e+000
<ENDHMM>
~h "l"
<BEGINHMM>
<NUMSTATES> 5
<STATE> 2
<MEAN> 25
 3.588695e+000 -3.508559e+000 -7.512504e-001 -1.503370e+000 -1.280512e+000 2.445197e+000 -4.918521e+000 -6.506742e+000 1.590659e-001 2.143257e+000 5.061894e+000 -2.179895e+000 1.093692e+000 4.147185e-002 3.644072e-001 -1.368971e+000 3.316328e-001 9.619339e-001 -1.620559e+000 -9.556028e-001 -5.140346e-001 7.399907e-001 8.252410e-001 -9.186514e-001 4.220837e-001
<VARIANCE> 25
 2.409149e+001 1.881937e+001 3.914639e+001 3.504062e+001 2.788611e+001 4.215874e+001 5.197139e+001 4.496685e+001 3.933358e+001 3.460960e+001 4.004414e+001 3.371783e+001 3.692762e+000 2.204990e+000 3.204482e+000 3.980770e+000 3.646091e+000 4.400421e+000 4.728271e+000 4.842130e+000 3.739108e+000 3.927609e+000 3.943315e+000 3.063890e+000 2.290431e+000
<GCONST> 1.050946e+002
<STATE> 3
<MEAN> 25
 5.039947e+000 -3.062140e+000 -1.775176e-001 -5.019890e+000 1.070527e-002 5.079768e+000 -7.594647e+000 -6.473747e+000 -4.477567e-001 3.138044e+000 6.721997e+000 -3.849074e+000 3.491725e-001 -1.300644e-001 1.380177e-001 -7.311974e-001 2.837669e-001 3.516665e-001 -6.012037e-001 7.534994e-001 1.015281e-001 -3.994095e-002 -1.096842e-001 -1.897165e-001 5.423900e-001
<VARIANCE> 25
 1.260267e+001 1.670568e+001 3.777618e+001 3.954490e+001 2.875035e+001 4.236636e+001 5.682011e+001 4.091053e+001 3.229397e+001 3.601584e+001 4.236682e+001 3.281029e+001 1.875435e+000 1.757046e+000 2.529357e+000 2.911427e+000 2.639452e+000 3.750427e+000 3.333617e+000 3.766213e+000 3.671919e+000 2.961824e+000 3.490912e+000 2.702041e+000 1.426443e+000
<GCONST> 1.007555e+002
<STATE> 4
<MEAN> 25
 4.428635e+000 -4.365040e+000 -6.089371e-002 -3.850474e+000 3.893742e-001 3.065238e+000 -7.211120e+000 -2.693128e+000 1.150604e+000 2.256338e+000 4.007329e+000 -3.305348e+000 -1.741258e-001 -4.899022e-001 -3.340323e-001 7.859718e-001 -3.832587e-001 -9.727873e-001 1.263073e+000 1.804512e+000 6.229236e-003 -5.695735e-001 -8.301927e-001 3.814340e-001 5.505788e-001
<VARIANCE> 25
 9.897870e+000 1.686800e+001 4.647213e+001 3.405710e+001 2.560199e+001 5.264695e+001 4.877947e+001 4.404382e+001 2.985979e+001 3.416518e+001 3.075662e+001 3.014712e+001 1.055926e+000 1.640118e+000 2.081693e+000 3.372488e+000 3.475229e+000 5.771357e+000 4.362850e+000 4.078950e+000 4.654311e+000 2.746988e+000 5.051114e+000 2.845690e+000 8.028591e-001
<GCONST> 1.004399e+002
<TRANSP> 5
 0.000000e+000 1.000000e+000 0.000000e+000 0.000000e+000 0.000000e+000
 0.000000e+000 2.920919e-001 7.079082e-001 0.000000e+000 0.000000e+000
 0.000000e+000 0.000000e+000 2.561300e-001 7.438700e-001 0.000000e+000
 0.000000e+000 0.000000e+000 0.000000e+000 3.562849e-001 6.437151e-001
 0.000000e+000 0.000000e+000 0.000000e+000 0.000000e+000 0.000000e+000
<ENDHMM>
~h "m"
<BEGINHMM>
<NUMSTATES> 5
<STATE> 2
<MEAN> 25
 7.139053e+000 8.268915e-001 7.915902e-001 5.478714e+000 1.400379e+000 1.977232e+000 2.582400e+000 -4.987523e+000 -5.358797e+000 1.774761e+000 -1.990684e+000 -4.434998e+000 4.695848e-001 8.806856e-001 5.906065e-001 2.072423e+000 -6.978793e-002 -4.493507e-001 3.785535e-001 -2.123412e+000 -9.608369e-001 7.223755e-001 -1.346569e-001 -4.465018e-002 -7.995201e-001
<VARIANCE> 25
 9.139879e+000 1.996107e+001 1.401414e+001 1.849800e+001 1.871829e+001 2.557097e+001 2.174117e+001 2.775843e+001 2.406381e+001 1.995004e+001 2.527398e+001 2.007725e+001 1.002069e+000 1.957174e+000 1.973653e+000 1.845309e+000 2.242956e+000 2.510311e+000 2.106061e+000 2.509677e+000 2.702697e+000 1.888141e+000 2.287029e+000 1.878192e+000 2.004128e+000
<GCONST> 9.082999e+001
<STATE> 3
<MEAN> 25
 7.026338e+000 2.332385e+000 2.124343e+000 8.035241e+000 1.717974e+000 2.117347e+000 2.693997e+000 -8.380224e+000 -6.700370e+000 2.414072e+000 -2.313084e+000 -3.246421e+000 -2.546406e-001 1.075539e-001 1.542036e-001 -2.550535e-002 1.920612e-001 1.873651e-001 -1.998946e-001 1.461616e-001 2.702383e-001 -4.232411e-001 -2.193135e-001 2.805156e-001 3.385184e-002
<VARIANCE> 25
 7.162414e+000 2.279570e+001 1.170133e+001 1.447211e+001 1.798375e+001 2.315161e+001 1.866116e+001 2.232072e+001 2.466194e+001 2.250161e+001 2.538222e+001 1.932808e+001 5.709484e-001 1.859546e+000 1.242808e+000 1.343161e+000 1.359325e+000 1.554912e+000 1.434644e+000 1.997940e+000 2.037029e+000 1.708987e+000 1.572646e+000 1.324314e+000 1.591549e+000
<GCONST> 8.557169e+001
<STATE> 4
<MEAN> 25
 5.931333e+000 -3.954971e-001 5.737259e-001 4.306438e+000 2.773814e+000 3.275445e+000 1.308530e+000 -3.748453e+000 -4.106561e+000 -2.883019e-001 -3.270203e+000 -3.430360e+000 -1.036351e+000 -1.161763e+000 -1.330484e-001 -2.257185e+000 -7.305048e-003 8.252891e-001 -3.573683e-001 2.466930e+000 1.184778e+000 -1.168891e+000 -5.823617e-001 1.861923e-001 1.489308e+000
<VARIANCE> 25
 9.072586e+000 3.214372e+001 2.491366e+001 3.321013e+001 2.432248e+001 3.352842e+001 2.269442e+001 3.969041e+001 2.760422e+001 2.467817e+001 2.426159e+001 1.856923e+001 1.238590e+000 2.001115e+000 4.214894e+000 2.908993e+000 3.520183e+000 3.259073e+000 2.598781e+000 3.368565e+000 3.405853e+000 2.564998e+000 3.136002e+000 2.491402e+000 1.500453e+000
<GCONST> 9.713459e+001
<TRANSP> 5
 0.000000e+000 1.000000e+000 0.000000e+000 0.000000e+000 0.000000e+000
 0.000000e+000 4.864251e-001 5.135748e-001 0.000000e+000 0.000000e+000
 0.000000e+000 0.000000e+000 5.888494e-001 4.111505e-001 0.000000e+000
 0.000000e+000 0.000000e+000 0.000000e+000 4.931321e-001 5.068679e-001
 0.000000e+000 0.000000e+000 0.000000e+000 0.000000e+000 0.000000e+000
<ENDHMM>
~h "n"
<BEGINHMM>
<NUMSTATES> 5
<STATE> 2
<MEAN> 25
 5.963027e+000 8.283128e-001 1.699293e+000 6.899377e+000 3.970765e-001 9.647887e-001 2.161604e+000 -4.831854e+000 -2.623723e+000 1.113999e+000 -6.078402e+000 -3.759344e+000 4.594399e-001 5.871143e-001 4.680995e-001 1.197837e+000 -7.031455e-002 -2.640536e-001 9.805398e-002 -1.211502e+000 -3.301803e-001 4.000906e-001 -6.973293e-001 -7.847897e-002 -3.145714e-001
<VARIANCE> 25
 1.264592e+001 2.294038e+001 1.831567e+001 1.885377e+001 2.090279e+001 2.927546e+001 2.451355e+001 3.345922e+001 2.487765e+001 2.413610e+001 2.985035e+001 2.437711e+001 1.397966e+000 2.593965e+000 1.987674e+000 2.111875e+000 2.255776e+000 2.426606e+000 2.259133e+000 3.427077e+000 2.684338e+000 2.126575e+000 2.364849e+000 2.171201e+000 2.520746e+000
<GCONST> 9.434725e+001
<STATE> 3
<MEAN> 25
 6.219672e+000 7.144683e-001 1.969691e+000 7.834260e+000 8.285152e-001 1.215195e+000 1.273341e+000 -6.354415e+000 -2.885881e+000 1.929100e+000 -6.039543e+000 -3.612015e+000 -2.348703e-001 -9.873282e-001 -2.709846e-001 -1.055452e+000 8.159325e-001 8.723816e-001 -4.121883e-001 1.187152e+000 -6.489448e-002 -5.599503e-001 -8.972424e-002 -3.918546e-001 1.093319e+000
<VARIANCE> 25
 9.373536e+000 2.454404e+001 1.795039e+001 2.039958e+001 2.225800e+001 2.737637e+001 2.455537e+001 3.288576e+001 2.247157e+001 2.440553e+001 2.717610e+001 2.171021e+001 1.237445e+000 2.906827e+000 2.591198e+000 2.178120e+000 2.391617e+000 2.796864e+000 2.269405e+000 3.356621e+000 2.731392e+000 2.332549e+000 2.383417e+000 2.372905e+000 2.409684e+000
<GCONST> 9.448748e+001
<STATE> 4
<MEAN> 25
 4.799572e+000 -3.378998e+000 1.059636e-001 2.570250e+000 3.878795e+000 3.831942e+000 2.794723e-001 1.026725e-001 -2.545624e+000 -1.279168e+000 -6.486911e+000 -5.202960e+000 -7.615504e-001 -1.018710e+000 -6.314053e-001 -1.934904e+000 5.750767e-001 7.904433e-001 2.811591e-001 2.041528e+000 5.325317e-002 -9.854494e-001 2.922067e-001 -5.334126e-002 1.378465e+000
<VARIANCE> 25
 1.003956e+001 3.189441e+001 2.801479e+001 2.093944e+001 2.667041e+001 3.186782e+001 3.115062e+001 3.540538e+001 2.675058e+001 2.434196e+001 3.184979e+001 2.484521e+001 1.269510e+000 2.775464e+000 3.159678e+000 2.735250e+000 2.813884e+000 3.154436e+000 2.828067e+000 3.791746e+000 2.849149e+000 2.771071e+000 2.934980e+000 2.333057e+000 1.730087e+000
<GCONST> 9.750381e+001
<TRANSP> 5
 0.000000e+000 1.000000e+000 0.000000e+000 0.000000e+000 0.000000e+000
 0.000000e+000 4.693836e-001 5.306164e-001 0.000000e+000 0.000000e+000
 0.000000e+000 0.000000e+000 3.394950e-001 6.605051e-001 0.000000e+000
 0.000000e+000 0.000000e+000 0.000000e+000 3.688166e-001 6.311834e-001
 0.000000e+000 0.000000e+000 0.000000e+000 0.000000e+000 0.000000e+000
<ENDHMM>
~h "o"
<BEGINHMM>
<NUMSTATES> 5
<STATE> 2
<MEAN> 25
 5.755717e+000 -3.113615e+000 -6.095047e+000 -6.569347e+000 -7.334313e-001 5.805571e+000 -5.049113e+000 -2.375189e+000 -1.817465e+000 3.104992e+000 4.137794e+000 -2.189812e+000 1.089559e+000 -5.991114e-002 -1.083945e-001 -1.034862e+000 -3.763431e-001 1.210251e+000 -3.252110e-001 -1.259571e-001 -6.285962e-001 9.070787e-001 9.030143e-001 -4.682433e-001 9.932190e-001
<VARIANCE> 25
 1.017047e+001 2.311562e+001 2.008321e+001 3.930275e+001 3.090228e+001 4.637756e+001 4.967770e+001 2.609402e+001 3.463224e+001 2.951509e+001 3.894486e+001 2.805433e+001 2.121938e+000 2.208592e+000 2.710219e+000 3.577848e+000 3.515264e+000 3.659027e+000 4.359464e+000 3.153972e+000 3.363525e+000 3.341751e+000 3.145376e+000 2.785258e+000 2.324932e+000
<GCONST> 1.008642e+002
<STATE> 3
<MEAN> 25
 6.885403e+000 -2.008264e+000 -6.040566e+000 -7.970343e+000 -5.784923e-001 9.033258e+000 -2.984808e+000 -2.706309e+000 -3.335240e+000 3.715823e+000 5.716177e+000 -1.671151e+000 1.940053e-001 6.960714e-001 5.850437e-001 5.005681e-001 2.968686e-001 -2.026744e-001 3.349710e-001 4.652615e-002 1.937032e-002 1.098413e-001 -1.103384e-001 1.168202e-001 -6.313409e-001
<VARIANCE> 25
 8.130388e+000 2.088066e+001 1.700770e+001 3.364715e+001 2.965912e+001 3.804367e+001 4.881286e+001 2.434863e+001 3.205063e+001 3.189427e+001 3.872648e+001 2.736644e+001 6.828704e-001 1.970545e+000 1.413022e+000 2.569939e+000 2.120673e+000 2.759317e+000 3.358651e+000 2.035032e+000 2.731285e+000 2.049204e+000 2.109272e+000 2.313870e+000 1.553852e+000
<GCONST> 9.445898e+001
<STATE> 4
<MEAN> 25
 6.545905e+000 9.413951e-001 -2.897290e+000 -3.603437e+000 1.626293e+000 4.989174e+000 -2.731983e+000 -1.795283e+000 -3.982950e-001 3.466902e+000 2.985218e+000 -1.896806e+000 -6.478712e-001 1.473371e+000 1.112605e+000 1.594984e+000 1.677566e-001 -1.344278e+000 1.223603e+000 4.166400e-001 1.041829e+000 -9.426416e-001 -1.094711e+000 5.139473e-001 -1.684278e+000
<VARIANCE> 25
 9.534133e+000 3.393734e+001 2.028855e+001 3.108195e+001 2.805257e+001 3.667185e+001 6.672595e+001 2.819892e+001 3.868728e+001 3.162173e+001 3.876601e+001 3.096698e+001 1.607200e+000 2.280250e+000 1.659605e+000 2.432150e+000 2.405094e+000 2.785131e+000 3.109293e+000 2.994170e+000 3.287823e+000 2.488762e+000 2.535926e+000 2.121711e+000 1.890303e+000
<GCONST> 9.809740e+001
<TRANSP> 5
 0.000000e+000 1.000000e+000 0.000000e+000 0.000000e+000 0.000000e+000
 0.000000e+000 3.634441e-001 6.365559e-001 0.000000e+000 0.000000e+000
 0.000000e+000 0.000000e+000 5.312906e-001 4.687095e-001 0.000000e+000
 0.000000e+000 0.000000e+000 0.000000e+000 4.670989e-001 5.329011e-001
 0.000000e+000 0.000000e+000 0.000000e+000 0.000000e+000 0.000000e+000
<ENDHMM>
~h "p"
<BEGINHMM>
<NUMSTATES> 5
<STATE> 2
<MEAN> 25
 1.765504e+000 7.087808e+000 -3.984325e-001 1.302737e-001 -7.864624e-001 2.635357e-001 4.424447e+000 9.933671e-001 4.022910e+000 -2.301813e+000 -1.935312e+000 1.660559e+000 -1.721413e+000 -1.981210e+000 -1.104481e+000 1.411586e-001 2.689390e-001 -1.701297e-001 -7.269502e-001 -4.433388e-001 3.884541e-001 4.296249e-001 2.294749e-001 4.543572e-001 1.081007e+000
<VARIANCE> 25
 1.614053e+001 1.591056e+001 2.106467e+001 2.471005e+001 2.352774e+001 2.829214e+001 2.642052e+001 2.431550e+001 2.281693e+001 1.984465e+001 2.394465e+001 2.259278e+001 1.437838e+000 2.766295e+000 2.712839e+000 2.148190e+000 2.341644e+000 3.042634e+000 2.885520e+000 2.810246e+000 2.471637e+000 2.038468e+000 2.148864e+000 1.969478e+000 3.521983e+000
<GCONST> 9.464352e+001
<STATE> 3
<MEAN> 25
 -3.642917e+000 -7.417078e-001 -3.273503e+000 1.660947e+000 1.838342e+000 6.936244e-001 1.631811e+000 -3.727165e-001 5.022850e+000 -5.269848e-001 -1.317293e+000 2.287384e+000 -3.806396e-001 -3.170346e+000 -1.990984e+000 -8.445835e-001 -4.716249e-001 -2.039282e-001 -2.163437e+000 -1.264104e+000 -4.776543e-001 9.285009e-001 8.117141e-001 2.457305e-001 3.571458e+000
<VARIANCE> 25
 1.290171e+001 2.935470e+001 2.083495e+001 1.867292e+001 2.258785e+001 2.627487e+001 2.700185e+001 2.175693e+001 2.121528e+001 2.005362e+001 1.934492e+001 1.622631e+001 2.393176e+000 2.345027e+000 3.974218e+000 3.530085e+000 3.361799e+000 4.851555e+000 3.529474e+000 3.894896e+000 3.856262e+000 2.850698e+000 3.103908e+000 2.777249e+000 2.823112e+000
<GCONST> 9.777939e+001
<STATE> 4
<MEAN> 25
 -1.571444e+000 -4.568364e+000 -7.908927e+000 -1.797600e+000 -1.078567e+000 -1.053760e+000 -3.487043e+000 -3.748961e+000 2.824973e+000 1.096192e+000 5.902336e-001 2.531948e+000 1.895441e+000 -1.397815e+000 -7.468483e-001 -1.601854e+000 -1.282366e+000 6.620832e-001 -1.506784e+000 -8.642346e-001 -1.193368e+000 6.470699e-001 1.077472e+000 -4.175559e-001 3.153531e+000
<VARIANCE> 25
 1.800024e+001 1.509706e+001 2.433211e+001 2.208528e+001 2.334588e+001 3.764681e+001 2.571297e+001 2.668539e+001 2.530514e+001 2.101531e+001 2.015282e+001 1.761769e+001 2.390000e+000 2.865922e+000 3.729808e+000 5.870970e+000 3.564260e+000 5.703505e+000 3.405380e+000 3.289420e+000 3.514138e+000 2.966604e+000 2.759175e+000 2.529349e+000 3.163470e+000
<GCONST> 9.917425e+001
<TRANSP> 5
 0.000000e+000 1.000000e+000 0.000000e+000 0.000000e+000 0.000000e+000
 0.000000e+000 4.782569e-001 5.217431e-001 0.000000e+000 0.000000e+000
 0.000000e+000 0.000000e+000 2.085823e-001 7.914177e-001 0.000000e+000
 0.000000e+000 0.000000e+000 0.000000e+000 2.920932e-001 7.079068e-001
 0.000000e+000 0.000000e+000 0.000000e+000 0.000000e+000 0.000000e+000
<ENDHMM>
~h "r"
<BEGINHMM>
<NUMSTATES> 5
<STATE> 2
<MEAN> 25
 3.773773e+000 -4.283018e+000 -1.825117e+000 2.363800e+000 -2.207001e+000 -3.384063e+000 -4.362500e+000 5.484128e-002 3.882141e+000 1.975119e+000 1.444183e+000 -1.223155e+000 8.040951e-001 -8.954424e-002 7.543038e-001 1.420141e+000 -3.666035e-001 -4.986428e-001 3.087660e-001 -2.402057e-001 2.689153e-001 2.430815e-001 1.391084e-002 -9.726071e-002 -1.461186e-001
<VARIANCE> 25
 1.372852e+001 1.978897e+001 3.044943e+001 1.900616e+001 2.477251e+001 3.758186e+001 3.651938e+001 3.519341e+001 2.904671e+001 2.201660e+001 2.910205e+001 2.060796e+001 2.333791e+000 2.275699e+000 3.268949e+000 2.579770e+000 2.643634e+000 3.732380e+000 3.668117e+000 3.232179e+000 2.825056e+000 2.653225e+000 2.928068e+000 2.480114e+000 1.959898e+000
<GCONST> 9.799833e+001
<STATE> 3
<MEAN> 25
 3.683963e+000 -3.327826e+000 -3.996202e-001 5.228616e+000 -1.912295e+000 -3.353182e+000 -2.052366e+000 -5.782334e-001 4.444364e+000 2.101968e+000 7.949292e-001 -6.546164e-001 5.753338e-002 -4.915333e-001 1.938451e-001 1.579360e-001 -1.909633e-001 -5.434939e-001 7.498588e-001 -3.730320e-002 -3.680455e-001 -8.531518e-002 -2.552956e-002 1.580502e-001 1.926188e-001
<VARIANCE> 25
 1.358599e+001 2.201596e+001 3.339296e+001 1.793852e+001 2.669468e+001 3.172122e+001 3.487428e+001 3.498862e+001 2.854537e+001 2.481055e+001 2.802428e+001 2.171735e+001 1.539351e+000 2.069487e+000 3.020914e+000 1.800253e+000 2.304014e+000 3.224923e+000 3.125967e+000 2.927849e+000 2.723650e+000 2.311986e+000 2.924181e+000 2.059479e+000 1.407557e+000
<GCONST> 9.591432e+001
<STATE> 4
<MEAN> 25
 3.579591e+000 -5.895840e+000 -1.693777e+000 3.151875e+000 -2.772324e+000 -4.940240e+000 -1.730827e+000 2.132177e-003 3.250940e+000 1.674919e+000 1.159709e+000 -5.457422e-001 4.763405e-002 -8.044841e-001 -2.214744e-001 -1.049132e+000 -5.220733e-002 -3.254565e-001 4.574421e-001 4.497930e-001 -9.345769e-001 -2.491835e-001 1.745230e-001 -1.682392e-001 9.458311e-001
<VARIANCE> 25
 1.358318e+001 2.235206e+001 4.082153e+001 1.748188e+001 2.743138e+001 3.959369e+001 3.587171e+001 3.156483e+001 2.763085e+001 2.464526e+001 3.095028e+001 2.232645e+001 1.584726e+000 2.140965e+000 2.513164e+000 2.087518e+000 2.704168e+000 3.586164e+000 3.235689e+000 3.374023e+000 3.339654e+000 2.528066e+000 3.976550e+000 2.159781e+000 1.404552e+000
<GCONST> 9.748195e+001
<TRANSP> 5
 0.000000e+000 1.000000e+000 0.000000e+000 0.000000e+000 0.000000e+000
 0.000000e+000 2.502745e-001 7.497255e-001 0.000000e+000 0.000000e+000
 0.000000e+000 0.000000e+000 1.595360e-001 8.404641e-001 0.000000e+000
 0.000000e+000 0.000000e+000 0.000000e+000 1.958620e-001 8.041380e-001
 0.000000e+000 0.000000e+000 0.000000e+000 0.000000e+000 0.000000e+000
<ENDHMM>
~h "s"
<BEGINHMM>
<NUMSTATES> 5
<STATE> 2
<MEAN> 25
 -8.684563e+000 6.534423e+000 3.025695e+000 1.667936e+000 6.387677e+000 -5.473603e+000 2.712041e+000 4.401454e+000 1.885983e+000 -1.797165e+000 -2.019141e+000 4.050589e+000 -4.249513e+000 1.446813e+000 -6.858736e-001 -2.831821e-001 1.876664e+000 -3.959102e-001 1.405026e+000 1.399899e+000 7.223507e-001 -1.000272e+000 4.606721e-001 1.551598e+000 5.694039e-001
<VARIANCE> 25
 3.590077e+001 2.038636e+001 2.451064e+001 1.825694e+001 3.002050e+001 4.365851e+001 6.225242e+001 3.007751e+001 3.812841e+001 2.375037e+001 2.781958e+001 2.549420e+001 1.566867e+000 2.481228e+000 2.640360e+000 1.990242e+000 2.404453e+000 3.145901e+000 3.248965e+000 3.445053e+000 2.952390e+000 2.569171e+000 2.647139e+000 2.003978e+000 9.904301e-001
<GCONST> 9.787311e+001
<STATE> 3
<MEAN> 25
 -1.707960e+001 6.588943e+000 -3.136550e+000 -1.034057e+000 8.940327e+000 -5.261170e+000 4.968091e+000 6.370883e+000 9.234633e-001 -2.246341e+000 3.413949e-001 6.638654e+000 -5.220327e-001 -7.364607e-001 -9.814517e-001 -1.746529e-001 -1.736829e-001 8.852028e-002 -9.702189e-002 -2.163672e-002 1.905296e-001 1.112735e-001 8.082505e-002 1.132190e-001 -5.014688e-001
<VARIANCE> 25
 6.760786e+000 1.652195e+001 1.906544e+001 1.580326e+001 1.973629e+001 2.963599e+001 4.207697e+001 2.819317e+001 2.799273e+001 2.151832e+001 2.253452e+001 1.984940e+001 1.178207e+000 1.691190e+000 1.996857e+000 1.413025e+000 1.885836e+000 2.248991e+000 2.649626e+000 2.644310e+000 2.633458e+000 1.902549e+000 1.776598e+000 1.620669e+000 4.650922e-001
<GCONST> 8.934688e+001
<STATE> 4
<MEAN> 25
 -1.209926e+001 2.828599e+000 -3.141310e+000 3.722436e-001 5.705703e+000 -5.083072e+000 1.234162e+000 3.497111e+000 3.158623e+000 -1.236775e+000 -9.552721e-001 4.459575e+000 2.932241e+000 -7.047400e-001 4.603786e-001 2.006973e-001 -1.222530e+000 4.753786e-002 -1.014400e+000 -1.542550e+000 -2.043353e-001 4.977488e-001 -1.111468e-001 -1.108055e+000 -9.209898e-001
<VARIANCE> 25
 3.067223e+001 2.671777e+001 2.133037e+001 1.919964e+001 3.584235e+001 4.755272e+001 5.873289e+001 3.994839e+001 3.940316e+001 2.295529e+001 2.121110e+001 2.214606e+001 3.646153e+000 2.050637e+000 1.704732e+000 1.687012e+000 2.378362e+000 3.035331e+000 4.198527e+000 3.664138e+000 3.073870e+000 2.277528e+000 2.232060e+000 2.159929e+000 2.661039e+000
<GCONST> 9.910777e+001
<TRANSP> 5
 0.000000e+000 1.000000e+000 0.000000e+000 0.000000e+000 0.000000e+000
 0.000000e+000 6.280323e-001 3.719677e-001 0.000000e+000 0.000000e+000
 0.000000e+000 0.000000e+000 7.419450e-001 2.580550e-001 0.000000e+000
 0.000000e+000 0.000000e+000 0.000000e+000 6.857004e-001 3.142996e-001
 0.000000e+000 0.000000e+000 0.000000e+000 0.000000e+000 0.000000e+000
<ENDHMM>
~h "t"
<BEGINHMM>
<NUMSTATES> 5
<STATE> 2
<MEAN> 25
 -2.512046e+000 6.461756e+000 5.380962e-001 1.358086e+000 1.336492e+000 -1.759488e+000 4.575290e+000 1.446063e+000 4.753417e+000 -1.508251e+000 -1.790363e+000 1.875696e+000 -1.186503e+000 -1.512272e+000 -4.334339e-001 -6.634767e-001 1.944611e-001 3.568720e-001 2.379035e-001 -5.883361e-001 -5.885761e-002 -2.989793e-001 3.864507e-001 7.406403e-001 2.756395e-001
<VARIANCE> 25
 3.228387e+001 1.545442e+001 2.191933e+001 2.024308e+001 2.817029e+001 3.423166e+001 2.906269e+001 2.845665e+001 2.544548e+001 2.135048e+001 2.460719e+001 2.064802e+001 2.994349e+000 3.358916e+000 2.157656e+000 1.909085e+000 2.534916e+000 3.010240e+000 2.683394e+000 3.301312e+000 2.328871e+000 1.947532e+000 2.334462e+000 2.166150e+000 3.293862e+000
<GCONST> 9.663441e+001
<STATE> 3
<MEAN> 25
 -6.737305e+000 -1.063740e+000 -8.301173e-001 -8.176618e-001 2.769300e+000 -3.576996e-001 4.326182e+000 -3.811127e-001 3.486104e+000 -2.146172e+000 1.715990e-001 4.243475e+000 -7.061315e-001 -2.474488e+000 -1.083875e+000 -9.378712e-001 -7.046057e-001 -9.682112e-001 -9.669120e-001 -6.590292e-001 -5.692326e-001 -3.553309e-002 5.711498e-001 5.159269e-001 2.340702e+000
<VARIANCE> 25
 1.733377e+001 4.358725e+001 2.806475e+001 2.248819e+001 2.571837e+001 2.969533e+001 3.297887e+001 2.664874e+001 2.190785e+001 1.815494e+001 2.068688e+001 1.712646e+001 3.780566e+000 3.101166e+000 2.873004e+000 2.460079e+000 3.689732e+000 3.991985e+000 4.478313e+000 3.555953e+000 3.147592e+000 2.388623e+000 2.874647e+000 2.939692e+000 3.163831e+000
<GCONST> 9.947285e+001
<STATE> 4
<MEAN> 25
 -5.239911e+000 -2.210933e+000 -3.470069e+000 -2.135667e+000 -8.889109e-001 -5.058757e+000 1.083980e+000 -5.934370e-001 2.706497e+000 -1.598940e+000 1.265263e-001 3.720207e+000 2.076893e+000 -5.596993e-001 1.934619e-001 -5.203031e-002 -1.337898e+000 -8.545532e-001 -2.330185e+000 -1.819192e-001 -1.032249e+000 8.674983e-001 3.894927e-001 -1.449164e+000 1.943646e+000
<VARIANCE> 25
 2.102363e+001 2.761220e+001 2.565865e+001 2.106347e+001 2.987601e+001 2.985877e+001 5.233507e+001 2.709087e+001 2.562158e+001 1.965757e+001 2.015955e+001 2.273439e+001 3.241240e+000 3.508314e+000 4.630767e+000 2.775802e+000 4.005069e+000 3.638501e+000 3.465115e+000 4.115999e+000 3.606855e+000 2.463664e+000 2.914658e+000 2.592932e+000 2.986933e+000
<GCONST> 1.006259e+002
<TRANSP> 5
 0.000000e+000 1.000000e+000 0.000000e+000 0.000000e+000 0.000000e+000
 0.000000e+000 4.584312e-001 5.415689e-001 0.000000e+000 0.000000e+000
 0.000000e+000 0.000000e+000 3.572654e-001 6.427346e-001 0.000000e+000
 0.000000e+000 0.000000e+000 0.000000e+000 3.917090e-001 6.082911e-001
 0.000000e+000 0.000000e+000 0.000000e+000 0.000000e+000 0.000000e+000
<ENDHMM>
~h "u"
<BEGINHMM>
<NUMSTATES> 5
<STATE> 2
<MEAN> 25
 5.384401e+000 6.814783e-001 -2.206023e+000 -3.544802e+000 -1.474303e+000 4.628541e+000 -7.695807e+000 -5.131253e+000 -1.725032e+000 7.225112e-002 4.247513e+000 -1.168943e+000 1.544002e+000 8.999013e-001 -8.326149e-002 -1.767480e+000 -5.123240e-001 1.677392e+000 -5.658746e-001 -1.037263e+000 -1.370337e+000 6.714460e-002 1.376863e+000 -2.835962e-001 4.397012e-001
<VARIANCE> 25
 1.542899e+001 3.719571e+001 2.584914e+001 4.951899e+001 3.477340e+001 4.782322e+001 6.197866e+001 3.993552e+001 3.486135e+001 3.960414e+001 4.121796e+001 2.580200e+001 3.069021e+000 3.089090e+000 2.922991e+000 3.432901e+000 4.431936e+000 4.299610e+000 5.856780e+000 5.151672e+000 4.366875e+000 3.691986e+000 3.659937e+000 3.535090e+000 2.900605e+000
<GCONST> 1.061989e+002
<STATE> 3
<MEAN> 25
 7.890199e+000 5.868928e+000 -2.269913e+000 -8.757087e+000 -4.416229e+000 7.357518e+000 -2.885718e+000 -3.365701e+000 -4.224601e+000 -2.412100e+000 3.603476e+000 2.407966e-001 8.135552e-003 5.629993e-001 3.257783e-001 3.121294e-001 1.578577e-001 -1.016619e-001 3.457147e-001 5.146350e-002 2.249073e-001 -1.027966e-001 -2.483229e-001 1.610031e-001 -4.734678e-001
<VARIANCE> 25
 7.929508e+000 3.864143e+001 1.956178e+001 4.256664e+001 3.438900e+001 4.322657e+001 5.016674e+001 3.450348e+001 3.751961e+001 3.146676e+001 4.325635e+001 2.792303e+001 6.531773e-001 2.683162e+000 1.285834e+000 3.432212e+000 2.630472e+000 2.723423e+000 4.411093e+000 2.887665e+000 2.778301e+000 3.172522e+000 3.105786e+000 2.241563e+000 1.701817e+000
<GCONST> 9.853532e+001
<STATE> 4
<MEAN> 25
 5.662401e+000 4.034852e+000 3.150806e-001 -1.055473e+000 2.717436e-001 4.795275e+000 -4.979302e+000 -4.561428e+000 -3.850796e-001 -1.484894e-001 2.579099e+000 1.280426e-001 -1.258406e+000 5.662376e-001 9.327935e-001 1.904726e+000 5.434751e-001 -1.700314e+000 1.116505e+000 1.012004e+000 1.341197e+000 -1.515190e-001 -1.448460e+000 4.636059e-001 -9.949028e-001
<VARIANCE> 25
 1.114813e+001 3.915653e+001 2.671292e+001 3.509453e+001 3.126992e+001 4.061821e+001 8.329615e+001 4.062612e+001 3.181790e+001 3.036635e+001 3.900318e+001 2.985273e+001 1.860658e+000 3.004279e+000 1.976462e+000 3.458282e+000 3.497263e+000 3.623886e+000 4.407898e+000 3.635433e+000 3.707986e+000 3.107372e+000 3.124469e+000 2.532002e+000 2.238235e+000
<GCONST> 1.023509e+002
<TRANSP> 5
 0.000000e+000 1.000000e+000 0.000000e+000 0.000000e+000 0.000000e+000
 0.000000e+000 4.517205e-001 5.482795e-001 0.000000e+000 0.000000e+000
 0.000000e+000 0.000000e+000 6.704451e-001 3.295549e-001 0.000000e+000
 0.000000e+000 0.000000e+000 0.000000e+000 4.971980e-001 5.028020e-001
 0.000000e+000 0.000000e+000 0.000000e+000 0.000000e+000 0.000000e+000
<ENDHMM>
~h "v"
<BEGINHMM>
<NUMSTATES> 5
<STATE> 2
<MEAN> 25
 3.639919e+000 3.691932e-001 -3.076500e+000 -4.957206e-001 1.968114e+000 1.571273e+000 -3.500962e+000 -4.005592e+000 -1.852458e-001 2.685602e+000 2.481815e+000 6.301372e-001 7.658611e-001 6.744057e-002 -2.211776e-001 -2.840127e-001 -6.642573e-002 2.831291e-001 -5.311122e-001 -5.725630e-001 -5.305806e-001 3.430670e-001 4.507471e-001 -7.978927e-002 1.419675e-001
<VARIANCE> 25
 3.014380e+001 2.405766e+001 2.717924e+001 3.127330e+001 2.180615e+001 4.194041e+001 3.821982e+001 2.928423e+001 3.066965e+001 2.434508e+001 2.501862e+001 1.926077e+001 3.151660e+000 2.940760e+000 2.521632e+000 3.630010e+000 2.467031e+000 4.590673e+000 3.744530e+000 3.386665e+000 3.310246e+000 3.166093e+000 2.725827e+000 2.482079e+000 2.390738e+000
<GCONST> 1.004516e+002
<STATE> 3
<MEAN> 25
 5.014751e+000 -8.696715e-001 -3.236008e+000 -1.873025e+000 9.869043e-001 1.618227e+000 -4.021560e+000 -3.483657e+000 -1.016821e+000 2.980958e+000 3.142330e+000 1.839897e-001 3.553429e-001 -9.003409e-001 2.073905e-001 -3.701463e-001 -7.824294e-001 -3.664760e-001 -1.797667e-001 7.146575e-001 -3.063776e-001 -5.618899e-002 -1.108942e-002 -2.771079e-001 9.851825e-001
<VARIANCE> 25
 1.924629e+001 2.288742e+001 3.386405e+001 3.857516e+001 2.095045e+001 5.035643e+001 3.648230e+001 3.000407e+001 2.718400e+001 2.513111e+001 2.532359e+001 2.026212e+001 2.850432e+000 3.077121e+000 2.527360e+000 3.716887e+000 2.336411e+000 4.013028e+000 2.961855e+000 3.325714e+000 3.964894e+000 2.736501e+000 2.688767e+000 2.582429e+000 2.262923e+000
<GCONST> 1.000123e+002
<STATE> 4
<MEAN> 25
 5.186527e+000 -2.665465e+000 -2.676246e+000 -2.174790e+000 -4.578927e-001 3.495063e-001 -4.374588e+000 -1.287232e+000 -1.032888e+000 2.665335e+000 2.634331e+000 -3.271677e-001 -4.299018e-002 -8.729733e-001 6.426182e-001 4.805588e-002 -9.654574e-001 -4.422514e-001 3.409820e-001 1.105350e+000 -2.058473e-001 -3.071925e-001 -2.937177e-001 -3.124471e-001 9.988630e-001
<VARIANCE> 25
 1.487708e+001 2.764691e+001 4.340282e+001 4.176060e+001 2.091426e+001 6.019362e+001 3.693210e+001 3.262877e+001 3.079548e+001 2.876307e+001 2.459932e+001 2.424774e+001 2.079741e+000 2.185518e+000 2.529134e+000 3.013548e+000 3.115924e+000 3.564212e+000 2.832068e+000 3.369797e+000 4.405087e+000 2.539922e+000 3.190983e+000 2.378875e+000 1.424400e+000
<GCONST> 9.988254e+001
<TRANSP> 5
 0.000000e+000 1.000000e+000 0.000000e+000 0.000000e+000 0.000000e+000
 0.000000e+000 2.833939e-001 7.166061e-001 0.000000e+000 0.000000e+000
 0.000000e+000 0.000000e+000 1.101633e-001 8.898367e-001 0.000000e+000
 0.000000e+000 0.000000e+000 0.000000e+000 9.513858e-002 9.048615e-001
 0.000000e+000 0.000000e+000 0.000000e+000 0.000000e+000 0.000000e+000
<ENDHMM>
~h "z"
<BEGINHMM>
<NUMSTATES> 5
<STATE> 2
<MEAN> 25
 -5.019055e+000 9.340335e+000 1.342265e+000 1.820845e-001 6.532296e+000 -9.520735e+000 -1.632512e+000 -1.657805e+000 3.635471e-001 1.828279e+000 -2.450483e+000 2.186436e+000 -3.032022e+000 2.909905e+000 -2.532190e-001 2.509127e-001 1.617453e+000 -1.267754e+000 1.461636e+000 4.668294e-001 7.565462e-001 -1.184873e+000 -4.957680e-001 1.786694e+000 -3.833226e-002
<VARIANCE> 25
 2.091085e+001 2.502782e+001 2.706298e+001 1.853445e+001 2.540207e+001 3.543078e+001 4.828577e+001 2.592782e+001 3.334438e+001 2.605318e+001 1.965801e+001 2.559689e+001 1.342801e+000 2.550806e+000 1.775163e+000 1.359546e+000 2.157063e+000 3.037250e+000 2.509761e+000 3.490424e+000 2.080967e+000 1.945982e+000 2.174732e+000 1.658798e+000 8.185799e-001
<GCONST> 9.399136e+001
<STATE> 3
<MEAN> 25
 -1.230525e+001 1.235675e+001 7.219324e-001 1.212425e+000 8.759794e+000 -9.674229e+000 1.786303e+000 1.802017e+000 3.235824e-001 -1.980289e+000 -1.949498e+000 6.098104e+000 -2.114071e-001 -7.325827e-001 -3.052009e-001 5.961621e-002 4.413124e-002 1.469626e-001 -3.422051e-001 1.822092e-001 -6.918894e-002 -2.626459e-001 4.098380e-002 1.688432e-001 -1.561951e-001
<VARIANCE> 25
 1.151289e+001 1.181873e+001 2.019294e+001 1.562664e+001 1.965725e+001 3.100451e+001 4.258049e+001 2.970530e+001 2.941992e+001 2.247750e+001 2.048411e+001 1.820854e+001 2.397086e+000 1.595959e+000 1.490110e+000 1.238060e+000 1.865574e+000 2.330889e+000 2.797795e+000 2.663699e+000 2.232869e+000 1.872911e+000 1.577561e+000 1.469778e+000 5.056456e-001
<GCONST> 8.960776e+001
<STATE> 4
<MEAN> 25
 -5.243655e+000 5.067204e+000 -9.251434e-001 -3.996340e-001 5.970383e+000 -9.887226e+000 -3.730492e+000 -4.176617e-001 8.911843e-001 1.362264e+000 -2.415428e+000 2.893166e+000 3.138297e+000 -2.996458e+000 -3.005313e-001 -4.803981e-001 -1.425554e+000 8.734075e-001 -1.016309e+000 -6.226708e-002 7.041112e-002 1.178092e+000 2.158182e-001 -1.653855e+000 4.441812e-001
<VARIANCE> 25
 2.846071e+001 2.789425e+001 2.139687e+001 1.675247e+001 2.080707e+001 3.103298e+001 3.592714e+001 2.426001e+001 2.350147e+001 2.557290e+001 1.488878e+001 1.865565e+001 1.484016e+000 1.951932e+000 1.499866e+000 1.608349e+000 1.719586e+000 3.112784e+000 3.095474e+000 3.964578e+000 2.212849e+000 2.073365e+000 1.863473e+000 1.516266e+000 1.190955e+000
<GCONST> 9.263768e+001
<TRANSP> 5
 0.000000e+000 1.000000e+000 0.000000e+000 0.000000e+000 0.000000e+000
 0.000000e+000 6.160757e-001 3.839243e-001 0.000000e+000 0.000000e+000
 0.000000e+000 0.000000e+000 6.733936e-001 3.266063e-001 0.000000e+000
 0.000000e+000 0.000000e+000 0.000000e+000 6.131853e-001 3.868147e-001
 0.000000e+000 0.000000e+000 0.000000e+000 0.000000e+000 0.000000e+000
<ENDHMM>
~h "DZ"
<BEGINHMM>
<NUMSTATES> 5
<STATE> 2
<MEAN> 25
 2.308487e-001 3.946163e+000 3.289298e+000 8.538742e+000 -2.139766e+000 1.414724e+000 3.246735e+000 -3.116267e+000 2.695397e+000 -2.979940e+000 -2.132630e+000 -1.475727e+000 -3.447485e+000 -6.267694e-001 -3.147901e-001 4.148082e-001 -4.008819e-001 1.055593e+000 6.558895e-001 -9.758934e-001 7.697384e-002 -1.203661e+000 6.106486e-001 8.245116e-001 2.175876e+000
<VARIANCE> 25
 3.956653e+001 4.665732e+001 2.419176e+001 2.540284e+001 2.188469e+001 3.900027e+001 2.964834e+001 3.756425e+001 2.916408e+001 2.528611e+001 3.174327e+001 1.518177e+001 4.209082e+000 5.609207e+000 2.528296e+000 2.713241e+000 2.191103e+000 5.076082e+000 3.643446e+000 2.945245e+000 2.834935e+000 2.234068e+000 3.913190e+000 2.100462e+000 4.241150e+000
<GCONST> 1.017010e+002
<STATE> 3
<MEAN> 25
 -1.183609e+001 3.646085e+000 3.305044e+000 5.043653e+000 -4.401545e+000 2.257374e+000 2.819507e-002 -3.920952e+000 5.251450e+000 -7.206475e+000 1.702292e-001 3.266620e+000 5.593758e-001 -6.405157e-001 -3.604711e-001 -1.046868e+000 -8.105726e-001 -2.496994e+000 -2.294989e+000 -3.412250e-001 1.090991e+000 5.829785e-002 9.276668e-001 5.679995e-001 1.324568e+000
<VARIANCE> 25
 2.053944e+001 1.892362e+001 3.130036e+001 3.210991e+001 1.747940e+001 4.013520e+001 3.238461e+001 3.018109e+001 2.490482e+001 2.521598e+001 1.438245e+001 2.951451e+001 9.901357e+000 3.337871e+000 1.628787e+000 2.272278e+000 2.587389e+000 3.208173e+000 3.199722e+000 2.585563e+000 4.574835e+000 3.215261e+000 1.876265e+000 2.525641e+000 1.723519e+000
<GCONST> 9.857869e+001
<STATE> 4
<MEAN> 25
 1.243951e+000 -2.676646e+000 -7.214972e-002 3.642084e+000 -4.451230e+000 -4.834241e+000 -5.979168e+000 -5.911992e+000 7.794742e+000 -1.216231e+000 4.574753e+000 -1.212078e+000 3.097203e+000 -1.397027e+000 -5.747682e-001 -1.321641e+000 6.412988e-001 2.922122e-001 -8.870772e-001 8.000793e-001 -3.544645e-001 1.818405e+000 1.151037e+000 -1.140859e+000 3.893159e-003
<VARIANCE> 25
 1.839979e+001 1.406689e+001 2.073969e+001 2.095556e+001 2.796565e+001 2.815108e+001 2.661840e+001 3.150593e+001 2.770165e+001 2.243456e+001 2.200190e+001 3.826294e+001 2.573171e+000 2.114001e+000 1.764265e+000 1.288380e+000 2.310088e+000 8.100996e+000 4.713073e+000 2.721561e+000 3.491802e+000 2.125716e+000 2.408073e+000 1.693918e+000 9.010670e-001
<GCONST> 9.544747e+001
<TRANSP> 5
 0.000000e+000 1.000000e+000 0.000000e+000 0.000000e+000 0.000000e+000
 0.000000e+000 6.350933e-001 3.649067e-001 0.000000e+000 0.000000e+000
 0.000000e+000 0.000000e+000 5.676070e-001 4.323930e-001 0.000000e+000
 0.000000e+000 0.000000e+000 0.000000e+000 6.325831e-001 3.674169e-001
 0.000000e+000 0.000000e+000 0.000000e+000 0.000000e+000 0.000000e+000
<ENDHMM>
~h "a:"
<BEGINHMM>
<NUMSTATES> 5
<STATE> 2
<MEAN> 25
 3.104368e+000 -7.995955e+000 -6.757092e+000 -2.402668e+000 3.421727e+000 4.864648e-001 5.781967e-001 2.510294e+000 3.492468e+000 2.900428e-001 -3.752754e+000 -3.835559e+000 2.572576e-001 -6.823729e-001 -5.155321e-001 2.041154e-001 8.204661e-001 1.430457e+000 4.813131e-001 7.492680e-002 -6.896615e-002 -5.414996e-001 -4.947718e-001 -9.702268e-001 3.473336e-001
<VARIANCE> 25
 5.077693e+000 7.083703e+000 9.433592e+000 1.284441e+001 1.735556e+001 4.260730e+001 2.245778e+001 2.467618e+001 1.590278e+001 1.808281e+001 2.286823e+001 1.591441e+001 9.087526e-001 8.802503e-001 1.188555e+000 1.480507e+000 1.861030e+000 2.373744e+000 2.116166e+000 2.414231e+000 1.708631e+000 1.860057e+000 2.430374e+000 1.906902e+000 9.291316e-001
<GCONST> 8.488341e+001
<STATE> 3
<MEAN> 25
 3.444559e+000 -8.345779e+000 -8.125360e+000 -6.702807e-001 5.521172e+000 5.395818e+000 1.254168e+000 -4.630472e-001 1.695159e+000 -1.414003e+000 -3.528402e+000 -6.694988e+000 3.296572e-001 3.637022e-001 1.657233e-001 2.266499e-001 -2.506447e-001 -1.084153e-001 -1.475573e-001 2.128847e-001 -2.833079e-001 3.403253e-001 7.360852e-003 -3.486218e-001 -5.387783e-001
<VARIANCE> 25
 5.864025e+000 8.382372e+000 1.253485e+001 1.872286e+001 2.054369e+001 3.126511e+001 1.989482e+001 2.684210e+001 1.817892e+001 2.018769e+001 2.961032e+001 1.743783e+001 4.313696e-001 7.731272e-001 8.533188e-001 1.180988e+000 1.242294e+000 1.819234e+000 1.421998e+000 1.808517e+000 1.379875e+000 1.497573e+000 1.845735e+000 1.391531e+000 4.608925e-001
<GCONST> 8.176184e+001
<STATE> 4
<MEAN> 25
 5.673534e+000 -2.697897e+000 -5.900555e+000 2.222568e-001 3.108875e+000 2.355649e+000 1.638345e+000 2.620257e+000 2.684769e+000 8.864143e-001 -4.287262e+000 -6.685292e+000 5.553179e-002 2.009345e+000 8.449814e-001 4.027831e-001 -3.579272e-001 -2.902507e-001 8.596542e-001 1.944566e-001 3.980366e-001 -2.031845e-001 -4.489995e-001 5.649710e-001 -2.228580e+000
<VARIANCE> 25
 8.297180e+000 2.275606e+001 1.736898e+001 2.240207e+001 2.220594e+001 3.800598e+001 3.555068e+001 3.186797e+001 2.974416e+001 2.564598e+001 3.523408e+001 2.277502e+001 1.304125e+000 1.499895e+000 1.329099e+000 1.722183e+000 1.912484e+000 2.163167e+000 2.493026e+000 2.475760e+000 2.469971e+000 2.326916e+000 2.415788e+000 2.007062e+000 1.222926e+000
<GCONST> 9.251461e+001
<TRANSP> 5
 0.000000e+000 1.000000e+000 0.000000e+000 0.000000e+000 0.000000e+000
 0.000000e+000 5.917628e-001 4.082372e-001 0.000000e+000 0.000000e+000
 0.000000e+000 0.000000e+000 7.226725e-001 2.773275e-001 0.000000e+000
 0.000000e+000 0.000000e+000 0.000000e+000 6.534048e-001 3.465952e-001
 0.000000e+000 0.000000e+000 0.000000e+000 0.000000e+000 0.000000e+000
<ENDHMM>
~h "cc"
<BEGINHMM>
<NUMSTATES> 5
<STATE> 2
<MEAN> 25
 -8.390831e+000 7.944043e+000 7.689423e+000 9.674775e-001 -3.822964e+000 4.507715e+000 -2.202317e+000 1.390532e+000 2.876066e+000 -1.282382e+000 -1.900710e+000 3.745022e+000 -3.509961e+000 1.145521e-001 2.260814e-001 -7.305079e-001 -4.426543e-001 2.146158e+000 8.063035e-002 -4.330883e-001 5.277379e-001 -6.752083e-003 2.719316e-002 2.708843e-001 4.062254e-001
<VARIANCE> 25
 3.695215e+001 1.739094e+001 2.318984e+001 3.726778e+001 3.161583e+001 4.490551e+001 2.769894e+001 3.399717e+001 2.966323e+001 2.111086e+001 2.680588e+001 1.907312e+001 1.674038e+000 4.137402e+000 1.984970e+000 1.975386e+000 2.745646e+000 2.491178e+000 3.033120e+000 2.449219e+000 3.007589e+000 2.011149e+000 2.206464e+000 1.692457e+000 2.112948e+000
<GCONST> 9.705214e+001
<STATE> 3
<MEAN> 25
 -1.879723e+001 1.444573e+000 6.358308e+000 3.918617e-001 -6.339589e+000 9.062263e+000 1.181428e+000 -1.156393e-001 2.000592e+000 -1.506546e+000 6.070651e-001 4.796342e+000 -2.055904e-001 -1.828681e+000 -8.546424e-001 3.939347e-001 -7.424880e-001 -7.469851e-001 1.168022e+000 2.950387e-001 -4.598961e-001 -2.419061e-001 6.006852e-001 2.867843e-001 4.217305e-001
<VARIANCE> 25
 7.649476e+000 1.811382e+001 1.492906e+001 2.533293e+001 2.419210e+001 2.492250e+001 2.411628e+001 2.108011e+001 1.884506e+001 1.747560e+001 1.989898e+001 1.512702e+001 3.016334e+000 1.219776e+000 1.288284e+000 1.635509e+000 2.069484e+000 2.861166e+000 2.207768e+000 2.223663e+000 2.057811e+000 1.820573e+000 1.898492e+000 1.376581e+000 9.162599e-001
<GCONST> 8.856252e+001
<STATE> 4
<MEAN> 25
 -1.003183e+001 -2.587244e+000 3.946696e+000 1.862932e+000 -8.730799e+000 1.997599e-001 3.232022e-001 7.691449e-001 -4.973722e-002 -2.900723e+000 1.682628e+000 5.068914e+000 4.401088e+000 -5.902441e-001 -3.514007e-002 1.694047e-001 1.515753e-001 -3.048365e+000 -1.665376e+000 -2.062232e-001 -7.318233e-001 -6.663966e-003 2.325599e-001 -5.143288e-001 4.542333e-001
<VARIANCE> 25
 5.238071e+001 1.432352e+001 1.554493e+001 2.226582e+001 2.272842e+001 4.332260e+001 3.197753e+001 2.258633e+001 2.684203e+001 1.752148e+001 1.635722e+001 1.286847e+001 2.381026e+000 1.694514e+000 2.251336e+000 1.683218e+000 2.733329e+000 3.246294e+000 2.909169e+000 2.522366e+000 3.227080e+000 2.070723e+000 2.078151e+000 1.608395e+000 1.398015e+000
<GCONST> 9.373618e+001
<TRANSP> 5
 0.000000e+000 1.000000e+000 0.000000e+000 0.000000e+000 0.000000e+000
 0.000000e+000 7.341831e-001 2.658169e-001 0.000000e+000 0.000000e+000
 0.000000e+000 0.000000e+000 7.187461e-001 2.812539e-001 0.000000e+000
 0.000000e+000 0.000000e+000 0.000000e+000 6.549519e-001 3.450482e-001
 0.000000e+000 0.000000e+000 0.000000e+000 0.000000e+000 0.000000e+000
<ENDHMM>
~h "e:"
<BEGINHMM>
<NUMSTATES> 5
<STATE> 2
<MEAN> 25
 2.224859e+000 -5.597268e+000 1.859969e+000 3.175278e-001 -6.664984e+000 -8.402806e+000 5.869209e-001 4.906280e+000 1.932384e-001 4.988846e-001 2.920697e+000 9.513050e-001 4.614371e-001 -8.611067e-002 3.870498e-001 -1.296127e-002 -1.157585e-001 1.505988e-001 1.422844e-001 8.789008e-001 -6.326548e-001 4.039625e-001 2.958128e-001 -2.987212e-001 -6.883204e-002
<VARIANCE> 25
 5.755081e+000 7.556596e+000 1.517874e+001 8.940022e+000 1.975613e+001 3.320858e+001 3.030379e+001 1.823402e+001 2.229485e+001 1.314151e+001 2.244132e+001 1.358413e+001 8.907359e-001 9.144488e-001 1.516064e+000 1.043907e+000 2.574531e+000 2.624515e+000 3.125023e+000 2.050476e+000 2.492235e+000 1.758462e+000 2.233703e+000 1.415061e+000 1.162018e+000
<GCONST> 8.563127e+001
<STATE> 3
<MEAN> 25
 3.930554e+000 -4.534334e+000 3.106863e+000 3.843955e-001 -5.938739e+000 -6.114569e+000 -1.646567e+000 6.281269e+000 -2.696541e+000 2.360884e+000 2.283692e+000 -5.225129e-001 3.976234e-001 1.499921e+000 2.159664e-001 6.758765e-001 9.410629e-001 4.369739e-001 1.086827e-001 -8.813592e-002 1.792000e-001 4.162799e-002 -8.209669e-001 -1.601380e-001 -1.758750e+000
<VARIANCE> 25
 7.262187e+000 1.366325e+001 2.240883e+001 1.359788e+001 2.973826e+001 2.845132e+001 3.421148e+001 1.942980e+001 3.205018e+001 2.118979e+001 2.790948e+001 1.625857e+001 7.320312e-001 1.571760e+000 1.263780e+000 1.075537e+000 1.935238e+000 2.120726e+000 2.835370e+000 1.915398e+000 2.608576e+000 1.627441e+000 1.554890e+000 1.833335e+000 1.210622e+000
<GCONST> 8.837786e+001
<STATE> 4
<MEAN> 25
 3.637209e+000 1.065409e+000 3.366436e+000 2.750738e+000 -4.356767e+000 -6.176344e+000 1.386773e+000 5.336042e+000 7.340471e-001 9.216210e-001 3.290289e-001 4.241924e-001 -7.038054e-001 1.878931e+000 -1.445547e-001 4.643610e-001 9.328873e-001 3.015817e-001 9.498843e-001 -8.238385e-001 1.192712e+000 -4.188515e-001 -6.206849e-001 3.601020e-001 -1.926884e+000
<VARIANCE> 25
 9.107984e+000 2.342640e+001 1.926538e+001 1.440634e+001 2.714363e+001 2.997636e+001 3.866551e+001 2.451930e+001 3.583082e+001 2.164843e+001 2.510101e+001 2.056978e+001 1.914200e+000 2.462948e+000 1.485662e+000 1.639511e+000 2.610037e+000 2.381906e+000 3.350254e+000 2.557929e+000 2.817348e+000 2.408913e+000 1.872615e+000 2.180236e+000 1.416309e+000
<GCONST> 9.347856e+001
<TRANSP> 5
 0.000000e+000 1.000000e+000 0.000000e+000 0.000000e+000 0.000000e+000
 0.000000e+000 6.130397e-001 3.869604e-001 0.000000e+000 0.000000e+000
 0.000000e+000 0.000000e+000 4.275458e-001 5.724542e-001 0.000000e+000
 0.000000e+000 0.000000e+000 0.000000e+000 4.421395e-001 5.578606e-001
 0.000000e+000 0.000000e+000 0.000000e+000 0.000000e+000 0.000000e+000
<ENDHMM>
~h "dz"
<BEGINHMM>
<NUMSTATES> 5
<STATE> 2
<MEAN> 25
 -3.940562e+000 6.400761e+000 9.268703e+000 2.169788e+000 -5.078922e+000 1.774837e+000 -3.295061e+000 1.909622e+000 1.889043e+000 -3.306762e+000 -1.544183e+000 4.349009e+000 -2.974748e+000 2.134028e+000 7.082931e-001 1.303976e-001 -8.567857e-001 1.918653e+000 5.345924e-001 -5.366567e-001 1.242086e+000 -6.796426e-001 -5.461047e-001 6.401814e-001 -3.304014e-001
<VARIANCE> 25
 2.604939e+001 2.509023e+001 2.464475e+001 2.419170e+001 2.150386e+001 3.087499e+001 2.751467e+001 3.623233e+001 2.847914e+001 1.334055e+001 1.841908e+001 1.715346e+001 1.598888e+000 2.821283e+000 1.300436e+000 1.822237e+000 2.093196e+000 2.273370e+000 2.691664e+000 1.916102e+000 2.816271e+000 1.951070e+000 2.162747e+000 1.636623e+000 1.224309e+000
<GCONST> 9.265825e+001
<STATE> 3
<MEAN> 25
 -1.210426e+001 6.236562e+000 1.066177e+001 4.007298e+000 -7.804603e+000 5.091952e+000 -5.141388e-001 -1.030520e+000 1.460367e+000 -3.343693e+000 -5.931242e-001 5.417778e+000 4.262681e-001 -1.863702e+000 -6.602714e-001 1.093239e+000 -7.167721e-001 -1.509410e+000 -2.459779e-002 -8.131348e-001 -1.368126e+000 -1.998705e-001 8.484462e-001 3.023355e-001 7.694569e-001
<VARIANCE> 25
 1.747958e+001 1.399837e+001 1.898455e+001 2.805972e+001 2.127579e+001 3.252969e+001 2.510889e+001 2.582862e+001 2.479286e+001 1.544949e+001 1.560979e+001 1.263107e+001 5.498002e+000 1.611313e+000 1.650888e+000 2.060132e+000 2.011601e+000 4.242623e+000 2.595462e+000 1.968269e+000 2.223180e+000 1.866247e+000 1.775467e+000 1.281790e+000 3.985757e-001
<GCONST> 9.047736e+001
<STATE> 4
<MEAN> 25
 -2.369325e+000 -9.591337e-001 6.415357e+000 5.666643e+000 -8.226448e+000 -3.856588e+000 -4.457360e+000 -1.914421e+000 -1.568605e+000 -4.188208e+000 2.129563e+000 5.426033e+000 3.300740e+000 -1.933275e+000 -1.408993e+000 -5.607185e-001 1.239496e+000 -1.450741e+000 -1.272385e+000 1.783625e-001 2.961806e-001 6.055337e-001 5.085816e-001 -1.132741e+000 5.366226e-001
<VARIANCE> 25
 1.887758e+001 1.316923e+001 1.318207e+001 3.085213e+001 1.603872e+001 1.857773e+001 2.448316e+001 2.090359e+001 2.567135e+001 1.517936e+001 1.274024e+001 1.086816e+001 1.689021e+000 1.440984e+000 1.428945e+000 1.966820e+000 2.727854e+000 3.986466e+000 5.181647e+000 2.932103e+000 3.043160e+000 2.546130e+000 2.040256e+000 1.753346e+000 5.529831e-001
<GCONST> 9.006138e+001
<TRANSP> 5
 0.000000e+000 1.000000e+000 0.000000e+000 0.000000e+000 0.000000e+000
 0.000000e+000 6.679478e-001 3.320522e-001 0.000000e+000 0.000000e+000
 0.000000e+000 0.000000e+000 6.514392e-001 3.485608e-001 0.000000e+000
 0.000000e+000 0.000000e+000 0.000000e+000 6.071672e-001 3.928327e-001
 0.000000e+000 0.000000e+000 0.000000e+000 0.000000e+000 0.000000e+000
<ENDHMM>
~h "i:"
<BEGINHMM>
<NUMSTATES> 5
<STATE> 2
<MEAN> 25
 -6.508725e-001 -3.184098e-001 1.124587e+001 7.874975e-001 -9.807837e+000 -1.895340e+000 -3.214750e+000 -3.068048e+000 -7.194573e+000 -1.454986e-001 3.791549e+000 -1.419817e-001 1.789483e-001 9.936395e-002 2.268243e+000 -7.468001e-001 -2.107871e+000 9.499638e-001 -7.355865e-001 -7.553142e-001 -1.925581e+000 6.967630e-001 1.015840e+000 -9.233882e-001 1.243054e+000
<VARIANCE> 25
 1.114436e+001 2.144976e+001 2.127902e+001 2.189010e+001 2.243046e+001 5.016581e+001 2.765903e+001 3.127787e+001 2.690852e+001 1.899479e+001 2.703035e+001 1.511147e+001 2.937733e+000 1.880078e+000 2.594172e+000 3.673858e+000 3.021815e+000 3.970752e+000 4.806719e+000 2.879443e+000 3.818821e+000 2.203689e+000 2.662990e+000 2.040787e+000 2.487087e+000
<GCONST> 9.741483e+001
<STATE> 3
<MEAN> 25
 -4.805257e-001 1.370045e+000 1.436718e+001 -2.106784e+000 -1.061691e+001 4.794526e+000 -4.230289e+000 -5.513157e+000 -7.891992e+000 2.267301e+000 2.646000e+000 -2.334754e+000 2.272879e-001 1.883584e-001 -1.509123e-001 3.243619e-001 2.945849e-001 1.543298e-001 1.761850e-001 2.576086e-001 -1.690019e-001 -2.183275e-002 -1.010540e-002 -1.491379e-001 -1.909177e-001
<VARIANCE> 25
 6.259862e+000 1.671819e+001 1.415350e+001 2.687854e+001 2.087959e+001 6.129107e+001 2.010293e+001 2.151434e+001 2.598474e+001 1.649972e+001 3.117341e+001 1.463290e+001 6.911356e-001 1.590051e+000 1.305151e+000 1.872464e+000 1.563584e+000 3.122932e+000 1.929302e+000 2.234800e+000 1.795182e+000 1.456732e+000 1.660226e+000 1.191911e+000 8.473948e-001
<GCONST> 8.745976e+001
<STATE> 4
<MEAN> 25
 9.607546e-001 2.064662e+000 1.103922e+001 3.088476e+000 -7.466563e+000 -1.641258e+000 -1.911180e+000 -1.920052e+000 -7.373418e+000 -7.029026e-001 3.430573e+000 -7.117502e-001 -3.610800e-001 1.072415e+000 -1.497480e+000 1.011349e+000 2.385028e+000 -9.603023e-001 9.104292e-001 3.340385e-001 1.656967e+000 -6.077780e-001 -1.156105e+000 1.036001e+000 -1.146887e+000
<VARIANCE> 25
 1.139023e+001 2.452533e+001 1.731015e+001 1.731277e+001 2.532381e+001 3.958616e+001 3.124181e+001 2.499707e+001 2.912811e+001 1.875363e+001 2.506487e+001 1.782371e+001 2.617898e+000 2.991221e+000 1.823956e+000 2.590044e+000 2.557964e+000 3.707439e+000 3.666796e+000 2.913618e+000 3.028086e+000 2.219286e+000 2.100500e+000 2.424970e+000 1.666964e+000
<GCONST> 9.553107e+001
<TRANSP> 5
 0.000000e+000 1.000000e+000 0.000000e+000 0.000000e+000 0.000000e+000
 0.000000e+000 5.433658e-001 4.566342e-001 0.000000e+000 0.000000e+000
 0.000000e+000 0.000000e+000 6.779597e-001 3.220403e-001 0.000000e+000
 0.000000e+000 0.000000e+000 0.000000e+000 5.842541e-001 4.157459e-001
 0.000000e+000 0.000000e+000 0.000000e+000 0.000000e+000 0.000000e+000
<ENDHMM>
~h "o:"
<BEGINHMM>
<NUMSTATES> 5
<STATE> 2
<MEAN> 25
 5.931196e+000 -8.718624e-001 -7.582795e+000 -1.010025e+001 -3.745494e+000 8.696423e+000 -7.351429e-001 -2.655338e+000 -8.149410e-001 -4.821995e-001 4.174987e+000 -5.808250e-001 1.006574e+000 1.313296e-001 -2.691460e-001 -1.998366e+000 -1.147252e+000 1.869445e+000 4.178947e-001 -1.257481e-001 -3.466129e-001 1.006717e-001 9.252784e-001 -2.963246e-001 1.132116e+000
<VARIANCE> 25
 1.022578e+001 2.757683e+001 1.611860e+001 3.742836e+001 3.887364e+001 3.646958e+001 4.568107e+001 3.157270e+001 3.228538e+001 3.147420e+001 3.009155e+001 2.652519e+001 1.976379e+000 2.247117e+000 2.481603e+000 4.049149e+000 3.254338e+000 3.329038e+000 3.394418e+000 3.079404e+000 2.826901e+000 2.802193e+000 2.566549e+000 2.383822e+000 2.763223e+000
<GCONST> 9.955322e+001
<STATE> 3
<MEAN> 25
 6.263497e+000 -1.666441e+000 -7.267931e+000 -1.129670e+001 -3.961779e+000 1.219016e+001 -1.527551e-002 -3.882234e+000 -1.831017e+000 7.148326e-001 6.179713e+000 -7.039728e-001 2.510455e-002 -2.581950e-001 4.458607e-001 8.614827e-001 7.966589e-001 -4.648108e-001 -7.093084e-001 -5.516008e-002 5.316250e-002 8.478264e-001 3.044874e-001 -5.195934e-001 5.183128e-003
<VARIANCE> 25
 7.454306e+000 1.619396e+001 1.290483e+001 2.565325e+001 3.219562e+001 2.735145e+001 3.468542e+001 2.474875e+001 2.781312e+001 3.073281e+001 2.794249e+001 2.198010e+001 5.731173e-001 1.991737e+000 1.188428e+000 2.548360e+000 2.539885e+000 2.567488e+000 3.290216e+000 2.151588e+000 2.476761e+000 2.545472e+000 2.194458e+000 2.352045e+000 1.668926e+000
<GCONST> 9.231675e+001
<STATE> 4
<MEAN> 25
 6.340948e+000 -1.219477e+000 -3.879778e+000 -5.803274e+000 4.981699e-001 6.262345e+000 -4.459176e+000 -1.921861e+000 3.578824e-001 3.843014e+000 4.882991e+000 -3.318374e+000 -5.852598e-001 1.149194e+000 1.420488e+000 1.798487e+000 7.053951e-001 -1.871896e+000 4.166595e-001 1.002569e+000 1.044650e+000 -4.556982e-001 -1.458828e+000 2.341159e-001 -1.488330e+000
<VARIANCE> 25
 7.988542e+000 3.234183e+001 1.984046e+001 3.064660e+001 2.845786e+001 3.808792e+001 6.221576e+001 2.920076e+001 3.023237e+001 3.403572e+001 3.324397e+001 2.720098e+001 2.141320e+000 2.712800e+000 1.671396e+000 2.478319e+000 2.901309e+000 3.132254e+000 4.711436e+000 3.147369e+000 3.127254e+000 2.727169e+000 2.339596e+000 2.804861e+000 2.127830e+000
<GCONST> 9.901209e+001
<TRANSP> 5
 0.000000e+000 1.000000e+000 0.000000e+000 0.000000e+000 0.000000e+000
 0.000000e+000 5.787675e-001 4.212325e-001 0.000000e+000 0.000000e+000
 0.000000e+000 0.000000e+000 6.772930e-001 3.227070e-001 0.000000e+000
 0.000000e+000 0.000000e+000 0.000000e+000 5.889159e-001 4.110841e-001
 0.000000e+000 0.000000e+000 0.000000e+000 0.000000e+000 0.000000e+000
<ENDHMM>
~h "r:"
<BEGINHMM>
<NUMSTATES> 5
<STATE> 2
<MEAN> 25
 2.486193e+000 -5.746669e+000 -4.111397e+000 -2.127168e+000 -1.196826e+000 -6.708323e+000 -5.145205e+000 1.075377e+000 3.076136e+000 2.183234e+000 5.124229e-001 -1.310157e+000 2.381086e+000 -3.124996e-001 1.413001e+000 1.063483e+000 -7.627958e-001 -4.484388e-001 -9.708968e-001 1.725092e-001 1.784693e-001 1.074582e+000 1.028053e+000 -1.274872e+000 8.961566e-001
<VARIANCE> 25
 1.109862e+001 1.142420e+001 1.541167e+001 1.112718e+001 1.957804e+001 3.585209e+001 1.927458e+001 1.796372e+001 1.935452e+001 1.621460e+001 1.688816e+001 1.725785e+001 1.753879e+000 2.156769e+000 2.817659e+000 2.174127e+000 2.577498e+000 2.650863e+000 3.635645e+000 2.934043e+000 2.903353e+000 2.229123e+000 2.266274e+000 1.929510e+000 1.616728e+000
<GCONST> 9.101379e+001
<STATE> 3
<MEAN> 25
 4.855905e+000 -6.865046e+000 -2.052192e+000 2.923209e+000 -9.330334e-001 -7.058774e+000 -3.171308e+000 -1.617097e+000 4.091438e+000 4.685047e+000 2.219995e+000 -2.368483e+000 4.313763e-001 5.954237e-002 5.585460e-001 6.608178e-001 -2.136578e-001 2.831697e-001 2.791469e-002 -5.957740e-001 -1.571814e-001 1.509319e-001 2.725462e-001 3.061086e-002 -5.489120e-001
<VARIANCE> 25
 8.809505e+000 1.204686e+001 1.572982e+001 1.804165e+001 1.528997e+001 2.749432e+001 2.451760e+001 2.432039e+001 1.991637e+001 1.805104e+001 1.840663e+001 1.820751e+001 8.760171e-001 1.448017e+000 2.024457e+000 3.476047e+000 1.424710e+000 3.800847e+000 2.576743e+000 2.563408e+000 2.055737e+000 1.875770e+000 2.303646e+000 1.502330e+000 1.319740e+000
<GCONST> 8.902566e+001
<STATE> 4
<MEAN> 25
 5.578333e+000 -2.852897e+000 -1.083410e+000 2.330609e+000 -8.612446e-001 -2.484524e+000 -3.881473e+000 -2.100728e+000 3.024772e+000 3.001208e+000 2.872792e+000 -1.349559e+000 -2.217984e-001 1.906263e+000 5.265259e-001 9.982540e-002 2.150671e-001 1.482346e+000 6.722975e-001 -3.319801e-001 -4.029709e-001 -7.044792e-001 -1.026557e-001 4.951910e-001 -1.574739e+000
<VARIANCE> 25
 1.777168e+001 2.703008e+001 2.723900e+001 2.108710e+001 2.132923e+001 3.037838e+001 2.807632e+001 3.313897e+001 3.512383e+001 2.227864e+001 2.689594e+001 2.292556e+001 1.671273e+000 2.009607e+000 1.677855e+000 2.199006e+000 2.001030e+000 3.505184e+000 2.452895e+000 2.668774e+000 3.429371e+000 1.784579e+000 3.003607e+000 1.766758e+000 1.140019e+000
<GCONST> 9.482638e+001
<TRANSP> 5
 0.000000e+000 1.000000e+000 0.000000e+000 0.000000e+000 0.000000e+000
 0.000000e+000 3.348721e-001 6.651280e-001 0.000000e+000 0.000000e+000
 0.000000e+000 0.000000e+000 6.603800e-001 3.396200e-001 0.000000e+000
 0.000000e+000 0.000000e+000 0.000000e+000 5.062148e-001 4.937853e-001
 0.000000e+000 0.000000e+000 0.000000e+000 0.000000e+000 0.000000e+000
<ENDHMM>
~h "u:"
<BEGINHMM>
<NUMSTATES> 5
<STATE> 2
<MEAN> 25
 4.985343e+000 1.052497e+000 -2.644366e+000 -5.297900e+000 -2.302984e+000 5.614644e+000 -9.243604e+000 -6.710554e+000 -1.733976e+000 -7.313321e-001 6.472016e+000 -9.382258e-001 2.018866e+000 1.252823e+000 -5.643236e-002 -2.871189e+000 -1.128357e+000 2.355425e+000 7.022630e-002 -8.698258e-001 -1.571616e+000 -5.942160e-001 1.521083e+000 -3.588690e-001 3.443632e-001
<VARIANCE> 25
 1.443936e+001 3.045174e+001 1.914061e+001 4.568170e+001 2.829840e+001 4.541812e+001 5.960265e+001 4.155755e+001 3.283062e+001 3.058245e+001 4.132619e+001 2.670755e+001 3.164737e+000 2.630126e+000 3.594942e+000 3.407390e+000 4.666108e+000 3.565052e+000 6.168632e+000 6.035152e+000 5.675568e+000 3.962363e+000 4.112932e+000 3.200536e+000 2.102845e+000
<GCONST> 1.051852e+002
<STATE> 3
<MEAN> 25
 7.784883e+000 5.362963e+000 -1.745518e+000 -1.160551e+001 -6.777255e+000 1.016576e+001 -3.648590e+000 -3.113542e+000 -3.119134e+000 -5.357373e+000 4.279149e+000 -1.099550e+000 1.087109e-001 -6.394726e-002 7.210205e-002 3.657869e-001 9.223194e-002 5.273209e-001 3.872767e-001 -2.006085e-001 -1.439340e-002 -7.590925e-002 -1.301204e-002 -4.940534e-002 -8.143172e-002
<VARIANCE> 25
 6.359819e+000 2.681448e+001 1.470474e+001 3.294126e+001 2.887518e+001 4.271322e+001 3.747008e+001 3.989551e+001 3.797887e+001 2.852262e+001 4.624081e+001 2.937024e+001 5.143341e-001 2.911253e+000 1.371605e+000 4.134749e+000 3.340988e+000 3.474767e+000 4.608667e+000 4.408444e+000 3.020789e+000 3.573470e+000 4.620084e+000 2.637748e+000 1.546075e+000
<GCONST> 9.881511e+001
<STATE> 4
<MEAN> 25
 6.624506e+000 2.189026e+000 -7.456775e-001 -3.705667e+000 -1.213120e+000 8.590471e+000 -6.481233e+000 -7.485818e+000 -1.050318e+000 -9.385683e-001 5.950868e+000 -8.681632e-001 -8.432071e-001 2.820099e-001 6.720684e-001 2.618800e+000 1.366753e+000 -2.251968e+000 1.063892e+000 5.375841e-001 1.377273e+000 5.671369e-001 -1.837724e+000 4.566864e-001 -1.124765e+000
<VARIANCE> 25
 9.025137e+000 3.625412e+001 2.440418e+001 3.663945e+001 2.969044e+001 3.984850e+001 7.886507e+001 4.744699e+001 3.377211e+001 3.235748e+001 4.932518e+001 3.250771e+001 1.680035e+000 3.152395e+000 1.793359e+000 3.569769e+000 4.027971e+000 3.948987e+000 6.129900e+000 4.660222e+000 4.200962e+000 3.814739e+000 3.582485e+000 3.011336e+000 2.140977e+000
<GCONST> 1.037694e+002
<TRANSP> 5
 0.000000e+000 1.000000e+000 0.000000e+000 0.000000e+000 0.000000e+000
 0.000000e+000 5.458562e-001 4.541439e-001 0.000000e+000 0.000000e+000
 0.000000e+000 0.000000e+000 7.342801e-001 2.657199e-001 0.000000e+000
 0.000000e+000 0.000000e+000 0.000000e+000 5.811270e-001 4.188730e-001
 0.000000e+000 0.000000e+000 0.000000e+000 0.000000e+000 0.000000e+000
<ENDHMM>
~h "uzdah"
<BEGINHMM>
<NUMSTATES> 3
<STATE> 2
~s "silst"
<TRANSP> 3
 0.000000e+000 1.319245e-001 8.680755e-001
 0.000000e+000 8.434917e-001 1.565083e-001
 0.000000e+000 0.000000e+000 0.000000e+000
<ENDHMM>
~h "sil"
<BEGINHMM>
<NUMSTATES> 5
<STATE> 2
<MEAN> 25
 -2.163774e+000 2.291053e+000 -1.788771e+000 2.150427e+000 2.191493e+000 2.122958e+000 5.312875e+000 8.041554e-001 3.536243e+000 -2.290508e+000 -2.121667e+000 1.994854e+000 -2.715831e-001 2.860214e-002 -1.720427e-002 -1.537471e-002 4.389535e-002 2.366571e-003 -2.357363e-002 3.257496e-002 1.323707e-001 2.572843e-002 2.231515e-001 2.137898e-001 -3.227735e-001
<VARIANCE> 25
 1.427215e+001 2.381209e+001 1.857612e+001 1.549370e+001 2.160063e+001 2.098898e+001 2.378253e+001 2.621371e+001 2.403059e+001 2.117665e+001 2.352466e+001 2.083799e+001 7.456354e-001 1.653535e+000 1.158509e+000 1.183223e+000 1.575091e+000 1.763249e+000 1.896404e+000 2.055957e+000 2.039051e+000 1.897973e+000 1.817713e+000 1.695108e+000 1.131456e+000
<GCONST> 8.792580e+001
<STATE> 3
<MEAN> 25
