~o
<STREAMINFO> 1 25
<VECSIZE> 25<NULLD><MFCC_D_N_Z_0><DIAGC>
~s "silst"
<MEAN> 25
 -2.323226e+000 7.330416e-001 -1.150810e+000 7.736564e-001 1.343509e+000 3.918431e-001 3.143512e+000 7.732538e-001 2.342452e+000 -1.334282e+000 -1.893201e+000 1.699129e+000 -1.437080e-001 2.452092e-002 7.265302e-002 -4.564987e-002 -1.220490e-001 -4.811721e-003 -9.569792e-002 -1.053886e-001 -5.316808e-002 4.316379e-003 2.912897e-002 3.298901e-002 -1.490302e-001
<VARIANCE> 25
 3.074708e+001 4.297868e+001 3.160061e+001 2.524891e+001 3.248256e+001 3.719475e+001 3.632443e+001 3.417183e+001 3.154115e+001 2.722445e+001 3.052383e+001 2.772251e+001 2.064772e+000 2.898336e+000 2.177495e+000 2.206818e+000 2.665955e+000 2.890574e+000 3.195266e+000 3.046487e+000 2.844653e+000 2.491868e+000 2.366998e+000 2.146020e+000 3.286909e+000
<GCONST> 9.998253e+001
~h "C"
<BEGINHMM>
<NUMSTATES> 5
<STATE> 2
<MEAN> 25
 -5.923821e+000 -1.411576e+000 1.177098e+000 4.579983e+000 -4.410872e+000 2.989536e+000 3.026421e+000 -1.969539e+000 4.425858e+000 -1.789147e+000 -9.515830e-003 2.592128e+000 -4.567344e+000 -1.124352e+000 -9.584926e-001 1.458820e-001 -8.200336e-001 7.275959e-001 -4.414473e-001 -4.841462e-001 7.596888e-001 -1.023785e+000 2.226468e-001 1.183279e+000 2.755405e+000
<VARIANCE> 25
 5.078371e+001 4.729080e+001 3.181810e+001 2.669645e+001 2.907693e+001 3.781399e+001 3.285366e+001 3.509244e+001 2.560811e+001 2.344899e+001 2.773740e+001 2.223392e+001 2.493786e+000 4.932652e+000 3.057220e+000 2.194621e+000 3.597275e+000 3.841007e+000 4.614447e+000 4.728621e+000 4.158986e+000 3.283030e+000 3.211944e+000 2.614393e+000 2.894800e+000
<GCONST> 1.032770e+002
<STATE> 3
<MEAN> 25
 -1.782616e+001 1.148566e+000 6.327043e-001 4.263051e+000 -2.739971e+000 2.820541e+000 -1.365696e+000 4.380636e-001 9.843248e+000 -5.688575e+000 -1.252017e+000 4.635238e+000 -9.027936e-002 2.893142e-001 -6.247069e-002 -6.252868e-002 8.111711e-001 -9.840760e-001 -1.001371e+000 9.199224e-001 7.296614e-001 -8.390328e-001 -9.427836e-002 -1.365829e-001 -5.393397e-001
<VARIANCE> 25
 1.227590e+001 1.747589e+001 2.072266e+001 2.371058e+001 2.789110e+001 3.259934e+001 3.708549e+001 4.700135e+001 4.255230e+001 3.376649e+001 2.831277e+001 2.925177e+001 5.854097e+000 2.908570e+000 2.047662e+000 1.612966e+000 2.436275e+000 3.474051e+000 3.654256e+000 5.037252e+000 4.713620e+000 2.863376e+000 2.252500e+000 2.181740e+000 1.730487e+000
<GCONST> 9.959914e+001
<STATE> 4
<MEAN> 25
 -8.387915e+000 -1.523600e+000 -1.365632e-001 3.397581e+000 -2.915124e+000 -1.801733e+000 -2.835773e+000 6.426715e-001 5.909439e+000 -5.679900e+000 6.655969e-001 2.354738e+000 4.456173e+000 -7.858806e-001 1.989770e-001 -6.880679e-001 -1.837509e-001 -1.285716e+000 -3.719432e-001 -4.533665e-001 -2.072614e+000 1.316320e+000 7.668892e-001 -1.246635e+000 2.384512e-001
<VARIANCE> 25
 4.968628e+001 1.751247e+001 2.159747e+001 2.092316e+001 3.637055e+001 3.747527e+001 3.292096e+001 5.658293e+001 5.413786e+001 3.055044e+001 2.395866e+001 2.519170e+001 2.723938e+000 2.081357e+000 2.404278e+000 2.048393e+000 2.331496e+000 4.625605e+000 3.527630e+000 3.694020e+000 3.363872e+000 3.019490e+000 2.703254e+000 2.088615e+000 2.291741e+000
<GCONST> 1.005433e+002
<TRANSP> 5
 0.000000e+000 1.000000e+000 0.000000e+000 0.000000e+000 0.000000e+000
 0.000000e+000 6.633750e-001 3.366251e-001 0.000000e+000 0.000000e+000
 0.000000e+000 0.000000e+000 6.406305e-001 3.593694e-001 0.000000e+000
 0.000000e+000 0.000000e+000 0.000000e+000 6.141571e-001 3.858429e-001
 0.000000e+000 0.000000e+000 0.000000e+000 0.000000e+000 0.000000e+000
<ENDHMM>
~h "L"
<BEGINHMM>
<NUMSTATES> 5
<STATE> 2
<MEAN> 25
 1.861120e+000 -1.048003e+000 7.774940e+000 2.510861e+000 -3.645746e+000 -4.731040e+000 -2.540537e+000 7.252328e-001 -3.158088e+000 -1.819159e+000 5.634522e-001 2.593275e+000 -1.490214e-001 5.932842e-001 1.854922e+000 1.210580e-001 -5.790715e-001 -5.469372e-002 -1.760053e-002 -1.921707e-002 -1.554847e+000 -6.685256e-001 1.365039e-001 2.499307e-001 -2.166958e-001
<VARIANCE> 25
 1.306465e+001 2.316631e+001 1.815829e+001 2.199830e+001 2.054718e+001 2.405319e+001 3.257250e+001 2.694083e+001 3.165809e+001 2.223206e+001 2.338292e+001 1.595585e+001 1.632489e+000 2.163375e+000 2.538763e+000 2.468912e+000 2.448063e+000 2.802689e+000 3.765587e+000 3.399717e+000 2.981599e+000 2.403943e+000 2.290037e+000 1.839018e+000 1.810817e+000
<GCONST> 9.468194e+001
<STATE> 3
<MEAN> 25
 7.306579e-001 9.801040e-002 1.065242e+001 1.363591e+000 -4.477100e+000 -3.639819e+000 -3.517632e+000 2.796804e-001 -6.508321e+000 -2.138946e+000 2.018179e+000 3.084629e+000 -9.388573e-002 -5.576701e-001 -1.313537e-001 -7.121491e-001 -9.253247e-001 8.850912e-002 -5.754154e-001 4.518923e-001 3.986235e-002 4.628261e-001 7.413676e-001 2.933247e-001 9.202018e-001
<VARIANCE> 25
 7.285051e+000 1.707596e+001 1.537861e+001 1.913194e+001 2.081411e+001 2.396031e+001 2.378927e+001 2.168127e+001 2.065518e+001 2.022951e+001 1.972815e+001 1.567365e+001 1.135984e+000 1.675809e+000 1.712181e+000 1.878543e+000 1.998230e+000 1.916646e+000 3.155086e+000 2.412159e+000 2.595403e+000 1.675334e+000 1.724321e+000 1.864246e+000 1.021762e+000
<GCONST> 8.852502e+001
<STATE> 4
<MEAN> 25
 1.596743e+000 -2.555728e+000 6.777985e+000 3.678808e-001 -6.601951e+000 -4.286347e+000 -3.583476e+000 3.070964e+000 -3.471917e+000 -6.028441e-001 3.079092e+000 2.794571e+000 4.888056e-001 -4.845856e-001 -1.597800e+000 -6.140802e-002 2.799706e-001 3.554852e-001 5.055556e-002 6.095621e-001 7.860475e-001 4.873268e-001 -7.425155e-002 -8.838044e-001 3.670809e-001
<VARIANCE> 25
 5.987460e+000 1.565989e+001 1.972037e+001 2.078525e+001 1.857716e+001 2.477724e+001 4.394201e+001 2.300204e+001 2.041652e+001 1.984490e+001 1.818086e+001 1.516030e+001 6.774841e-001 1.513391e+000 1.979079e+000 1.473140e+000 2.388565e+000 2.113038e+000 4.449101e+000 2.930789e+000 2.164246e+000 2.024637e+000 2.431289e+000 1.859799e+000 8.828498e-001
<GCONST> 8.932080e+001
<TRANSP> 5
 0.000000e+000 1.000000e+000 0.000000e+000 0.000000e+000 0.000000e+000
 0.000000e+000 5.192629e-001 4.807371e-001 0.000000e+000 0.000000e+000
 0.000000e+000 0.000000e+000 5.349373e-001 4.650627e-001 0.000000e+000
 0.000000e+000 0.000000e+000 0.000000e+000 5.234441e-001 4.765559e-001
 0.000000e+000 0.000000e+000 0.000000e+000 0.000000e+000 0.000000e+000
<ENDHMM>
~h "N"
<BEGINHMM>
<NUMSTATES> 5
<STATE> 2
<MEAN> 25
 3.736648e+000 2.191855e+000 4.532656e+000 1.057424e+000 1.059743e-001 1.827300e+000 1.948763e+000 6.261523e-001 -4.984715e+000 -2.115120e+000 -4.525195e+000 -2.877235e-001 3.515305e-001 1.417587e+000 9.704824e-001 -1.677006e-001 2.001251e-001 5.854226e-001 -5.922069e-001 -8.392678e-001 -5.369777e-001 2.269070e-001 -1.463391e-001 4.383158e-003 -6.672312e-001
<VARIANCE> 25
 1.427071e+001 3.179922e+001 1.589733e+001 2.264491e+001 2.252887e+001 2.442327e+001 3.010071e+001 3.612531e+001 2.158800e+001 2.086531e+001 2.264574e+001 1.569465e+001 2.188575e+000 2.429154e+000 2.362817e+000 2.854815e+000 2.504917e+000 2.922045e+000 2.560182e+000 2.841443e+000 3.069426e+000 1.887393e+000 1.787451e+000 1.655724e+000 2.678544e+000
<GCONST> 9.461763e+001
<STATE> 3
<MEAN> 25
 1.403273e+000 4.402323e+000 9.052360e+000 -2.818371e+000 -7.881253e-001 6.586660e+000 -7.650235e-001 -2.317060e+000 -6.369324e+000 4.860959e-001 -3.029839e+000 -1.244556e+000 -6.074694e-001 -1.012876e+000 1.147609e+000 -1.174747e+000 -1.356925e+000 1.062005e+000 5.887068e-001 4.813869e-001 -6.431928e-001 6.514921e-001 4.764864e-001 -5.811515e-001 1.266655e+000
<VARIANCE> 25
 1.009691e+001 2.026683e+001 1.623383e+001 2.168722e+001 2.393747e+001 2.694791e+001 2.280802e+001 2.069550e+001 1.686015e+001 1.678598e+001 1.671757e+001 1.279060e+001 1.830863e+000 2.018705e+000 1.591310e+000 2.265815e+000 2.528819e+000 2.702067e+000 2.183346e+000 2.556974e+000 1.821965e+000 1.795246e+000 1.824231e+000 1.345627e+000 1.370676e+000
<GCONST> 8.939857e+001
<STATE> 4
<MEAN> 25
 1.064212e+000 -3.981511e-001 8.189686e+000 -2.165575e+000 -4.723141e+000 5.308126e+000 4.431866e+000 1.212110e+000 -6.113074e+000 -2.368472e-001 -2.217957e+000 -2.320201e+000 3.019710e-001 -8.453358e-001 -9.254816e-001 8.108207e-001 1.060604e-001 -9.888217e-001 7.447475e-001 9.961042e-001 4.974217e-001 -4.786950e-001 6.833192e-004 -7.743279e-002 9.567434e-002
<VARIANCE> 25
 7.039928e+000 2.082920e+001 1.774077e+001 2.107858e+001 1.936615e+001 2.700146e+001 2.958172e+001 2.492024e+001 1.833535e+001 2.430689e+001 2.359406e+001 1.242233e+001 5.672089e-001 1.932485e+000 1.707958e+000 1.625161e+000 2.635376e+000 1.941933e+000 2.796903e+000 2.200368e+000 1.963453e+000 1.900857e+000 1.721129e+000 1.105090e+000 1.366613e+000
<GCONST> 8.833612e+001
<TRANSP> 5
 0.000000e+000 1.000000e+000 0.000000e+000 0.000000e+000 0.000000e+000
 0.000000e+000 6.673853e-001 3.326146e-001 0.000000e+000 0.000000e+000
 0.000000e+000 0.000000e+000 5.840893e-001 4.159107e-001 0.000000e+000
 0.000000e+000 0.000000e+000 0.000000e+000 6.732559e-001 3.267441e-001
 0.000000e+000 0.000000e+000 0.000000e+000 0.000000e+000 0.000000e+000
<ENDHMM>
~h "S"
<BEGINHMM>
<NUMSTATES> 5
<STATE> 2
<MEAN> 25
 -8.288445e+000 -1.248389e+000 5.146557e+000 7.677448e+000 -5.889045e-002 3.740619e-001 7.418956e-002 -1.945813e+000 8.141729e+000 -1.434670e+000 -6.707870e-001 1.631327e+000 -4.446347e+000 -1.755387e-001 6.122911e-001 1.152058e+000 6.209562e-001 3.804981e-001 5.276684e-001 -2.330427e-001 2.501435e+000 5.498337e-002 -1.006960e+000 -9.956765e-002 9.061185e-001
<VARIANCE> 25
 3.861034e+001 1.801325e+001 2.911370e+001 2.472313e+001 4.265982e+001 3.407346e+001 4.659411e+001 4.525797e+001 3.047797e+001 3.396035e+001 4.627420e+001 4.116125e+001 1.909909e+000 2.758576e+000 3.045211e+000 2.453620e+000 3.598514e+000 4.280090e+000 3.240835e+000 3.196499e+000 4.100783e+000 2.673247e+000 3.497262e+000 3.313480e+000 1.064239e+000
<GCONST> 1.021524e+002
<STATE> 3
<MEAN> 25
 -1.747512e+001 -3.292809e+000 4.202805e+000 6.624403e+000 1.122750e-001 2.416076e+000 1.419788e-002 -3.744299e+000 1.218642e+001 -6.143016e-001 -3.212627e+000 4.385734e-001 -2.146975e-001 -1.670011e-001 -6.581967e-001 -6.613021e-001 5.944918e-002 4.305034e-001 -4.589709e-001 5.865938e-002 2.514929e-001 -1.879859e-001 -2.144619e-001 2.523757e-001 -7.198287e-001
<VARIANCE> 25
 8.894986e+000 2.620038e+001 1.512932e+001 1.953067e+001 2.841780e+001 3.532965e+001 3.796161e+001 3.962022e+001 2.988601e+001 3.670318e+001 3.873711e+001 3.598338e+001 2.976150e+000 1.492095e+000 1.128263e+000 1.353766e+000 2.145296e+000 2.249650e+000 2.840707e+000 3.634838e+000 2.758387e+000 2.643978e+000 2.427304e+000 2.595485e+000 6.446562e-001
<GCONST> 9.476607e+001
<STATE> 4
<MEAN> 25
 -9.177353e+000 -2.332545e+000 8.979095e-001 2.661717e+000 -7.080775e-001 1.749792e+000 -3.204918e+000 -1.928947e+000 9.005980e+000 -2.778871e+000 -1.807164e+000 2.344130e+000 3.876328e+000 3.274861e-001 -4.202479e-001 -1.238743e+000 -7.216631e-001 -1.250632e+000 -2.757451e-002 2.296753e-001 -2.210836e+000 1.721566e-002 1.162450e+000 -2.785774e-001 -6.148242e-001
<VARIANCE> 25
 5.048888e+001 3.143320e+001 2.117814e+001 2.096331e+001 3.547639e+001 3.966188e+001 4.035842e+001 5.391718e+001 4.280869e+001 3.368063e+001 3.443397e+001 2.706908e+001 4.579407e+000 1.597860e+000 2.130690e+000 1.661865e+000 2.318084e+000 4.265242e+000 3.357117e+000 3.521330e+000 3.814246e+000 3.088686e+000 3.492929e+000 2.652237e+000 3.397891e+000
<GCONST> 1.023895e+002
<TRANSP> 5
 0.000000e+000 1.000000e+000 0.000000e+000 0.000000e+000 0.000000e+000
 0.000000e+000 6.488893e-001 3.511107e-001 0.000000e+000 0.000000e+000
 0.000000e+000 0.000000e+000 7.697117e-001 2.302883e-001 0.000000e+000
 0.000000e+000 0.000000e+000 0.000000e+000 6.425301e-001 3.574699e-001
 0.000000e+000 0.000000e+000 0.000000e+000 0.000000e+000 0.000000e+000
<ENDHMM>
~h "Z"
<BEGINHMM>
<NUMSTATES> 5
<STATE> 2
<MEAN> 25
 -3.052582e+000 3.744284e-001 2.566827e+000 2.859974e+000 1.615995e+000 -3.210934e+000 3.832302e-001 -1.047465e+001 5.184600e+000 1.913363e+000 2.334479e+000 1.721791e+000 -3.470838e+000 1.483064e+000 1.640379e+000 1.032556e+000 4.360497e-001 -6.749079e-001 1.557742e+000 -6.835557e-001 1.483603e+000 -3.306842e-001 -7.727679e-001 -1.238927e-001 2.737320e-001
<VARIANCE> 25
 2.485243e+001 1.235170e+001 2.374988e+001 2.414056e+001 6.063345e+001 3.471607e+001 3.251120e+001 5.203667e+001 4.194252e+001 2.276619e+001 3.229362e+001 3.201873e+001 1.262900e+000 1.770767e+000 1.885988e+000 1.939204e+000 5.317958e+000 6.975813e+000 3.425678e+000 4.338181e+000 3.464256e+000 2.505998e+000 2.625101e+000 2.822157e+000 5.003819e-001
<GCONST> 9.879877e+001
<STATE> 3
<MEAN> 25
 -1.148978e+001 2.699530e+000 7.201819e+000 5.164493e+000 -1.464628e+000 -8.288828e-001 1.679406e+000 -9.489835e+000 8.802535e+000 2.882403e-002 -4.313094e-001 -4.877894e-001 -5.063468e-001 1.846710e-001 -7.534655e-003 -6.494053e-002 -2.814270e-001 7.774590e-001 -6.031737e-001 -4.725865e-002 2.752698e-001 -6.405878e-001 -5.748193e-001 1.714701e-001 -2.882642e-001
<VARIANCE> 25
 1.542364e+001 1.284021e+001 1.934481e+001 1.881297e+001 4.175478e+001 4.038104e+001 3.426324e+001 4.056198e+001 3.540856e+001 2.484121e+001 3.315017e+001 2.503506e+001 3.409329e+000 9.888943e-001 1.693661e+000 1.527290e+000 2.350198e+000 2.260287e+000 3.380968e+000 2.624560e+000 2.712161e+000 2.158416e+000 2.193115e+000 2.550314e+000 4.487146e-001
<GCONST> 9.400633e+001
<STATE> 4
<MEAN> 25
 -4.824422e+000 6.110871e-001 2.885606e+000 2.813021e+000 -1.980963e+000 -6.534300e-002 -4.106001e+000 -8.164231e+000 7.596497e+000 -1.831756e+000 -4.982874e-001 1.574699e+000 3.352816e+000 -1.391533e+000 -1.432296e+000 -6.224130e-001 -1.597009e-001 -4.618418e-001 -1.032303e+000 1.350741e+000 -1.528559e+000 8.120679e-002 6.518713e-001 -1.496812e-001 -9.911430e-002
<VARIANCE> 25
 3.783106e+001 2.160558e+001 2.764269e+001 2.099151e+001 2.914869e+001 3.113864e+001 3.430755e+001 4.496923e+001 3.501972e+001 2.817090e+001 2.625099e+001 2.695857e+001 1.880707e+000 1.641628e+000 2.319861e+000 1.645082e+000 1.898217e+000 3.820189e+000 3.100428e+000 4.176467e+000 3.606284e+000 2.223534e+000 3.461491e+000 2.462216e+000 7.504485e-001
<GCONST> 9.757121e+001
<TRANSP> 5
 0.000000e+000 1.000000e+000 0.000000e+000 0.000000e+000 0.000000e+000
 0.000000e+000 6.260195e-001 3.739806e-001 0.000000e+000 0.000000e+000
 0.000000e+000 0.000000e+000 6.690944e-001 3.309056e-001 0.000000e+000
 0.000000e+000 0.000000e+000 0.000000e+000 6.434394e-001 3.565606e-001
 0.000000e+000 0.000000e+000 0.000000e+000 0.000000e+000 0.000000e+000
<ENDHMM>
~h "a"
<BEGINHMM>
<NUMSTATES> 5
<STATE> 2
<MEAN> 25
 3.952253e+000 -7.038827e+000 -5.139250e+000 -1.869327e+000 2.123218e+000 -1.444113e+000 -1.839548e+000 3.843868e+000 1.985745e+000 1.830612e+000 -2.888660e+000 -4.029911e+000 7.511950e-001 -4.854675e-001 -1.484111e-001 4.815031e-002 4.786779e-001 7.373480e-001 2.128692e-001 7.901963e-001 -9.878278e-002 1.414918e-001 -5.629438e-001 -9.489971e-001 4.824075e-001
<VARIANCE> 25
 6.803695e+000 1.077503e+001 1.508706e+001 1.498629e+001 2.119056e+001 4.309318e+001 2.745445e+001 2.245909e+001 1.977242e+001 2.111405e+001 2.552464e+001 2.041291e+001 1.809535e+000 1.342434e+000 1.527156e+000 1.580799e+000 1.900171e+000 3.096773e+000 2.498015e+000 2.511344e+000 2.044559e+000 2.123979e+000 2.657538e+000 2.142177e+000 1.709810e+000
<GCONST> 9.031537e+001
<STATE> 3
<MEAN> 25
 5.175991e+000 -5.886790e+000 -5.150420e+000 -5.865271e-001 3.768925e+000 1.087413e+000 -6.757924e-001 3.813756e+000 1.194510e+000 1.828573e+000 -4.046448e+000 -5.998788e+000 3.239547e-001 1.274495e+000 4.273935e-001 6.665731e-001 8.617134e-002 1.866996e-001 7.338205e-001 -1.030283e-001 1.508011e-001 -3.967297e-002 -2.569363e-001 -6.250791e-002 -1.510231e+000
<VARIANCE> 25
 7.045115e+000 1.544228e+001 1.866575e+001 1.880867e+001 2.463592e+001 4.161204e+001 3.041514e+001 2.584915e+001 2.429439e+001 2.777051e+001 3.621932e+001 2.414400e+001 6.898335e-001 1.746327e+000 1.286429e+000 1.476868e+000 1.748627e+000 2.530426e+000 2.079886e+000 2.332723e+000 2.284875e+000 1.896777e+000 2.278543e+000 1.789271e+000 1.787643e+000
<GCONST> 9.073232e+001
<STATE> 4
<MEAN> 25
 4.549606e+000 -3.234410e-001 -3.625916e+000 1.222408e+000 2.689063e+000 4.806163e-001 3.240676e+000 3.702140e+000 3.719165e+000 3.864779e-001 -5.270264e+000 -4.039786e+000 -5.996389e-001 1.511770e+000 7.361847e-001 2.940670e-001 -4.259663e-001 -7.964237e-002 8.776348e-001 -3.777995e-001 3.616471e-001 -3.937137e-001 6.688754e-002 7.256647e-001 -1.673069e+000
<VARIANCE> 25
 1.062348e+001 2.650590e+001 2.003235e+001 2.115710e+001 2.629067e+001 4.042106e+001 3.792331e+001 3.446386e+001 3.742827e+001 2.982459e+001 3.621587e+001 2.393328e+001 1.300357e+000 2.062810e+000 1.469208e+000 1.872666e+000 2.054469e+000 2.269794e+000 2.452285e+000 2.875601e+000 3.020109e+000 2.236748e+000 2.427194e+000 1.918872e+000 1.371816e+000
<GCONST> 9.481996e+001
<TRANSP> 5
 0.000000e+000 1.000000e+000 0.000000e+000 0.000000e+000 0.000000e+000
 0.000000e+000 4.755357e-001 5.244643e-001 0.000000e+000 0.000000e+000
 0.000000e+000 0.000000e+000 5.036799e-001 4.963201e-001 0.000000e+000
 0.000000e+000 0.000000e+000 0.000000e+000 5.222284e-001 4.777716e-001
 0.000000e+000 0.000000e+000 0.000000e+000 0.000000e+000 0.000000e+000
<ENDHMM>
~h "b"
<BEGINHMM>
<NUMSTATES> 5
<STATE> 2
<MEAN> 25
 5.921000e+000 9.003587e+000 1.257700e+000 1.275100e+000 2.002458e+000 2.386810e+000 2.295382e+000 -2.965255e+000 4.890302e-002 -3.092239e+000 -2.038220e+000 -7.613283e-001 -3.891199e-001 4.206754e-001 2.560046e-001 7.913939e-001 5.455962e-001 -8.469798e-002 3.322151e-001 -1.026860e-001 6.883823e-002 -5.506201e-001 -6.022451e-001 2.453074e-002 -5.521666e-001
<VARIANCE> 25
 1.708382e+001 2.057247e+001 2.040679e+001 2.932159e+001 2.449030e+001 3.188062e+001 3.125910e+001 2.751799e+001 2.658448e+001 2.477338e+001 2.498703e+001 2.271815e+001 2.067493e+000 2.976853e+000 1.562439e+000 2.207493e+000 1.694611e+000 2.810973e+000 2.964561e+000 2.524471e+000 2.549513e+000 2.065928e+000 2.074350e+000 1.857938e+000 2.754944e+000
<GCONST> 9.510529e+001
<STATE> 3
<MEAN> 25
 4.197623e+000 7.320117e+000 9.746383e-001 2.694507e+000 3.215406e+000 2.098711e+000 1.988888e+000 -2.949658e+000 8.258523e-001 -3.547930e+000 -2.767819e+000 -1.137686e-001 -1.299573e+000 -3.117373e+000 -8.627814e-001 -6.681269e-002 -3.662946e-001 -7.593569e-001 -1.770855e+000 -3.041649e-001 -2.100146e-001 7.483253e-001 9.529678e-001 2.977053e-001 2.719505e+000
<VARIANCE> 25
 1.684505e+001 2.777243e+001 1.753826e+001 2.479270e+001 2.160497e+001 2.769813e+001 2.654481e+001 2.391130e+001 2.309036e+001 2.241499e+001 2.336079e+001 1.816653e+001 1.822332e+000 2.237473e+000 4.261003e+000 4.477619e+000 3.154154e+000 5.208944e+000 3.302884e+000 3.758164e+000 3.980759e+000 3.165757e+000 3.076767e+000 2.516269e+000 1.762277e+000
<GCONST> 9.813623e+001
<STATE> 4
<MEAN> 25
 1.854971e+000 -1.690378e+000 -2.676859e+000 9.324428e-001 1.702091e+000 4.240256e-001 -3.293705e+000 -3.703099e+000 6.902111e-001 -2.298839e-001 7.991024e-001 2.755007e-001 -2.246580e-001 -3.125216e+000 -4.275726e-001 -1.427877e+000 -1.979683e+000 -3.115928e-001 -1.985915e+000 9.785213e-002 -8.189808e-001 1.331814e+000 1.880315e+000 -1.128780e-001 3.310499e+000
<VARIANCE> 25
 1.689172e+001 1.846425e+001 3.320938e+001 4.457939e+001 2.574270e+001 4.878905e+001 3.108159e+001 2.745567e+001 2.760471e+001 2.668045e+001 3.030935e+001 1.548091e+001 2.054118e+000 2.270557e+000 6.107074e+000 5.300588e+000 4.210702e+000 6.065775e+000 3.842986e+000 4.813182e+000 5.727398e+000 3.949506e+000 3.800085e+000 2.969087e+000 1.550635e+000
<GCONST> 1.027833e+002
<TRANSP> 5
 0.000000e+000 1.000000e+000 0.000000e+000 0.000000e+000 0.000000e+000
 0.000000e+000 5.645440e-001 4.354560e-001 0.000000e+000 0.000000e+000
 0.000000e+000 0.000000e+000 2.572888e-001 7.427111e-001 0.000000e+000
 0.000000e+000 0.000000e+000 0.000000e+000 3.170719e-001 6.829281e-001
 0.000000e+000 0.000000e+000 0.000000e+000 0.000000e+000 0.000000e+000
<ENDHMM>
~h "c"
<BEGINHMM>
<NUMSTATES> 5
<STATE> 2
<MEAN> 25
 -9.025350e+000 9.740813e+000 -2.722775e+000 4.383650e+000 2.615332e+000 -2.404574e+000 6.294000e+000 -1.256050e+000 3.731957e+000 -2.307728e+000 -1.455894e+000 3.033244e+000 -3.439273e+000 3.994115e-001 -1.642440e+000 -7.169109e-001 1.094438e+000 -1.949292e-001 8.534146e-001 -1.647949e-001 -5.633843e-002 -8.140770e-002 3.531666e-001 1.189287e+000 9.319902e-001
<VARIANCE> 25
 3.061492e+001 1.295128e+001 2.755310e+001 1.862053e+001 2.343023e+001 2.772166e+001 2.292395e+001 2.795165e+001 2.885416e+001 2.114148e+001 2.347067e+001 2.085631e+001 1.229920e+000 2.389427e+000 1.551558e+000 1.505660e+000 2.086736e+000 2.446817e+000 2.171211e+000 2.569051e+000 2.674508e+000 1.901158e+000 2.141293e+000 1.678738e+000 1.114777e+000
<GCONST> 9.200583e+001
<STATE> 3
<MEAN> 25
 -1.839994e+001 6.871726e+000 -6.793340e+000 -9.914006e-002 6.493368e+000 -5.455653e+000 9.148000e+000 2.074307e+000 7.549734e-001 -1.300873e+000 6.543801e-001 7.482778e+000 -5.814077e-001 -1.556018e+000 4.351456e-001 -9.500249e-001 2.485745e-002 -8.914740e-001 -1.409603e-001 1.420379e+000 -6.737328e-001 3.507873e-001 2.765946e-001 4.508339e-001 4.091229e-001
<VARIANCE> 25
 5.579755e+000 1.635363e+001 1.682035e+001 1.569594e+001 1.716018e+001 2.017241e+001 2.252002e+001 2.621040e+001 2.322341e+001 1.973769e+001 2.183110e+001 1.620493e+001 1.285890e+000 1.234096e+000 1.746789e+000 1.263352e+000 2.471286e+000 2.233694e+000 2.556079e+000 2.191715e+000 2.194062e+000 1.934398e+000 1.907578e+000 1.731897e+000 4.233682e-001
<GCONST> 8.672630e+001
<STATE> 4
<MEAN> 25
 -1.354511e+001 1.298523e+000 -2.202886e+000 -1.151047e+000 2.616874e+000 -8.926535e+000 3.854585e+000 4.018036e+000 -3.112479e-001 -4.670304e-001 -1.918848e-001 5.516178e+000 3.640270e+000 -1.173835e+000 1.460220e+000 2.713311e-001 -1.486993e+000 -5.909735e-001 -2.357992e+000 -1.022118e+000 -5.228829e-001 3.282602e-001 -5.443419e-002 -1.466392e+000 2.474259e-001
<VARIANCE> 25
 4.126097e+001 1.674772e+001 2.277998e+001 1.428771e+001 3.172387e+001 3.531911e+001 5.287739e+001 3.663606e+001 3.688024e+001 2.083582e+001 2.324192e+001 2.018381e+001 3.848425e+000 1.909619e+000 2.286714e+000 1.420124e+000 2.304403e+000 2.991050e+000 3.398310e+000 3.299622e+000 2.804345e+000 2.178356e+000 2.159936e+000 2.059757e+000 1.856774e+000
<GCONST> 9.709729e+001
<TRANSP> 5
 0.000000e+000 1.000000e+000 0.000000e+000 0.000000e+000 0.000000e+000
 0.000000e+000 7.517604e-001 2.482396e-001 0.000000e+000 0.000000e+000
 0.000000e+000 0.000000e+000 7.067243e-001 2.932757e-001 0.000000e+000
 0.000000e+000 0.000000e+000 0.000000e+000 6.667413e-001 3.332587e-001
 0.000000e+000 0.000000e+000 0.000000e+000 0.000000e+000 0.000000e+000
<ENDHMM>
~h "d"
<BEGINHMM>
<NUMSTATES> 5
<STATE> 2
<MEAN> 25
 4.884720e+000 6.047259e+000 2.445457e+000 2.942196e+000 2.242554e+000 -1.340253e+000 -1.785138e+000 -9.896980e-001 3.322010e+000 -1.752293e-001 -2.840135e+000 -3.951376e+000 -4.414971e-001 7.282260e-001 3.970594e-001 4.596637e-001 3.753820e-001 -3.529119e-002 8.903972e-001 -2.336036e-001 2.410406e-001 -8.468781e-001 -7.191914e-001 3.669860e-001 -5.894871e-001
<VARIANCE> 25
 1.307870e+001 2.690302e+001 2.279088e+001 2.242905e+001 2.050017e+001 3.076515e+001 3.652300e+001 3.196825e+001 2.554062e+001 2.525787e+001 2.964447e+001 2.583719e+001 2.301345e+000 3.433936e+000 1.865577e+000 1.917756e+000 1.982726e+000 2.842206e+000 3.922051e+000 2.773662e+000 2.183057e+000 2.284593e+000 2.381937e+000 2.880929e+000 2.947676e+000
<GCONST> 9.673859e+001
<STATE> 3
<MEAN> 25
 2.715572e+000 5.354877e+000 2.853627e+000 3.146744e+000 2.853318e+000 -1.333689e+000 4.208009e-001 -1.223536e+000 2.991503e+000 -1.719737e+000 -2.825628e+000 -2.012076e+000 -1.548947e+000 -1.971987e+000 -4.224570e-001 -6.751228e-001 -1.869973e-001 -3.800839e-001 -6.526674e-002 -2.063045e-001 -6.372426e-001 -3.131470e-001 5.335457e-001 1.113124e+000 1.909520e+000
<VARIANCE> 25
 1.618053e+001 3.325453e+001 2.587803e+001 2.305805e+001 2.392513e+001 2.804565e+001 3.459955e+001 2.756607e+001 2.610218e+001 2.396030e+001 2.588182e+001 2.226261e+001 1.784331e+000 4.161133e+000 2.828775e+000 2.668358e+000 2.772736e+000 4.111272e+000 4.118177e+000 3.558632e+000 2.846825e+000 2.360523e+000 2.793378e+000 2.733579e+000 2.694947e+000
<GCONST> 9.886421e+001
<STATE> 4
<MEAN> 25
 -3.791972e-001 -1.481153e+000 4.339956e-001 1.001123e-001 1.782733e+000 -2.279881e+000 -1.873712e+000 -9.708931e-001 2.097330e+000 -1.110854e+000 -6.831297e-001 -6.182617e-002 -3.752404e-001 -2.178725e+000 -9.102184e-001 -1.269265e+000 -1.380005e+000 -4.965421e-001 -1.744667e+000 3.372471e-001 -6.889133e-001 1.114749e+000 9.997070e-001 2.092971e-001 2.782601e+000
<VARIANCE> 25
 1.650557e+001 2.785842e+001 3.032459e+001 2.364532e+001 2.868824e+001 3.680818e+001 5.012008e+001 2.513399e+001 2.487038e+001 2.584851e+001 2.031121e+001 2.245988e+001 2.129605e+000 3.414614e+000 3.784185e+000 3.165413e+000 3.375396e+000 3.909475e+000 4.556590e+000 4.701972e+000 3.786259e+000 3.047749e+000 3.309250e+000 2.850888e+000 2.415547e+000
<GCONST> 1.010262e+002
<TRANSP> 5
 0.000000e+000 1.000000e+000 0.000000e+000 0.000000e+000 0.000000e+000
 0.000000e+000 3.884997e-001 6.115003e-001 0.000000e+000 0.000000e+000
 0.000000e+000 0.000000e+000 1.811476e-001 8.188524e-001 0.000000e+000
 0.000000e+000 0.000000e+000 0.000000e+000 3.523013e-001 6.476987e-001
 0.000000e+000 0.000000e+000 0.000000e+000 0.000000e+000 0.000000e+000
<ENDHMM>
~h "e"
<BEGINHMM>
<NUMSTATES> 5
<STATE> 2
<MEAN> 25
 2.731576e+000 -4.484949e+000 2.539366e+000 4.862794e-001 -4.105016e+000 -7.547677e+000 -2.163886e+000 5.371034e+000 -1.749899e+000 9.128597e-001 1.689603e+000 6.972287e-001 8.550906e-001 9.031320e-002 3.617097e-001 2.703639e-001 6.562524e-002 -2.137925e-002 -1.353449e-001 6.295061e-001 -3.910929e-002 3.348950e-001 1.323151e-001 -2.400136e-001 -1.071615e-001
<VARIANCE> 25
 7.434729e+000 1.704265e+001 1.898633e+001 1.173153e+001 2.226613e+001 3.131453e+001 3.246331e+001 2.360419e+001 2.498696e+001 1.645021e+001 2.442463e+001 1.596927e+001 2.132875e+000 1.678137e+000 1.695698e+000 1.338649e+000 2.422369e+000 2.348701e+000 3.129572e+000 2.251149e+000 2.613192e+000 1.962598e+000 2.110530e+000 1.830614e+000 1.925830e+000
<GCONST> 9.079609e+001
<STATE> 3
<MEAN> 25
 3.885199e+000 -2.167211e+000 3.199624e+000 1.718674e+000 -2.939797e+000 -6.622143e+000 -1.695008e+000 5.667836e+000 -1.287325e+000 1.331636e+000 9.118492e-001 2.270244e-001 2.319384e-001 1.542292e+000 1.478714e-001 7.066207e-001 6.297246e-001 4.896570e-001 5.965413e-001 -4.130040e-001 7.896162e-001 -1.100845e-001 -5.020829e-001 -9.744985e-002 -1.801922e+000
<VARIANCE> 25
 7.813171e+000 2.436923e+001 2.112396e+001 1.510826e+001 2.505880e+001 3.141860e+001 3.947404e+001 2.662176e+001 3.104033e+001 2.103275e+001 2.735303e+001 1.939075e+001 1.051247e+000 1.923321e+000 1.512885e+000 1.309076e+000 2.091061e+000 2.265778e+000 2.773447e+000 2.111443e+000 2.779103e+000 1.906455e+000 1.947960e+000 1.817105e+000 1.926859e+000
<GCONST> 9.164041e+001
<STATE> 4
<MEAN> 25
 3.204736e+000 2.248963e+000 2.969353e+000 3.240905e+000 -1.844259e+000 -5.047476e+000 8.698130e-001 3.552816e+000 1.658536e+000 1.798518e-001 -6.744675e-001 6.605601e-001 -5.664117e-001 1.270849e+000 -2.113061e-001 2.910786e-001 6.462060e-001 8.454205e-001 6.098387e-001 -1.031229e+000 6.459976e-001 -2.150571e-001 -3.864418e-001 1.559285e-001 -1.511281e+000
<VARIANCE> 25
 1.185645e+001 3.291603e+001 2.158567e+001 1.619593e+001 2.595765e+001 3.214529e+001 4.347733e+001 2.783275e+001 3.499257e+001 2.365398e+001 2.867025e+001 2.437583e+001 1.762166e+000 2.504034e+000 1.657439e+000 1.820155e+000 2.218934e+000 2.620768e+000 2.795443e+000 2.723740e+000 3.007364e+000 2.283354e+000 2.199488e+000 2.017061e+000 1.591272e+000
<GCONST> 9.512409e+001
<TRANSP> 5
 0.000000e+000 1.000000e+000 0.000000e+000 0.000000e+000 0.000000e+000
 0.000000e+000 3.907727e-001 6.092272e-001 0.000000e+000 0.000000e+000
 0.000000e+000 0.000000e+000 3.965389e-001 6.034611e-001 0.000000e+000
 0.000000e+000 0.000000e+000 0.000000e+000 3.628838e-001 6.371163e-001
 0.000000e+000 0.000000e+000 0.000000e+000 0.000000e+000 0.000000e+000
<ENDHMM>
~h "f"
<BEGINHMM>
<NUMSTATES> 5
<STATE> 2
<MEAN> 25
 -3.260131e+000 3.552125e+000 -1.045750e+000 4.260313e+000 1.809886e+000 2.278045e+000 3.340673e+000 1.632084e+000 6.019081e+000 4.571201e-001 -1.617730e+000 1.963992e+000 -2.651311e+000 -4.786338e-001 -2.812795e-001 8.810610e-001 2.726944e-001 1.849774e-001 -3.027161e-002 2.178456e-001 1.467895e+000 -3.346732e-002 -2.698027e-001 2.166041e-001 8.052981e-002
<VARIANCE> 25
 1.782880e+001 1.330661e+001 2.427144e+001 2.027570e+001 2.148284e+001 3.395475e+001 2.841983e+001 2.620362e+001 2.467971e+001 2.108341e+001 1.933301e+001 1.983389e+001 1.768993e+000 1.840522e+000 1.998660e+000 1.692075e+000 1.794013e+000 2.312532e+000 2.453253e+000 2.492482e+000 2.487512e+000 2.487463e+000 2.347520e+000 1.955171e+000 9.087766e-001
<GCONST> 9.190678e+001
<STATE> 3
<MEAN> 25
 -8.502663e+000 -2.190243e-001 -2.785031e+000 4.931990e+000 3.013140e+000 2.027704e+000 2.302385e+000 1.332166e+000 6.726152e+000 9.527708e-001 -1.657808e+000 2.095911e+000 -7.473988e-001 -1.479377e+000 -8.554629e-001 -4.081904e-001 -7.910264e-002 -2.861255e-001 -2.815255e-001 -2.415381e-001 -2.537881e-002 8.458541e-002 2.009825e-001 1.468679e-001 2.547499e-001
<VARIANCE> 25
 1.389253e+001 1.236786e+001 1.685282e+001 1.868124e+001 1.916080e+001 2.347915e+001 2.493344e+001 1.970064e+001 2.117669e+001 2.197191e+001 1.958051e+001 1.808238e+001 1.960654e+000 1.109591e+000 1.774335e+000 1.367058e+000 1.965086e+000 2.827404e+000 2.678515e+000 1.952634e+000 2.285520e+000 1.676997e+000 1.664161e+000 1.534197e+000 7.966398e-001
<GCONST> 8.824966e+001
<STATE> 4
<MEAN> 25
 -5.765012e+000 -3.779092e+000 -5.683874e+000 1.506794e+000 1.126867e+000 3.502253e-001 1.440968e+000 -2.687477e-001 5.272213e+000 7.609494e-001 -1.103872e+000 2.038917e+000 2.875161e+000 -7.724899e-001 -2.419366e-001 -1.762351e+000 -1.496340e+000 -8.742439e-001 -1.014081e+000 -9.070922e-001 -1.783551e+000 -2.243198e-002 7.090345e-001 -4.017290e-001 9.636241e-001
<VARIANCE> 25
 3.019333e+001 1.046048e+001 2.906483e+001 2.266314e+001 2.858283e+001 3.352397e+001 2.689048e+001 2.611846e+001 2.565462e+001 2.228550e+001 2.343792e+001 1.817894e+001 2.261528e+000 2.058925e+000 3.983700e+000 2.810048e+000 2.350689e+000 2.964779e+000 2.453372e+000 3.142187e+000 3.369896e+000 2.141663e+000 2.215765e+000 2.208966e+000 1.993974e+000
<GCONST> 9.620743e+001
<TRANSP> 5
 0.000000e+000 1.000000e+000 0.000000e+000 0.000000e+000 0.000000e+000
 0.000000e+000 5.008876e-001 4.991124e-001 0.000000e+000 0.000000e+000
 0.000000e+000 0.000000e+000 5.717779e-001 4.282221e-001 0.000000e+000
 0.000000e+000 0.000000e+000 0.000000e+000 5.649238e-001 4.350762e-001
 0.000000e+000 0.000000e+000 0.000000e+000 0.000000e+000 0.000000e+000
<ENDHMM>
~h "g"
<BEGINHMM>
<NUMSTATES> 5
<STATE> 2
<MEAN> 25
 5.504929e+000 6.741324e+000 -5.673380e-001 -5.568416e-001 -5.742381e-002 1.198474e+000 1.818998e+000 -3.800405e-001 -2.213421e+000 -2.297448e+000 1.565785e+000 6.840688e-001 -7.042140e-001 -1.372732e-001 -4.808152e-001 5.433740e-001 6.814868e-001 -3.169604e-001 -2.482523e-001 -4.959355e-001 3.275650e-001 3.436938e-001 -3.962384e-001 2.174598e-001 -4.335306e-001
<VARIANCE> 25
 1.595697e+001 2.493428e+001 2.808538e+001 3.851870e+001 2.994010e+001 3.998062e+001 4.336805e+001 3.079587e+001 4.125552e+001 3.056071e+001 4.245390e+001 2.956725e+001 1.040221e+000 2.586442e+000 2.600802e+000 3.550984e+000 2.920668e+000 4.453577e+000 3.341290e+000 3.403845e+000 4.212980e+000 2.740072e+000 3.445929e+000 2.504095e+000 1.601825e+000
<GCONST> 1.007607e+002
<STATE> 3
<MEAN> 25
 4.017376e+000 4.964313e+000 -1.723143e+000 4.967020e-001 1.803257e+000 7.791185e-001 1.371445e-001 -1.219723e+000 -2.061647e+000 -7.950916e-001 1.819369e+000 5.990455e-001 -7.917122e-001 -1.793133e+000 -7.216539e-001 -3.151623e-001 2.305859e-001 -3.120827e-001 -1.398617e+000 -4.202721e-001 -1.830041e-001 8.134505e-001 4.758028e-001 -5.495331e-002 1.388355e+000
<VARIANCE> 25
 1.653433e+001 2.700455e+001 3.299584e+001 3.678262e+001 3.497377e+001 4.447799e+001 3.981847e+001 3.263564e+001 3.993565e+001 3.025006e+001 3.700634e+001 2.487749e+001 1.693597e+000 3.493194e+000 3.983783e+000 5.062555e+000 3.783444e+000 6.105934e+000 4.175724e+000 4.773409e+000 5.498458e+000 3.198394e+000 5.093945e+000 2.929605e+000 2.225304e+000
<GCONST> 1.048749e+002
<STATE> 4
<MEAN> 25
 2.827308e+000 -7.104868e-002 -2.652971e+000 -3.440925e-001 1.165267e+000 -1.172195e+000 -3.521504e+000 -9.512562e-001 -2.308379e+000 9.853041e-001 3.266043e+000 3.208984e-001 -4.273766e-001 -2.014877e+000 -1.690517e-001 -8.284760e-001 -7.839605e-001 -3.921859e-001 -1.053177e+000 3.837944e-002 -6.994867e-002 7.728403e-001 4.497606e-001 -1.609088e-001 2.306762e+000
<VARIANCE> 25
 1.842671e+001 3.519160e+001 4.205639e+001 4.359413e+001 4.280181e+001 6.315524e+001 4.794352e+001 4.285605e+001 4.515413e+001 3.022407e+001 3.670300e+001 2.304488e+001 2.224540e+000 3.143680e+000 3.119806e+000 4.385997e+000 3.725523e+000 5.359715e+000 4.706682e+000 4.572230e+000 4.768862e+000 2.987097e+000 5.486525e+000 2.642206e+000 2.531079e+000
<GCONST> 1.063077e+002
<TRANSP> 5
 0.000000e+000 1.000000e+000 0.000000e+000 0.000000e+000 0.000000e+000
 0.000000e+000 2.480866e-001 7.519134e-001 0.000000e+000 0.000000e+000
 0.000000e+000 0.000000e+000 1.485204e-001 8.514796e-001 0.000000e+000
 0.000000e+000 0.000000e+000 0.000000e+000 2.546117e-001 7.453884e-001
 0.000000e+000 0.000000e+000 0.000000e+000 0.000000e+000 0.000000e+000
<ENDHMM>
~h "h"
<BEGINHMM>
<NUMSTATES> 5
<STATE> 2
<MEAN> 25
 -4.092936e+000 7.419679e-001 4.022780e+000 3.266199e+000 3.849145e+000 6.919271e-002 3.775422e+000 -2.928665e-002 7.592027e-001 7.833755e-001 -2.228127e+000 2.820980e+000 -1.287383e+000 -1.327525e+000 -1.885485e+000 1.242838e-001 2.101413e+000 -4.178244e-001 -5.820637e-001 4.447539e-001 1.666707e+000 3.685000e-001 1.756741e-002 7.236365e-001 1.724141e-001
<VARIANCE> 25
 2.322628e+001 2.381291e+001 8.471922e+001 3.693066e+001 5.256323e+001 5.424108e+001 3.643272e+001 3.810851e+001 3.676622e+001 2.527277e+001 2.814874e+001 2.086120e+001 1.735197e+000 1.881024e+000 4.008229e+000 2.435366e+000 4.116538e+000 3.761881e+000 3.944678e+000 3.779425e+000 3.532513e+000 3.203714e+000 2.546117e+000 2.328321e+000 9.473549e-001
<GCONST> 1.017671e+002
<STATE> 3
<MEAN> 25
 -6.147749e+000 -2.946007e+000 -2.603292e+000 1.863384e+000 7.801968e+000 1.070812e-001 6.300032e-001 7.244310e-002 4.879479e+000 3.053314e+000 -1.868603e+000 2.895612e+000 -3.252018e-001 -6.396143e-001 -1.456738e+000 -8.084821e-001 1.917190e-001 1.780723e-001 -2.894150e-001 -4.736771e-001 2.637677e-001 1.745912e-001 3.518194e-001 4.853228e-002 3.501410e-002
<VARIANCE> 25
 2.416853e+001 2.708110e+001 8.537885e+001 3.493688e+001 6.012069e+001 5.063552e+001 5.202779e+001 3.258947e+001 3.798108e+001 3.449722e+001 2.832802e+001 2.368600e+001 1.810082e+000 1.191963e+000 2.979795e+000 1.928165e+000 2.812443e+000 4.455670e+000 2.907502e+000 3.491286e+000 2.977359e+000 3.043894e+000 2.630619e+000 2.196239e+000 1.301155e+000
<GCONST> 1.011595e+002
<STATE> 4
<MEAN> 25
 -5.268732e+000 -2.767457e+000 -3.708925e+000 -1.513852e+000 4.928883e+000 1.244132e+000 1.655698e+000 -2.351337e+000 2.438312e+000 1.324796e+000 -8.340458e-001 2.757622e+000 1.636488e+000 4.100373e-001 -7.539929e-002 -7.582114e-001 -1.845002e+000 -3.772633e-001 -3.156814e-001 -4.790889e-001 -1.116219e+000 -8.082811e-001 2.739277e-001 -5.991111e-001 4.537296e-001
<VARIANCE> 25
 3.351336e+001 3.303190e+001 9.849625e+001 3.957418e+001 5.258894e+001 5.159323e+001 3.535503e+001 3.477940e+001 3.471368e+001 2.905884e+001 3.136802e+001 2.470993e+001 2.728392e+000 1.877300e+000 3.252001e+000 3.605249e+000 4.258321e+000 3.796791e+000 4.211473e+000 3.026294e+000 3.568530e+000 2.887287e+000 2.598284e+000 2.915792e+000 2.345721e+000
<GCONST> 1.044478e+002
<TRANSP> 5
 0.000000e+000 1.000000e+000 0.000000e+000 0.000000e+000 0.000000e+000
 0.000000e+000 5.191596e-001 4.808405e-001 0.000000e+000 0.000000e+000
 0.000000e+000 0.000000e+000 4.834284e-001 5.165716e-001 0.000000e+000
 0.000000e+000 0.000000e+000 0.000000e+000 5.230660e-001 4.769340e-001
 0.000000e+000 0.000000e+000 0.000000e+000 0.000000e+000 0.000000e+000
<ENDHMM>
~h "i"
<BEGINHMM>
<NUMSTATES> 5
<STATE> 2
<MEAN> 25
 -4.476864e-002 -4.418808e-001 9.875607e+000 1.134971e+000 -7.713968e+000 -3.612738e+000 -2.475570e+000 -8.291545e-001 -7.726780e+000 -7.206658e-001 3.863394e+000 2.466883e-001 6.662900e-001 1.581736e-001 1.891567e+000 -1.408336e-001 -1.474393e+000 3.927918e-001 -7.669964e-001 -2.607603e-001 -1.815864e+000 5.710095e-001 9.493325e-001 -6.683545e-001 8.441496e-001
<VARIANCE> 25
 1.514851e+001 2.265045e+001 2.267877e+001 1.826050e+001 2.456499e+001 4.155312e+001 3.345077e+001 3.420829e+001 2.581392e+001 1.988514e+001 2.259837e+001 1.673537e+001 3.454776e+000 2.084435e+000 2.682629e+000 2.476250e+000 3.055717e+000 3.160518e+000 4.940252e+000 2.951588e+000 3.416355e+000 2.504256e+000 2.298926e+000 2.078088e+000 2.190928e+000
<GCONST> 9.726839e+001
<STATE> 3
<MEAN> 25
 5.400551e-001 1.505728e+000 1.346335e+001 2.289998e-001 -9.353569e+000 7.488675e-002 -3.607885e+000 -2.027032e+000 -9.513727e+000 1.423926e+000 3.837638e+000 -1.544612e+000 2.303048e-001 7.937631e-001 -1.816526e-002 4.116852e-001 4.797879e-001 2.680171e-001 3.289532e-001 -1.105528e-001 3.932097e-001 5.223077e-002 -3.390146e-001 -2.973787e-003 -6.916658e-001
<VARIANCE> 25
 9.316381e+000 2.263232e+001 2.239475e+001 1.961902e+001 2.141309e+001 4.539765e+001 2.898523e+001 2.743584e+001 2.202357e+001 1.993975e+001 2.227319e+001 1.660112e+001 1.368249e+000 2.045857e+000 1.597753e+000 1.487285e+000 1.940251e+000 2.351896e+000 2.475341e+000 2.052038e+000 2.207903e+000 1.533751e+000 1.613343e+000 1.338832e+000 1.663468e+000
<GCONST> 9.047610e+001
<STATE> 4
<MEAN> 25
 1.202471e+000 4.855688e+000 9.229547e+000 3.779352e+000 -4.294439e+000 -1.801829e+000 2.727947e-001 -1.738226e+000 -4.167022e+000 -5.589781e-001 1.278159e+000 3.646859e-001 -3.203297e-001 8.031729e-001 -1.365651e+000 6.434302e-001 1.645050e+000 7.065815e-002 6.508414e-001 -1.585842e-001 1.645313e+000 -3.291574e-001 -9.574469e-001 4.581282e-001 -1.335675e+000
<VARIANCE> 25
 1.367356e+001 2.821676e+001 2.306135e+001 1.807512e+001 2.713154e+001 3.876562e+001 3.729272e+001 3.073645e+001 2.885627e+001 2.145216e+001 2.366640e+001 1.972373e+001 2.124131e+000 2.809517e+000 2.091693e+000 2.135879e+000 2.455736e+000 3.053155e+000 3.043697e+000 2.869369e+000 2.794014e+000 2.279619e+000 2.147195e+000 2.096459e+000 1.899952e+000
<GCONST> 9.597424e+001
<TRANSP> 5
 0.000000e+000 1.000000e+000 0.000000e+000 0.000000e+000 0.000000e+000
 0.000000e+000 4.573464e-001 5.426535e-001 0.000000e+000 0.000000e+000
 0.000000e+000 0.000000e+000 6.026559e-001 3.973440e-001 0.000000e+000
 0.000000e+000 0.000000e+000 0.000000e+000 5.648061e-001 4.351939e-001
 0.000000e+000 0.000000e+000 0.000000e+000 0.000000e+000 0.000000e+000
<ENDHMM>
~h "j"
<BEGINHMM>
<NUMSTATES> 5
<STATE> 2
<MEAN> 25
 1.526999e-001 -7.606363e-002 8.735912e+000 2.171900e-001 -6.556578e+000 -2.390603e+000 -2.492535e+000 6.736908e-001 -5.780515e+000 -6.155989e-002 2.259407e+000 2.923505e-001 1.698498e-001 -1.860611e-001 1.270135e+000 -1.682717e-001 -1.521569e+000 -2.072785e-001 -3.766785e-001 6.940844e-002 -8.362172e-001 3.021760e-001 8.562797e-001 1.958438e-002 7.709210e-001
<VARIANCE> 25
 1.677073e+001 3.580896e+001 4.626485e+001 2.319575e+001 2.987868e+001 4.967228e+001 4.641731e+001 4.144198e+001 3.292841e+001 1.949579e+001 2.413145e+001 1.792378e+001 2.727465e+000 2.424245e+000 3.591487e+000 2.567266e+000 3.393520e+000 3.356574e+000 4.433475e+000 2.878919e+000 3.346390e+000 2.467573e+000 2.243676e+000 1.864672e+000 2.406272e+000
<GCONST> 1.002319e+002
<STATE> 3
<MEAN> 25
 7.501766e-001 -1.668072e+000 9.052757e+000 1.627554e-002 -9.314444e+000 -3.069471e+000 -2.092165e+000 8.775877e-001 -5.611940e+000 1.637694e+000 4.727241e+000 4.441641e-001 2.408141e-001 -2.545667e-001 -4.482848e-001 1.558896e-001 -1.906125e-001 -5.493394e-001 2.440928e-001 6.094820e-001 3.856373e-001 1.182045e-001 3.603866e-001 1.469406e-001 1.481669e-001
<VARIANCE> 25
 8.905761e+000 1.863199e+001 2.683336e+001 1.695965e+001 2.664786e+001 4.250059e+001 3.389616e+001 3.861014e+001 2.520251e+001 1.781084e+001 2.068410e+001 1.489848e+001 1.070112e+000 1.605388e+000 2.547918e+000 1.279837e+000 1.491775e+000 2.173817e+000 2.449706e+000 2.388152e+000 2.285907e+000 1.402579e+000 1.389690e+000 1.135767e+000 9.830552e-001
<GCONST> 8.949586e+001
<STATE> 4
<MEAN> 25
 1.847444e+000 -2.796657e+000 5.124059e+000 1.224361e+000 -7.474266e+000 -5.461260e+000 -1.218800e+000 4.233798e+000 -3.338064e+000 4.188687e-001 4.114092e+000 1.032174e+000 3.766258e-001 -1.416018e-001 -1.389063e+000 2.121739e-001 1.333326e+000 -1.426544e-002 4.331697e-002 7.743675e-001 1.127231e+000 -2.700334e-001 -8.250962e-001 -7.738178e-002 -3.271460e-001
<VARIANCE> 25
 9.572169e+000 2.055503e+001 2.343661e+001 1.781182e+001 2.817613e+001 3.156421e+001 5.015574e+001 2.813124e+001 2.890159e+001 2.046346e+001 2.266353e+001 1.514306e+001 1.214809e+000 2.126770e+000 3.271679e+000 1.308916e+000 2.366534e+000 2.515041e+000 3.630122e+000 3.502992e+000 2.891203e+000 1.920894e+000 2.180712e+000 1.619743e+000 1.251740e+000
<GCONST> 9.345761e+001
<TRANSP> 5
 0.000000e+000 1.000000e+000 0.000000e+000 0.000000e+000 0.000000e+000
 0.000000e+000 4.338694e-001 5.661306e-001 0.000000e+000 0.000000e+000
 0.000000e+000 0.000000e+000 5.059802e-001 4.940198e-001 0.000000e+000
 0.000000e+000 0.000000e+000 0.000000e+000 3.716335e-001 6.283665e-001
 0.000000e+000 0.000000e+000 0.000000e+000 0.000000e+000 0.000000e+000
<ENDHMM>
~h "k"
<BEGINHMM>
<NUMSTATES> 5
<STATE> 2
<MEAN> 25
 -3.721943e+000 3.108881e+000 -2.134820e+000 2.756274e+000 4.250889e+000 -5.287305e-001 2.548685e+000 2.818102e+000 3.892022e+000 1.661738e-001 -2.151314e+000 1.302925e+000 -5.720841e-001 -1.313689e+000 -1.502338e+000 -7.444334e-001 6.326947e-001 3.754951e-001 -2.131707e-001 -5.448814e-001 -6.203216e-001 6.940097e-001 4.560764e-001 5.407330e-001 4.868158e-001
<VARIANCE> 25
 2.661749e+001 2.450672e+001 2.891806e+001 2.706930e+001 4.029618e+001 3.894363e+001 4.222096e+001 3.476685e+001 3.419145e+001 2.729394e+001 3.041972e+001 2.232191e+001 2.560882e+000 3.729636e+000 4.209152e+000 3.049276e+000 5.322627e+000 5.241910e+000 4.215171e+000 4.036489e+000 4.269940e+000 3.132247e+000 2.742437e+000 2.628426e+000 3.536215e+000
<GCONST> 1.039027e+002
<STATE> 3
<MEAN> 25
 -4.659686e+000 -1.452669e+000 -6.938280e+000 -4.929734e-001 5.954675e+000 1.085899e+000 1.496637e+000 1.165747e+000 1.721275e+000 2.511264e+000 -1.468871e-001 2.272271e+000 3.546307e-001 -1.544005e+000 -1.372662e+000 -1.831149e+000 -6.606326e-001 -2.299912e-001 -1.029581e+000 -1.089466e+000 -1.313346e+000 4.820013e-001 9.970971e-001 1.666268e-001 1.840426e+000
<VARIANCE> 25
 2.159715e+001 2.757831e+001 5.770827e+001 3.777625e+001 4.074771e+001 6.025740e+001 4.132764e+001 3.088634e+001 3.548930e+001 2.871451e+001 2.770013e+001 2.318397e+001 3.041201e+000 2.606539e+000 5.595333e+000 3.801474e+000 5.901862e+000 5.461912e+000 3.674441e+000 4.348375e+000 4.588136e+000 3.190601e+000 3.175447e+000 2.698550e+000 2.229964e+000
<GCONST> 1.053787e+002
<STATE> 4
<MEAN> 25
 -2.612833e+000 -2.087333e+000 -7.488160e+000 -4.711274e+000 1.906086e+000 -6.121382e-001 -7.158416e-001 -1.376505e+000 -1.004744e+000 1.615405e+000 1.662351e+000 2.077249e+000 2.013947e+000 -2.950874e-001 9.429942e-001 -9.438639e-001 -2.053440e+000 -5.041929e-001 -1.295148e+000 -5.853747e-001 -1.443125e+000 -4.699526e-001 9.364779e-001 -5.968612e-001 2.117251e+000
<VARIANCE> 25
 2.896841e+001 2.100288e+001 7.821984e+001 4.370402e+001 4.599421e+001 6.941906e+001 3.952816e+001 3.497029e+001 3.474035e+001 2.733997e+001 3.187483e+001 2.329173e+001 2.734123e+000 2.454944e+000 4.319937e+000 3.884483e+000 3.831043e+000 3.658954e+000 3.989169e+000 3.685298e+000 3.878302e+000 2.947480e+000 3.126738e+000 2.561497e+000 2.023431e+000
<GCONST> 1.045352e+002
<TRANSP> 5
 0.000000e+000 1.000000e+000 0.000000e+000 0.000000e+000 0.000000e+000
 0.000000e+000 4.742167e-001 5.257834e-001 0.000000e+000 0.000000e+000
 0.000000e+000 0.000000e+000 3.168594e-001 6.831405e-001 0.000000e+000
 0.000000e+000 0.000000e+000 0.000000e+000 4.497899e-001 5.502101e-001
 0.000000e+000 0.000000e+000 0.000000e+000 0.000000e+000 0.000000e+000
<ENDHMM>
~h "l"
<BEGINHMM>
<NUMSTATES> 5
<STATE> 2
<MEAN> 25
 4.015142e+000 -3.599539e+000 -8.033910e-001 -2.011694e+000 -1.173851e+000 2.866134e+000 -5.318159e+000 -6.555069e+000 2.380559e-002 2.326181e+000 5.213373e+000 -2.537166e+000 1.023386e+000 1.059666e-002 3.473479e-001 -1.402803e+000 3.371625e-001 9.924524e-001 -1.598587e+000 -8.056695e-001 -4.576061e-001 7.727795e-001 8.102031e-001 -9.713233e-001 4.591433e-001
<VARIANCE> 25
 2.016359e+001 1.871452e+001 3.865079e+001 3.611039e+001 2.776219e+001 4.183320e+001 5.264642e+001 4.519533e+001 3.886390e+001 3.430820e+001 4.117865e+001 3.290251e+001 3.398005e+000 2.140787e+000 3.172879e+000 3.826064e+000 3.548399e+000 4.285577e+000 4.445864e+000 4.838860e+000 3.738936e+000 3.793036e+000 3.855617e+000 2.965641e+000 2.228343e+000
<GCONST> 1.045212e+002
<STATE> 3
<MEAN> 25
 5.046317e+000 -3.317918e+000 -8.814085e-002 -5.078452e+000 -2.962197e-002 5.133786e+000 -7.743686e+000 -6.170460e+000 -2.321281e-001 3.303271e+000 6.490775e+000 -3.951295e+000 2.664452e-001 -1.838382e-001 5.243034e-002 -5.498169e-001 2.667657e-001 2.011680e-001 -3.921601e-001 9.620757e-001 1.681188e-001 -1.187061e-001 -2.473257e-001 -1.349607e-001 5.541757e-001
<VARIANCE> 25
 1.109565e+001 1.625850e+001 3.874170e+001 3.968754e+001 2.866618e+001 4.314456e+001 5.689651e+001 4.032627e+001 3.178818e+001 3.520739e+001 4.101526e+001 3.221779e+001 1.707323e+000 1.779433e+000 2.534984e+000 2.848567e+000 2.650949e+000 3.939924e+000 3.364829e+000 4.074478e+000 3.843514e+000 2.904182e+000 3.771393e+000 2.564866e+000 1.325313e+000
<GCONST> 1.005613e+002
<STATE> 4
<MEAN> 25
 4.484407e+000 -4.355694e+000 -3.070265e-001 -3.649081e+000 3.487188e-001 2.889897e+000 -6.800862e+000 -2.293829e+000 1.145551e+000 2.128407e+000 3.855390e+000 -3.351128e+000 -1.935997e-001 -3.705207e-001 -3.122282e-001 8.666344e-001 -3.643197e-001 -9.915105e-001 1.341293e+000 1.716649e+000 -5.037178e-002 -5.969353e-001 -8.406393e-001 4.443203e-001 4.257419e-001
<VARIANCE> 25
 9.269962e+000 1.800157e+001 4.570131e+001 3.336912e+001 2.602221e+001 5.441872e+001 4.749752e+001 4.440637e+001 3.011152e+001 3.282117e+001 3.089499e+001 3.036462e+001 9.499555e-001 1.778002e+000 1.988073e+000 3.296377e+000 3.449365e+000 5.645957e+000 4.252431e+000 3.976036e+000 4.492890e+000 2.655375e+000 4.944365e+000 2.804327e+000 9.112436e-001
<GCONST> 1.002601e+002
<TRANSP> 5
 0.000000e+000 1.000000e+000 0.000000e+000 0.000000e+000 0.000000e+000
 0.000000e+000 3.427738e-001 6.572262e-001 0.000000e+000 0.000000e+000
 0.000000e+000 0.000000e+000 2.509656e-001 7.490343e-001 0.000000e+000
 0.000000e+000 0.000000e+000 0.000000e+000 3.418678e-001 6.581322e-001
 0.000000e+000 0.000000e+000 0.000000e+000 0.000000e+000 0.000000e+000
<ENDHMM>
~h "m"
<BEGINHMM>
<NUMSTATES> 5
<STATE> 2
<MEAN> 25
 7.208885e+000 8.344550e-001 9.834923e-001 5.764948e+000 1.325246e+000 2.020023e+000 2.605704e+000 -5.284131e+000 -5.601827e+000 1.928134e+000 -2.000167e+000 -4.457046e+000 4.013867e-001 8.354572e-001 5.382018e-001 1.905813e+000 -4.312002e-002 -4.069173e-001 3.379590e-001 -1.958681e+000 -8.551374e-001 6.644184e-001 -1.539248e-001 -1.468980e-003 -7.562882e-001
<VARIANCE> 25
 8.261016e+000 2.002969e+001 1.347628e+001 1.850432e+001 1.826653e+001 2.475351e+001 2.117894e+001 2.803559e+001 2.384074e+001 1.970024e+001 2.479960e+001 1.940230e+001 8.880286e-001 1.891291e+000 1.821848e+000 1.910483e+000 2.071122e+000 2.288162e+000 1.951903e+000 2.547243e+000 2.579412e+000 1.783049e+000 2.144755e+000 1.776835e+000 1.836179e+000
<GCONST> 8.980019e+001
<STATE> 3
<MEAN> 25
 7.101086e+000 2.213936e+000 2.070162e+000 8.123953e+000 1.715448e+000 2.042650e+000 2.583132e+000 -8.511450e+000 -6.845098e+000 2.585322e+000 -2.203867e+000 -3.220118e+000 -3.163664e-001 -5.454027e-002 1.095663e-001 -2.806071e-001 2.263632e-001 3.005346e-001 -2.696171e-001 4.122311e-001 3.928294e-001 -5.757768e-001 -2.797811e-001 2.710965e-001 2.255246e-001
<VARIANCE> 25
 6.858981e+000 2.235382e+001 1.157778e+001 1.469823e+001 1.764808e+001 2.310539e+001 1.852052e+001 2.278895e+001 2.485789e+001 2.212761e+001 2.547320e+001 1.908730e+001 6.057880e-001 2.036213e+000 1.465974e+000 1.639773e+000 1.468709e+000 1.711308e+000 1.538100e+000 2.247472e+000 2.146410e+000 1.753228e+000 1.657889e+000 1.415971e+000 1.790576e+000
<GCONST> 8.667889e+001
<STATE> 4
<MEAN> 25
 5.561439e+000 -2.088153e-001 7.451145e-001 3.816323e+000 2.812474e+000 3.573767e+000 1.351740e+000 -3.103326e+000 -3.552413e+000 -8.999208e-001 -3.709591e+000 -3.316004e+000 -1.086665e+000 -1.048102e+000 -1.121694e-001 -2.227804e+000 -5.951754e-002 7.996572e-001 -2.998536e-001 2.419672e+000 1.157534e+000 -1.113006e+000 -4.876132e-001 2.026603e-001 1.370717e+000
<VARIANCE> 25
 9.683832e+000 3.513328e+001 2.753624e+001 3.421790e+001 2.623912e+001 3.412943e+001 2.428754e+001 3.970931e+001 2.660705e+001 2.400210e+001 2.359807e+001 1.873730e+001 1.301872e+000 2.103483e+000 4.199673e+000 3.114326e+000 3.610631e+000 3.295823e+000 2.601779e+000 3.517116e+000 3.421216e+000 2.659144e+000 3.143307e+000 2.466864e+000 1.693712e+000
<GCONST> 9.789668e+001
<TRANSP> 5
 0.000000e+000 1.000000e+000 0.000000e+000 0.000000e+000 0.000000e+000
 0.000000e+000 5.474865e-001 4.525135e-001 0.000000e+000 0.000000e+000
 0.000000e+000 0.000000e+000 5.654862e-001 4.345138e-001 0.000000e+000
 0.000000e+000 0.000000e+000 0.000000e+000 4.856608e-001 5.143391e-001
 0.000000e+000 0.000000e+000 0.000000e+000 0.000000e+000 0.000000e+000
<ENDHMM>
~h "n"
<BEGINHMM>
<NUMSTATES> 5
<STATE> 2
<MEAN> 25
 6.211709e+000 3.265520e-001 1.528926e+000 6.563995e+000 3.894283e-001 1.261803e+000 2.044696e+000 -4.455726e+000 -2.848017e+000 1.149073e+000 -5.962650e+000 -4.025074e+000 4.611379e-001 6.403636e-001 4.857597e-001 1.260334e+000 -9.831773e-002 -2.546284e-001 1.639352e-001 -1.227620e+000 -3.418157e-001 4.319879e-001 -7.775347e-001 -7.999343e-002 -4.230700e-001
<VARIANCE> 25
 1.087918e+001 2.307148e+001 1.889849e+001 2.022500e+001 2.181447e+001 3.043747e+001 2.416357e+001 3.666990e+001 2.509062e+001 2.364219e+001 2.997928e+001 2.421312e+001 1.196393e+000 2.686214e+000 2.032804e+000 2.253273e+000 2.337153e+000 2.599364e+000 2.269970e+000 3.631728e+000 2.685147e+000 2.096544e+000 2.342919e+000 2.162839e+000 2.454090e+000
<GCONST> 9.452788e+001
<STATE> 3
<MEAN> 25
 6.355583e+000 4.138099e-001 1.786350e+000 7.510640e+000 9.938445e-001 1.607382e+000 1.426391e+000 -5.941950e+000 -3.059569e+000 1.859481e+000 -6.352265e+000 -3.784179e+000 -2.816417e-001 -8.085148e-001 -2.364235e-001 -9.866363e-001 7.695214e-001 7.979550e-001 -3.307277e-001 1.117456e+000 -3.048808e-002 -5.983299e-001 -5.830250e-002 -2.611525e-001 8.921112e-001
<VARIANCE> 25
 8.965342e+000 2.549512e+001 1.844404e+001 2.112245e+001 2.269776e+001 2.730867e+001 2.486225e+001 3.420362e+001 2.274877e+001 2.398125e+001 2.837959e+001 2.210282e+001 9.599953e-001 3.085668e+000 2.530541e+000 2.346766e+000 2.284105e+000 2.814871e+000 2.177759e+000 3.631419e+000 2.597178e+000 2.275589e+000 2.192562e+000 2.169261e+000 2.197334e+000
<GCONST> 9.418176e+001
<STATE> 4
<MEAN> 25
 4.683284e+000 -2.620146e+000 2.894635e-001 2.713582e+000 3.591396e+000 4.043045e+000 9.167164e-001 -1.665367e-001 -2.601674e+000 -1.681038e+000 -6.393990e+000 -4.611376e+000 -7.866853e-001 -7.187237e-001 -4.011768e-001 -1.729143e+000 4.314355e-001 7.155854e-001 2.398588e-001 1.710007e+000 4.328815e-002 -8.669516e-001 5.151398e-001 5.049236e-002 1.051106e+000
<VARIANCE> 25
 1.055750e+001 3.755664e+001 3.004923e+001 2.439677e+001 2.849656e+001 3.348232e+001 3.358867e+001 3.678179e+001 2.657311e+001 2.489820e+001 3.288104e+001 2.431573e+001 1.246513e+000 2.854140e+000 3.050613e+000 2.949467e+000 2.777416e+000 3.139142e+000 2.788825e+000 3.831384e+000 2.839063e+000 2.800743e+000 2.783101e+000 2.235762e+000 1.881387e+000
<GCONST> 9.821953e+001
<TRANSP> 5
 0.000000e+000 1.000000e+000 0.000000e+000 0.000000e+000 0.000000e+000
 0.000000e+000 4.637273e-001 5.362728e-001 0.000000e+000 0.000000e+000
 0.000000e+000 0.000000e+000 3.887590e-001 6.112410e-001 0.000000e+000
 0.000000e+000 0.000000e+000 0.000000e+000 3.962036e-001 6.037964e-001
 0.000000e+000 0.000000e+000 0.000000e+000 0.000000e+000 0.000000e+000
<ENDHMM>
~h "o"
<BEGINHMM>
<NUMSTATES> 5
<STATE> 2
<MEAN> 25
 5.832934e+000 -2.958016e+000 -6.326751e+000 -7.005542e+000 -7.140394e-001 6.567281e+000 -4.751540e+000 -2.471914e+000 -1.956939e+000 3.066147e+000 4.396849e+000 -2.061791e+000 9.491043e-001 2.701137e-002 -6.372989e-002 -9.248292e-001 -3.300902e-001 1.106374e+000 -2.440082e-001 -1.462341e-001 -6.125389e-001 8.434053e-001 8.618506e-001 -3.583544e-001 8.226771e-001
<VARIANCE> 25
 1.038739e+001 2.236267e+001 1.958899e+001 3.818981e+001 3.135354e+001 4.685190e+001 4.875613e+001 2.539481e+001 3.348254e+001 3.026994e+001 3.755207e+001 2.805348e+001 1.986236e+000 2.181641e+000 2.519589e+000 3.378442e+000 3.368582e+000 3.538352e+000 4.213895e+000 2.947978e+000 3.199332e+000 3.226066e+000 2.958230e+000 2.727669e+000 2.363792e+000
<GCONST> 1.001952e+002
<STATE> 3
<MEAN> 25
 6.831964e+000 -2.198518e+000 -5.695921e+000 -7.693589e+000 -1.602025e-001 8.586707e+000 -3.675293e+000 -2.610150e+000 -3.293641e+000 4.225707e+000 5.802241e+000 -2.012712e+000 1.922153e-001 7.729294e-001 7.122905e-001 6.842429e-001 3.532993e-001 -3.500786e-001 3.697273e-001 9.973036e-002 1.322109e-001 3.956757e-002 -2.151292e-001 9.164641e-002 -7.430658e-001
<VARIANCE> 25
 8.051872e+000 1.948995e+001 1.780429e+001 3.353591e+001 2.870470e+001 3.908315e+001 5.000257e+001 2.451529e+001 3.237423e+001 3.145073e+001 3.909220e+001 2.707949e+001 7.850867e-001 2.151528e+000 1.461416e+000 2.536770e+000 2.145863e+000 2.855819e+000 3.530600e+000 2.141472e+000 2.902586e+000 2.071520e+000 2.132209e+000 2.413515e+000 1.767038e+000
<GCONST> 9.509120e+001
<STATE> 4
<MEAN> 25
 6.483376e+000 1.438949e+000 -3.029150e+000 -3.678375e+000 1.311662e+000 5.011130e+000 -2.017176e+000 -1.756198e+000 -3.678352e-001 3.081404e+000 2.873440e+000 -1.462200e+000 -7.262800e-001 1.387351e+000 1.067374e+000 1.562222e+000 1.479352e-001 -1.365847e+000 1.202101e+000 4.215279e-001 1.015710e+000 -9.343711e-001 -1.086228e+000 5.405062e-001 -1.594363e+000
<VARIANCE> 25
 1.009624e+001 3.446807e+001 2.023958e+001 3.211979e+001 2.910777e+001 3.741554e+001 6.587475e+001 2.843644e+001 3.941670e+001 3.105609e+001 3.731789e+001 3.079506e+001 1.748953e+000 2.332472e+000 1.661180e+000 2.402545e+000 2.399479e+000 2.688804e+000 3.054734e+000 2.957723e+000 3.240897e+000 2.496798e+000 2.504371e+000 2.102771e+000 1.852160e+000
<GCONST> 9.818553e+001
<TRANSP> 5
 0.000000e+000 1.000000e+000 0.000000e+000 0.000000e+000 0.000000e+000
 0.000000e+000 4.345731e-001 5.654268e-001 0.000000e+000 0.000000e+000
 0.000000e+000 0.000000e+000 4.750092e-001 5.249908e-001 0.000000e+000
 0.000000e+000 0.000000e+000 0.000000e+000 4.779041e-001 5.220960e-001
 0.000000e+000 0.000000e+000 0.000000e+000 0.000000e+000 0.000000e+000
<ENDHMM>
~h "p"
<BEGINHMM>
<NUMSTATES> 5
<STATE> 2
<MEAN> 25
 1.191895e+000 6.873391e+000 -3.067803e-001 4.952917e-001 -3.917734e-001 2.415931e-001 4.314445e+000 1.033222e+000 4.158594e+000 -2.316631e+000 -1.982805e+000 1.780185e+000 -1.585438e+000 -1.929627e+000 -1.096946e+000 8.925402e-002 2.303731e-001 -1.184807e-001 -7.043890e-001 -4.406459e-001 3.646060e-001 4.335314e-001 2.508245e-001 4.353997e-001 1.066108e+000
<VARIANCE> 25
 1.707917e+001 1.684748e+001 1.942347e+001 2.304887e+001 2.299538e+001 2.661603e+001 2.612035e+001 2.363385e+001 2.171643e+001 1.951569e+001 2.268916e+001 2.114454e+001 1.594804e+000 3.178599e+000 2.791918e+000 2.112728e+000 2.324640e+000 2.987406e+000 3.090243e+000 2.867690e+000 2.463826e+000 2.050308e+000 2.148008e+000 1.956359e+000 3.941751e+000
<GCONST> 9.472243e+001
<STATE> 3
<MEAN> 25
 -3.717212e+000 -1.243896e+000 -3.774396e+000 1.364505e+000 1.557410e+000 4.456997e-001 1.195159e+000 -6.286514e-001 5.019553e+000 -3.219068e-001 -1.127614e+000 2.464446e+000 -2.290300e-001 -3.098001e+000 -1.952452e+000 -9.055481e-001 -5.126777e-001 -1.450807e-001 -2.182435e+000 -1.300471e+000 -5.602589e-001 9.516465e-001 8.557833e-001 1.871822e-001 3.598823e+000
<VARIANCE> 25
 1.307462e+001 2.928062e+001 2.146816e+001 1.929880e+001 2.376598e+001 2.717434e+001 2.755110e+001 2.223120e+001 2.137827e+001 1.996714e+001 1.916165e+001 1.620397e+001 2.553030e+000 2.366518e+000 3.890701e+000 3.654064e+000 3.358855e+000 4.880002e+000 3.480307e+000 3.806065e+000 3.746908e+000 2.834944e+000 3.045535e+000 2.754970e+000 2.872817e+000
<GCONST> 9.798276e+001
<STATE> 4
<MEAN> 25
 -1.102337e+000 -4.412148e+000 -7.919920e+000 -1.960558e+000 -1.160469e+000 -7.902570e-001 -3.534485e+000 -3.867666e+000 2.606784e+000 1.110235e+000 7.193206e-001 2.444263e+000 2.007996e+000 -1.217490e+000 -6.099325e-001 -1.624168e+000 -1.310923e+000 7.518688e-001 -1.417494e+000 -8.080209e-001 -1.229963e+000 6.019669e-001 1.078804e+000 -4.721948e-001 3.020658e+000
<VARIANCE> 25
 1.878241e+001 1.552561e+001 2.511607e+001 2.345836e+001 2.282539e+001 3.896509e+001 2.603507e+001 2.653999e+001 2.537440e+001 2.131940e+001 2.022935e+001 1.799704e+001 2.423012e+000 2.972739e+000 3.699672e+000 6.177095e+000 3.629459e+000 5.791312e+000 3.462852e+000 3.264753e+000 3.521068e+000 3.027720e+000 2.756128e+000 2.520600e+000 3.159414e+000
<GCONST> 9.955000e+001
<TRANSP> 5
 0.000000e+000 1.000000e+000 0.000000e+000 0.000000e+000 0.000000e+000
 0.000000e+000 4.930236e-001 5.069764e-001 0.000000e+000 0.000000e+000
 0.000000e+000 0.000000e+000 2.337681e-001 7.662320e-001 0.000000e+000
 0.000000e+000 0.000000e+000 0.000000e+000 2.758386e-001 7.241614e-001
 0.000000e+000 0.000000e+000 0.000000e+000 0.000000e+000 0.000000e+000
<ENDHMM>
~h "r"
<BEGINHMM>
<NUMSTATES> 5
<STATE> 2
<MEAN> 25
 3.584156e+000 -4.412241e+000 -1.960505e+000 2.417824e+000 -2.290283e+000 -3.390968e+000 -4.260230e+000 -3.121818e-002 3.931398e+000 1.893277e+000 1.268393e+000 -1.103429e+000 8.952442e-001 -3.091159e-001 6.240993e-001 1.254268e+000 -4.779871e-001 -6.154292e-001 1.555576e-001 -1.862581e-001 1.625956e-001 2.947225e-001 1.072016e-001 -1.567866e-001 1.137444e-001
<VARIANCE> 25
 1.380738e+001 1.918932e+001 2.901312e+001 1.940310e+001 2.409116e+001 3.709762e+001 3.661692e+001 3.413159e+001 2.778470e+001 2.143578e+001 2.787352e+001 2.008222e+001 2.253541e+000 2.414237e+000 3.504989e+000 2.807128e+000 2.621650e+000 3.597990e+000 3.822199e+000 3.256993e+000 2.897498e+000 2.702834e+000 2.867607e+000 2.512473e+000 2.184160e+000
<GCONST> 9.806303e+001
<STATE> 3
<MEAN> 25
 4.058353e+000 -4.353063e+000 -9.904624e-001 4.739776e+000 -2.289030e+000 -4.033185e+000 -2.560866e+000 -5.094151e-001 4.110244e+000 2.325001e+000 1.124163e+000 -8.214346e-001 1.542192e-001 -4.759789e-001 2.150127e-001 1.240808e-001 -1.672940e-001 -5.018201e-001 7.246859e-001 5.148927e-002 -3.508259e-001 -6.493957e-002 3.925265e-002 1.036993e-001 2.780567e-001
<VARIANCE> 25
 1.222549e+001 2.118794e+001 3.223122e+001 1.821169e+001 2.642103e+001 3.369143e+001 3.431966e+001 3.442913e+001 2.854492e+001 2.384808e+001 2.769373e+001 2.125233e+001 1.453197e+000 2.131620e+000 3.142406e+000 2.234140e+000 2.340770e+000 3.309525e+000 3.207538e+000 2.942790e+000 2.777365e+000 2.366973e+000 2.911761e+000 2.123014e+000 1.655937e+000
<GCONST> 9.622648e+001
<STATE> 4
<MEAN> 25
 3.798687e+000 -5.643823e+000 -1.641840e+000 3.061238e+000 -2.552033e+000 -4.773951e+000 -1.510834e+000 2.046844e-001 3.258246e+000 1.749112e+000 1.182133e+000 -7.110894e-001 -8.691351e-003 -4.712760e-001 -6.208890e-002 -9.265868e-001 7.184801e-002 -4.103641e-002 5.455966e-001 4.206624e-001 -8.571673e-001 -3.050330e-001 1.071399e-001 -1.436881e-001 6.509277e-001
<VARIANCE> 25
 1.289745e+001 2.355593e+001 4.041867e+001 1.808756e+001 2.754702e+001 3.970506e+001 3.676521e+001 3.310450e+001 2.868460e+001 2.504224e+001 3.255629e+001 2.210282e+001 1.460786e+000 2.116002e+000 2.361375e+000 2.145099e+000 2.592169e+000 3.421895e+000 3.019775e+000 3.231709e+000 3.248896e+000 2.350801e+000 3.778342e+000 2.083017e+000 1.545468e+000
<GCONST> 9.725836e+001
<TRANSP> 5
 0.000000e+000 1.000000e+000 0.000000e+000 0.000000e+000 0.000000e+000
 0.000000e+000 2.299736e-001 7.700263e-001 0.000000e+000 0.000000e+000
 0.000000e+000 0.000000e+000 2.004901e-001 7.995098e-001 0.000000e+000
 0.000000e+000 0.000000e+000 0.000000e+000 2.092643e-001 7.907357e-001
 0.000000e+000 0.000000e+000 0.000000e+000 0.000000e+000 0.000000e+000
<ENDHMM>
~h "s"
<BEGINHMM>
<NUMSTATES> 5
<STATE> 2
<MEAN> 25
 -9.775815e+000 6.806937e+000 2.769034e+000 1.509817e+000 6.871481e+000 -5.420367e+000 2.980300e+000 4.784426e+000 1.934115e+000 -1.980619e+000 -1.752906e+000 4.372691e+000 -4.029510e+000 1.256815e+000 -8.810729e-001 -3.703102e-001 1.750576e+000 -2.673825e-001 1.292235e+000 1.334913e+000 5.893879e-001 -8.867988e-001 5.010324e-001 1.424089e+000 5.167705e-001
<VARIANCE> 25
 3.364144e+001 1.987775e+001 2.330100e+001 1.801900e+001 2.823184e+001 4.255370e+001 6.114272e+001 2.933767e+001 3.721111e+001 2.326639e+001 2.761596e+001 2.524743e+001 1.938291e+000 2.502323e+000 2.644295e+000 1.880331e+000 2.372141e+000 3.062317e+000 3.219777e+000 3.369563e+000 2.984049e+000 2.558264e+000 2.530792e+000 2.024988e+000 9.521234e-001
<GCONST> 9.755383e+001
<STATE> 3
<MEAN> 25
 -1.709660e+001 6.393208e+000 -3.512959e+000 -1.014541e+000 8.909467e+000 -5.250106e+000 4.874937e+000 6.285977e+000 1.148576e+000 -2.171435e+000 2.884491e-001 6.630722e+000 -2.373616e-001 -7.936916e-001 -8.190010e-001 -7.961724e-002 -3.041313e-001 8.388694e-002 -1.905891e-001 -1.317827e-001 2.665442e-001 1.342899e-001 9.075570e-003 2.119619e-002 -6.295995e-001
<VARIANCE> 25
 6.926780e+000 1.696269e+001 1.800023e+001 1.622552e+001 1.995332e+001 2.980964e+001 4.176892e+001 2.919354e+001 2.768619e+001 2.162584e+001 2.253780e+001 1.974682e+001 1.273050e+000 1.646976e+000 1.940263e+000 1.412133e+000 1.792751e+000 2.245756e+000 2.657433e+000 2.634550e+000 2.607970e+000 1.891458e+000 1.756731e+000 1.622327e+000 6.107478e-001
<GCONST> 8.961496e+001
<STATE> 4
<MEAN> 25
 -1.156793e+001 2.471856e+000 -3.027397e+000 3.527138e-001 5.375248e+000 -5.159416e+000 8.497595e-001 3.258451e+000 3.131165e+000 -1.166339e+000 -9.614228e-001 4.262366e+000 3.125365e+000 -7.286671e-001 5.037963e-001 1.687291e-001 -1.283659e+000 4.014940e-002 -1.076448e+000 -1.642748e+000 -3.202845e-001 5.300330e-001 -7.947598e-002 -1.189807e+000 -7.868832e-001
<VARIANCE> 25
 3.150669e+001 2.623043e+001 2.155053e+001 1.927122e+001 3.622731e+001 4.854836e+001 5.873221e+001 4.070427e+001 4.078683e+001 2.289800e+001 2.100239e+001 2.219992e+001 3.740453e+000 2.091243e+000 1.729946e+000 1.750349e+000 2.406592e+000 3.104989e+000 4.290201e+000 3.764868e+000 3.089504e+000 2.309739e+000 2.294202e+000 2.200131e+000 2.796460e+000
<GCONST> 9.949943e+001
<TRANSP> 5
 0.000000e+000 1.000000e+000 0.000000e+000 0.000000e+000 0.000000e+000
 0.000000e+000 6.470183e-001 3.529818e-001 0.000000e+000 0.000000e+000
 0.000000e+000 0.000000e+000 7.445029e-001 2.554971e-001 0.000000e+000
 0.000000e+000 0.000000e+000 0.000000e+000 6.543064e-001 3.456936e-001
 0.000000e+000 0.000000e+000 0.000000e+000 0.000000e+000 0.000000e+000
<ENDHMM>
~h "t"
<BEGINHMM>
<NUMSTATES> 5
<STATE> 2
<MEAN> 25
 -3.147873e+000 6.058346e+000 4.458206e-001 1.343733e+000 1.776091e+000 -1.591648e+000 4.534185e+000 1.197978e+000 4.689554e+000 -1.565444e+000 -1.636926e+000 2.215895e+000 -1.129912e+000 -1.532577e+000 -4.600381e-001 -6.286449e-001 1.421117e-001 2.736779e-001 2.648842e-001 -5.059988e-001 -3.583228e-002 -3.013112e-001 3.587486e-001 7.374321e-001 3.579632e-001
<VARIANCE> 25
 3.161572e+001 1.842933e+001 2.153691e+001 2.018973e+001 2.646864e+001 3.283681e+001 2.899820e+001 2.826792e+001 2.483017e+001 2.106820e+001 2.350032e+001 1.995519e+001 3.140922e+000 3.506438e+000 2.198276e+000 1.954359e+000 2.532151e+000 3.102700e+000 2.770668e+000 3.276336e+000 2.335178e+000 1.970161e+000 2.366466e+000 2.257319e+000 3.557327e+000
<GCONST> 9.687106e+001
<STATE> 3
<MEAN> 25
 -6.773648e+000 -7.154483e-001 -9.967692e-001 -6.912658e-001 2.700313e+000 -5.913862e-001 4.605261e+000 -2.071884e-001 3.655006e+000 -2.161635e+000 7.967242e-002 4.322673e+000 -5.870274e-001 -2.433393e+000 -1.007827e+000 -9.303713e-001 -7.761917e-001 -9.595360e-001 -1.023659e+000 -6.685878e-001 -6.306297e-001 -1.966960e-003 5.664746e-001 4.411161e-001 2.284444e+000
<VARIANCE> 25
 1.758889e+001 4.226089e+001 2.735159e+001 2.167111e+001 2.562178e+001 2.987528e+001 3.183328e+001 2.621361e+001 2.180341e+001 1.814845e+001 2.071753e+001 1.709288e+001 3.902922e+000 3.227237e+000 2.912243e+000 2.422868e+000 3.617064e+000 4.007728e+000 4.244334e+000 3.538167e+000 3.107254e+000 2.332546e+000 2.847589e+000 2.934803e+000 3.196771e+000
<GCONST> 9.929663e+001
<STATE> 4
<MEAN> 25
 -5.189414e+000 -2.473989e+000 -3.393796e+000 -2.268323e+000 -8.790892e-001 -4.826570e+000 8.338438e-001 -7.609564e-001 2.639255e+000 -1.541242e+000 1.884334e-001 3.641054e+000 2.077461e+000 -6.447518e-001 1.515587e-001 -1.345733e-001 -1.337463e+000 -8.219770e-001 -2.396345e+000 -2.370763e-001 -1.079572e+000 8.869197e-001 4.480172e-001 -1.453858e+000 2.054734e+000
<VARIANCE> 25
 2.030886e+001 2.955699e+001 2.633423e+001 2.135207e+001 2.960876e+001 3.141273e+001 5.168155e+001 2.729597e+001 2.550386e+001 1.946993e+001 1.990549e+001 2.265742e+001 3.419382e+000 3.613582e+000 4.754112e+000 2.905266e+000 4.082370e+000 3.772458e+000 3.480389e+000 4.150960e+000 3.644034e+000 2.484856e+000 2.978818e+000 2.642722e+000 2.914542e+000
<GCONST> 1.009636e+002
<TRANSP> 5
 0.000000e+000 1.000000e+000 0.000000e+000 0.000000e+000 0.000000e+000
 0.000000e+000 4.503468e-001 5.496532e-001 0.000000e+000 0.000000e+000
 0.000000e+000 0.000000e+000 3.225484e-001 6.774516e-001 0.000000e+000
 0.000000e+000 0.000000e+000 0.000000e+000 3.948209e-001 6.051791e-001
 0.000000e+000 0.000000e+000 0.000000e+000 0.000000e+000 0.000000e+000
<ENDHMM>
~h "u"
<BEGINHMM>
<NUMSTATES> 5
<STATE> 2
<MEAN> 25
 5.494965e+000 1.046837e+000 -2.459681e+000 -3.985952e+000 -1.645213e+000 4.792872e+000 -7.234625e+000 -4.975734e+000 -1.810424e+000 -1.773020e-001 4.058886e+000 -9.850033e-001 1.438237e+000 9.301910e-001 -3.982836e-002 -1.727853e+000 -5.383512e-001 1.642627e+000 -5.356664e-001 -9.645420e-001 -1.306919e+000 -1.209262e-002 1.320097e+000 -2.522099e-001 4.131852e-001
<VARIANCE> 25
 1.573028e+001 3.987351e+001 2.625794e+001 5.049186e+001 3.572387e+001 4.814096e+001 6.262052e+001 3.895816e+001 3.520302e+001 4.073596e+001 4.079724e+001 2.677283e+001 2.973076e+000 3.074733e+000 2.924652e+000 3.472203e+000 4.418042e+000 4.462382e+000 5.846633e+000 5.036002e+000 4.351317e+000 3.675661e+000 3.699818e+000 3.509092e+000 2.885591e+000
<GCONST> 1.063820e+002
<STATE> 3
<MEAN> 25
 7.750210e+000 4.695560e+000 -2.085451e+000 -8.422126e+000 -3.541760e+000 8.412819e+000 -4.324806e+000 -4.162251e+000 -4.749516e+000 -1.937094e+000 4.803301e+000 -1.262462e-001 -5.579208e-003 6.187956e-001 4.048600e-001 4.008999e-001 1.872880e-001 -1.661976e-001 3.729208e-001 8.474029e-002 3.321979e-001 -8.974122e-002 -3.551819e-001 1.637943e-001 -5.096804e-001
<VARIANCE> 25
 8.259906e+000 3.527843e+001 2.065810e+001 4.610788e+001 3.535309e+001 3.781495e+001 5.350352e+001 3.618215e+001 3.649190e+001 3.400253e+001 4.265825e+001 2.859159e+001 7.614136e-001 2.892648e+000 1.393414e+000 3.709434e+000 2.647618e+000 2.830294e+000 4.879717e+000 3.066210e+000 3.124527e+000 3.374726e+000 3.434014e+000 2.345294e+000 1.865480e+000
<GCONST> 9.969402e+001
<STATE> 4
<MEAN> 25
 5.811965e+000 6.097204e+000 7.665431e-002 -2.083278e+000 -1.201667e+000 3.535298e+000 -2.838424e+000 -3.305219e+000 1.068531e-001 -1.190427e+000 1.136305e+000 6.713608e-001 -1.181019e+000 3.932405e-001 7.180947e-001 1.686420e+000 5.455873e-001 -1.484135e+000 1.004020e+000 8.496687e-001 1.125132e+000 -1.023434e-001 -1.173213e+000 4.309017e-001 -9.032715e-001
<VARIANCE> 25
 1.207058e+001 4.345290e+001 2.432260e+001 4.259609e+001 3.875858e+001 3.903239e+001 7.675658e+001 3.829469e+001 2.974495e+001 2.927376e+001 3.528129e+001 2.785073e+001 1.875405e+000 2.733974e+000 1.884400e+000 3.274879e+000 3.304322e+000 3.609772e+000 3.804489e+000 3.448220e+000 3.384314e+000 2.797251e+000 3.044163e+000 2.343678e+000 1.952160e+000
<GCONST> 1.015089e+002
<TRANSP> 5
 0.000000e+000 1.000000e+000 0.000000e+000 0.000000e+000 0.000000e+000
 0.000000e+000 4.794769e-001 5.205231e-001 0.000000e+000 0.000000e+000
 0.000000e+000 0.000000e+000 6.287559e-001 3.712441e-001 0.000000e+000
 0.000000e+000 0.000000e+000 0.000000e+000 5.714508e-001 4.285492e-001
 0.000000e+000 0.000000e+000 0.000000e+000 0.000000e+000 0.000000e+000
<ENDHMM>
~h "v"
<BEGINHMM>
<NUMSTATES> 5
<STATE> 2
<MEAN> 25
 4.105524e+000 -1.109654e-001 -2.763116e+000 -2.794186e-001 1.901638e+000 1.586256e+000 -3.214190e+000 -3.847010e+000 -4.458162e-001 2.701908e+000 1.633343e+000 -2.018902e-001 7.622545e-001 -2.486737e-002 -2.273457e-001 -3.267719e-001 7.541320e-003 3.326854e-001 -4.932062e-001 -4.249151e-001 -4.601707e-001 3.257174e-001 3.689295e-001 -1.760180e-001 2.880402e-001
<VARIANCE> 25
 2.587012e+001 2.541787e+001 2.828457e+001 3.604435e+001 2.233149e+001 4.089703e+001 3.910467e+001 3.233973e+001 2.848432e+001 2.528325e+001 3.418043e+001 2.363669e+001 2.907263e+000 3.380075e+000 2.500286e+000 3.776629e+000 2.555916e+000 4.434284e+000 3.502874e+000 3.938692e+000 3.233601e+000 3.096098e+000 2.891831e+000 2.699233e+000 3.291020e+000
<GCONST> 1.017284e+002
<STATE> 3
<MEAN> 25
 5.228588e+000 -1.221617e+000 -3.040468e+000 -1.571656e+000 1.380019e+000 1.946234e+000 -3.515084e+000 -2.934259e+000 -9.616057e-001 2.918694e+000 2.013036e+000 -6.631085e-001 1.816610e-001 -7.484506e-001 6.010910e-002 -3.741535e-001 -5.042974e-001 -2.070771e-001 2.876827e-002 8.320085e-001 -1.382949e-001 -2.123197e-001 -1.229763e-001 -1.953922e-001 8.435458e-001
<VARIANCE> 25
 1.776622e+001 2.456105e+001 3.287934e+001 4.001663e+001 2.336362e+001 4.640924e+001 3.749161e+001 3.300760e+001 2.787357e+001 2.625733e+001 3.826729e+001 2.566535e+001 2.270106e+000 3.305276e+000 2.498079e+000 3.496728e+000 2.462945e+000 3.795666e+000 2.804922e+000 3.669985e+000 3.491426e+000 2.657309e+000 2.582705e+000 2.549846e+000 2.698824e+000
<GCONST> 1.006572e+002
<STATE> 4
<MEAN> 25
 5.037191e+000 -2.809887e+000 -2.920850e+000 -1.783695e+000 6.342141e-001 9.979362e-001 -3.136901e+000 -3.878223e-001 -6.281793e-001 2.003642e+000 7.716727e-001 -1.304176e+000 -2.022093e-001 -5.844828e-001 4.603698e-001 7.350457e-002 -7.575064e-001 -3.996375e-001 4.988913e-001 1.011443e+000 -6.589352e-002 -4.559766e-001 -3.229690e-001 -9.924059e-002 7.228777e-001
<VARIANCE> 25
 1.468933e+001 2.929240e+001 3.850772e+001 3.872262e+001 2.641737e+001 5.516779e+001 3.932833e+001 3.513910e+001 3.028220e+001 2.895609e+001 4.025266e+001 2.993731e+001 1.680561e+000 2.430287e+000 2.521706e+000 2.890629e+000 2.998727e+000 3.208916e+000 2.695925e+000 3.318696e+000 3.914192e+000 2.507508e+000 3.112795e+000 2.371590e+000 1.801995e+000
<GCONST> 1.004258e+002
<TRANSP> 5
 0.000000e+000 1.000000e+000 0.000000e+000 0.000000e+000 0.000000e+000
 0.000000e+000 2.613685e-001 7.386315e-001 0.000000e+000 0.000000e+000
 0.000000e+000 0.000000e+000 1.488233e-001 8.511768e-001 0.000000e+000
 0.000000e+000 0.000000e+000 0.000000e+000 1.782222e-001 8.217778e-001
 0.000000e+000 0.000000e+000 0.000000e+000 0.000000e+000 0.000000e+000
<ENDHMM>
~h "z"
<BEGINHMM>
<NUMSTATES> 5
<STATE> 2
<MEAN> 25
 -5.668968e+000 9.852358e+000 1.251919e+000 2.450568e-001 6.852752e+000 -9.678847e+000 -1.423087e+000 -1.387493e+000 5.497931e-001 1.521199e+000 -2.479329e+000 2.535848e+000 -2.931719e+000 2.663107e+000 -2.603258e-001 2.465635e-001 1.528820e+000 -1.110582e+000 1.350300e+000 5.442703e-001 6.815326e-001 -1.161849e+000 -4.229874e-001 1.670662e+000 -5.641719e-003
<VARIANCE> 25
 2.228123e+001 2.449675e+001 2.510465e+001 1.825408e+001 2.364831e+001 3.566661e+001 4.862777e+001 2.687129e+001 3.178867e+001 2.635695e+001 1.977612e+001 2.562778e+001 1.451931e+000 2.879899e+000 1.704346e+000 1.325740e+000 2.079326e+000 3.131293e+000 2.637524e+000 3.495191e+000 2.105778e+000 1.944770e+000 2.127654e+000 1.701272e+000 9.538740e-001
<GCONST> 9.423793e+001
<STATE> 3
<MEAN> 25
 -1.236560e+001 1.215044e+001 5.316108e-001 1.226906e+000 8.918029e+000 -9.694078e+000 1.718961e+000 1.823915e+000 3.829267e-001 -2.055070e+000 -1.997681e+000 6.186491e+000 1.075003e-001 -9.329564e-001 -2.735002e-001 9.160112e-003 -1.140183e-001 1.261551e-001 -5.062279e-001 1.984929e-002 -9.492313e-002 -1.225186e-001 2.463421e-002 3.954880e-002 -1.490522e-001
<VARIANCE> 25
 1.195159e+001 1.196783e+001 1.962296e+001 1.547026e+001 1.902709e+001 3.041775e+001 4.201726e+001 2.975069e+001 2.837754e+001 2.244219e+001 2.013696e+001 1.766271e+001 2.504704e+000 1.579945e+000 1.464782e+000 1.268585e+000 1.803759e+000 2.400176e+000 2.830473e+000 2.584044e+000 2.221329e+000 1.903301e+000 1.575341e+000 1.475218e+000 6.201016e-001
<GCONST> 8.970549e+001
<STATE> 4
<MEAN> 25
 -4.646040e+000 4.667536e+000 -8.895360e-001 -4.400793e-001 5.670763e+000 -9.644198e+000 -3.985600e+000 -5.158084e-001 9.373246e-001 1.577668e+000 -2.375247e+000 2.586207e+000 3.114196e+000 -2.968044e+000 -2.929682e-001 -4.483423e-001 -1.414564e+000 9.806831e-001 -9.133587e-001 -9.853115e-003 6.649654e-002 1.145500e+000 2.419662e-001 -1.667310e+000 4.251286e-001
<VARIANCE> 25
 2.675172e+001 2.799108e+001 2.198764e+001 1.687510e+001 2.019497e+001 3.201607e+001 3.543788e+001 2.469842e+001 2.402028e+001 2.515317e+001 1.489590e+001 1.820870e+001 1.551135e+000 2.072518e+000 1.527119e+000 1.642773e+000 1.730815e+000 3.049441e+000 3.127839e+000 4.044411e+000 2.239953e+000 2.130402e+000 1.878689e+000 1.518855e+000 1.297049e+000
<GCONST> 9.289493e+001
<TRANSP> 5
 0.000000e+000 1.000000e+000 0.000000e+000 0.000000e+000 0.000000e+000
 0.000000e+000 6.418445e-001 3.581554e-001 0.000000e+000 0.000000e+000
 0.000000e+000 0.000000e+000 6.627936e-001 3.372064e-001 0.000000e+000
 0.000000e+000 0.000000e+000 0.000000e+000 6.109611e-001 3.890389e-001
 0.000000e+000 0.000000e+000 0.000000e+000 0.000000e+000 0.000000e+000
<ENDHMM>
~h "DZ"
<BEGINHMM>
<NUMSTATES> 5
<STATE> 2
<MEAN> 25
 5.569248e-001 4.385192e+000 2.947646e+000 8.273409e+000 -1.893170e+000 1.404918e+000 2.587949e+000 -3.085229e+000 3.139555e+000 -2.817033e+000 -2.482932e+000 -1.673940e+000 -3.024340e+000 -2.594135e-001 -1.224168e-001 6.626636e-001 -4.014803e-001 9.145386e-001 7.708555e-001 -8.633589e-001 2.032521e-002 -1.184592e+000 3.327110e-001 6.309644e-001 1.770175e+000
<VARIANCE> 25
 3.643174e+001 4.289432e+001 2.449225e+001 2.408587e+001 2.069970e+001 3.584817e+001 2.717439e+001 3.624554e+001 2.801328e+001 2.412665e+001 2.993048e+001 1.852220e+001 5.350597e+000 6.180760e+000 2.559641e+000 2.743224e+000 1.928867e+000 4.703714e+000 3.471540e+000 2.731350e+000 2.860135e+000 2.297480e+000 4.126441e+000 2.517652e+000 4.621951e+000
<GCONST> 1.016735e+002
<STATE> 3
<MEAN> 25
 -1.189895e+001 3.404628e+000 3.087471e+000 5.530895e+000 -4.291030e+000 2.579258e+000 6.379783e-001 -4.082284e+000 4.967386e+000 -7.336045e+000 3.245950e-001 2.978534e+000 1.303559e-001 -6.133010e-001 -4.003351e-001 -1.101613e+000 -8.427405e-001 -2.434783e+000 -2.288868e+000 -3.897831e-001 1.135522e+000 -7.101367e-002 1.006416e+000 6.901175e-001 1.524645e+000
<VARIANCE> 25
 2.060694e+001 2.110891e+001 3.266154e+001 3.329852e+001 1.791565e+001 4.322039e+001 3.514703e+001 2.968866e+001 2.571783e+001 2.677493e+001 1.720941e+001 2.925471e+001 9.751654e+000 3.374539e+000 1.687322e+000 2.269519e+000 2.715075e+000 3.346134e+000 3.336935e+000 2.766366e+000 4.543848e+000 2.967438e+000 1.908709e+000 2.464666e+000 1.979811e+000
<GCONST> 9.947098e+001
<STATE> 4
<MEAN> 25
 6.717142e-001 -2.284366e+000 2.462119e-001 3.619544e+000 -4.583237e+000 -4.830887e+000 -5.762196e+000 -5.842175e+000 7.700574e+000 -1.604703e+000 4.232314e+000 -7.396484e-001 3.235263e+000 -1.439628e+000 -5.396549e-001 -1.291676e+000 5.540119e-001 1.374321e-001 -9.687982e-001 7.506670e-001 -3.242505e-001 1.852001e+000 1.132298e+000 -1.118346e+000 1.586053e-003
<VARIANCE> 25
 2.123030e+001 1.538673e+001 2.109826e+001 2.105447e+001 2.746757e+001 2.694416e+001 2.636672e+001 3.202338e+001 2.878951e+001 2.245452e+001 2.152096e+001 3.835657e+001 2.541399e+000 2.067129e+000 1.698766e+000 1.362661e+000 2.455068e+000 8.395117e+000 4.541171e+000 2.745718e+000 3.570087e+000 2.128600e+000 2.383026e+000 1.684989e+000 8.938053e-001
<GCONST> 9.571813e+001
<TRANSP> 5
 0.000000e+000 1.000000e+000 0.000000e+000 0.000000e+000 0.000000e+000
 0.000000e+000 6.668690e-001 3.331310e-001 0.000000e+000 0.000000e+000
 0.000000e+000 0.000000e+000 5.562832e-001 4.437168e-001 0.000000e+000
 0.000000e+000 0.000000e+000 0.000000e+000 6.407071e-001 3.592929e-001
 0.000000e+000 0.000000e+000 0.000000e+000 0.000000e+000 0.000000e+000
<ENDHMM>
~h "a:"
<BEGINHMM>
<NUMSTATES> 5
<STATE> 2
<MEAN> 25
 2.974789e+000 -8.211562e+000 -7.126812e+000 -2.241170e+000 4.057241e+000 1.661008e+000 7.585412e-001 1.727616e+000 3.247620e+000 -1.917270e-001 -3.642687e+000 -4.306400e+000 2.366868e-001 -5.492893e-001 -4.690251e-001 2.298558e-001 6.825023e-001 1.256662e+000 3.137094e-001 -4.624715e-002 -1.192236e-001 -4.553176e-001 -3.300967e-001 -9.443815e-001 2.322507e-001
<VARIANCE> 25
 5.476584e+000 7.318018e+000 9.980784e+000 1.341507e+001 1.830600e+001 4.280265e+001 2.092843e+001 2.627766e+001 1.602813e+001 1.818624e+001 2.342775e+001 1.611823e+001 8.027422e-001 9.029176e-001 1.075370e+000 1.395121e+000 1.739419e+000 2.296396e+000 1.970129e+000 2.228422e+000 1.588418e+000 1.730122e+000 2.292097e+000 1.809960e+000 1.088478e+000
<GCONST> 8.458389e+001
<STATE> 3
<MEAN> 25
 3.809530e+000 -8.096073e+000 -8.153433e+000 -6.932448e-001 5.272192e+000 5.207676e+000 8.667037e-001 -1.836138e-001 1.604213e+000 -9.454383e-001 -3.382330e+000 -7.210252e+000 4.354539e-001 6.427955e-001 2.812113e-001 2.659357e-001 -3.188188e-001 -2.501445e-001 -9.217506e-002 2.997748e-001 -2.350493e-001 4.486001e-001 -5.629203e-002 -2.646148e-001 -7.644240e-001
<VARIANCE> 25
 6.178766e+000 9.144442e+000 1.326510e+001 1.861416e+001 2.106657e+001 3.269473e+001 2.090110e+001 2.798825e+001 1.841271e+001 2.118768e+001 3.015377e+001 1.793050e+001 4.571950e-001 1.104346e+000 8.257813e-001 1.234262e+000 1.191449e+000 1.751840e+000 1.490291e+000 1.802238e+000 1.421897e+000 1.476534e+000 1.852747e+000 1.382194e+000 8.600529e-001
<GCONST> 8.324677e+001
<STATE> 4
<MEAN> 25
 5.490817e+000 -1.950062e+000 -5.681810e+000 5.818204e-001 3.101561e+000 2.357861e+000 2.404685e+000 2.730070e+000 2.912608e+000 4.772248e-001 -4.830167e+000 -6.172875e+000 -1.690324e-001 1.840417e+000 8.623619e-001 3.096039e-001 -3.897806e-001 -3.231268e-001 9.164630e-001 2.084775e-001 3.743418e-001 -2.971291e-001 -4.114488e-001 7.269898e-001 -2.048481e+000
<VARIANCE> 25
 9.302652e+000 2.281293e+001 1.718883e+001 2.203703e+001 2.219427e+001 3.781032e+001 3.565779e+001 3.278178e+001 3.110961e+001 2.727444e+001 3.451734e+001 2.352156e+001 1.448408e+000 1.848836e+000 1.415232e+000 1.769075e+000 2.011134e+000 2.215266e+000 2.520932e+000 2.569816e+000 2.630555e+000 2.366894e+000 2.522439e+000 1.985538e+000 1.544072e+000
<GCONST> 9.362025e+001
<TRANSP> 5
 0.000000e+000 1.000000e+000 0.000000e+000 0.000000e+000 0.000000e+000
 0.000000e+000 6.718301e-001 3.281699e-001 0.000000e+000 0.000000e+000
 0.000000e+000 0.000000e+000 6.986334e-001 3.013665e-001 0.000000e+000
 0.000000e+000 0.000000e+000 0.000000e+000 6.328443e-001 3.671557e-001
 0.000000e+000 0.000000e+000 0.000000e+000 0.000000e+000 0.000000e+000
<ENDHMM>
~h "cc"
<BEGINHMM>
<NUMSTATES> 5
<STATE> 2
<MEAN> 25
 -8.854239e+000 7.951432e+000 7.762853e+000 8.615637e-001 -3.867110e+000 4.806956e+000 -2.339758e+000 1.352538e+000 3.020889e+000 -1.287640e+000 -1.873595e+000 3.793848e+000 -3.497521e+000 -1.828824e-002 2.103827e-001 -7.210403e-001 -4.839674e-001 2.156835e+000 1.176918e-001 -4.793619e-001 4.760088e-001 1.272629e-002 6.313022e-002 2.598000e-001 4.830268e-001
<VARIANCE> 25
 3.827333e+001 1.675482e+001 2.257290e+001 3.712214e+001 3.085276e+001 4.389484e+001 2.719897e+001 3.376754e+001 2.886707e+001 2.104330e+001 2.690077e+001 1.898837e+001 1.682390e+000 4.090931e+000 1.969252e+000 1.967636e+000 2.625770e+000 2.443356e+000 3.016488e+000 2.397423e+000 2.972095e+000 1.981964e+000 2.150602e+000 1.668443e+000 2.023441e+000
<GCONST> 9.669680e+001
<STATE> 3
<MEAN> 25
 -1.875344e+001 1.373116e+000 6.332598e+000 3.721542e-001 -6.376882e+000 9.167306e+000 1.294092e+000 -1.083581e-001 1.975467e+000 -1.426481e+000 5.598480e-001 4.762087e+000 -9.722455e-002 -1.851576e+000 -8.657228e-001 3.967661e-001 -8.008119e-001 -8.685549e-001 1.139842e+000 2.954101e-001 -5.201412e-001 -2.426345e-001 6.326992e-001 2.966906e-001 4.301169e-001
<VARIANCE> 25
 8.030871e+000 1.662394e+001 1.419335e+001 2.523070e+001 2.332489e+001 2.423585e+001 2.343585e+001 2.104743e+001 1.890836e+001 1.735021e+001 1.984796e+001 1.503080e+001 3.412333e+000 1.169071e+000 1.306394e+000 1.650843e+000 2.018161e+000 2.896297e+000 2.307682e+000 2.199677e+000 2.004974e+000 1.807441e+000 1.880652e+000 1.380695e+000 8.860617e-001
<GCONST> 8.841483e+001
<STATE> 4
<MEAN> 25
 -9.937742e+000 -2.722887e+000 3.855536e+000 1.948676e+000 -8.750704e+000 6.927918e-002 3.746736e-001 7.621151e-001 4.392697e-002 -2.977540e+000 1.704483e+000 5.069147e+000 4.228203e+000 -5.416177e-001 -2.857121e-002 1.671727e-001 2.337376e-001 -2.889090e+000 -1.577460e+000 -1.542745e-001 -6.394762e-001 -1.138043e-002 1.957801e-001 -5.232767e-001 3.951394e-001
<VARIANCE> 25
 5.374281e+001 1.468923e+001 1.589977e+001 2.208438e+001 2.315547e+001 4.313425e+001 3.221079e+001 2.265932e+001 2.703941e+001 1.731975e+001 1.672583e+001 1.319650e+001 2.933661e+000 1.654809e+000 2.189055e+000 1.668041e+000 2.714593e+000 3.550305e+000 3.055847e+000 2.578879e+000 3.316092e+000 2.098120e+000 2.098864e+000 1.611294e+000 1.509846e+000
<GCONST> 9.430031e+001
<TRANSP> 5
 0.000000e+000 1.000000e+000 0.000000e+000 0.000000e+000 0.000000e+000
 0.000000e+000 7.306859e-001 2.693141e-001 0.000000e+000 0.000000e+000
 0.000000e+000 0.000000e+000 7.096645e-001 2.903355e-001 0.000000e+000
 0.000000e+000 0.000000e+000 0.000000e+000 6.674984e-001 3.325016e-001
 0.000000e+000 0.000000e+000 0.000000e+000 0.000000e+000 0.000000e+000
<ENDHMM>
~h "e:"
<BEGINHMM>
<NUMSTATES> 5
<STATE> 2
<MEAN> 25
 2.267482e+000 -5.380176e+000 1.764197e+000 4.315318e-001 -6.323221e+000 -8.192922e+000 1.827125e-001 4.519355e+000 2.515605e-001 4.908914e-001 2.595476e+000 9.059194e-001 5.109342e-001 -1.073546e-001 3.778754e-001 1.038767e-002 -2.288327e-001 -1.631363e-002 2.028129e-001 9.368257e-001 -5.922426e-001 4.295082e-001 3.568994e-001 -2.677691e-001 4.344126e-002
<VARIANCE> 25
 6.871593e+000 9.913919e+000 1.603324e+001 1.040832e+001 2.357665e+001 3.566034e+001 2.963576e+001 2.056165e+001 2.190765e+001 1.348620e+001 2.578685e+001 1.506275e+001 1.092790e+000 1.196524e+000 1.710326e+000 1.260986e+000 2.793362e+000 2.845080e+000 3.111354e+000 2.393327e+000 2.642510e+000 1.930420e+000 2.398522e+000 1.518191e+000 1.581587e+000
<GCONST> 8.858041e+001
<STATE> 3
<MEAN> 25
 3.647060e+000 -3.936454e+000 2.989905e+000 7.610065e-001 -5.673899e+000 -6.005398e+000 -6.068674e-001 5.953934e+000 -2.195073e+000 1.981067e+000 1.824694e+000 -4.763364e-001 3.071611e-001 1.283060e+000 1.803526e-001 5.701312e-001 7.681006e-001 3.757352e-001 2.031787e-001 -1.256332e-002 1.958649e-001 -6.924407e-003 -7.371742e-001 -1.441240e-001 -1.549979e+000
<VARIANCE> 25
 7.564974e+000 1.692563e+001 2.111210e+001 1.444502e+001 3.056486e+001 2.932388e+001 3.451145e+001 2.336558e+001 3.053658e+001 2.071615e+001 2.905725e+001 1.713041e+001 7.321557e-001 1.902625e+000 1.264719e+000 1.144978e+000 1.952979e+000 1.963018e+000 2.827794e+000 1.877389e+000 2.707520e+000 1.609190e+000 1.586353e+000 1.731657e+000 1.669358e+000
<GCONST> 8.937990e+001
<STATE> 4
<MEAN> 25
 3.394372e+000 1.050053e+000 2.905924e+000 2.757367e+000 -3.631381e+000 -5.634051e+000 1.603288e+000 4.776947e+000 8.929670e-001 7.324787e-001 -4.573359e-001 1.622967e-001 -7.621033e-001 1.590651e+000 -2.514427e-001 3.758665e-001 1.069637e+000 3.881451e-001 7.535275e-001 -9.269656e-001 1.020921e+000 -3.384843e-001 -5.731772e-001 3.229271e-001 -1.548838e+000
<VARIANCE> 25
 1.109218e+001 2.662247e+001 1.998255e+001 1.618074e+001 2.921338e+001 3.201665e+001 3.831252e+001 2.843843e+001 3.510736e+001 2.259430e+001 2.856437e+001 2.323124e+001 2.258165e+000 2.988600e+000 1.615045e+000 1.798559e+000 2.591671e+000 2.445001e+000 3.532503e+000 2.775491e+000 2.914205e+000 2.525754e+000 1.991682e+000 2.355622e+000 1.951092e+000
<GCONST> 9.573697e+001
<TRANSP> 5
 0.000000e+000 1.000000e+000 0.000000e+000 0.000000e+000 0.000000e+000
 0.000000e+000 5.482230e-001 4.517770e-001 0.000000e+000 0.000000e+000
 0.000000e+000 0.000000e+000 5.060362e-001 4.939639e-001 0.000000e+000
 0.000000e+000 0.000000e+000 0.000000e+000 4.151945e-001 5.848055e-001
 0.000000e+000 0.000000e+000 0.000000e+000 0.000000e+000 0.000000e+000
<ENDHMM>
~h "dz"
<BEGINHMM>
<NUMSTATES> 5
<STATE> 2
<MEAN> 25
 -3.837193e+000 6.190512e+000 9.350843e+000 2.005256e+000 -5.012062e+000 1.773909e+000 -3.459732e+000 2.008057e+000 1.745638e+000 -3.307403e+000 -1.417398e+000 4.367221e+000 -2.924157e+000 2.134866e+000 7.340119e-001 1.877598e-001 -9.068847e-001 1.929135e+000 5.448263e-001 -5.678543e-001 1.226165e+000 -7.098940e-001 -6.106958e-001 6.760899e-001 -3.741330e-001
<VARIANCE> 25
 2.722256e+001 2.684942e+001 2.412590e+001 2.234702e+001 2.097124e+001 3.101068e+001 2.636994e+001 3.500923e+001 2.931160e+001 1.357694e+001 1.848248e+001 1.687660e+001 1.668670e+000 2.901649e+000 1.296277e+000 1.871987e+000 2.041849e+000 2.224883e+000 2.679630e+000 1.924863e+000 2.828960e+000 1.936770e+000 2.148797e+000 1.637210e+000 1.268240e+000
<GCONST> 9.267999e+001
<STATE> 3
<MEAN> 25
 -1.205453e+001 6.462637e+000 1.084144e+001 3.900589e+000 -7.837305e+000 5.388540e+000 -5.726307e-001 -1.027533e+000 1.576263e+000 -3.226569e+000 -7.793461e-001 5.398496e+000 2.036878e-001 -1.806535e+000 -6.252763e-001 1.118988e+000 -7.515358e-001 -1.400112e+000 8.625866e-002 -8.153427e-001 -1.363437e+000 -1.721911e-001 8.619190e-001 2.947026e-001 7.821189e-001
<VARIANCE> 25
 1.841861e+001 1.330239e+001 1.886662e+001 2.715393e+001 2.124158e+001 3.145112e+001 2.429378e+001 2.540187e+001 2.390725e+001 1.525196e+001 1.559374e+001 1.273436e+001 5.266201e+000 1.767461e+000 1.611346e+000 2.070041e+000 1.945379e+000 4.113678e+000 2.458307e+000 1.921794e+000 2.259007e+000 1.854154e+000 1.703490e+000 1.284646e+000 3.870285e-001
<GCONST> 9.014091e+001
<STATE> 4
<MEAN> 25
 -2.980628e+000 -6.366183e-001 6.490274e+000 5.873794e+000 -8.233852e+000 -3.534147e+000 -4.082347e+000 -1.988618e+000 -1.444374e+000 -4.266559e+000 2.065013e+000 5.445644e+000 3.274052e+000 -1.916386e+000 -1.393729e+000 -4.907105e-001 1.157418e+000 -1.547328e+000 -1.307790e+000 1.110931e-001 2.007467e-001 5.193700e-001 5.592158e-001 -1.036088e+000 5.342515e-001
<VARIANCE> 25
 2.379309e+001 1.406796e+001 1.344498e+001 3.129743e+001 1.637008e+001 2.010641e+001 2.758906e+001 2.130638e+001 2.613945e+001 1.497534e+001 1.298391e+001 1.090374e+001 1.767269e+000 1.446104e+000 1.435802e+000 2.053714e+000 2.811058e+000 4.135392e+000 4.941576e+000 2.926099e+000 3.146709e+000 2.603667e+000 2.054514e+000 1.841162e+000 5.499403e-001
<GCONST> 9.087790e+001
<TRANSP> 5
 0.000000e+000 1.000000e+000 0.000000e+000 0.000000e+000 0.000000e+000
 0.000000e+000 6.719697e-001 3.280303e-001 0.000000e+000 0.000000e+000
 0.000000e+000 0.000000e+000 6.288180e-001 3.711820e-001 0.000000e+000
 0.000000e+000 0.000000e+000 0.000000e+000 6.357314e-001 3.642686e-001
 0.000000e+000 0.000000e+000 0.000000e+000 0.000000e+000 0.000000e+000
<ENDHMM>
~h "i:"
<BEGINHMM>
<NUMSTATES> 5
<STATE> 2
<MEAN> 25
 -6.204497e-001 -1.880167e-001 1.163626e+001 5.615346e-001 -9.935625e+000 -1.464980e+000 -3.309726e+000 -3.327118e+000 -7.257055e+000 8.240981e-002 3.797993e+000 -2.838484e-001 1.647032e-001 1.358903e-001 2.120928e+000 -7.262520e-001 -1.903750e+000 1.017140e+000 -6.950928e-001 -7.076747e-001 -1.790001e+000 6.854597e-001 9.088998e-001 -9.091610e-001 1.098836e+000
<VARIANCE> 25
 1.058210e+001 2.112162e+001 2.056779e+001 2.287936e+001 2.202914e+001 5.261473e+001 2.647819e+001 3.055851e+001 2.638094e+001 1.900303e+001 2.699087e+001 1.515066e+001 2.633343e+000 1.838261e+000 2.558629e+000 3.456996e+000 3.124804e+000 3.870119e+000 4.468396e+000 2.766207e+000 3.710643e+000 2.117516e+000 2.640272e+000 1.901992e+000 2.451538e+000
<GCONST> 9.682851e+001
<STATE> 3
<MEAN> 25
 -3.117749e-001 1.206045e+000 1.438239e+001 -1.643893e+000 -1.078202e+001 4.351218e+000 -4.303221e+000 -5.146812e+000 -8.315002e+000 2.047927e+000 3.024615e+000 -2.463162e+000 2.383917e-001 2.765051e-001 -3.322895e-001 4.871181e-001 5.197631e-001 -7.696210e-002 3.191647e-001 3.416279e-001 1.637857e-003 -1.440162e-001 -1.170070e-001 -5.835600e-003 -3.336576e-001
<VARIANCE> 25
 6.410728e+000 1.625166e+001 1.377081e+001 2.703892e+001 1.924509e+001 5.984335e+001 1.967280e+001 2.224950e+001 2.549627e+001 1.715919e+001 2.982285e+001 1.431637e+001 7.435970e-001 1.791851e+000 1.248488e+000 1.689266e+000 1.757684e+000 2.982768e+000 2.035909e+000 2.196998e+000 1.946416e+000 1.436667e+000 1.755389e+000 1.303130e+000 1.023729e+000
<GCONST> 8.784854e+001
<STATE> 4
<MEAN> 25
 5.532413e-001 2.905251e+000 1.053040e+001 3.365376e+000 -6.376240e+000 -2.119051e+000 -1.120818e+000 -2.001242e+000 -6.573483e+000 -8.606178e-001 2.620912e+000 -5.628219e-002 -6.164175e-001 9.821686e-001 -1.663888e+000 9.634597e-001 2.519036e+000 -9.935920e-001 9.200306e-001 3.408946e-001 1.743896e+000 -6.274588e-001 -1.138806e+000 1.131851e+000 -9.969177e-001
<VARIANCE> 25
 1.436608e+001 2.644148e+001 1.666665e+001 1.779584e+001 2.523779e+001 4.230924e+001 3.326619e+001 2.583770e+001 2.925339e+001 1.891430e+001 2.539391e+001 1.919533e+001 3.039236e+000 3.331200e+000 1.833719e+000 2.862233e+000 2.732250e+000 3.878815e+000 3.752464e+000 3.148023e+000 3.058422e+000 2.347156e+000 2.231907e+000 2.559011e+000 1.751844e+000
<GCONST> 9.689090e+001
<TRANSP> 5
 0.000000e+000 1.000000e+000 0.000000e+000 0.000000e+000 0.000000e+000
 0.000000e+000 5.882943e-001 4.117058e-001 0.000000e+000 0.000000e+000
 0.000000e+000 0.000000e+000 6.847675e-001 3.152325e-001 0.000000e+000
 0.000000e+000 0.000000e+000 0.000000e+000 5.644750e-001 4.355250e-001
 0.000000e+000 0.000000e+000 0.000000e+000 0.000000e+000 0.000000e+000
<ENDHMM>
~h "o:"
<BEGINHMM>
<NUMSTATES> 5
<STATE> 2
<MEAN> 25
 5.918098e+000 -7.841991e-001 -7.715182e+000 -1.031329e+001 -3.808660e+000 9.115430e+000 -4.288555e-001 -2.672384e+000 -8.329941e-001 -7.148335e-001 4.036623e+000 -5.340198e-001 9.180967e-001 7.456938e-002 -2.527320e-001 -1.863256e+000 -1.053702e+000 1.798947e+000 3.454240e-001 -1.822134e-001 -3.106952e-001 1.507368e-001 9.579830e-001 -2.864112e-001 1.121379e+000
<VARIANCE> 25
 1.068681e+001 2.728843e+001 1.617659e+001 3.818563e+001 4.178506e+001 3.589569e+001 4.472773e+001 3.087840e+001 3.247119e+001 3.061003e+001 2.954856e+001 2.666247e+001 1.931867e+000 2.246247e+000 2.423940e+000 4.077154e+000 3.320025e+000 3.337583e+000 3.330345e+000 3.015468e+000 2.774537e+000 2.819351e+000 2.525930e+000 2.337799e+000 2.686541e+000
<GCONST> 9.945486e+001
<STATE> 3
<MEAN> 25
 6.277637e+000 -1.773259e+000 -7.173676e+000 -1.120164e+001 -3.813525e+000 1.211080e+001 -2.456515e-001 -3.945279e+000 -1.876476e+000 8.745885e-001 6.385183e+000 -8.126537e-001 6.061969e-002 -1.764404e-001 4.679415e-001 8.544717e-001 7.816542e-001 -4.827587e-001 -6.685886e-001 -2.777317e-002 2.327189e-002 8.048948e-001 2.580133e-001 -4.921074e-001 -8.779529e-002
<VARIANCE> 25
 7.190145e+000 1.611763e+001 1.284028e+001 2.492177e+001 3.120900e+001 2.756089e+001 3.528455e+001 2.415765e+001 2.755312e+001 3.040886e+001 2.744470e+001 2.202350e+001 5.860311e-001 2.051331e+000 1.202227e+000 2.497087e+000 2.545119e+000 2.471066e+000 3.423563e+000 2.095370e+000 2.475689e+000 2.552445e+000 2.167291e+000 2.375771e+000 1.729537e+000
<GCONST> 9.223103e+001
<STATE> 4
<MEAN> 25
 6.319295e+000 -9.591771e-001 -3.978877e+000 -5.838953e+000 4.341762e-001 6.284942e+000 -4.149893e+000 -1.933379e+000 3.726116e-001 3.690488e+000 4.822235e+000 -3.081875e+000 -6.744197e-001 1.057033e+000 1.389046e+000 1.829738e+000 7.541193e-001 -1.956950e+000 3.589446e-001 1.031098e+000 1.092517e+000 -4.241385e-001 -1.462265e+000 2.190641e-001 -1.392654e+000
<VARIANCE> 25
 8.145057e+000 3.359929e+001 1.952844e+001 3.026066e+001 2.855089e+001 3.726082e+001 6.426144e+001 2.943411e+001 3.004143e+001 3.500030e+001 3.308802e+001 2.767279e+001 2.257427e+000 2.864971e+000 1.706643e+000 2.478055e+000 2.934666e+000 3.086166e+000 4.727843e+000 3.177284e+000 3.132398e+000 2.794957e+000 2.345465e+000 2.872782e+000 2.174372e+000
<GCONST> 9.930878e+001
<TRANSP> 5
 0.000000e+000 1.000000e+000 0.000000e+000 0.000000e+000 0.000000e+000
 0.000000e+000 6.021183e-001 3.978817e-001 0.000000e+000 0.000000e+000
 0.000000e+000 0.000000e+000 6.695405e-001 3.304595e-001 0.000000e+000
 0.000000e+000 0.000000e+000 0.000000e+000 5.979309e-001 4.020692e-001
 0.000000e+000 0.000000e+000 0.000000e+000 0.000000e+000 0.000000e+000
<ENDHMM>
~h "r:"
<BEGINHMM>
<NUMSTATES> 5
<STATE> 2
<MEAN> 25
 3.024831e+000 -5.964285e+000 -3.695002e+000 -1.300848e+000 -8.030644e-001 -6.894713e+000 -4.868151e+000 9.794893e-001 3.561961e+000 2.671035e+000 8.179341e-001 -1.498994e+000 1.978062e+000 -2.247601e-001 1.324664e+000 1.337552e+000 -5.761334e-001 -3.564633e-001 -5.135206e-001 -2.444264e-002 1.595861e-001 1.038848e+000 9.519642e-001 -1.064372e+000 4.357096e-001
<VARIANCE> 25
 1.023089e+001 1.040299e+001 1.502981e+001 1.258750e+001 1.891681e+001 3.083919e+001 1.990899e+001 1.874227e+001 1.903615e+001 1.620727e+001 1.629321e+001 1.628106e+001 1.849400e+000 1.910320e+000 2.593967e+000 2.168413e+000 2.401431e+000 2.712120e+000 3.715255e+000 2.958756e+000 2.704112e+000 2.181124e+000 2.346609e+000 1.854029e+000 1.969041e+000
<GCONST> 9.064333e+001
<STATE> 3
<MEAN> 25
 4.840237e+000 -6.606275e+000 -1.687707e+000 3.453117e+000 -1.227206e+000 -7.009465e+000 -3.080923e+000 -1.705816e+000 4.017545e+000 4.610696e+000 2.309546e+000 -2.383193e+000 2.831013e-001 1.586473e-001 5.628840e-001 5.676636e-001 -2.271074e-001 2.823575e-001 1.333788e-002 -6.322674e-001 -1.175165e-001 3.236218e-002 1.228225e-001 1.079904e-001 -5.803231e-001
<VARIANCE> 25
 9.009396e+000 1.364978e+001 1.676101e+001 1.768556e+001 1.490916e+001 2.744555e+001 2.537239e+001 2.426823e+001 2.103317e+001 1.899316e+001 1.883575e+001 1.897984e+001 8.756765e-001 1.627143e+000 2.065583e+000 3.268456e+000 1.426243e+000 3.489409e+000 2.490996e+000 2.535833e+000 1.968568e+000 1.765728e+000 2.118102e+000 1.486215e+000 1.433698e+000
<GCONST> 8.922170e+001
<STATE> 4
<MEAN> 25
 5.319632e+000 -3.252502e+000 -1.103048e+000 2.410719e+000 -9.563767e-001 -2.945583e+000 -3.721932e+000 -2.244634e+000 3.241249e+000 3.142300e+000 2.606687e+000 -1.367410e+000 -1.473968e-001 1.670435e+000 4.387723e-001 -8.666598e-002 1.723514e-001 1.609598e+000 4.788995e-001 -3.870504e-001 -5.581161e-001 -6.796913e-001 7.541741e-002 4.484733e-001 -1.385478e+000
<VARIANCE> 25
 1.855170e+001 2.887553e+001 2.792225e+001 2.023139e+001 2.134767e+001 2.889775e+001 2.714408e+001 3.223665e+001 3.271651e+001 2.333676e+001 2.521122e+001 2.235923e+001 1.869697e+000 2.293123e+000 1.697470e+000 2.244570e+000 1.983441e+000 3.712123e+000 2.629098e+000 2.635294e+000 3.299723e+000 1.781196e+000 3.196575e+000 1.715690e+000 1.247812e+000
<GCONST> 9.515838e+001
<TRANSP> 5
 0.000000e+000 1.000000e+000 0.000000e+000 0.000000e+000 0.000000e+000
 0.000000e+000 4.361438e-001 5.638561e-001 0.000000e+000 0.000000e+000
 0.000000e+000 0.000000e+000 6.035798e-001 3.964202e-001 0.000000e+000
 0.000000e+000 0.000000e+000 0.000000e+000 4.854255e-001 5.145745e-001
 0.000000e+000 0.000000e+000 0.000000e+000 0.000000e+000 0.000000e+000
<ENDHMM>
~h "u:"
<BEGINHMM>
<NUMSTATES> 5
<STATE> 2
<MEAN> 25
 5.097370e+000 1.666039e+000 -2.508607e+000 -5.576494e+000 -2.812528e+000 5.262418e+000 -8.910268e+000 -6.229143e+000 -1.417125e+000 -1.106061e+000 5.753656e+000 -1.051562e+000 1.908546e+000 1.078646e+000 -8.383362e-002 -2.761812e+000 -1.055782e+000 2.429115e+000 -1.304772e-001 -9.019917e-001 -1.513087e+000 -5.267446e-001 1.590665e+000 -4.502247e-001 5.128435e-001
<VARIANCE> 25
 1.467168e+001 3.739270e+001 1.950755e+001 5.081758e+001 3.200355e+001 4.594514e+001 6.045574e+001 4.332963e+001 3.279239e+001 3.226158e+001 4.367946e+001 2.742246e+001 3.207202e+000 2.945547e+000 3.705932e+000 3.509606e+000 4.813987e+000 3.802887e+000 5.968966e+000 5.919572e+000 5.806328e+000 3.827007e+000 4.042897e+000 3.144416e+000 2.244638e+000
<GCONST> 1.061051e+002
<STATE> 3
<MEAN> 25
 7.755252e+000 4.557373e+000 -1.724254e+000 -1.142095e+001 -6.235588e+000 1.105594e+001 -4.538577e+000 -3.908687e+000 -3.775982e+000 -5.044917e+000 5.560946e+000 -1.164533e+000 1.285075e-001 7.182654e-003 1.218968e-001 4.443291e-001 9.715977e-002 3.712557e-001 4.589326e-001 -1.633900e-001 1.259688e-001 -8.472399e-002 -1.529083e-001 -4.806622e-002 -2.044467e-001
<VARIANCE> 25
 6.312784e+000 2.606118e+001 1.456317e+001 3.167521e+001 2.962200e+001 3.730907e+001 4.004593e+001 4.215550e+001 3.615010e+001 2.985415e+001 4.642449e+001 2.922290e+001 5.056142e-001 2.948815e+000 1.293426e+000 4.124930e+000 3.191839e+000 3.118617e+000 4.987113e+000 4.436134e+000 3.032932e+000 3.753449e+000 4.392243e+000 2.658335e+000 1.402077e+000
<GCONST> 9.851601e+001
<STATE> 4
<MEAN> 25
 6.664135e+000 3.175054e+000 -6.341156e-001 -3.641393e+000 -1.585589e+000 7.698231e+000 -5.224312e+000 -6.556366e+000 -4.956684e-001 -1.404283e+000 4.586734e+000 -6.438450e-001 -9.391164e-001 2.885420e-001 6.167356e-001 2.508194e+000 1.347860e+000 -2.145560e+000 1.246937e+000 5.433473e-001 1.173248e+000 5.044637e-001 -1.836208e+000 5.518029e-001 -1.106894e+000
<VARIANCE> 25
 9.631204e+000 4.074303e+001 2.347559e+001 3.563678e+001 3.293810e+001 4.063543e+001 8.098638e+001 5.306766e+001 3.243926e+001 3.380402e+001 4.597561e+001 3.358876e+001 1.804356e+000 3.111253e+000 1.877243e+000 3.437072e+000 4.197228e+000 4.143285e+000 5.417513e+000 4.595185e+000 4.306444e+000 3.745924e+000 3.434376e+000 2.980940e+000 2.164468e+000
<GCONST> 1.040952e+002
<TRANSP> 5
 0.000000e+000 1.000000e+000 0.000000e+000 0.000000e+000 0.000000e+000
 0.000000e+000 5.730097e-001 4.269903e-001 0.000000e+000 0.000000e+000
 0.000000e+000 0.000000e+000 7.211760e-001 2.788240e-001 0.000000e+000
 0.000000e+000 0.000000e+000 0.000000e+000 5.987096e-001 4.012904e-001
 0.000000e+000 0.000000e+000 0.000000e+000 0.000000e+000 0.000000e+000
<ENDHMM>
~h "uzdah"
<BEGINHMM>
<NUMSTATES> 3
<STATE> 2
~s "silst"
<TRANSP> 3
 0.000000e+000 1.685453e-001 8.314547e-001
 0.000000e+000 8.129138e-001 1.870862e-001
 0.000000e+000 0.000000e+000 0.000000e+000
<ENDHMM>
~h "sil"
<BEGINHMM>
<NUMSTATES> 5
<STATE> 2
<MEAN> 25
 -2.114522e+000 2.370723e+000 -1.708012e+000 2.138597e+000 2.243817e+000 2.074448e+000 5.320881e+000 8.079165e-001 3.534640e+000 -2.201728e+000 -2.169585e+000 1.811483e+000 -2.893834e-001 -1.855765e-002 -1.708534e-002 -2.875408e-002 3.370882e-002 8.361527e-003 -3.281175e-002 1.964525e-002 1.123507e-001 1.420706e-002 2.222448e-001 2.263335e-001 -2.935909e-001
<VARIANCE> 25
 1.581924e+001 2.522973e+001 1.999163e+001 1.675415e+001 2.305909e+001 2.238152e+001 2.481192e+001 2.743517e+001 2.458553e+001 2.133520e+001 2.376276e+001 2.105214e+001 7.734436e-001 1.494516e+000 1.151412e+000 1.194767e+000 1.564956e+000 1.763216e+000 1.897700e+000 2.062778e+000 1.997204e+000 1.859699e+000 1.796521e+000 1.677727e+000 1.184744e+000
<GCONST> 8.842574e+001
<STATE> 3
<MEAN> 25
