~o
<STREAMINFO> 1 25
<VECSIZE> 25<NULLD><MFCC_D_N_Z_0><DIAGC>
~h "C"
<BEGINHMM>
<NUMSTATES> 5
<STATE> 2
<MEAN> 25
 -1.353145e+000 -1.258478e-001 5.630766e-001 8.583710e-001 -1.187824e+000 6.545937e-002 -9.797380e-002 5.652385e-002 8.942667e-001 -9.500176e-001 5.233153e-001 6.096258e-001 7.857176e-003 6.903320e-003 8.999931e-003 4.981957e-003 -3.816733e-004 -3.830486e-002 -9.801811e-003 -1.916594e-003 -3.731149e-003 6.407050e-003 1.454650e-002 -2.268192e-003 5.564728e-003
<VARIANCE> 25
 7.079280e+001 3.836871e+001 4.879802e+001 3.455399e+001 4.486772e+001 5.456250e+001 4.521038e+001 4.461200e+001 5.059319e+001 3.001129e+001 3.754500e+001 3.150412e+001 5.635200e+000 3.565775e+000 2.800305e+000 2.838576e+000 3.239889e+000 3.763678e+000 3.742468e+000 3.754836e+000 4.131008e+000 2.888694e+000 2.803428e+000 2.475024e+000 3.730037e+000
<GCONST> 1.070476e+002
<STATE> 3
<MEAN> 25
 -1.314825e+000 -1.087992e-001 5.734358e-001 8.596437e-001 -1.182212e+000 2.749333e-003 -1.145682e-001 4.567505e-002 8.797354e-001 -9.318618e-001 5.472698e-001 5.978426e-001 3.246529e-002 6.332370e-003 3.116130e-003 -6.767421e-003 8.329787e-003 -3.434260e-002 -7.086471e-003 -3.387081e-003 -1.586171e-002 1.500437e-002 1.040290e-002 -1.016154e-002 1.267025e-003
<VARIANCE> 25
 7.011628e+001 3.826074e+001 4.907462e+001 3.453378e+001 4.480066e+001 5.483661e+001 4.520681e+001 4.462846e+001 5.068040e+001 2.991803e+001 3.740008e+001 3.158077e+001 5.594198e+000 3.540431e+000 2.776874e+000 2.833877e+000 3.238456e+000 3.724152e+000 3.720246e+000 3.738863e+000 4.130202e+000 2.879194e+000 2.789966e+000 2.476094e+000 3.675230e+000
<GCONST> 1.069728e+002
<STATE> 4
<MEAN> 25
 -1.206414e+000 -8.947680e-002 5.714689e-001 8.224642e-001 -1.159594e+000 -5.510436e-002 -1.186172e-001 2.694120e-002 8.158310e-001 -8.807287e-001 5.661700e-001 5.554084e-001 5.372445e-002 2.941080e-003 -5.864419e-003 -1.691675e-002 1.611582e-002 -2.497706e-002 2.154983e-004 -4.931448e-003 -2.802640e-002 2.199289e-002 5.330862e-003 -1.720034e-002 -2.391618e-003
<VARIANCE> 25
 6.892314e+001 3.833562e+001 4.957482e+001 3.452627e+001 4.480446e+001 5.501734e+001 4.517547e+001 4.450566e+001 5.050093e+001 2.978840e+001 3.736303e+001 3.170273e+001 5.448602e+000 3.508464e+000 2.750116e+000 2.829559e+000 3.232532e+000 3.663146e+000 3.687706e+000 3.707317e+000 4.091196e+000 2.854368e+000 2.771490e+000 2.468935e+000 3.618794e+000
<GCONST> 1.068370e+002
<TRANSP> 5
 0.000000e+000 1.000000e+000 0.000000e+000 0.000000e+000 0.000000e+000
 0.000000e+000 5.097923e-001 4.902077e-001 0.000000e+000 0.000000e+000
 0.000000e+000 0.000000e+000 5.097954e-001 4.902046e-001 0.000000e+000
 0.000000e+000 0.000000e+000 0.000000e+000 5.979385e-001 4.020615e-001
 0.000000e+000 0.000000e+000 0.000000e+000 0.000000e+000 0.000000e+000
<ENDHMM>
~h "L"
<BEGINHMM>
<NUMSTATES> 5
<STATE> 2
<MEAN> 25
 8.421297e-001 5.337489e-003 1.827824e+000 3.626378e-001 -1.005495e+000 -4.527014e-001 -8.808554e-001 2.393340e-001 -1.212430e+000 -3.357142e-001 4.130740e-001 6.561990e-001 -1.843389e-002 3.868732e-002 9.564225e-003 3.422942e-003 -4.336422e-004 4.786175e-002 -7.899295e-003 -1.794321e-002 -1.089803e-003 9.576243e-003 2.671288e-003 1.592598e-002 -3.839727e-002
<VARIANCE> 25
 4.389609e+001 3.552390e+001 4.957478e+001 3.533557e+001 4.283795e+001 5.403310e+001 4.855476e+001 4.088129e+001 4.112709e+001 2.648678e+001 3.695327e+001 2.893215e+001 2.671165e+000 2.988259e+000 2.976792e+000 2.795168e+000 3.047686e+000 3.323011e+000 3.707697e+000 3.441780e+000 3.325121e+000 2.515562e+000 2.693376e+000 2.334087e+000 2.554174e+000
<GCONST> 1.040334e+002
<STATE> 3
<MEAN> 25
 7.955280e-001 8.332775e-002 1.840983e+000 3.694004e-001 -9.984905e-001 -3.568864e-001 -8.917218e-001 2.022718e-001 -1.208768e+000 -3.128149e-001 4.101941e-001 6.850777e-001 -3.141512e-002 3.824060e-002 -1.892182e-003 -1.397023e-003 6.688599e-003 5.280561e-002 2.019131e-003 -1.619921e-002 6.912839e-003 1.451624e-002 -4.880192e-003 1.119213e-002 -4.483929e-002
<VARIANCE> 25
 4.427330e+001 3.543614e+001 4.940189e+001 3.552310e+001 4.293608e+001 5.402735e+001 4.918287e+001 4.095268e+001 4.138457e+001 2.649162e+001 3.713279e+001 2.888272e+001 2.663412e+000 2.969801e+000 2.968110e+000 2.801765e+000 3.047372e+000 3.323140e+000 3.723799e+000 3.440058e+000 3.331915e+000 2.501272e+000 2.698376e+000 2.344450e+000 2.539667e+000
<GCONST> 1.040586e+002
<STATE> 4
<MEAN> 25
 7.118061e-001 1.675737e-001 1.810005e+000 3.627401e-001 -9.505451e-001 -2.528585e-001 -8.699687e-001 1.700687e-001 -1.184004e+000 -2.735453e-001 3.785024e-001 6.997638e-001 -4.200708e-002 3.056949e-002 -1.477414e-002 -5.784409e-003 1.664286e-002 5.570117e-002 1.087341e-002 -1.294454e-002 1.582739e-002 1.666442e-002 -1.184002e-002 4.888080e-003 -4.763834e-002
<VARIANCE> 25
 4.529861e+001 3.551930e+001 4.952736e+001 3.578505e+001 4.338945e+001 5.415091e+001 4.975033e+001 4.099520e+001 4.170522e+001 2.646930e+001 3.727762e+001 2.895321e+001 2.668790e+000 2.958085e+000 2.939832e+000 2.810220e+000 3.052308e+000 3.321108e+000 3.740973e+000 3.433318e+000 3.327110e+000 2.486691e+000 2.704338e+000 2.351019e+000 2.541162e+000
<GCONST> 1.041257e+002
<TRANSP> 5
 0.000000e+000 1.000000e+000 0.000000e+000 0.000000e+000 0.000000e+000
 0.000000e+000 5.056279e-001 4.943721e-001 0.000000e+000 0.000000e+000
 0.000000e+000 0.000000e+000 5.056286e-001 4.943714e-001 0.000000e+000
 0.000000e+000 0.000000e+000 0.000000e+000 5.919368e-001 4.080632e-001
 0.000000e+000 0.000000e+000 0.000000e+000 0.000000e+000 0.000000e+000
<ENDHMM>
~h "N"
<BEGINHMM>
<NUMSTATES> 5
<STATE> 2
<MEAN> 25
 5.283581e-001 1.574886e-001 1.646471e+000 3.094594e-001 -3.536037e-001 1.534056e+000 8.708999e-001 1.408673e-001 -1.153422e+000 -6.802922e-001 -1.123292e+000 -3.596414e-001 8.269791e-003 3.383133e-002 2.495228e-002 4.031302e-003 -3.561512e-004 2.400465e-002 2.399575e-002 3.052430e-003 -1.014554e-002 9.817392e-003 -1.210821e-002 -8.721742e-003 -5.013756e-002
<VARIANCE> 25
 4.503203e+001 3.935934e+001 5.137711e+001 3.362209e+001 3.965700e+001 4.834167e+001 4.184436e+001 3.796281e+001 4.195536e+001 2.806747e+001 3.579727e+001 2.751424e+001 2.875893e+000 3.057654e+000 2.784198e+000 2.858519e+000 3.052073e+000 3.389783e+000 3.339213e+000 3.436735e+000 3.267295e+000 2.487036e+000 2.535953e+000 2.148820e+000 2.685251e+000
<GCONST> 1.035778e+002
<STATE> 3
<MEAN> 25
 5.328187e-001 2.214305e-001 1.679203e+000 3.151238e-001 -3.517303e-001 1.567852e+000 9.122378e-001 1.510956e-001 -1.153350e+000 -6.570467e-001 -1.141116e+000 -3.691623e-001 -4.553021e-003 2.359243e-002 2.975309e-004 -3.814121e-004 7.478881e-003 1.051144e-002 1.873393e-002 5.853955e-003 1.183023e-002 1.401144e-002 2.774965e-004 -2.960769e-003 -4.951295e-002
<VARIANCE> 25
 4.452500e+001 3.909821e+001 5.161471e+001 3.368358e+001 3.979412e+001 4.831246e+001 4.177894e+001 3.784153e+001 4.189387e+001 2.818167e+001 3.579549e+001 2.739298e+001 2.839256e+000 3.057954e+000 2.787927e+000 2.869239e+000 3.075588e+000 3.379623e+000 3.338330e+000 3.429600e+000 3.253478e+000 2.498924e+000 2.536320e+000 2.138215e+000 2.678133e+000
<GCONST> 1.035502e+002
<STATE> 4
<MEAN> 25
 5.101781e-001 2.592497e-001 1.641173e+000 3.170614e-001 -3.271625e-001 1.561165e+000 9.314918e-001 1.659753e-001 -1.089159e+000 -6.186734e-001 -1.131538e+000 -3.733809e-001 -1.694042e-002 9.893319e-003 -2.432933e-002 -4.967008e-003 1.487838e-002 1.139460e-004 1.474644e-002 1.138177e-002 3.233316e-002 1.909084e-002 1.228538e-002 2.436201e-003 -4.729490e-002
<VARIANCE> 25
 4.429771e+001 3.897500e+001 5.207417e+001 3.381950e+001 4.012275e+001 4.837902e+001 4.182014e+001 3.780017e+001 4.196968e+001 2.839679e+001 3.580415e+001 2.749132e+001 2.807366e+000 3.051027e+000 2.788452e+000 2.874935e+000 3.099942e+000 3.366382e+000 3.339410e+000 3.419333e+000 3.239605e+000 2.515838e+000 2.534389e+000 2.127033e+000 2.678682e+000
<GCONST> 1.035641e+002
<TRANSP> 5
 0.000000e+000 1.000000e+000 0.000000e+000 0.000000e+000 0.000000e+000
 0.000000e+000 5.092478e-001 4.907522e-001 0.000000e+000 0.000000e+000
 0.000000e+000 0.000000e+000 5.092479e-001 4.907521e-001 0.000000e+000
 0.000000e+000 0.000000e+000 0.000000e+000 5.970553e-001 4.029447e-001
 0.000000e+000 0.000000e+000 0.000000e+000 0.000000e+000 0.000000e+000
<ENDHMM>
~h "S"
<BEGINHMM>
<NUMSTATES> 5
<STATE> 2
<MEAN> 25
 -2.053750e+000 -7.522058e-001 1.046352e+000 8.831136e-001 -5.131010e-001 -6.331103e-002 -4.023833e-001 -4.400467e-001 1.545139e+000 -2.087994e-001 8.244320e-002 3.137035e-001 5.447738e-002 1.116506e-002 -1.859557e-002 -2.796124e-002 -8.724841e-003 -2.707047e-002 -1.950991e-002 2.297291e-002 -2.603964e-002 -2.382786e-003 1.220844e-002 7.825369e-003 -5.962158e-003
<VARIANCE> 25
 8.041343e+001 3.905035e+001 4.799681e+001 3.781811e+001 4.362141e+001 5.627081e+001 4.506247e+001 4.300873e+001 6.072338e+001 2.972722e+001 4.015282e+001 3.298140e+001 5.397935e+000 3.089485e+000 2.640399e+000 2.919050e+000 3.165622e+000 3.736971e+000 3.572056e+000 3.372660e+000 4.292764e+000 2.610194e+000 3.001732e+000 2.585247e+000 2.866204e+000
<GCONST> 1.068991e+002
<STATE> 3
<MEAN> 25
 -1.935853e+000 -7.241710e-001 1.006815e+000 8.332780e-001 -5.281945e-001 -1.151863e-001 -4.325966e-001 -3.853706e-001 1.489573e+000 -2.123854e-001 1.105556e-001 3.249211e-001 7.515373e-002 1.652483e-002 -2.034697e-002 -2.760629e-002 -1.093741e-002 -2.560673e-002 -1.369127e-002 2.752281e-002 -3.676569e-002 5.109367e-004 1.980260e-002 2.765581e-003 -9.809305e-003
<VARIANCE> 25
 7.947423e+001 3.914113e+001 4.796192e+001 3.746944e+001 4.357693e+001 5.647317e+001 4.518678e+001 4.285669e+001 6.012067e+001 2.952031e+001 3.990002e+001 3.300292e+001 5.377866e+000 3.100434e+000 2.637957e+000 2.901687e+000 3.152544e+000 3.738341e+000 3.573605e+000 3.372779e+000 4.246435e+000 2.600935e+000 3.002793e+000 2.593709e+000 2.876660e+000
<GCONST> 1.068413e+002
<STATE> 4
<MEAN> 25
 -1.781021e+000 -6.618730e-001 9.572265e-001 7.894025e-001 -5.414101e-001 -1.753605e-001 -4.298680e-001 -3.110254e-001 1.389096e+000 -2.016467e-001 1.528793e-001 3.184828e-001 7.758960e-002 2.646134e-002 -2.041920e-002 -2.078710e-002 -9.878443e-003 -2.033740e-002 -2.077005e-003 2.884987e-002 -4.228465e-002 8.669583e-004 2.018999e-002 8.232503e-004 -1.894991e-002
<VARIANCE> 25
 7.863888e+001 3.936330e+001 4.797189e+001 3.706820e+001 4.385064e+001 5.664503e+001 4.533999e+001 4.277660e+001 5.914495e+001 2.928312e+001 3.957530e+001 3.310515e+001 5.314428e+000 3.109858e+000 2.621090e+000 2.870287e+000 3.140479e+000 3.721980e+000 3.557604e+000 3.375059e+000 4.170842e+000 2.589744e+000 2.984845e+000 2.597117e+000 2.875165e+000
<GCONST> 1.067415e+002
<TRANSP> 5
 0.000000e+000 1.000000e+000 0.000000e+000 0.000000e+000 0.000000e+000
 0.000000e+000 5.129260e-001 4.870740e-001 0.000000e+000 0.000000e+000
 0.000000e+000 0.000000e+000 5.129272e-001 4.870727e-001 0.000000e+000
 0.000000e+000 0.000000e+000 0.000000e+000 6.018654e-001 3.981346e-001
 0.000000e+000 0.000000e+000 0.000000e+000 0.000000e+000 0.000000e+000
<ENDHMM>
~h "Z"
<BEGINHMM>
<NUMSTATES> 5
<STATE> 2
<MEAN> 25
 -1.039224e-001 -4.869609e-001 1.067199e+000 4.753724e-001 -4.152852e-001 1.503698e-001 -1.048938e+000 -2.465446e+000 1.133957e+000 1.534442e-001 7.149555e-001 -1.858188e-001 1.641986e-002 -3.246824e-003 -4.895250e-003 1.256230e-002 5.562422e-003 -4.877561e-003 4.041193e-002 3.969391e-002 -1.164992e-002 -7.183854e-003 -1.888647e-002 -1.873812e-002 -8.201788e-003
<VARIANCE> 25
 5.271841e+001 3.534563e+001 4.835740e+001 3.589640e+001 4.393182e+001 5.484003e+001 4.498666e+001 5.885643e+001 5.178154e+001 2.763584e+001 4.020138e+001 3.081225e+001 4.195987e+000 3.195102e+000 2.758603e+000 2.767129e+000 3.289381e+000 4.152823e+000 3.874416e+000 4.090606e+000 3.804926e+000 2.516686e+000 3.062660e+000 2.444182e+000 2.421683e+000
<GCONST> 1.061554e+002
<STATE> 3
<MEAN> 25
 -6.628396e-002 -4.906133e-001 1.051297e+000 4.979255e-001 -4.085764e-001 1.466062e-001 -9.674606e-001 -2.379368e+000 1.116402e+000 1.384294e-001 6.740362e-001 -2.250734e-001 2.913019e-002 -8.424579e-004 -1.871035e-002 5.752554e-003 5.929424e-003 1.942420e-003 4.543619e-002 5.598700e-002 -1.830072e-002 -4.629544e-003 -2.461296e-002 -2.122258e-002 -2.769447e-002
<VARIANCE> 25
 5.234846e+001 3.558239e+001 4.842646e+001 3.580523e+001 4.365464e+001 5.433960e+001 4.497023e+001 5.828901e+001 5.163756e+001 2.747544e+001 3.973741e+001 3.074200e+001 4.134496e+000 3.191705e+000 2.754790e+000 2.743564e+000 3.253639e+000 4.077820e+000 3.817708e+000 4.063374e+000 3.788522e+000 2.497220e+000 3.037978e+000 2.431482e+000 2.419514e+000
<GCONST> 1.060032e+002
<STATE> 4
<MEAN> 25
 7.142859e-004 -4.871293e-001 1.004655e+000 5.091984e-001 -4.051979e-001 1.594645e-001 -8.669834e-001 -2.238541e+000 1.088727e+000 1.320503e-001 6.061390e-001 -2.732705e-001 3.486485e-002 2.936119e-003 -3.108677e-002 -1.991699e-003 8.753487e-003 7.657587e-003 4.984852e-002 7.124706e-002 -2.383708e-002 -7.128302e-004 -2.894057e-002 -2.017378e-002 -4.228772e-002
<VARIANCE> 25
 5.195531e+001 3.604830e+001 4.851142e+001 3.593385e+001 4.329543e+001 5.393660e+001 4.515808e+001 5.741176e+001 5.137727e+001 2.733947e+001 3.925842e+001 3.067349e+001 4.039781e+000 3.193912e+000 2.753045e+000 2.729372e+000 3.218283e+000 3.989883e+000 3.766093e+000 4.026363e+000 3.764970e+000 2.479326e+000 3.011745e+000 2.416875e+000 2.427151e+000
<GCONST> 1.058542e+002
<TRANSP> 5
 0.000000e+000 1.000000e+000 0.000000e+000 0.000000e+000 0.000000e+000
 0.000000e+000 5.050270e-001 4.949729e-001 0.000000e+000 0.000000e+000
 0.000000e+000 0.000000e+000 5.050266e-001 4.949734e-001 0.000000e+000
 0.000000e+000 0.000000e+000 0.000000e+000 5.907863e-001 4.092136e-001
 0.000000e+000 0.000000e+000 0.000000e+000 0.000000e+000 0.000000e+000
<ENDHMM>
~h "a"
<BEGINHMM>
<NUMSTATES> 5
<STATE> 2
<MEAN> 25
 5.164465e-001 -4.697583e-001 -1.043093e+000 -9.001545e-002 8.490860e-001 -1.593175e-002 3.761633e-001 5.646646e-001 5.156336e-001 2.390999e-001 -8.342090e-001 -6.607362e-001 -6.652586e-003 6.124802e-003 -7.205140e-004 7.617337e-003 1.234551e-002 1.266847e-002 1.959858e-002 9.714250e-003 -1.679775e-003 -8.336208e-003 -1.008723e-002 5.225573e-003 -3.256030e-002
<VARIANCE> 25
 5.423226e+001 4.191998e+001 4.558982e+001 3.418532e+001 4.346807e+001 5.550838e+001 4.430917e+001 4.131077e+001 4.218132e+001 2.756051e+001 3.996950e+001 3.369038e+001 3.409326e+000 3.395227e+000 2.468784e+000 2.691582e+000 2.926044e+000 3.318033e+000 3.487344e+000 3.447539e+000 3.229873e+000 2.498028e+000 2.798653e+000 2.493969e+000 3.016862e+000
<GCONST> 1.048298e+002
<STATE> 3
<MEAN> 25
 4.984899e-001 -4.543967e-001 -1.038631e+000 -7.566568e-002 8.704109e-001 1.148590e-002 4.149942e-001 5.827534e-001 5.138965e-001 2.190872e-001 -8.501211e-001 -6.458821e-001 -8.516231e-003 1.232164e-002 5.292879e-003 7.334610e-003 1.047316e-002 1.910605e-002 2.109603e-002 9.232668e-003 -9.998156e-004 -1.248040e-002 -7.633125e-003 8.274408e-003 -4.260469e-002
<VARIANCE> 25
 5.408652e+001 4.197145e+001 4.565095e+001 3.422024e+001 4.350190e+001 5.539404e+001 4.439684e+001 4.128237e+001 4.221878e+001 2.751045e+001 4.005031e+001 3.365219e+001 3.385002e+000 3.370798e+000 2.460909e+000 2.690636e+000 2.924126e+000 3.311106e+000 3.477014e+000 3.435889e+000 3.230318e+000 2.490288e+000 2.794873e+000 2.486280e+000 3.009140e+000
<GCONST> 1.047936e+002
<STATE> 4
<MEAN> 25
 4.730379e-001 -4.134941e-001 -1.012058e+000 -5.912254e-002 8.839619e-001 5.144455e-002 4.531184e-001 5.903769e-001 5.042882e-001 1.876432e-001 -8.502156e-001 -6.189864e-001 -1.205300e-002 2.238936e-002 1.376486e-002 7.660186e-003 6.223785e-003 2.172280e-002 2.239340e-002 6.246669e-003 6.742732e-005 -1.504029e-002 -2.978922e-003 1.406830e-002 -5.830837e-002
<VARIANCE> 25
 5.409365e+001 4.199540e+001 4.586657e+001 3.433906e+001 4.369034e+001 5.533959e+001 4.457447e+001 4.125544e+001 4.221741e+001 2.746572e+001 4.016830e+001 3.365503e+001 3.350708e+000 3.338524e+000 2.452575e+000 2.690439e+000 2.925987e+000 3.301375e+000 3.461898e+000 3.417391e+000 3.226028e+000 2.483507e+000 2.784080e+000 2.473711e+000 3.001851e+000
<GCONST> 1.047598e+002
<TRANSP> 5
 0.000000e+000 1.000000e+000 0.000000e+000 0.000000e+000 0.000000e+000
 0.000000e+000 5.093462e-001 4.906538e-001 0.000000e+000 0.000000e+000
 0.000000e+000 0.000000e+000 5.093355e-001 4.906645e-001 0.000000e+000
 0.000000e+000 0.000000e+000 0.000000e+000 5.970266e-001 4.029733e-001
 0.000000e+000 0.000000e+000 0.000000e+000 0.000000e+000 0.000000e+000
<ENDHMM>
~h "b"
<BEGINHMM>
<NUMSTATES> 5
<STATE> 2
<MEAN> 25
 1.010288e+000 4.653660e-001 -7.897317e-002 -4.980968e-001 -2.622338e-001 8.616629e-001 -5.896963e-001 -9.022796e-001 9.306818e-003 -1.021882e-001 3.864946e-001 -8.971583e-002 -4.245128e-002 -2.730108e-002 1.416327e-002 2.086924e-002 -1.247512e-002 -2.283714e-002 1.019045e-002 8.131442e-003 3.427576e-003 1.004307e-002 -1.435584e-003 1.486613e-002 2.876331e-002
<VARIANCE> 25
 5.319691e+001 4.484575e+001 5.063753e+001 4.240187e+001 4.560470e+001 6.037260e+001 4.605206e+001 4.189574e+001 4.252107e+001 2.971844e+001 3.766272e+001 2.999082e+001 3.067583e+000 3.803936e+000 2.756203e+000 3.290877e+000 3.479152e+000 3.755776e+000 3.866121e+000 3.423385e+000 3.574863e+000 2.752638e+000 3.126436e+000 2.365328e+000 3.483374e+000
<GCONST> 1.064031e+002
<STATE> 3
<MEAN> 25
 9.114756e-001 4.108402e-001 -5.086247e-002 -4.485838e-001 -2.836069e-001 7.995561e-001 -5.629922e-001 -8.766652e-001 1.826627e-002 -7.674151e-002 3.714766e-001 -5.713189e-002 -5.522062e-002 -3.136000e-002 1.636440e-002 2.894274e-002 -1.047582e-002 -3.623004e-002 1.514209e-002 1.765112e-002 3.973592e-003 1.496345e-002 -1.065135e-002 1.530728e-002 2.547450e-002
<VARIANCE> 25
 5.351711e+001 4.453995e+001 5.124343e+001 4.191085e+001 4.605276e+001 6.000513e+001 4.659930e+001 4.190239e+001 4.268550e+001 2.970405e+001 3.786924e+001 3.004730e+001 3.076261e+000 3.783580e+000 2.772125e+000 3.273139e+000 3.482573e+000 3.738567e+000 3.865689e+000 3.427255e+000 3.585413e+000 2.759967e+000 3.120860e+000 2.367427e+000 3.434400e+000
<GCONST> 1.064146e+002
<STATE> 4
<MEAN> 25
 7.840968e-001 3.560361e-001 -1.811034e-002 -3.770487e-001 -2.933623e-001 7.031426e-001 -5.167132e-001 -8.207654e-001 3.290292e-002 -4.488983e-002 3.236651e-001 -2.808273e-002 -6.037693e-002 -2.797627e-002 1.717796e-002 3.501959e-002 -6.035752e-003 -4.455503e-002 1.915291e-002 2.502297e-002 6.011494e-003 1.810258e-002 -1.793891e-002 1.305921e-002 1.752579e-002
<VARIANCE> 25
 5.395701e+001 4.425533e+001 5.182485e+001 4.127111e+001 4.664449e+001 5.946823e+001 4.697220e+001 4.195687e+001 4.290725e+001 2.965312e+001 3.789391e+001 3.014993e+001 3.087580e+000 3.735505e+000 2.774495e+000 3.237622e+000 3.452766e+000 3.711685e+000 3.862704e+000 3.437727e+000 3.580883e+000 2.759695e+000 3.092453e+000 2.368268e+000 3.374398e+000
<GCONST> 1.063724e+002
<TRANSP> 5
 0.000000e+000 1.000000e+000 0.000000e+000 0.000000e+000 0.000000e+000
 0.000000e+000 5.087066e-001 4.912934e-001 0.000000e+000 0.000000e+000
 0.000000e+000 0.000000e+000 5.087056e-001 4.912944e-001 0.000000e+000
 0.000000e+000 0.000000e+000 0.000000e+000 5.961717e-001 4.038284e-001
 0.000000e+000 0.000000e+000 0.000000e+000 0.000000e+000 0.000000e+000
<ENDHMM>
~h "c"
<BEGINHMM>
<NUMSTATES> 5
<STATE> 2
<MEAN> 25
 -2.411376e+000 1.368703e+000 -6.715581e-001 7.338857e-001 7.793148e-001 -2.137486e+000 1.425542e+000 3.660064e-001 -3.588928e-002 -9.728682e-002 -6.886993e-002 8.796639e-001 1.502036e-003 -2.291939e-002 2.949558e-002 -1.568529e-002 -2.680486e-004 -7.713587e-003 -9.798860e-003 1.524246e-002 -3.018704e-002 -3.979255e-004 3.102005e-003 2.127079e-003 -1.572888e-002
<VARIANCE> 25
 8.109137e+001 4.642108e+001 4.963818e+001 2.980351e+001 4.468916e+001 5.552005e+001 5.009874e+001 3.894741e+001 4.358412e+001 2.491842e+001 3.533237e+001 3.478554e+001 5.072460e+000 3.583186e+000 2.795910e+000 2.442046e+000 3.201427e+000 3.299161e+000 3.895497e+000 3.415611e+000 3.363408e+000 2.307060e+000 2.615474e+000 2.537218e+000 2.758967e+000
<GCONST> 1.056994e+002
<STATE> 3
<MEAN> 25
 -2.370781e+000 1.305692e+000 -6.039124e-001 6.977102e-001 7.688932e-001 -2.124683e+000 1.383448e+000 3.861353e-001 -9.731857e-002 -9.486646e-002 -6.475408e-002 8.677048e-001 3.803162e-002 -3.955105e-002 4.287390e-002 -2.017686e-002 -1.090831e-002 1.478401e-002 -2.961564e-002 6.823014e-003 -3.640001e-002 3.779061e-003 4.071754e-003 -1.384142e-002 -1.438288e-002
<VARIANCE> 25
 8.080026e+001 4.606785e+001 5.012179e+001 2.969682e+001 4.496131e+001 5.556923e+001 5.007450e+001 3.912600e+001 4.377305e+001 2.483423e+001 3.531257e+001 3.477072e+001 5.009180e+000 3.548261e+000 2.798126e+000 2.447666e+000 3.219506e+000 3.293661e+000 3.875532e+000 3.431903e+000 3.342340e+000 2.309520e+000 2.619458e+000 2.521337e+000 2.760475e+000
<GCONST> 1.056802e+002
<STATE> 4
<MEAN> 25
 -2.211366e+000 1.191299e+000 -5.058410e-001 6.416881e-001 7.387469e-001 -2.027517e+000 1.275926e+000 3.850368e-001 -1.762501e-001 -8.127350e-002 -7.286935e-002 7.942237e-001 7.404809e-002 -5.219480e-002 5.336608e-002 -2.455907e-002 -2.101606e-002 3.822460e-002 -4.450080e-002 -9.140231e-005 -4.080947e-002 7.515556e-003 2.547195e-003 -2.904351e-002 -1.527059e-002
<VARIANCE> 25
 7.995188e+001 4.558945e+001 5.070992e+001 2.980887e+001 4.540466e+001 5.575409e+001 4.989214e+001 3.940078e+001 4.388496e+001 2.486536e+001 3.534056e+001 3.486550e+001 4.880395e+000 3.498185e+000 2.793758e+000 2.462668e+000 3.230744e+000 3.286009e+000 3.839359e+000 3.451576e+000 3.318769e+000 2.318785e+000 2.624680e+000 2.499654e+000 2.763798e+000
<GCONST> 1.056517e+002
<TRANSP> 5
 0.000000e+000 1.000000e+000 0.000000e+000 0.000000e+000 0.000000e+000
 0.000000e+000 5.060572e-001 4.939428e-001 0.000000e+000 0.000000e+000
 0.000000e+000 0.000000e+000 5.060632e-001 4.939369e-001 0.000000e+000
 0.000000e+000 0.000000e+000 0.000000e+000 5.932320e-001 4.067679e-001
 0.000000e+000 0.000000e+000 0.000000e+000 0.000000e+000 0.000000e+000
<ENDHMM>
~h "d"
<BEGINHMM>
<NUMSTATES> 5
<STATE> 2
<MEAN> 25
 6.877049e-001 3.041851e-002 2.293650e-001 -6.640264e-002 1.026813e-001 -3.958198e-001 -7.541903e-001 -3.053823e-002 1.416552e-001 3.999532e-001 -1.312560e-001 -5.499027e-001 -2.477116e-003 -4.783826e-003 -5.716660e-003 3.702385e-003 1.028989e-004 1.201314e-002 9.264218e-003 2.921016e-003 -5.723822e-004 4.196600e-003 -2.033629e-003 8.640632e-003 1.945847e-002
<VARIANCE> 25
 4.822538e+001 4.138351e+001 4.694238e+001 3.542887e+001 4.228117e+001 5.733070e+001 4.710766e+001 4.083064e+001 4.055396e+001 2.811140e+001 3.739024e+001 3.363258e+001 3.045011e+000 3.560405e+000 2.608326e+000 2.765883e+000 3.021607e+000 3.332971e+000 3.840232e+000 3.389180e+000 3.208523e+000 2.667401e+000 2.774006e+000 2.413845e+000 3.404369e+000
<GCONST> 1.050016e+002
<STATE> 3
<MEAN> 25
 6.844162e-001 2.525522e-002 2.177902e-001 -5.717472e-002 1.033673e-001 -3.712588e-001 -7.311135e-001 -2.518243e-002 1.385767e-001 4.043955e-001 -1.347201e-001 -5.325558e-001 -6.327609e-003 -1.106657e-003 -4.723157e-003 5.725936e-003 8.277982e-004 1.180486e-002 1.563819e-002 3.824137e-003 -2.495568e-003 -2.560515e-004 -2.388631e-003 1.258983e-002 9.476629e-003
<VARIANCE> 25
 4.840531e+001 4.117970e+001 4.685046e+001 3.538873e+001 4.241829e+001 5.737164e+001 4.721532e+001 4.098225e+001 4.062210e+001 2.806177e+001 3.746501e+001 3.368323e+001 3.048564e+000 3.532748e+000 2.600775e+000 2.765243e+000 3.031120e+000 3.331815e+000 3.837171e+000 3.395078e+000 3.216826e+000 2.658509e+000 2.767125e+000 2.408912e+000 3.366854e+000
<GCONST> 1.049883e+002
<STATE> 4
<MEAN> 25
 6.740779e-001 3.073397e-002 2.124649e-001 -3.686978e-002 1.041982e-001 -3.502555e-001 -6.868414e-001 -1.448834e-002 1.227469e-001 3.966920e-001 -1.405907e-001 -5.055382e-001 -9.433156e-003 3.099886e-003 -2.202439e-003 8.738034e-003 1.926688e-003 1.062698e-002 2.421081e-002 3.613286e-003 -5.703418e-003 -4.985791e-003 -2.794776e-003 1.468268e-002 8.576445e-004
<VARIANCE> 25
 4.886955e+001 4.107063e+001 4.691275e+001 3.537481e+001 4.267613e+001 5.748435e+001 4.729111e+001 4.113116e+001 4.060489e+001 2.806262e+001 3.756226e+001 3.375360e+001 3.062371e+000 3.493079e+000 2.591594e+000 2.759976e+000 3.040902e+000 3.327561e+000 3.818805e+000 3.395342e+000 3.215816e+000 2.644747e+000 2.754699e+000 2.402209e+000 3.325966e+000
<GCONST> 1.049736e+002
<TRANSP> 5
 0.000000e+000 1.000000e+000 0.000000e+000 0.000000e+000 0.000000e+000
 0.000000e+000 5.126185e-001 4.873815e-001 0.000000e+000 0.000000e+000
 0.000000e+000 0.000000e+000 5.126166e-001 4.873834e-001 0.000000e+000
 0.000000e+000 0.000000e+000 0.000000e+000 6.009652e-001 3.990348e-001
 0.000000e+000 0.000000e+000 0.000000e+000 0.000000e+000 0.000000e+000
<ENDHMM>
~h "e"
<BEGINHMM>
<NUMSTATES> 5
<STATE> 2
<MEAN> 25
 -6.953665e-002 5.698193e-002 6.278416e-001 3.499800e-001 -4.365630e-001 -1.207889e+000 -4.182066e-002 6.216868e-001 -1.335214e-001 1.448808e-001 1.057859e-001 3.784102e-001 1.568149e-002 -7.978315e-004 -1.065842e-002 2.859016e-003 2.256957e-003 9.205275e-003 1.394994e-002 -2.612404e-003 7.031923e-003 8.132622e-004 2.274080e-003 -4.047099e-003 -1.721273e-002
<VARIANCE> 25
 5.573790e+001 4.121777e+001 4.454540e+001 3.377127e+001 4.331751e+001 5.859087e+001 4.631888e+001 4.123116e+001 4.161500e+001 2.688154e+001 3.535650e+001 3.178962e+001 3.630185e+000 3.398697e+000 2.473100e+000 2.736542e+000 3.040328e+000 3.490373e+000 3.630761e+000 3.534724e+000 3.289399e+000 2.500529e+000 2.608808e+000 2.321215e+000 3.006528e+000
<GCONST> 1.047888e+002
<STATE> 3
<MEAN> 25
 -3.889064e-002 5.289485e-002 6.024026e-001 3.544311e-001 -4.295302e-001 -1.186272e+000 -1.392438e-002 6.177325e-001 -1.157400e-001 1.442120e-001 1.100952e-001 3.696810e-001 1.747475e-002 -1.173075e-003 -1.434842e-002 5.132743e-004 5.585517e-003 1.849205e-002 1.606022e-002 -2.445068e-003 9.116495e-003 -9.593464e-004 6.095099e-004 -6.962842e-003 -2.044451e-002
<VARIANCE> 25
 5.539325e+001 4.114748e+001 4.465406e+001 3.385040e+001 4.344230e+001 5.859960e+001 4.620458e+001 4.128164e+001 4.160840e+001 2.683702e+001 3.547716e+001 3.177940e+001 3.608242e+000 3.393118e+000 2.470128e+000 2.732955e+000 3.036654e+000 3.478901e+000 3.617839e+000 3.528356e+000 3.284770e+000 2.495774e+000 2.608934e+000 2.319656e+000 3.005825e+000
<GCONST> 1.047645e+002
<STATE> 4
<MEAN> 25
 -3.154209e-003 5.364674e-002 5.642688e-001 3.539332e-001 -4.117462e-001 -1.140961e+000 1.752180e-002 6.081845e-001 -9.204514e-002 1.426424e-001 1.145580e-001 3.506839e-001 1.611503e-002 1.429530e-003 -1.805669e-002 -7.049316e-004 1.012557e-002 2.778719e-002 1.934663e-002 -4.311203e-003 1.118763e-002 -3.045747e-003 -1.457126e-003 -9.069826e-003 -2.753798e-002
<VARIANCE> 25
 5.519923e+001 4.111596e+001 4.492730e+001 3.399360e+001 4.360494e+001 5.860165e+001 4.612844e+001 4.138678e+001 4.158743e+001 2.682050e+001 3.561868e+001 3.179308e+001 3.574115e+000 3.379679e+000 2.466777e+000 2.725682e+000 3.031955e+000 3.458437e+000 3.602025e+000 3.509912e+000 3.276438e+000 2.489061e+000 2.605295e+000 2.315686e+000 3.008602e+000
<GCONST> 1.047365e+002
<TRANSP> 5
 0.000000e+000 1.000000e+000 0.000000e+000 0.000000e+000 0.000000e+000
 0.000000e+000 5.077679e-001 4.922321e-001 0.000000e+000 0.000000e+000
 0.000000e+000 0.000000e+000 5.077678e-001 4.922322e-001 0.000000e+000
 0.000000e+000 0.000000e+000 0.000000e+000 5.952035e-001 4.047965e-001
 0.000000e+000 0.000000e+000 0.000000e+000 0.000000e+000 0.000000e+000
<ENDHMM>
~h "f"
<BEGINHMM>
<NUMSTATES> 5
<STATE> 2
<MEAN> 25
 2.208324e-002 -4.543245e-001 -6.925721e-001 4.986950e-001 1.255152e-001 1.082564e+000 9.700414e-001 -3.281273e-001 4.462280e-001 3.234652e-002 -3.649769e-001 -5.758670e-002 -4.802166e-002 -1.443969e-002 2.211353e-002 6.664220e-002 1.060606e-002 -1.484383e-002 2.681313e-002 -2.086380e-002 8.521799e-004 -4.470436e-002 -2.109947e-002 -3.046021e-002 4.003749e-004
<VARIANCE> 25
 4.941808e+001 4.225613e+001 5.422722e+001 3.759025e+001 4.489283e+001 5.091777e+001 4.177668e+001 3.954631e+001 4.724349e+001 2.514702e+001 3.800107e+001 3.269086e+001 3.345519e+000 2.950355e+000 2.565722e+000 2.940222e+000 2.831613e+000 3.094202e+000 3.282637e+000 3.197578e+000 3.665647e+000 2.375616e+000 2.695880e+000 2.327992e+000 2.470323e+000
<GCONST> 1.042970e+002
<STATE> 3
<MEAN> 25
 -8.671101e-002 -4.702229e-001 -6.593261e-001 6.456237e-001 1.420964e-001 1.051870e+000 1.030590e+000 -3.666675e-001 4.583645e-001 -6.397218e-002 -3.999925e-001 -1.131749e-001 -4.527961e-002 -1.374317e-003 2.058999e-002 7.321097e-002 1.155501e-003 -1.915687e-002 2.779802e-002 -2.461213e-002 -6.094273e-003 -4.929580e-002 -1.579309e-002 -3.221134e-002 -1.748933e-003
<VARIANCE> 25
 5.072651e+001 4.238247e+001 5.391246e+001 3.730775e+001 4.530741e+001 5.170268e+001 4.213509e+001 3.962532e+001 4.741268e+001 2.505482e+001 3.828075e+001 3.310654e+001 3.363052e+000 2.985425e+000 2.604352e+000 2.962380e+000 2.850085e+000 3.154408e+000 3.339567e+000 3.248037e+000 3.720870e+000 2.370191e+000 2.722304e+000 2.348814e+000 2.489955e+000
<GCONST> 1.045050e+002
<STATE> 4
<MEAN> 25
 -1.865741e-001 -4.197403e-001 -6.191016e-001 8.048823e-001 1.894172e-001 1.011533e+000 1.086258e+000 -4.047491e-001 4.308045e-001 -1.642664e-001 -4.287169e-001 -1.307050e-001 -3.222993e-002 1.601224e-002 1.724480e-002 6.318516e-002 4.031644e-003 -2.780030e-002 2.604355e-002 -1.801405e-002 -1.325269e-002 -3.950818e-002 -1.333711e-002 -3.094548e-002 -1.755633e-003
<VARIANCE> 25
 5.204978e+001 4.211129e+001 5.334698e+001 3.678764e+001 4.563683e+001 5.271690e+001 4.231313e+001 3.968392e+001 4.726162e+001 2.514419e+001 3.839008e+001 3.327388e+001 3.386581e+000 2.992896e+000 2.606364e+000 2.958377e+000 2.860250e+000 3.192276e+000 3.370681e+000 3.273658e+000 3.741830e+000 2.373619e+000 2.726242e+000 2.367952e+000 2.502985e+000
<GCONST> 1.046038e+002
<TRANSP> 5
 0.000000e+000 1.000000e+000 0.000000e+000 0.000000e+000 0.000000e+000
 0.000000e+000 5.140907e-001 4.859093e-001 0.000000e+000 0.000000e+000
 0.000000e+000 0.000000e+000 5.140917e-001 4.859083e-001 0.000000e+000
 0.000000e+000 0.000000e+000 0.000000e+000 6.049335e-001 3.950665e-001
 0.000000e+000 0.000000e+000 0.000000e+000 0.000000e+000 0.000000e+000
<ENDHMM>
~h "g"
<BEGINHMM>
<NUMSTATES> 5
<STATE> 2
<MEAN> 25
 1.268113e+000 1.105790e-001 -5.115287e-001 -7.416930e-001 -4.110320e-002 4.626706e-001 -4.710164e-001 -2.392719e-001 -7.641441e-001 2.136827e-001 8.299685e-001 -3.028558e-001 -1.102276e-002 -1.723424e-002 -3.293481e-004 8.045993e-003 7.084828e-003 -1.928738e-002 -3.206708e-003 6.605200e-003 1.660238e-002 1.484499e-002 -6.158710e-003 -4.795581e-005 3.084385e-002
<VARIANCE> 25
 4.942880e+001 4.270179e+001 4.780183e+001 4.451060e+001 4.401442e+001 5.956404e+001 4.649348e+001 4.047084e+001 4.551325e+001 2.923909e+001 4.232813e+001 3.041834e+001 2.887651e+000 3.486500e+000 2.560570e+000 3.373309e+000 3.146029e+000 3.670433e+000 3.817320e+000 3.475992e+000 3.582145e+000 2.650627e+000 3.199874e+000 2.454895e+000 3.225882e+000
<GCONST> 1.060105e+002
<STATE> 3
<MEAN> 25
 1.240424e+000 8.046873e-002 -5.081450e-001 -7.194611e-001 -2.531570e-002 4.224456e-001 -4.722294e-001 -2.223723e-001 -7.267374e-001 2.401763e-001 8.121305e-001 -2.992223e-001 -1.791188e-002 -1.721769e-002 1.954444e-003 1.554916e-002 9.819235e-003 -2.185255e-002 6.646923e-005 1.029610e-002 2.386945e-002 1.204783e-002 -1.466368e-002 -1.914384e-005 2.681508e-002
<VARIANCE> 25
 4.958876e+001 4.248134e+001 4.775244e+001 4.422095e+001 4.387902e+001 5.976242e+001 4.647849e+001 4.056024e+001 4.543098e+001 2.919186e+001 4.212091e+001 3.046918e+001 2.897042e+000 3.472193e+000 2.537973e+000 3.346595e+000 3.125479e+000 3.664485e+000 3.797743e+000 3.469175e+000 3.565378e+000 2.648044e+000 3.180276e+000 2.456556e+000 3.195774e+000
<GCONST> 1.059430e+002
<STATE> 4
<MEAN> 25
 1.198054e+000 5.873208e-002 -4.887961e-001 -6.744675e-001 -1.175143e-003 3.666163e-001 -4.672264e-001 -1.965275e-001 -6.760175e-001 2.611030e-001 7.655499e-001 -3.061573e-001 -2.355435e-002 -1.590378e-002 4.459138e-003 2.197421e-002 1.254703e-002 -2.384709e-002 3.412400e-003 1.265766e-002 2.900117e-002 8.418006e-003 -2.168876e-002 -9.913414e-004 2.184609e-002
<VARIANCE> 25
 4.987811e+001 4.237419e+001 4.778259e+001 4.371967e+001 4.386258e+001 5.993515e+001 4.641307e+001 4.071135e+001 4.518377e+001 2.917557e+001 4.183036e+001 3.051703e+001 2.907096e+000 3.452255e+000 2.522456e+000 3.304170e+000 3.104295e+000 3.655404e+000 3.775953e+000 3.458815e+000 3.544764e+000 2.640877e+000 3.151910e+000 2.451417e+000 3.158497e+000
<GCONST> 1.058584e+002
<TRANSP> 5
 0.000000e+000 1.000000e+000 0.000000e+000 0.000000e+000 0.000000e+000
 0.000000e+000 5.059616e-001 4.940384e-001 0.000000e+000 0.000000e+000
 0.000000e+000 0.000000e+000 5.059615e-001 4.940385e-001 0.000000e+000
 0.000000e+000 0.000000e+000 0.000000e+000 5.925316e-001 4.074683e-001
 0.000000e+000 0.000000e+000 0.000000e+000 0.000000e+000 0.000000e+000
<ENDHMM>
~h "h"
<BEGINHMM>
<NUMSTATES> 5
<STATE> 2
<MEAN> 25
 -4.562562e-001 -4.770521e-001 6.693633e-002 2.872832e-001 2.846216e-001 5.198983e-002 4.018961e-001 -5.358775e-001 3.343787e-001 4.999052e-001 -9.144735e-002 4.592717e-002 4.553329e-002 -3.429240e-002 -9.759310e-002 -2.775662e-002 4.868506e-003 -1.878271e-002 1.175574e-002 5.237305e-003 5.301424e-002 1.486279e-002 4.445619e-002 -1.405713e-002 2.705599e-002
<VARIANCE> 25
 5.390292e+001 4.095232e+001 6.878624e+001 3.632833e+001 5.641397e+001 5.616412e+001 4.533582e+001 4.030812e+001 4.630437e+001 2.755840e+001 3.988289e+001 3.119708e+001 3.458715e+000 3.063284e+000 3.076061e+000 2.974036e+000 4.035596e+000 3.659289e+000 3.799845e+000 3.360881e+000 3.728914e+000 2.606323e+000 2.891847e+000 2.525739e+000 2.665120e+000
<GCONST> 1.063759e+002
<STATE> 3
<MEAN> 25
 -3.671281e-001 -5.360727e-001 -1.214767e-001 2.340426e-001 2.894947e-001 2.104748e-002 4.240148e-001 -5.132437e-001 4.330692e-001 5.231893e-001 -2.048612e-003 6.789220e-003 5.031243e-002 -3.018657e-002 -9.670644e-002 -2.497574e-002 -1.768285e-003 -1.315165e-002 4.511610e-003 1.227794e-002 4.881602e-002 1.077435e-002 4.348266e-002 -2.361353e-002 1.417481e-002
<VARIANCE> 25
 5.433462e+001 4.074221e+001 6.745473e+001 3.623753e+001 5.520159e+001 5.618763e+001 4.575105e+001 4.003031e+001 4.571920e+001 2.740514e+001 4.023224e+001 3.145670e+001 3.469402e+000 3.061593e+000 3.011710e+000 2.966332e+000 3.924483e+000 3.649274e+000 3.786938e+000 3.330819e+000 3.697289e+000 2.582008e+000 2.905869e+000 2.541586e+000 2.646201e+000
<GCONST> 1.062581e+002
<STATE> 4
<MEAN> 25
 -2.711180e-001 -5.996862e-001 -3.488023e-001 1.731130e-001 2.938485e-001 -8.295964e-003 4.344240e-001 -4.736701e-001 5.210402e-001 5.349146e-001 8.520704e-002 -7.739315e-002 4.837271e-002 -2.281399e-002 -9.343400e-002 -1.932810e-002 -8.910366e-003 -1.124132e-002 -1.257867e-003 1.624618e-002 4.332121e-002 4.758933e-003 3.618132e-002 -3.089136e-002 6.410382e-003
<VARIANCE> 25
 5.508611e+001 4.068301e+001 6.571413e+001 3.606347e+001 5.414400e+001 5.594746e+001 4.622689e+001 3.969492e+001 4.511377e+001 2.719030e+001 4.071367e+001 3.198398e+001 3.465496e+000 3.063793e+000 2.935137e+000 2.935376e+000 3.789313e+000 3.627473e+000 3.762769e+000 3.297420e+000 3.655509e+000 2.546278e+000 2.920435e+000 2.556244e+000 2.645113e+000
<GCONST> 1.061159e+002
<TRANSP> 5
 0.000000e+000 1.000000e+000 0.000000e+000 0.000000e+000 0.000000e+000
 0.000000e+000 5.037667e-001 4.962334e-001 0.000000e+000 0.000000e+000
 0.000000e+000 0.000000e+000 5.037656e-001 4.962344e-001 0.000000e+000
 0.000000e+000 0.000000e+000 0.000000e+000 5.905190e-001 4.094810e-001
 0.000000e+000 0.000000e+000 0.000000e+000 0.000000e+000 0.000000e+000
<ENDHMM>
~h "i"
<BEGINHMM>
<NUMSTATES> 5
<STATE> 2
<MEAN> 25
 -5.877463e-001 6.874616e-001 2.039924e+000 5.288196e-001 -1.074208e+000 -3.352242e-001 -6.057571e-002 -4.199312e-001 -1.125603e+000 -1.659984e-001 4.378093e-001 3.161134e-001 3.129894e-003 -7.489735e-003 -1.811372e-002 -5.870014e-003 9.952730e-003 1.599976e-002 6.646411e-003 2.742467e-003 1.237126e-002 8.604858e-003 -5.662503e-003 6.397398e-003 -9.904715e-003
<VARIANCE> 25
 5.614888e+001 4.126770e+001 5.989006e+001 3.423169e+001 4.886985e+001 5.505922e+001 4.882004e+001 3.978167e+001 4.673260e+001 2.673415e+001 3.506503e+001 3.059020e+001 3.459830e+000 3.247492e+000 3.121397e+000 2.782118e+000 3.490081e+000 3.503380e+000 3.751748e+000 3.393194e+000 3.667938e+000 2.514398e+000 2.722865e+000 2.351393e+000 2.969606e+000
<GCONST> 1.056931e+002
<STATE> 3
<MEAN> 25
 -5.756796e-001 6.655216e-001 1.988730e+000 5.126281e-001 -1.050971e+000 -3.000492e-001 -4.664867e-002 -4.112912e-001 -1.090754e+000 -1.485056e-001 4.240927e-001 3.254079e-001 1.155913e-002 -1.603275e-002 -3.631680e-002 -1.055471e-002 1.502035e-002 2.125601e-002 5.000814e-003 3.526175e-003 2.311493e-002 1.076653e-002 -8.602858e-003 1.393164e-003 -1.172752e-002
<VARIANCE> 25
 5.605393e+001 4.129361e+001 5.980391e+001 3.414379e+001 4.879116e+001 5.506117e+001 4.878112e+001 3.984981e+001 4.670207e+001 2.678440e+001 3.500701e+001 3.058947e+001 3.444405e+000 3.242602e+000 3.111470e+000 2.774894e+000 3.468457e+000 3.496021e+000 3.741316e+000 3.392232e+000 3.648613e+000 2.515184e+000 2.720365e+000 2.346897e+000 2.959279e+000
<GCONST> 1.056525e+002
<STATE> 4
<MEAN> 25
 -5.283239e-001 6.256236e-001 1.896066e+000 4.799980e-001 -1.018921e+000 -2.426724e-001 -4.320763e-002 -4.042755e-001 -1.027776e+000 -1.195600e-001 3.994613e-001 3.144734e-001 2.054271e-002 -2.138698e-002 -5.142719e-002 -1.340960e-002 2.082572e-002 2.478168e-002 5.020326e-003 4.289122e-003 3.449550e-002 1.112884e-002 -1.190053e-002 -3.290010e-003 -1.592517e-002
<VARIANCE> 25
 5.580322e+001 4.134202e+001 5.980849e+001 3.411551e+001 4.873362e+001 5.509863e+001 4.868861e+001 4.003792e+001 4.661706e+001 2.688966e+001 3.503955e+001 3.062987e+001 3.413824e+000 3.230023e+000 3.089282e+000 2.769255e+000 3.430762e+000 3.482455e+000 3.721732e+000 3.389907e+000 3.615184e+000 2.517107e+000 2.710749e+000 2.339354e+000 2.951014e+000
<GCONST> 1.055943e+002
<TRANSP> 5
 0.000000e+000 1.000000e+000 0.000000e+000 0.000000e+000 0.000000e+000
 0.000000e+000 5.049056e-001 4.950944e-001 0.000000e+000 0.000000e+000
 0.000000e+000 0.000000e+000 5.049031e-001 4.950970e-001 0.000000e+000
 0.000000e+000 0.000000e+000 0.000000e+000 5.914789e-001 4.085211e-001
 0.000000e+000 0.000000e+000 0.000000e+000 0.000000e+000 0.000000e+000
<ENDHMM>
~h "j"
<BEGINHMM>
<NUMSTATES> 5
<STATE> 2
<MEAN> 25
 -2.156329e-002 -5.923216e-002 1.319970e+000 2.954412e-001 -1.183147e+000 -8.582433e-001 -3.063425e-001 5.687378e-001 -8.343021e-001 4.595472e-002 4.500824e-001 2.089141e-001 1.705867e-002 4.615055e-003 -2.026630e-002 1.192698e-002 1.921600e-002 4.659690e-003 4.244934e-003 4.080348e-003 1.946888e-002 9.606215e-003 -3.933716e-003 -3.609429e-003 -1.288540e-002
<VARIANCE> 25
 5.402972e+001 4.087838e+001 5.299787e+001 3.279145e+001 4.837013e+001 5.416323e+001 4.982660e+001 4.223781e+001 4.319557e+001 2.655888e+001 3.709103e+001 3.003187e+001 3.230544e+000 3.079987e+000 2.956646e+000 2.709839e+000 3.275054e+000 3.455766e+000 3.703567e+000 3.572416e+000 3.346097e+000 2.471249e+000 2.694987e+000 2.269151e+000 2.773920e+000
<GCONST> 1.050220e+002
<STATE> 3
<MEAN> 25
 1.147470e-002 -4.735921e-002 1.271086e+000 3.170308e-001 -1.132926e+000 -8.409707e-001 -2.935041e-001 5.707916e-001 -7.920674e-001 6.235079e-002 4.361281e-001 1.987799e-001 1.579097e-002 6.418371e-003 -2.864694e-002 9.390538e-003 3.061197e-002 1.535862e-002 7.878825e-003 -2.699425e-003 2.479616e-002 8.024629e-003 -1.023304e-002 -6.106843e-003 -2.131901e-002
<VARIANCE> 25
 5.393309e+001 4.089814e+001 5.274899e+001 3.284428e+001 4.813718e+001 5.415058e+001 4.987761e+001 4.236172e+001 4.323035e+001 2.661058e+001 3.715023e+001 3.017826e+001 3.236094e+000 3.085130e+000 2.936144e+000 2.708651e+000 3.268658e+000 3.453370e+000 3.702197e+000 3.572505e+000 3.339352e+000 2.470720e+000 2.695678e+000 2.275841e+000 2.777666e+000
<GCONST> 1.050210e+002
<STATE> 4
<MEAN> 25
 5.002141e-002 -2.782550e-002 1.198989e+000 3.304902e-001 -1.050546e+000 -7.910652e-001 -2.721319e-001 5.499852e-001 -7.368652e-001 7.757975e-002 3.986923e-001 1.712526e-001 1.303427e-002 7.600328e-003 -3.320455e-002 8.011153e-003 3.709511e-002 2.329475e-002 1.188109e-002 -9.026087e-003 2.754266e-002 5.799447e-003 -1.510110e-002 -8.405752e-003 -2.704461e-002
<VARIANCE> 25
 5.388695e+001 4.098753e+001 5.274529e+001 3.303408e+001 4.796336e+001 5.418009e+001 4.974869e+001 4.246654e+001 4.334843e+001 2.671644e+001 3.734037e+001 3.038655e+001 3.241220e+000 3.094786e+000 2.909927e+000 2.713521e+000 3.254269e+000 3.449159e+000 3.696315e+000 3.563058e+000 3.326707e+000 2.471969e+000 2.698343e+000 2.283068e+000 2.791779e+000
<GCONST> 1.050371e+002
<TRANSP> 5
 0.000000e+000 1.000000e+000 0.000000e+000 0.000000e+000 0.000000e+000
 0.000000e+000 5.050170e-001 4.949830e-001 0.000000e+000 0.000000e+000
 0.000000e+000 0.000000e+000 5.050150e-001 4.949850e-001 0.000000e+000
 0.000000e+000 0.000000e+000 0.000000e+000 5.917405e-001 4.082595e-001
 0.000000e+000 0.000000e+000 0.000000e+000 0.000000e+000 0.000000e+000
<ENDHMM>
~h "k"
<BEGINHMM>
<NUMSTATES> 5
<STATE> 2
<MEAN> 25
 -2.199890e-002 -1.482663e-001 -1.083232e+000 -1.427325e-001 4.793308e-001 -9.161668e-002 -1.099265e-002 4.443708e-001 3.549350e-001 1.483160e-001 2.310687e-001 -6.092481e-002 3.358352e-002 -1.196701e-002 2.066640e-002 4.753957e-003 -2.972838e-002 6.789930e-003 -1.886261e-002 -1.470301e-002 -5.353375e-003 8.591431e-003 1.617481e-002 -3.896207e-004 2.305340e-002
<VARIANCE> 25
 5.510761e+001 4.115441e+001 5.324702e+001 3.972166e+001 4.795426e+001 5.651745e+001 4.849659e+001 4.290479e+001 4.718153e+001 2.792061e+001 3.952646e+001 3.130334e+001 3.500373e+000 3.423848e+000 3.185440e+000 3.113488e+000 3.582482e+000 3.636772e+000 3.926273e+000 3.593921e+000 3.779326e+000 2.638082e+000 2.970394e+000 2.524954e+000 3.628774e+000
<GCONST> 1.067752e+002
<STATE> 3
<MEAN> 25
 2.673737e-002 -1.580045e-001 -1.044346e+000 -1.360795e-001 4.241658e-001 -7.550045e-002 -3.219885e-002 4.079701e-001 3.389431e-001 1.601911e-001 2.580425e-001 -5.326951e-002 2.611586e-002 -5.829358e-003 2.307934e-002 1.088770e-003 -3.139181e-002 9.250489e-003 -1.116026e-002 -2.244650e-002 -1.289969e-002 6.032075e-003 1.585976e-002 2.773932e-003 1.918026e-002
<VARIANCE> 25
 5.494728e+001 4.097308e+001 5.302614e+001 3.964934e+001 4.785882e+001 5.629914e+001 4.815883e+001 4.297182e+001 4.702507e+001 2.791240e+001 3.951527e+001 3.125026e+001 3.491828e+000 3.424947e+000 3.142137e+000 3.108485e+000 3.568848e+000 3.613268e+000 3.907184e+000 3.578567e+000 3.767504e+000 2.633298e+000 2.965685e+000 2.519515e+000 3.569576e+000
<GCONST> 1.066830e+002
<STATE> 4
<MEAN> 25
 6.934531e-002 -1.528953e-001 -9.843944e-001 -1.403597e-001 3.575111e-001 -5.014993e-002 -4.670133e-002 3.481818e-001 3.023695e-001 1.680719e-001 2.890464e-001 -4.814746e-002 2.179570e-002 -1.056958e-003 2.685043e-002 -3.491316e-003 -3.301744e-002 1.105660e-002 -6.414480e-003 -2.576029e-002 -2.026857e-002 2.962437e-003 1.445179e-002 2.177222e-003 1.955791e-002
<VARIANCE> 25
 5.497227e+001 4.085056e+001 5.288726e+001 3.960037e+001 4.775188e+001 5.613259e+001 4.773095e+001 4.296779e+001 4.681999e+001 2.789682e+001 3.948996e+001 3.122393e+001 3.483648e+000 3.411577e+000 3.089206e+000 3.100430e+000 3.533651e+000 3.591058e+000 3.878137e+000 3.556941e+000 3.742556e+000 2.622667e+000 2.949661e+000 2.506401e+000 3.507834e+000
<GCONST> 1.065617e+002
<TRANSP> 5
 0.000000e+000 1.000000e+000 0.000000e+000 0.000000e+000 0.000000e+000
 0.000000e+000 5.037103e-001 4.962897e-001 0.000000e+000 0.000000e+000
 0.000000e+000 0.000000e+000 5.037119e-001 4.962881e-001 0.000000e+000
 0.000000e+000 0.000000e+000 0.000000e+000 5.903580e-001 4.096420e-001
 0.000000e+000 0.000000e+000 0.000000e+000 0.000000e+000 0.000000e+000
<ENDHMM>
~h "l"
<BEGINHMM>
<NUMSTATES> 5
<STATE> 2
<MEAN> 25
 6.134216e-001 -3.977062e-001 -4.457423e-001 -6.979694e-001 1.545843e-002 8.147250e-001 -6.462086e-001 -8.138775e-001 1.752978e-001 3.992020e-001 9.082216e-001 -4.625451e-001 -1.936973e-002 3.030343e-002 8.906870e-003 1.480508e-002 1.542185e-002 -9.098562e-003 3.023464e-002 2.914365e-002 -8.032026e-004 6.082333e-003 -2.963034e-002 2.434619e-003 -1.957388e-002
<VARIANCE> 25
 5.593819e+001 4.051468e+001 4.962243e+001 4.002880e+001 4.660636e+001 6.273525e+001 4.979732e+001 4.556892e+001 4.240227e+001 2.886360e+001 3.997823e+001 3.389341e+001 3.333622e+000 3.207986e+000 2.575511e+000 3.063495e+000 3.254388e+000 3.668473e+000 3.942948e+000 3.755615e+000 3.479833e+000 2.664887e+000 3.075384e+000 2.528185e+000 2.765973e+000
<GCONST> 1.062018e+002
<STATE> 3
<MEAN> 25
 5.641286e-001 -3.311598e-001 -4.260082e-001 -6.605633e-001 5.630197e-002 7.916448e-001 -5.837537e-001 -7.523717e-001 1.747082e-001 4.070238e-001 8.395377e-001 -4.520703e-001 -2.880893e-002 3.729341e-002 1.117663e-002 2.203456e-002 2.208282e-002 -1.346019e-002 3.660063e-002 3.508883e-002 -1.084075e-003 6.533031e-004 -4.068213e-002 7.325801e-003 -3.204411e-002
<VARIANCE> 25
 5.638942e+001 4.055825e+001 4.943380e+001 3.994176e+001 4.658782e+001 6.276462e+001 4.961457e+001 4.549604e+001 4.253048e+001 2.877570e+001 3.991264e+001 3.396267e+001 3.341081e+000 3.205135e+000 2.563359e+000 3.042598e+000 3.234655e+000 3.652382e+000 3.930708e+000 3.736041e+000 3.472793e+000 2.656600e+000 3.053966e+000 2.515038e+000 2.766232e+000
<GCONST> 1.061538e+002
<STATE> 4
<MEAN> 25
 4.945591e-001 -2.428855e-001 -4.050954e-001 -6.004061e-001 1.202327e-001 7.536941e-001 -4.997116e-001 -6.703295e-001 1.735527e-001 3.979324e-001 7.344679e-001 -4.252624e-001 -3.565611e-002 3.986003e-002 1.167088e-002 2.829950e-002 2.571363e-002 -1.878003e-002 4.056545e-002 3.987985e-002 -6.132820e-004 -5.888041e-003 -4.837136e-002 1.338624e-002 -4.180570e-002
<VARIANCE> 25
 5.703518e+001 4.067693e+001 4.924994e+001 3.985918e+001 4.656646e+001 6.262720e+001 4.942272e+001 4.534794e+001 4.264261e+001 2.869843e+001 3.981627e+001 3.399990e+001 3.349440e+000 3.200200e+000 2.551345e+000 3.025974e+000 3.213316e+000 3.632926e+000 3.910454e+000 3.711426e+000 3.461766e+000 2.645159e+000 3.026203e+000 2.499645e+000 2.780610e+000
<GCONST> 1.061006e+002
<TRANSP> 5
 0.000000e+000 1.000000e+000 0.000000e+000 0.000000e+000 0.000000e+000
 0.000000e+000 5.074793e-001 4.925207e-001 0.000000e+000 0.000000e+000
 0.000000e+000 0.000000e+000 5.074778e-001 4.925222e-001 0.000000e+000
 0.000000e+000 0.000000e+000 0.000000e+000 5.943885e-001 4.056115e-001
 0.000000e+000 0.000000e+000 0.000000e+000 0.000000e+000 0.000000e+000
<ENDHMM>
~h "m"
<BEGINHMM>
<NUMSTATES> 5
<STATE> 2
<MEAN> 25
 9.125323e-001 -6.752377e-002 2.007770e-001 5.096502e-001 5.744196e-001 1.140876e+000 6.569454e-001 -4.378532e-001 -9.592858e-001 -1.728834e-001 -8.822318e-001 -7.691886e-001 -8.471797e-003 9.146197e-003 7.513727e-003 8.904084e-003 6.125289e-003 1.687034e-002 1.548130e-002 1.112126e-002 6.477340e-003 -6.210786e-003 -1.518906e-002 5.386677e-003 -2.854659e-003
<VARIANCE> 25
 5.523363e+001 3.915526e+001 4.441647e+001 4.070575e+001 4.475677e+001 5.557790e+001 4.208778e+001 4.416375e+001 4.233896e+001 2.735822e+001 3.709564e+001 3.124509e+001 3.221060e+000 3.088790e+000 2.612169e+000 3.427828e+000 3.054792e+000 3.437319e+000 3.407045e+000 3.894846e+000 3.314387e+000 2.591014e+000 2.720532e+000 2.318869e+000 2.792528e+000
<GCONST> 1.050285e+002
<STATE> 3
<MEAN> 25
 8.896116e-001 -4.701811e-002 2.112351e-001 5.264198e-001 5.830223e-001 1.164230e+000 6.820740e-001 -4.166067e-001 -9.414319e-001 -1.831373e-001 -9.021385e-001 -7.541091e-001 -2.157827e-002 1.247370e-002 2.698113e-003 7.202714e-003 3.681195e-003 5.498067e-003 1.265391e-002 1.279241e-002 1.581838e-002 -7.216448e-003 -5.977112e-003 1.251468e-002 -1.404370e-002
<VARIANCE> 25
 5.514033e+001 3.927560e+001 4.448642e+001 4.066283e+001 4.501579e+001 5.564906e+001 4.235868e+001 4.417786e+001 4.227643e+001 2.750663e+001 3.726862e+001 3.116584e+001 3.210671e+000 3.098742e+000 2.606514e+000 3.404174e+000 3.058501e+000 3.442907e+000 3.413410e+000 3.883036e+000 3.306443e+000 2.593746e+000 2.721499e+000 2.309472e+000 2.776242e+000
<GCONST> 1.050319e+002
<STATE> 4
<MEAN> 25
 8.417226e-001 -2.622399e-002 2.079701e-001 5.208917e-001 5.787912e-001 1.149022e+000 6.773385e-001 -3.836408e-001 -8.979151e-001 -1.873911e-001 -8.898102e-001 -7.167640e-001 -3.016718e-002 9.948794e-003 -2.421796e-003 2.350815e-003 -1.357706e-003 -5.221633e-003 7.931816e-003 1.517643e-002 2.312953e-002 -6.836109e-003 4.707272e-003 1.901998e-002 -1.844192e-002
<VARIANCE> 25
 5.536927e+001 3.945500e+001 4.467105e+001 4.059880e+001 4.542896e+001 5.584079e+001 4.276516e+001 4.419553e+001 4.214813e+001 2.770434e+001 3.746413e+001 3.114654e+001 3.209712e+000 3.102464e+000 2.601813e+000 3.374877e+000 3.061922e+000 3.448931e+000 3.422307e+000 3.863561e+000 3.297290e+000 2.596701e+000 2.722935e+000 2.303265e+000 2.779043e+000
<GCONST> 1.050625e+002
<TRANSP> 5
 0.000000e+000 1.000000e+000 0.000000e+000 0.000000e+000 0.000000e+000
 0.000000e+000 5.107000e-001 4.893000e-001 0.000000e+000 0.000000e+000
 0.000000e+000 0.000000e+000 5.107027e-001 4.892974e-001 0.000000e+000
 0.000000e+000 0.000000e+000 0.000000e+000 5.986881e-001 4.013119e-001
 0.000000e+000 0.000000e+000 0.000000e+000 0.000000e+000 0.000000e+000
<ENDHMM>
~h "n"
<BEGINHMM>
<NUMSTATES> 5
<STATE> 2
<MEAN> 25
 6.638266e-001 -9.316900e-002 2.050750e-001 5.912180e-001 6.038127e-001 9.665597e-001 5.759005e-001 -2.559160e-001 -4.574702e-001 -2.808322e-001 -1.395136e+000 -9.299307e-001 -1.512117e-002 1.447819e-002 -5.211695e-003 -2.860287e-003 1.315755e-002 -2.370047e-003 2.000613e-002 2.390205e-002 2.216041e-003 -6.491390e-003 -3.187410e-003 1.000092e-002 -1.203273e-002
<VARIANCE> 25
 5.361847e+001 4.136603e+001 4.731733e+001 3.782637e+001 4.637612e+001 5.566843e+001 4.373088e+001 4.262196e+001 4.083111e+001 2.748850e+001 4.087660e+001 3.248413e+001 3.252680e+000 3.258904e+000 2.603354e+000 3.097086e+000 3.084569e+000 3.417006e+000 3.435217e+000 3.661467e+000 3.211215e+000 2.570843e+000 2.842185e+000 2.399149e+000 2.932887e+000
<GCONST> 1.051841e+002
<STATE> 3
<MEAN> 25
 6.256265e-001 -5.519942e-002 1.947636e-001 5.817299e-001 6.238183e-001 9.555963e-001 6.125434e-001 -2.173249e-001 -4.520398e-001 -2.892865e-001 -1.387220e+000 -9.004628e-001 -2.569713e-002 1.972679e-002 -8.107729e-003 -1.042448e-002 8.976814e-003 -8.232904e-003 1.581462e-002 2.132546e-002 6.080347e-003 -3.421266e-003 1.017926e-002 1.995172e-002 -2.069238e-002
<VARIANCE> 25
 5.384748e+001 4.136864e+001 4.731387e+001 3.776865e+001 4.640814e+001 5.580730e+001 4.392260e+001 4.251985e+001 4.084097e+001 2.753101e+001 4.083317e+001 3.246321e+001 3.256816e+000 3.254616e+000 2.601479e+000 3.078899e+000 3.083450e+000 3.412172e+000 3.430079e+000 3.636623e+000 3.212714e+000 2.575289e+000 2.844688e+000 2.395888e+000 2.908864e+000
<GCONST> 1.051688e+002
<STATE> 4
<MEAN> 25
 5.703835e-001 -6.219961e-003 1.791424e-001 5.482878e-001 6.235623e-001 9.255403e-001 6.165747e-001 -1.856255e-001 -4.371347e-001 -2.864677e-001 -1.336877e+000 -8.482637e-001 -3.471864e-002 1.939099e-002 -1.054496e-002 -1.654812e-002 3.649360e-003 -1.400340e-002 8.748001e-003 1.888254e-002 1.017770e-002 -8.947130e-004 2.208448e-002 2.715336e-002 -2.189516e-002
<VARIANCE> 25
 5.435463e+001 4.141607e+001 4.750292e+001 3.779652e+001 4.653190e+001 5.599191e+001 4.420623e+001 4.242327e+001 4.092115e+001 2.761045e+001 4.079494e+001 3.246736e+001 3.269903e+000 3.247065e+000 2.603001e+000 3.060560e+000 3.076924e+000 3.407668e+000 3.428513e+000 3.611170e+000 3.211428e+000 2.579715e+000 2.841433e+000 2.392222e+000 2.901039e+000
<GCONST> 1.051796e+002
<TRANSP> 5
 0.000000e+000 1.000000e+000 0.000000e+000 0.000000e+000 0.000000e+000
 0.000000e+000 5.085089e-001 4.914911e-001 0.000000e+000 0.000000e+000
 0.000000e+000 0.000000e+000 5.085077e-001 4.914923e-001 0.000000e+000
 0.000000e+000 0.000000e+000 0.000000e+000 5.959611e-001 4.040389e-001
 0.000000e+000 0.000000e+000 0.000000e+000 0.000000e+000 0.000000e+000
<ENDHMM>
~h "o"
<BEGINHMM>
<NUMSTATES> 5
<STATE> 2
<MEAN> 25
 8.861837e-001 -5.686513e-002 -8.476979e-001 -7.097710e-001 2.729358e-001 1.153101e+000 -6.847620e-001 -4.458456e-001 -1.207184e-001 5.829729e-001 6.934154e-001 -3.711039e-001 -1.588393e-002 7.012336e-003 1.546252e-002 1.694860e-002 4.605153e-003 -2.233860e-002 2.376909e-002 1.261953e-002 6.256730e-003 -1.840818e-004 -1.486866e-002 7.655347e-003 -3.304823e-003
<VARIANCE> 25
 5.504800e+001 3.972354e+001 4.753570e+001 4.333612e+001 4.556773e+001 5.943756e+001 4.812394e+001 4.151474e+001 4.398890e+001 2.978685e+001 3.959675e+001 3.128381e+001 3.422256e+000 3.319630e+000 2.688403e+000 3.229853e+000 3.139580e+000 3.646048e+000 3.802029e+000 3.452550e+000 3.507250e+000 2.724966e+000 2.867279e+000 2.473479e+000 3.036948e+000
<GCONST> 1.060024e+002
<STATE> 3
<MEAN> 25
 8.488902e-001 -4.149444e-002 -8.166505e-001 -6.756374e-001 2.818965e-001 1.103488e+000 -6.299914e-001 -4.217438e-001 -1.082924e-001 5.784220e-001 6.607031e-001 -3.530130e-001 -2.279169e-002 8.336347e-003 2.092866e-002 2.028247e-002 2.649890e-003 -2.955853e-002 3.177461e-002 1.380947e-002 5.746314e-003 -6.084264e-003 -1.903278e-002 1.070914e-002 -6.924091e-003
<VARIANCE> 25
 5.513562e+001 3.984335e+001 4.747685e+001 4.302193e+001 4.554541e+001 5.946128e+001 4.811004e+001 4.143011e+001 4.400496e+001 2.970213e+001 3.945139e+001 3.127705e+001 3.423772e+000 3.316435e+000 2.668908e+000 3.207752e+000 3.128124e+000 3.634389e+000 3.783805e+000 3.444543e+000 3.499538e+000 2.714515e+000 2.850573e+000 2.466592e+000 3.024285e+000
<GCONST> 1.059422e+002
<STATE> 4
<MEAN> 25
 7.853056e-001 -1.553947e-002 -7.601057e-001 -6.266217e-001 2.789719e-001 1.022476e+000 -5.549750e-001 -3.912143e-001 -9.701288e-002 5.582485e-001 6.188589e-001 -3.243189e-001 -2.931420e-002 9.531059e-003 2.714826e-002 2.367635e-002 1.120061e-003 -3.502425e-002 3.675293e-002 1.483929e-002 5.895047e-003 -1.079904e-002 -2.247391e-002 1.228302e-002 -1.153078e-002
<VARIANCE> 25
 5.539089e+001 4.000120e+001 4.756482e+001 4.266343e+001 4.556482e+001 5.950195e+001 4.803403e+001 4.135606e+001 4.399064e+001 2.959684e+001 3.930658e+001 3.130968e+001 3.416944e+000 3.306685e+000 2.644853e+000 3.171624e+000 3.111917e+000 3.613406e+000 3.755980e+000 3.431508e+000 3.481773e+000 2.700891e+000 2.832079e+000 2.455756e+000 3.013803e+000
<GCONST> 1.058635e+002
<TRANSP> 5
 0.000000e+000 1.000000e+000 0.000000e+000 0.000000e+000 0.000000e+000
 0.000000e+000 5.065596e-001 4.934405e-001 0.000000e+000 0.000000e+000
 0.000000e+000 0.000000e+000 5.065564e-001 4.934436e-001 0.000000e+000
 0.000000e+000 0.000000e+000 0.000000e+000 5.937679e-001 4.062321e-001
 0.000000e+000 0.000000e+000 0.000000e+000 0.000000e+000 0.000000e+000
<ENDHMM>
~h "p"
<BEGINHMM>
<NUMSTATES> 5
<STATE> 2
<MEAN> 25
 7.163465e-001 -5.760112e-002 -4.731577e-001 -5.826197e-001 -7.680712e-001 2.559799e-001 -3.627138e-001 -4.437656e-001 4.681975e-001 1.221987e-001 5.514293e-001 1.607292e-001 4.949140e-003 -1.693362e-002 1.535641e-002 1.088521e-002 -6.192870e-003 -1.203140e-002 -7.651691e-003 5.518123e-003 -1.659585e-002 2.131043e-002 2.338164e-002 -2.167824e-002 5.121639e-002
<VARIANCE> 25
 4.881398e+001 4.231130e+001 4.819204e+001 3.982765e+001 4.330130e+001 5.809822e+001 4.449078e+001 3.923059e+001 4.255729e+001 2.761385e+001 3.590839e+001 3.024733e+001 3.370336e+000 3.653304e+000 2.785649e+000 3.158997e+000 3.128611e+000 3.733564e+000 3.860316e+000 3.408227e+000 3.501019e+000 2.634046e+000 2.795432e+000 2.396962e+000 3.941597e+000
<GCONST> 1.057100e+002
<STATE> 3
<MEAN> 25
 7.085867e-001 -7.286031e-002 -4.442118e-001 -5.483520e-001 -7.616361e-001 2.272713e-001 -3.729848e-001 -4.257832e-001 4.346168e-001 1.596902e-001 5.832543e-001 1.220593e-001 -9.289491e-003 -5.730615e-003 1.707581e-002 2.065223e-002 6.119332e-003 -1.724124e-002 -3.678432e-003 1.115397e-002 -1.934579e-002 1.714605e-002 1.372983e-002 -1.803862e-002 3.674299e-002
<VARIANCE> 25
 4.919705e+001 4.223515e+001 4.816078e+001 3.969317e+001 4.329935e+001 5.816945e+001 4.461964e+001 3.932801e+001 4.266042e+001 2.774125e+001 3.603601e+001 3.033120e+001 3.386583e+000 3.657500e+000 2.775466e+000 3.159042e+000 3.125118e+000 3.731009e+000 3.862899e+000 3.413459e+000 3.511704e+000 2.643645e+000 2.799764e+000 2.402801e+000 3.854893e+000
<GCONST> 1.057230e+002
<STATE> 4
<MEAN> 25
 6.661024e-001 -6.769012e-002 -4.145820e-001 -4.931015e-001 -7.206923e-001 1.835056e-001 -3.732885e-001 -3.902026e-001 3.927267e-001 1.876220e-001 5.903332e-001 8.404163e-002 -1.941353e-002 2.079744e-003 1.420013e-002 2.387632e-002 1.289028e-002 -1.915652e-002 2.376644e-004 1.143824e-002 -1.771280e-002 1.270722e-002 4.582323e-003 -1.253486e-002 2.750637e-002
<VARIANCE> 25
 4.997528e+001 4.214346e+001 4.816673e+001 3.943269e+001 4.331290e+001 5.802441e+001 4.485122e+001 3.941985e+001 4.277760e+001 2.792472e+001 3.608661e+001 3.049019e+001 3.404500e+000 3.647242e+000 2.762833e+000 3.145771e+000 3.108893e+000 3.710901e+000 3.851953e+000 3.417317e+000 3.517094e+000 2.649352e+000 2.792483e+000 2.401350e+000 3.780282e+000
<GCONST> 1.057137e+002
<TRANSP> 5
 0.000000e+000 1.000000e+000 0.000000e+000 0.000000e+000 0.000000e+000
 0.000000e+000 5.059628e-001 4.940371e-001 0.000000e+000 0.000000e+000
 0.000000e+000 0.000000e+000 5.059664e-001 4.940336e-001 0.000000e+000
 0.000000e+000 0.000000e+000 0.000000e+000 5.932248e-001 4.067752e-001
 0.000000e+000 0.000000e+000 0.000000e+000 0.000000e+000 0.000000e+000
<ENDHMM>
~h "r"
<BEGINHMM>
<NUMSTATES> 5
<STATE> 2
<MEAN> 25
 8.345627e-001 -8.324286e-001 -3.738437e-001 3.881150e-001 -4.317183e-001 -6.428812e-001 -1.911081e-001 1.450850e-001 3.120746e-001 2.640791e-001 2.484684e-001 -3.353907e-001 3.460195e-003 6.464398e-003 -9.761381e-004 1.633902e-002 2.132177e-002 -5.940546e-003 1.918457e-002 1.237748e-002 -8.424625e-003 -9.529415e-004 -5.059084e-003 -1.078588e-002 -8.577981e-003
<VARIANCE> 25
 4.862240e+001 4.236469e+001 4.819911e+001 3.498458e+001 4.327379e+001 5.502768e+001 4.503715e+001 4.011436e+001 4.366716e+001 2.729506e+001 3.864615e+001 3.150091e+001 3.016749e+000 3.369755e+000 2.564433e+000 2.847272e+000 2.925258e+000 3.379750e+000 3.560266e+000 3.388585e+000 3.444669e+000 2.538285e+000 2.762214e+000 2.352403e+000 3.004627e+000
<GCONST> 1.046984e+002
<STATE> 3
<MEAN> 25
 8.332385e-001 -8.093184e-001 -3.758342e-001 4.151011e-001 -3.851628e-001 -6.443523e-001 -1.521716e-001 1.688547e-001 3.003276e-001 2.579986e-001 2.333291e-001 -3.511690e-001 -6.373364e-003 1.681355e-002 1.988470e-003 1.190821e-002 2.586680e-002 1.950864e-003 2.177729e-002 1.118320e-002 -8.051354e-003 -3.855136e-003 -9.857314e-003 -5.749159e-003 -1.762995e-002
<VARIANCE> 25
 4.885693e+001 4.233924e+001 4.813886e+001 3.496541e+001 4.317693e+001 5.494155e+001 4.500058e+001 4.005876e+001 4.369920e+001 2.730265e+001 3.876258e+001 3.156352e+001 3.017891e+000 3.362326e+000 2.557902e+000 2.838968e+000 2.916174e+000 3.366342e+000 3.549945e+000 3.383595e+000 3.447068e+000 2.528593e+000 2.759335e+000 2.351787e+000 2.988154e+000
<GCONST> 1.046722e+002
<STATE> 4
<MEAN> 25
 8.100979e-001 -7.516981e-001 -3.601021e-001 4.274552e-001 -3.292598e-001 -6.212342e-001 -1.099310e-001 1.876773e-001 2.811253e-001 2.460201e-001 2.034330e-001 -3.581186e-001 -1.488148e-002 2.641512e-002 6.759055e-003 6.290160e-003 2.652394e-002 8.369207e-003 2.267347e-002 7.844563e-003 -7.505739e-003 -5.052845e-003 -1.312097e-002 6.546173e-004 -2.551516e-002
<VARIANCE> 25
 4.935213e+001 4.230121e+001 4.816689e+001 3.504508e+001 4.319361e+001 5.493164e+001 4.493811e+001 4.001859e+001 4.378242e+001 2.735380e+001 3.884119e+001 3.162077e+001 3.026877e+000 3.345325e+000 2.548752e+000 2.827137e+000 2.907915e+000 3.349816e+000 3.535939e+000 3.372332e+000 3.440697e+000 2.519669e+000 2.751177e+000 2.346828e+000 2.979590e+000
<GCONST> 1.046514e+002
<TRANSP> 5
 0.000000e+000 1.000000e+000 0.000000e+000 0.000000e+000 0.000000e+000
 0.000000e+000 5.067348e-001 4.932652e-001 0.000000e+000 0.000000e+000
 0.000000e+000 0.000000e+000 5.067369e-001 4.932631e-001 0.000000e+000
 0.000000e+000 0.000000e+000 0.000000e+000 5.938228e-001 4.061772e-001
 0.000000e+000 0.000000e+000 0.000000e+000 0.000000e+000 0.000000e+000
<ENDHMM>
~h "s"
<BEGINHMM>
<NUMSTATES> 5
<STATE> 2
<MEAN> 25
 -2.211833e+000 9.736729e-001 -3.726289e-001 -1.340540e-001 1.353685e+000 -1.331923e+000 1.039118e-001 6.880916e-001 2.473812e-001 -1.185481e-001 1.396520e-001 8.753662e-001 5.111803e-002 -2.181938e-002 -5.584322e-003 -9.059352e-004 -2.221530e-002 1.409992e-002 -1.369785e-002 -2.481997e-002 2.169156e-003 8.051263e-004 1.426608e-002 -1.485345e-002 -2.064983e-002
<VARIANCE> 25
 8.065999e+001 4.120390e+001 4.482931e+001 3.262743e+001 4.969358e+001 5.919362e+001 5.206247e+001 4.414044e+001 4.145809e+001 2.668477e+001 3.511289e+001 3.486589e+001 5.180554e+000 3.448934e+000 2.637842e+000 2.662002e+000 3.319710e+000 3.427556e+000 3.932769e+000 3.768814e+000 3.361530e+000 2.531705e+000 2.671742e+000 2.613153e+000 2.877622e+000
<GCONST> 1.062905e+002
<STATE> 3
<MEAN> 25
 -2.085272e+000 9.260352e-001 -3.735954e-001 -1.367609e-001 1.300559e+000 -1.294187e+000 7.579666e-002 6.358270e-001 2.449368e-001 -1.163636e-001 1.656992e-001 8.363633e-001 7.907733e-002 -3.014680e-002 3.378652e-003 -1.100138e-003 -3.636234e-002 2.491456e-002 -1.814911e-002 -3.091586e-002 -2.580280e-003 3.529120e-003 1.439212e-002 -2.550133e-002 -2.405661e-002
<VARIANCE> 25
 7.980388e+001 4.122987e+001 4.486618e+001 3.273107e+001 4.946329e+001 5.904982e+001 5.188020e+001 4.417209e+001 4.144882e+001 2.663562e+001 3.506306e+001 3.475997e+001 5.142994e+000 3.450306e+000 2.633638e+000 2.661300e+000 3.307817e+000 3.429160e+000 3.927409e+000 3.763645e+000 3.364515e+000 2.525370e+000 2.669384e+000 2.605985e+000 2.909453e+000
<GCONST> 1.062592e+002
<STATE> 4
<MEAN> 25
 -1.867894e+000 8.470491e-001 -3.543389e-001 -1.342842e-001 1.199859e+000 -1.225527e+000 4.076365e-002 5.696729e-001 2.269868e-001 -1.057062e-001 1.977853e-001 7.628812e-001 9.484254e-002 -3.422505e-002 6.995318e-003 6.205630e-004 -4.381735e-002 3.312744e-002 -1.682589e-002 -3.192819e-002 -5.391846e-003 4.714103e-003 1.267586e-002 -3.196681e-002 -2.609498e-002
<VARIANCE> 25
 7.865533e+001 4.125874e+001 4.509513e+001 3.301077e+001 4.920869e+001 5.906372e+001 5.143877e+001 4.405748e+001 4.142415e+001 2.665652e+001 3.507024e+001 3.466147e+001 5.039128e+000 3.438162e+000 2.625486e+000 2.668329e+000 3.290738e+000 3.431981e+000 3.902689e+000 3.736449e+000 3.358212e+000 2.520187e+000 2.667845e+000 2.586862e+000 2.946469e+000
<GCONST> 1.061989e+002
<TRANSP> 5
 0.000000e+000 1.000000e+000 0.000000e+000 0.000000e+000 0.000000e+000
 0.000000e+000 5.120281e-001 4.879719e-001 0.000000e+000 0.000000e+000
 0.000000e+000 0.000000e+000 5.120265e-001 4.879735e-001 0.000000e+000
 0.000000e+000 0.000000e+000 0.000000e+000 6.004953e-001 3.995047e-001
 0.000000e+000 0.000000e+000 0.000000e+000 0.000000e+000 0.000000e+000
<ENDHMM>
~h "t"
<BEGINHMM>
<NUMSTATES> 5
<STATE> 2
<MEAN> 25
 -7.234846e-001 3.702554e-001 1.420460e-001 8.137155e-002 -1.515584e-001 -9.766927e-001 2.767895e-001 1.067330e-001 4.252987e-001 -1.175704e-001 2.903226e-001 4.992667e-001 2.633784e-002 -1.053784e-002 4.783805e-003 3.658551e-003 -1.554275e-002 1.828673e-002 -9.769135e-003 -7.315270e-003 -8.917825e-003 1.953556e-003 1.258861e-002 -1.139640e-002 -1.501242e-002
<VARIANCE> 25
 5.591969e+001 4.131892e+001 4.748672e+001 3.313954e+001 4.510688e+001 5.438659e+001 4.884370e+001 3.992923e+001 4.355079e+001 2.672470e+001 3.561987e+001 3.269757e+001 3.803675e+000 3.604301e+000 2.772776e+000 2.658236e+000 3.174498e+000 3.420659e+000 3.920330e+000 3.355402e+000 3.461099e+000 2.494018e+000 2.708329e+000 2.527745e+000 3.641464e+000
<GCONST> 1.055028e+002
<STATE> 3
<MEAN> 25
 -6.757417e-001 3.525860e-001 1.420910e-001 8.803881e-002 -1.747772e-001 -9.342858e-001 2.643015e-001 9.013420e-002 4.058168e-001 -1.184295e-001 3.101658e-001 4.807490e-001 2.723171e-002 -1.417531e-002 -2.425755e-003 2.209090e-003 -1.169617e-002 2.334731e-002 -1.032554e-002 -9.707388e-003 -1.315127e-002 1.372355e-003 9.969966e-003 -1.129747e-002 -1.194382e-002
<VARIANCE> 25
 5.567739e+001 4.123453e+001 4.776193e+001 3.314188e+001 4.504101e+001 5.432751e+001 4.873801e+001 3.998060e+001 4.368904e+001 2.674236e+001 3.565042e+001 3.269956e+001 3.779938e+000 3.595751e+000 2.768014e+000 2.661840e+000 3.172045e+000 3.424805e+000 3.909263e+000 3.360818e+000 3.459843e+000 2.495468e+000 2.715938e+000 2.527025e+000 3.615463e+000
<GCONST> 1.054894e+002
<STATE> 4
<MEAN> 25
 -6.162981e-001 3.234140e-001 1.279662e-001 9.400483e-002 -1.950330e-001 -8.782322e-001 2.469373e-001 6.811179e-002 3.720298e-001 -1.139923e-001 3.305569e-001 4.597314e-001 2.868672e-002 -1.833960e-002 -9.272090e-003 6.557616e-004 -7.176631e-003 2.664043e-002 -1.094085e-002 -1.087213e-002 -1.603089e-002 1.778270e-003 7.187475e-003 -1.080751e-002 -5.768465e-003
<VARIANCE> 25
 5.560943e+001 4.117227e+001 4.817872e+001 3.321030e+001 4.506483e+001 5.439874e+001 4.844566e+001 4.002967e+001 4.366041e+001 2.679286e+001 3.566668e+001 3.266856e+001 3.751696e+000 3.574658e+000 2.759483e+000 2.666470e+000 3.164310e+000 3.424380e+000 3.885091e+000 3.366809e+000 3.446088e+000 2.498383e+000 2.715918e+000 2.516867e+000 3.585445e+000
<GCONST> 1.054583e+002
<TRANSP> 5
 0.000000e+000 1.000000e+000 0.000000e+000 0.000000e+000 0.000000e+000
 0.000000e+000 5.111337e-001 4.888663e-001 0.000000e+000 0.000000e+000
 0.000000e+000 0.000000e+000 5.111335e-001 4.888665e-001 0.000000e+000
 0.000000e+000 0.000000e+000 0.000000e+000 5.995686e-001 4.004314e-001
 0.000000e+000 0.000000e+000 0.000000e+000 0.000000e+000 0.000000e+000
<ENDHMM>
~h "u"
<BEGINHMM>
<NUMSTATES> 5
<STATE> 2
<MEAN> 25
 6.455486e-001 7.956269e-001 -2.650257e-002 -7.040755e-001 -4.965138e-001 1.332294e+000 -1.301551e+000 -7.231543e-001 -2.979306e-001 -5.434566e-001 6.792340e-001 3.308040e-001 -1.386226e-002 -6.241826e-003 3.731820e-003 9.986141e-003 1.559928e-002 -9.342413e-003 3.743221e-003 6.880474e-003 7.211552e-004 7.536795e-003 9.815894e-003 7.758684e-003 2.098140e-002
<VARIANCE> 25
 5.996855e+001 4.521949e+001 4.563565e+001 4.663352e+001 4.819669e+001 5.766947e+001 5.353422e+001 4.566549e+001 4.421819e+001 2.992484e+001 3.882461e+001 3.110875e+001 3.572408e+000 3.316725e+000 2.706534e+000 3.457057e+000 3.271825e+000 3.901173e+000 4.192460e+000 3.865080e+000 3.607678e+000 2.782366e+000 3.064506e+000 2.446603e+000 2.750593e+000
<GCONST> 1.069043e+002
<STATE> 3
<MEAN> 25
 6.060290e-001 7.808248e-001 -2.450400e-002 -6.810217e-001 -4.575697e-001 1.299180e+000 -1.278180e+000 -7.004024e-001 -3.013882e-001 -5.293193e-001 6.918721e-001 3.508146e-001 -2.208308e-002 -9.477204e-003 -6.714672e-004 1.233505e-002 2.084665e-002 -2.189019e-002 2.250966e-002 1.546322e-002 -1.035360e-003 6.899591e-003 2.930065e-003 9.494951e-003 1.311032e-002
<VARIANCE> 25
 6.007297e+001 4.533352e+001 4.563554e+001 4.626576e+001 4.788321e+001 5.790920e+001 5.323763e+001 4.539179e+001 4.415351e+001 2.978987e+001 3.884221e+001 3.106152e+001 3.576877e+000 3.316344e+000 2.706476e+000 3.422465e+000 3.243747e+000 3.872625e+000 4.164849e+000 3.840553e+000 3.597877e+000 2.779255e+000 3.057035e+000 2.439726e+000 2.735455e+000
<GCONST> 1.068272e+002
<STATE> 4
<MEAN> 25
 5.477399e-001 7.526196e-001 -2.876996e-002 -6.492454e-001 -4.080350e-001 1.229502e+000 -1.210416e+000 -6.556214e-001 -3.059764e-001 -5.156673e-001 6.899389e-001 3.654680e-001 -2.647947e-002 -1.337692e-002 -4.796954e-003 1.356451e-002 2.197525e-002 -2.992395e-002 3.837658e-002 1.806132e-002 9.391056e-004 5.021466e-003 -1.893777e-003 9.240206e-003 6.400635e-003
<VARIANCE> 25
 6.012294e+001 4.536469e+001 4.580976e+001 4.574194e+001 4.748344e+001 5.838696e+001 5.279268e+001 4.497523e+001 4.404213e+001 2.967541e+001 3.887187e+001 3.099600e+001 3.569849e+000 3.316135e+000 2.695903e+000 3.368739e+000 3.212526e+000 3.834076e+000 4.121670e+000 3.787831e+000 3.577837e+000 2.773221e+000 3.032766e+000 2.428672e+000 2.741208e+000
<GCONST> 1.067117e+002
<TRANSP> 5
 0.000000e+000 1.000000e+000 0.000000e+000 0.000000e+000 0.000000e+000
 0.000000e+000 5.101206e-001 4.898794e-001 0.000000e+000 0.000000e+000
 0.000000e+000 0.000000e+000 5.101177e-001 4.898823e-001 0.000000e+000
 0.000000e+000 0.000000e+000 0.000000e+000 5.977296e-001 4.022704e-001
 0.000000e+000 0.000000e+000 0.000000e+000 0.000000e+000 0.000000e+000
<ENDHMM>
~h "v"
<BEGINHMM>
<NUMSTATES> 5
<STATE> 2
<MEAN> 25
 6.381847e-001 -4.135015e-001 -4.730683e-001 -3.438751e-001 8.494617e-002 4.200677e-001 -3.826615e-001 -2.332211e-001 -1.071786e-002 5.312769e-001 2.026730e-001 -1.906303e-001 -1.263175e-002 1.290529e-002 1.421402e-002 -2.582693e-005 -1.670911e-002 -1.168361e-002 1.281839e-002 1.618581e-002 -5.334273e-004 -1.099118e-003 -5.089680e-003 1.180621e-002 7.862218e-004
<VARIANCE> 25
 5.382649e+001 4.065682e+001 5.084021e+001 3.731544e+001 4.430622e+001 5.641625e+001 4.518613e+001 3.986314e+001 4.274452e+001 2.862139e+001 3.732195e+001 3.203512e+001 3.129899e+000 3.176555e+000 2.499204e+000 2.820148e+000 3.030669e+000 3.336750e+000 3.492062e+000 3.384661e+000 3.338705e+000 2.573143e+000 2.732181e+000 2.353880e+000 2.761186e+000
<GCONST> 1.047625e+002
<STATE> 3
<MEAN> 25
 6.035330e-001 -3.848551e-001 -4.477925e-001 -3.362830e-001 6.475773e-002 3.928663e-001 -3.496046e-001 -1.954301e-001 -5.364608e-003 5.248470e-001 1.844631e-001 -1.630841e-001 -2.047973e-002 1.621861e-002 1.525315e-002 7.034217e-003 -9.126679e-003 -1.618947e-002 1.884318e-002 1.980458e-002 3.433059e-003 -5.676678e-003 -1.038407e-002 1.517797e-002 -1.043766e-002
<VARIANCE> 25
 5.413862e+001 4.072236e+001 5.091137e+001 3.731299e+001 4.446497e+001 5.666653e+001 4.532079e+001 3.983929e+001 4.285253e+001 2.850844e+001 3.734752e+001 3.204866e+001 3.142038e+000 3.174788e+000 2.498913e+000 2.815923e+000 3.034646e+000 3.338150e+000 3.493498e+000 3.396694e+000 3.345069e+000 2.569260e+000 2.732250e+000 2.349289e+000 2.742434e+000
<GCONST> 1.047803e+002
<STATE> 4
<MEAN> 25
 5.480862e-001 -3.417338e-001 -4.228170e-001 -3.016456e-001 6.755588e-002 3.498140e-001 -2.958601e-001 -1.509434e-001 9.050258e-003 5.076773e-001 1.495610e-001 -1.319618e-001 -2.503902e-002 1.788288e-002 1.418829e-002 1.427742e-002 1.748247e-003 -1.911668e-002 2.281598e-002 2.143180e-002 6.777033e-003 -9.388764e-003 -1.488059e-002 1.486169e-002 -1.914044e-002
<VARIANCE> 25
 5.465536e+001 4.083885e+001 5.084123e+001 3.719514e+001 4.454060e+001 5.693541e+001 4.552073e+001 3.990662e+001 4.276554e+001 2.837754e+001 3.741537e+001 3.213956e+001 3.156900e+000 3.170864e+000 2.496417e+000 2.803337e+000 3.037562e+000 3.332810e+000 3.497311e+000 3.406100e+000 3.335714e+000 2.562889e+000 2.726388e+000 2.343211e+000 2.747008e+000
<GCONST> 1.047915e+002
<TRANSP> 5
 0.000000e+000 1.000000e+000 0.000000e+000 0.000000e+000 0.000000e+000
 0.000000e+000 5.079607e-001 4.920394e-001 0.000000e+000 0.000000e+000
 0.000000e+000 0.000000e+000 5.079648e-001 4.920352e-001 0.000000e+000
 0.000000e+000 0.000000e+000 0.000000e+000 5.957525e-001 4.042475e-001
 0.000000e+000 0.000000e+000 0.000000e+000 0.000000e+000 0.000000e+000
<ENDHMM>
~h "z"
<BEGINHMM>
<NUMSTATES> 5
<STATE> 2
<MEAN> 25
 -8.594676e-001 1.210233e+000 -4.864344e-002 -3.139074e-001 1.494940e+000 -1.864660e+000 -9.390911e-001 1.951500e-002 -2.467570e-001 5.352178e-001 -3.876730e-001 2.421620e-001 2.949467e-002 -3.126037e-002 -3.480530e-002 7.964838e-004 1.727132e-002 1.469334e-002 1.916172e-002 3.421775e-002 2.218695e-002 -8.214517e-003 -5.215924e-003 -8.720319e-003 5.412800e-004
<VARIANCE> 25
 5.627613e+001 5.379583e+001 4.693092e+001 3.117915e+001 4.810037e+001 6.600674e+001 4.563901e+001 3.846112e+001 4.127386e+001 2.783306e+001 3.376208e+001 3.349073e+001 3.864029e+000 4.240193e+000 2.271707e+000 2.461784e+000 3.087971e+000 3.666341e+000 3.596873e+000 3.340049e+000 3.039115e+000 2.547117e+000 2.518188e+000 2.566891e+000 2.500983e+000
<GCONST> 1.051213e+002
<STATE> 3
<MEAN> 25
 -7.649624e-001 1.123461e+000 -1.118697e-001 -3.199340e-001 1.494473e+000 -1.805527e+000 -9.070441e-001 8.713993e-002 -2.036784e-001 5.227276e-001 -3.923063e-001 2.076659e-001 5.557832e-002 -5.188107e-002 -3.104805e-002 -3.949233e-003 -7.777571e-003 3.955869e-002 1.517659e-002 3.307040e-002 2.213435e-002 -7.435043e-003 -1.233831e-003 -2.010791e-002 -1.592958e-002
<VARIANCE> 25
 5.625808e+001 5.313169e+001 4.662164e+001 3.138403e+001 4.764274e+001 6.554777e+001 4.541681e+001 3.857436e+001 4.117295e+001 2.783332e+001 3.382232e+001 3.342862e+001 3.857458e+000 4.219530e+000 2.273981e+000 2.474739e+000 3.057814e+000 3.659210e+000 3.590089e+000 3.366309e+000 3.058257e+000 2.547210e+000 2.533876e+000 2.551138e+000 2.513358e+000
<GCONST> 1.050926e+002
<STATE> 4
<MEAN> 25
 -6.007102e-001 9.870446e-001 -1.663714e-001 -3.320572e-001 1.421082e+000 -1.673680e+000 -8.761757e-001 1.419047e-001 -1.535110e-001 5.152530e-001 -3.846330e-001 1.442406e-001 6.838507e-002 -5.793451e-002 -2.362523e-002 -3.402374e-003 -2.525646e-002 5.614676e-002 1.549407e-002 2.637391e-002 2.018153e-002 -5.448648e-003 5.268602e-004 -2.541665e-002 -2.709203e-002
<VARIANCE> 25
 5.610138e+001 5.226479e+001 4.663427e+001 3.179849e+001 4.729230e+001 6.512124e+001 4.532020e+001 3.884578e+001 4.112065e+001 2.788733e+001 3.404751e+001 3.329797e+001 3.829209e+000 4.159831e+000 2.292813e+000 2.496534e+000 3.029088e+000 3.643170e+000 3.591924e+000 3.382974e+000 3.079390e+000 2.548840e+000 2.553033e+000 2.526947e+000 2.558425e+000
<GCONST> 1.050915e+002
<TRANSP> 5
 0.000000e+000 1.000000e+000 0.000000e+000 0.000000e+000 0.000000e+000
 0.000000e+000 5.089836e-001 4.910165e-001 0.000000e+000 0.000000e+000
 0.000000e+000 0.000000e+000 5.089824e-001 4.910176e-001 0.000000e+000
 0.000000e+000 0.000000e+000 0.000000e+000 5.969085e-001 4.030915e-001
 0.000000e+000 0.000000e+000 0.000000e+000 0.000000e+000 0.000000e+000
<ENDHMM>
~h "DZ"
<BEGINHMM>
<NUMSTATES> 5
<STATE> 2
<MEAN> 25
 4.196299e-001 9.002598e-002 3.330423e-001 1.590133e+000 -1.216271e+000 -6.835706e-001 -4.507058e-001 -1.693506e+000 2.301018e+000 -8.913207e-001 9.948078e-001 -2.187881e-001 -5.247733e-002 -6.411238e-002 -3.846598e-002 -4.263775e-002 -9.952360e-002 -4.753593e-002 1.964870e-002 -1.375570e-002 -9.710014e-003 -3.481038e-003 1.289358e-001 6.895965e-002 1.254900e-001
<VARIANCE> 25
 5.924565e+001 4.595263e+001 3.334228e+001 4.459814e+001 4.527621e+001 5.105876e+001 3.587397e+001 5.016911e+001 4.427093e+001 3.305270e+001 3.257634e+001 2.803658e+001 5.708793e+000 3.952470e+000 2.304274e+000 3.518717e+000 3.873135e+000 5.138507e+000 3.629127e+000 3.289891e+000 3.246349e+000 2.787658e+000 2.912341e+000 2.385895e+000 3.762136e+000
<GCONST> 1.066536e+002
<STATE> 3
<MEAN> 25
 3.516614e-001 -4.005677e-002 2.639810e-001 1.469988e+000 -1.418192e+000 -8.482099e-001 -4.007587e-001 -1.674824e+000 2.306922e+000 -8.685797e-001 1.290992e+000 -1.085278e-001 -1.030480e-002 -6.281834e-002 -4.330203e-002 -7.843309e-002 -8.274469e-002 -6.766731e-002 2.701112e-002 1.596950e-002 -1.093206e-002 2.175192e-002 1.362744e-001 2.924781e-002 8.814818e-002
<VARIANCE> 25
 5.975191e+001 4.411235e+001 3.299540e+001 4.461728e+001 4.658804e+001 5.329797e+001 3.534319e+001 5.066851e+001 4.537419e+001 3.354617e+001 3.148207e+001 2.814155e+001 5.650573e+000 3.850497e+000 2.327352e+000 3.546226e+000 3.937050e+000 5.332307e+000 3.579615e+000 3.335625e+000 3.361335e+000 2.807828e+000 2.896354e+000 2.317578e+000 3.623365e+000
<GCONST> 1.066914e+002
<STATE> 4
<MEAN> 25
 3.631859e-001 -1.708237e-001 2.075411e-001 1.285800e+000 -1.554561e+000 -1.080005e+000 -2.806166e-001 -1.562732e+000 2.285011e+000 -8.070472e-001 1.596972e+000 -7.673669e-002 1.194769e-002 -4.992488e-002 -3.954389e-002 -7.617375e-002 -4.501255e-002 -4.107662e-002 4.572385e-002 2.060504e-002 -3.785341e-002 3.961958e-002 1.230399e-001 -1.124050e-002 3.245248e-002
<VARIANCE> 25
 5.968200e+001 4.265190e+001 3.303207e+001 4.374303e+001 4.820872e+001 5.490019e+001 3.506925e+001 5.177991e+001 4.633997e+001 3.390749e+001 3.128953e+001 2.801176e+001 5.461188e+000 3.747849e+000 2.347810e+000 3.507550e+000 3.993630e+000 5.368274e+000 3.499186e+000 3.415707e+000 3.455241e+000 2.838506e+000 2.909137e+000 2.241235e+000 3.496789e+000
<GCONST> 1.066690e+002
<TRANSP> 5
 0.000000e+000 1.000000e+000 0.000000e+000 0.000000e+000 0.000000e+000
 0.000000e+000 5.212033e-001 4.787967e-001 0.000000e+000 0.000000e+000
 0.000000e+000 0.000000e+000 5.212033e-001 4.787967e-001 0.000000e+000
 0.000000e+000 0.000000e+000 0.000000e+000 6.095681e-001 3.904319e-001
 0.000000e+000 0.000000e+000 0.000000e+000 0.000000e+000 0.000000e+000
<ENDHMM>
~h "a:"
<BEGINHMM>
<NUMSTATES> 5
<STATE> 2
<MEAN> 25
 6.464148e-001 -1.155196e+000 -1.729855e+000 -1.431011e-001 1.392313e+000 4.152152e-001 6.009679e-001 4.237918e-001 5.957180e-001 -7.454088e-002 -1.462456e+000 -1.307128e+000 1.166670e-002 5.207087e-002 3.543038e-002 1.218663e-002 -1.835417e-002 1.296134e-002 1.991749e-002 1.347222e-002 -2.708258e-002 2.988832e-004 -1.086732e-002 3.937310e-003 -3.630958e-002
<VARIANCE> 25
 4.983889e+001 4.582087e+001 4.799323e+001 3.124759e+001 4.140201e+001 5.381210e+001 4.172373e+001 3.931662e+001 3.887287e+001 2.704409e+001 3.778005e+001 3.604490e+001 3.022625e+000 3.321795e+000 2.421213e+000 2.496953e+000 2.713925e+000 3.134607e+000 3.296714e+000 3.257206e+000 3.030880e+000 2.498429e+000 2.704452e+000 2.452797e+000 3.011137e+000
<GCONST> 1.039189e+002
<STATE> 3
<MEAN> 25
 6.644509e-001 -1.035977e+000 -1.640468e+000 -1.132822e-001 1.346376e+000 4.296681e-001 6.327941e-001 4.389028e-001 5.343759e-001 -7.015776e-002 -1.476439e+000 -1.287012e+000 -1.656712e-003 6.793655e-002 5.566761e-002 1.522964e-002 -2.826512e-002 -9.274011e-004 1.515540e-002 6.892103e-003 -3.236293e-002 2.855017e-003 1.607299e-004 2.106836e-002 -5.141927e-002
<VARIANCE> 25
 5.038103e+001 4.559818e+001 4.811530e+001 3.152201e+001 4.163717e+001 5.382908e+001 4.217430e+001 3.926199e+001 3.921424e+001 2.710369e+001 3.795081e+001 3.602924e+001 3.050335e+000 3.312124e+000 2.429872e+000 2.507436e+000 2.730729e+000 3.149461e+000 3.333767e+000 3.271492e+000 3.056602e+000 2.498117e+000 2.712958e+000 2.450364e+000 2.993486e+000
<GCONST> 1.040115e+002
<STATE> 4
<MEAN> 25
 6.618248e-001 -8.765433e-001 -1.497895e+000 -7.635837e-002 1.269076e+000 4.185529e-001 6.438211e-001 4.255314e-001 4.550097e-001 -5.871713e-002 -1.447070e+000 -1.226100e+000 -1.489945e-002 7.532676e-002 6.878341e-002 1.382839e-002 -3.635847e-002 -1.307683e-002 8.898713e-003 1.866570e-003 -3.176839e-002 3.796616e-003 1.381092e-002 3.602859e-002 -5.586530e-002
<VARIANCE> 25
 5.120850e+001 4.533536e+001 4.845172e+001 3.190706e+001 4.204380e+001 5.394429e+001 4.280392e+001 3.931590e+001 3.960077e+001 2.721837e+001 3.803741e+001 3.599974e+001 3.081347e+000 3.299127e+000 2.447102e+000 2.530002e+000 2.759199e+000 3.164754e+000 3.379787e+000 3.288028e+000 3.076711e+000 2.500739e+000 2.713586e+000 2.444832e+000 2.993060e+000
<GCONST> 1.041463e+002
<TRANSP> 5
 0.000000e+000 1.000000e+000 0.000000e+000 0.000000e+000 0.000000e+000
 0.000000e+000 5.123239e-001 4.876761e-001 0.000000e+000 0.000000e+000
 0.000000e+000 0.000000e+000 5.123234e-001 4.876767e-001 0.000000e+000
 0.000000e+000 0.000000e+000 0.000000e+000 6.005974e-001 3.994026e-001
 0.000000e+000 0.000000e+000 0.000000e+000 0.000000e+000 0.000000e+000
<ENDHMM>
~h "cc"
<BEGINHMM>
<NUMSTATES> 5
<STATE> 2
<MEAN> 25
 -2.810313e+000 5.919613e-001 2.390466e+000 3.800578e-001 -2.038649e+000 3.668631e-001 -6.899111e-001 2.447385e-001 -6.956371e-002 -6.460069e-001 5.131867e-001 1.519042e+000 1.205840e-002 -5.859664e-002 -4.472362e-002 8.559423e-003 2.599190e-002 -1.863578e-002 3.049083e-002 1.105551e-002 1.017705e-002 1.501424e-002 7.910377e-003 -1.375099e-002 3.704175e-003
<VARIANCE> 25
 8.156699e+001 4.052209e+001 4.715620e+001 3.272872e+001 4.723726e+001 6.178016e+001 4.301996e+001 3.664793e+001 3.951175e+001 2.478292e+001 3.346432e+001 3.027570e+001 5.546659e+000 3.506513e+000 2.622509e+000 2.742680e+000 3.263782e+000 4.353395e+000 3.707007e+000 3.153003e+000 3.324047e+000 2.329637e+000 2.740495e+000 2.223661e+000 2.551360e+000
<GCONST> 1.053854e+002
<STATE> 3
<MEAN> 25
 -2.774276e+000 4.757032e-001 2.289546e+000 3.976825e-001 -1.977297e+000 3.231686e-001 -6.257451e-001 2.693862e-001 -4.740779e-002 -6.117368e-001 5.294901e-001 1.489843e+000 4.447279e-002 -6.880986e-002 -6.398195e-002 1.085109e-002 3.309415e-002 -3.731921e-002 3.436682e-002 1.513259e-002 5.746576e-003 1.809360e-002 1.220623e-002 -2.118598e-002 -6.974811e-004
<VARIANCE> 25
 8.167578e+001 4.051456e+001 4.717292e+001 3.250002e+001 4.800443e+001 6.133679e+001 4.316113e+001 3.673981e+001 3.938631e+001 2.471429e+001 3.351517e+001 3.050395e+001 5.429759e+000 3.465774e+000 2.601348e+000 2.697994e+000 3.235132e+000 4.296319e+000 3.687689e+000 3.150728e+000 3.292822e+000 2.325659e+000 2.744474e+000 2.219894e+000 2.552482e+000
<GCONST> 1.053012e+002
<STATE> 4
<MEAN> 25
 -2.639955e+000 3.372955e-001 2.130793e+000 4.290089e-001 -1.879361e+000 2.284109e-001 -5.454490e-001 2.973187e-001 -2.400384e-002 -5.653332e-001 5.529201e-001 1.425640e+000 8.341347e-002 -6.585688e-002 -7.715152e-002 9.650324e-003 4.388858e-002 -5.503007e-002 3.239364e-002 1.619188e-002 5.156571e-003 1.846119e-002 7.319726e-003 -3.130303e-002 -1.401615e-002
<VARIANCE> 25
 8.091433e+001 4.048724e+001 4.760383e+001 3.235788e+001 4.897034e+001 6.052698e+001 4.348736e+001 3.696072e+001 3.947576e+001 2.473446e+001 3.370578e+001 3.079385e+001 5.258868e+000 3.408250e+000 2.585725e+000 2.650922e+000 3.204793e+000 4.217246e+000 3.661487e+000 3.156381e+000 3.275019e+000 2.328022e+000 2.747628e+000 2.219263e+000 2.556205e+000
<GCONST> 1.052265e+002
<TRANSP> 5
 0.000000e+000 1.000000e+000 0.000000e+000 0.000000e+000 0.000000e+000
 0.000000e+000 5.037168e-001 4.962832e-001 0.000000e+000 0.000000e+000
 0.000000e+000 0.000000e+000 5.037140e-001 4.962860e-001 0.000000e+000
 0.000000e+000 0.000000e+000 0.000000e+000 5.896596e-001 4.103405e-001
 0.000000e+000 0.000000e+000 0.000000e+000 0.000000e+000 0.000000e+000
<ENDHMM>
~h "e:"
<BEGINHMM>
<NUMSTATES> 5
<STATE> 2
<MEAN> 25
 -2.983038e-001 -1.626384e-001 7.634109e-001 6.069083e-001 -6.702144e-001 -1.616111e+000 4.041041e-001 7.560244e-001 1.100123e-002 1.683870e-001 -1.108734e-001 3.880724e-001 2.726954e-003 1.860526e-002 -3.665020e-002 -6.534518e-003 3.369287e-002 1.296090e-002 2.737392e-002 1.094467e-002 -2.257672e-003 -3.668098e-003 -5.864367e-003 3.185271e-003 -2.538408e-003
<VARIANCE> 25
 5.668029e+001 4.063513e+001 4.339249e+001 2.924147e+001 4.662129e+001 5.451478e+001 4.496214e+001 4.023659e+001 4.107369e+001 2.639274e+001 3.620058e+001 3.177010e+001 3.598289e+000 3.342527e+000 2.511879e+000 2.483942e+000 3.119212e+000 3.245421e+000 3.591781e+000 3.579692e+000 3.239070e+000 2.467318e+000 2.549252e+000 2.290728e+000 3.203084e+000
<GCONST> 1.044061e+002
<STATE> 3
<MEAN> 25
 -2.883898e-001 -1.234407e-001 6.923802e-001 5.924163e-001 -6.102977e-001 -1.580592e+000 4.482530e-001 7.646821e-001 2.038206e-003 1.620026e-001 -1.149926e-001 3.920307e-001 3.980135e-003 2.340160e-002 -3.765919e-002 -8.716756e-003 3.370009e-002 2.568021e-002 1.877409e-002 -2.022933e-003 -5.721425e-003 -4.241065e-003 -1.827670e-003 1.928312e-003 -1.485278e-002
<VARIANCE> 25
 5.685470e+001 4.061149e+001 4.359861e+001 2.937395e+001 4.659881e+001 5.493135e+001 4.513052e+001 4.021290e+001 4.119160e+001 2.640726e+001 3.637310e+001 3.186129e+001 3.597799e+000 3.334297e+000 2.516698e+000 2.488718e+000 3.114978e+000 3.242906e+000 3.590947e+000 3.563649e+000 3.251307e+000 2.465307e+000 2.554033e+000 2.295831e+000 3.175632e+000
<GCONST> 1.044320e+002
<STATE> 4
<MEAN> 25
 -2.620493e-001 -7.574526e-002 6.164433e-001 5.709290e-001 -5.471196e-001 -1.507934e+000 4.602818e-001 7.371285e-001 -1.562333e-002 1.627919e-001 -1.096091e-001 3.844923e-001 8.315280e-003 2.295170e-002 -3.717240e-002 -8.594421e-003 3.131438e-002 3.564977e-002 7.046104e-003 -1.400178e-002 -6.973034e-003 -3.638778e-003 2.183545e-003 -1.387151e-003 -2.059292e-002
<VARIANCE> 25
 5.714385e+001 4.060277e+001 4.411035e+001 2.974066e+001 4.671560e+001 5.550052e+001 4.529810e+001 4.029416e+001 4.130447e+001 2.653310e+001 3.662574e+001 3.189027e+001 3.596339e+000 3.322747e+000 2.520594e+000 2.495555e+000 3.113653e+000 3.241379e+000 3.594271e+000 3.547064e+000 3.256126e+000 2.465744e+000 2.561087e+000 2.302113e+000 3.166133e+000
<GCONST> 1.044947e+002
<TRANSP> 5
 0.000000e+000 1.000000e+000 0.000000e+000 0.000000e+000 0.000000e+000
 0.000000e+000 5.123704e-001 4.876296e-001 0.000000e+000 0.000000e+000
 0.000000e+000 0.000000e+000 5.123706e-001 4.876294e-001 0.000000e+000
 0.000000e+000 0.000000e+000 0.000000e+000 6.013132e-001 3.986868e-001
 0.000000e+000 0.000000e+000 0.000000e+000 0.000000e+000 0.000000e+000
<ENDHMM>
~h "dz"
<BEGINHMM>
<NUMSTATES> 5
<STATE> 2
<MEAN> 25
 2.550122e-001 -1.638571e-001 1.988315e+000 8.007455e-001 -1.097622e+000 3.977948e-001 -1.726827e+000 -1.210554e-001 -6.567243e-001 -3.354377e-001 8.782502e-002 6.106157e-001 3.628568e-002 -3.719658e-003 -3.323044e-002 6.259876e-003 7.428833e-002 2.636665e-002 3.293416e-002 -2.134289e-003 9.943631e-003 -3.512975e-003 -7.764784e-002 -2.215186e-002 -7.200743e-003
<VARIANCE> 25
 4.957248e+001 3.925620e+001 5.035555e+001 3.826222e+001 4.480812e+001 4.770005e+001 4.471949e+001 4.358365e+001 4.025153e+001 2.717786e+001 3.777125e+001 3.042272e+001 3.916509e+000 3.805099e+000 2.705421e+000 2.995308e+000 3.218636e+000 3.808935e+000 3.618946e+000 3.438465e+000 3.468376e+000 2.519152e+000 2.776170e+000 2.297142e+000 2.342817e+000
<GCONST> 1.050638e+002
<STATE> 3
<MEAN> 25
 2.954203e-001 -1.791653e-001 1.911980e+000 8.015763e-001 -9.475739e-001 4.516921e-001 -1.646315e+000 -1.094399e-001 -6.267220e-001 -3.273258e-001 -6.418350e-002 5.629209e-001 1.452143e-002 -1.085770e-002 -4.753345e-002 -2.820481e-003 8.293656e-002 2.422765e-002 4.758113e-002 1.008032e-002 1.667190e-002 7.088287e-003 -7.938273e-002 -2.856134e-002 3.974430e-003
<VARIANCE> 25
 4.984687e+001 3.937925e+001 5.031533e+001 3.791607e+001 4.507391e+001 4.740958e+001 4.498226e+001 4.398217e+001 4.011300e+001 2.695496e+001 3.773844e+001 3.028271e+001 3.922684e+000 3.786312e+000 2.707445e+000 2.978432e+000 3.217732e+000 3.745405e+000 3.613663e+000 3.490414e+000 3.460043e+000 2.514469e+000 2.772741e+000 2.273119e+000 2.354689e+000
<GCONST> 1.050374e+002
<STATE> 4
<MEAN> 25
 2.921674e-001 -2.233639e-001 1.773505e+000 7.874129e-001 -7.509942e-001 4.912738e-001 -1.506182e+000 -5.483108e-002 -5.847332e-001 -2.799014e-001 -2.215441e-001 4.766732e-001 -3.293438e-003 -1.765275e-002 -6.057850e-002 -5.725034e-004 8.297868e-002 1.258655e-002 5.952854e-002 2.455202e-002 2.370808e-002 1.586284e-002 -7.395709e-002 -3.475303e-002 1.741137e-002
<VARIANCE> 25
 5.065732e+001 3.952728e+001 5.039141e+001 3.767479e+001 4.534587e+001 4.748070e+001 4.536251e+001 4.433562e+001 4.014299e+001 2.677091e+001 3.762505e+001 3.026986e+001 3.920897e+000 3.725858e+000 2.691678e+000 2.973819e+000 3.200825e+000 3.680930e+000 3.606633e+000 3.551242e+000 3.446989e+000 2.515841e+000 2.761492e+000 2.255435e+000 2.362583e+000
<GCONST> 1.050238e+002
<TRANSP> 5
 0.000000e+000 1.000000e+000 0.000000e+000 0.000000e+000 0.000000e+000
 0.000000e+000 4.978535e-001 5.021465e-001 0.000000e+000 0.000000e+000
 0.000000e+000 0.000000e+000 4.978547e-001 5.021454e-001 0.000000e+000
 0.000000e+000 0.000000e+000 0.000000e+000 5.827366e-001 4.172635e-001
 0.000000e+000 0.000000e+000 0.000000e+000 0.000000e+000 0.000000e+000
<ENDHMM>
~h "i:"
<BEGINHMM>
<NUMSTATES> 5
<STATE> 2
<MEAN> 25
 -9.229351e-001 7.448350e-001 2.876939e+000 6.959624e-001 -1.526706e+000 -1.552261e-001 -5.249338e-001 -9.908875e-001 -1.472040e+000 -1.707894e-001 3.496657e-001 4.067133e-001 -8.058436e-003 1.373368e-003 -5.718936e-002 2.534484e-002 5.676357e-002 -4.553128e-003 4.850820e-003 2.033745e-002 2.524172e-002 -4.923076e-003 -1.350774e-002 1.642110e-002 1.647218e-002
<VARIANCE> 25
 5.510431e+001 3.897374e+001 6.156677e+001 3.339469e+001 5.376096e+001 5.477479e+001 4.652446e+001 4.144014e+001 4.775143e+001 2.689353e+001 3.505852e+001 2.989617e+001 3.427234e+000 3.168872e+000 3.267023e+000 2.795924e+000 3.805438e+000 3.575278e+000 3.779883e+000 3.453701e+000 3.725718e+000 2.508311e+000 2.724953e+000 2.407044e+000 2.878620e+000
<GCONST> 1.058620e+002
<STATE> 3
<MEAN> 25
 -9.291430e-001 7.395321e-001 2.738215e+000 7.408644e-001 -1.405132e+000 -1.637847e-001 -5.162349e-001 -9.426975e-001 -1.407200e+000 -1.770378e-001 3.207225e-001 4.368856e-001 -3.233117e-003 -7.435821e-003 -8.490783e-002 1.985414e-002 7.091299e-002 -7.859777e-003 1.030376e-002 3.046601e-002 3.949326e-002 -3.509506e-003 -1.681366e-002 1.633155e-002 5.865366e-003
<VARIANCE> 25
 5.565455e+001 3.920316e+001 6.105900e+001 3.330778e+001 5.349468e+001 5.494395e+001 4.702890e+001 4.145416e+001 4.767035e+001 2.695834e+001 3.511485e+001 2.981131e+001 3.450157e+000 3.173158e+000 3.245631e+000 2.797381e+000 3.791346e+000 3.587126e+000 3.788330e+000 3.464103e+000 3.696602e+000 2.522949e+000 2.723596e+000 2.399785e+000 2.865474e+000
<GCONST> 1.058723e+002
<STATE> 4
<MEAN> 25
 -9.000847e-001 7.042351e-001 2.527242e+000 7.543204e-001 -1.247051e+000 -1.637176e-001 -5.100388e-001 -8.636038e-001 -1.307212e+000 -1.748759e-001 2.806576e-001 4.567184e-001 5.803355e-003 -1.816069e-002 -9.609278e-002 8.681428e-003 7.152502e-002 -6.089446e-003 1.043726e-002 3.690628e-002 4.684874e-002 -9.992549e-004 -1.676243e-002 1.047032e-002 -3.128157e-004
<VARIANCE> 25
 5.634400e+001 3.949485e+001 6.053485e+001 3.337718e+001 5.313308e+001 5.521684e+001 4.742709e+001 4.154375e+001 4.746142e+001 2.704012e+001 3.524524e+001 2.975563e+001 3.471830e+000 3.172910e+000 3.208505e+000 2.796915e+000 3.732737e+000 3.579613e+000 3.784278e+000 3.465258e+000 3.656165e+000 2.533216e+000 2.715044e+000 2.382842e+000 2.873837e+000
<GCONST> 1.058566e+002
<TRANSP> 5
 0.000000e+000 1.000000e+000 0.000000e+000 0.000000e+000 0.000000e+000
 0.000000e+000 5.102646e-001 4.897353e-001 0.000000e+000 0.000000e+000
 0.000000e+000 0.000000e+000 5.102630e-001 4.897370e-001 0.000000e+000
 0.000000e+000 0.000000e+000 0.000000e+000 5.980387e-001 4.019613e-001
 0.000000e+000 0.000000e+000 0.000000e+000 0.000000e+000 0.000000e+000
<ENDHMM>
~h "o:"
<BEGINHMM>
<NUMSTATES> 5
<STATE> 2
<MEAN> 25
 8.644400e-001 6.113727e-003 -1.061728e+000 -1.609486e+000 -3.047584e-001 1.802676e+000 -7.887020e-001 -4.494758e-001 7.316437e-002 1.238726e-001 1.181518e+000 -9.937960e-002 -3.601355e-002 7.948879e-003 3.895611e-002 3.999225e-002 2.123709e-002 -4.164062e-002 -4.620616e-003 2.102181e-002 -5.384230e-003 1.312599e-002 -7.941590e-003 6.925557e-003 1.860451e-002
<VARIANCE> 25
 5.640251e+001 3.920026e+001 4.777602e+001 4.938663e+001 4.287848e+001 6.367379e+001 4.757404e+001 4.294190e+001 4.259920e+001 2.941063e+001 3.843496e+001 3.089883e+001 3.462067e+000 3.335097e+000 2.777542e+000 3.620316e+000 3.138055e+000 3.920171e+000 3.857311e+000 3.595511e+000 3.474208e+000 2.729251e+000 2.971230e+000 2.507747e+000 3.126104e+000
<GCONST> 1.064529e+002
<STATE> 3
<MEAN> 25
 7.909418e-001 2.200989e-002 -9.867269e-001 -1.524048e+000 -2.618335e-001 1.708577e+000 -7.959913e-001 -4.079259e-001 5.807306e-002 1.465583e-001 1.156056e+000 -8.633906e-002 -4.153260e-002 8.762837e-003 4.510164e-002 5.029426e-002 2.205284e-002 -5.847963e-002 -1.154296e-003 2.486523e-002 -7.955900e-003 9.394781e-003 -1.936674e-002 8.817220e-003 1.256011e-002
<VARIANCE> 25
 5.713366e+001 3.914056e+001 4.774486e+001 4.877105e+001 4.283055e+001 6.359238e+001 4.747470e+001 4.311296e+001 4.271143e+001 2.938305e+001 3.832311e+001 3.090846e+001 3.514388e+000 3.334338e+000 2.765961e+000 3.574510e+000 3.111754e+000 3.918252e+000 3.853748e+000 3.606661e+000 3.479364e+000 2.727348e+000 2.963250e+000 2.507875e+000 3.096587e+000
<GCONST> 1.064294e+002
<STATE> 4
<MEAN> 25
 6.969685e-001 4.160957e-002 -8.838576e-001 -1.401407e+000 -2.131493e-001 1.560007e+000 -7.895490e-001 -3.571353e-001 3.714637e-002 1.581048e-001 1.104878e+000 -7.438578e-002 -3.988039e-002 7.966251e-003 4.909222e-002 5.648830e-002 1.936801e-002 -6.913093e-002 2.394682e-003 2.395724e-002 -7.792244e-003 5.785271e-003 -2.465391e-002 8.493193e-003 8.817142e-003
<VARIANCE> 25
 5.801000e+001 3.918708e+001 4.790157e+001 4.800903e+001 4.294441e+001 6.334099e+001 4.743045e+001 4.327269e+001 4.285432e+001 2.932866e+001 3.825444e+001 3.096037e+001 3.560608e+000 3.335979e+000 2.750292e+000 3.521449e+000 3.087405e+000 3.899843e+000 3.837113e+000 3.603798e+000 3.479150e+000 2.717989e+000 2.946495e+000 2.503848e+000 3.082988e+000
<GCONST> 1.063963e+002
<TRANSP> 5
 0.000000e+000 1.000000e+000 0.000000e+000 0.000000e+000 0.000000e+000
 0.000000e+000 5.087094e-001 4.912906e-001 0.000000e+000 0.000000e+000
 0.000000e+000 0.000000e+000 5.087020e-001 4.912979e-001 0.000000e+000
 0.000000e+000 0.000000e+000 0.000000e+000 5.965866e-001 4.034134e-001
 0.000000e+000 0.000000e+000 0.000000e+000 0.000000e+000 0.000000e+000
<ENDHMM>
~h "r:"
<BEGINHMM>
<NUMSTATES> 5
<STATE> 2
<MEAN> 25
 6.052279e-001 -6.376620e-001 -1.816988e-001 4.543812e-001 1.894529e-002 -8.284088e-001 -7.881128e-001 -8.053325e-001 1.013860e+000 1.132187e+000 1.574723e-001 -2.069059e-001 1.698315e-002 1.204410e-002 -5.471329e-003 -9.417372e-003 -1.848856e-002 4.208848e-002 9.956805e-003 4.195353e-003 -8.202313e-003 2.651398e-004 2.040426e-002 -2.134218e-002 -3.203748e-002
<VARIANCE> 25
 5.063310e+001 4.112962e+001 5.470667e+001 3.068618e+001 4.333570e+001 4.991552e+001 4.024892e+001 3.868275e+001 4.626266e+001 2.792265e+001 3.542369e+001 2.888907e+001 3.305031e+000 3.408800e+000 2.621010e+000 2.676965e+000 2.823771e+000 3.296648e+000 3.396483e+000 3.140676e+000 3.326383e+000 2.542775e+000 2.767371e+000 2.321805e+000 3.135111e+000
<GCONST> 1.042447e+002
<STATE> 3
<MEAN> 25
 6.231392e-001 -6.060704e-001 -2.055318e-001 4.343612e-001 -8.467278e-003 -7.514956e-001 -7.577726e-001 -7.818306e-001 1.004955e+000 1.127865e+000 1.899939e-001 -2.450899e-001 -1.295191e-003 2.573897e-002 -1.034936e-002 -1.452980e-002 -1.115977e-002 4.172789e-002 2.238115e-002 2.009986e-002 -5.717385e-003 -8.239914e-003 1.071549e-002 -1.477886e-002 -3.574460e-002
<VARIANCE> 25
 5.100972e+001 4.099176e+001 5.501127e+001 3.081896e+001 4.323916e+001 4.946513e+001 4.034854e+001 3.855610e+001 4.630803e+001 2.774461e+001 3.540286e+001 2.897119e+001 3.295052e+000 3.409970e+000 2.618627e+000 2.671174e+000 2.835886e+000 3.289306e+000 3.400323e+000 3.126422e+000 3.340847e+000 2.526955e+000 2.774486e+000 2.335425e+000 3.127671e+000
<GCONST> 1.042404e+002
<STATE> 4
<MEAN> 25
 5.861498e-001 -5.209445e-001 -2.063469e-001 3.998881e-001 -3.661367e-002 -6.699830e-001 -6.859403e-001 -7.197191e-001 9.774018e-001 1.099532e+000 1.860073e-001 -2.636059e-001 -2.151757e-002 3.675881e-002 -1.187117e-002 -1.739908e-002 -2.888754e-003 3.635710e-002 3.614197e-002 3.262319e-002 -4.304774e-003 -1.288304e-002 -1.443414e-003 -7.105862e-003 -3.614713e-002
<VARIANCE> 25
 5.165592e+001 4.104298e+001 5.571656e+001 3.103706e+001 4.352619e+001 4.922845e+001 4.078951e+001 3.843666e+001 4.633643e+001 2.758534e+001 3.541309e+001 2.908202e+001 3.311391e+000 3.406322e+000 2.642842e+000 2.662673e+000 2.859969e+000 3.275661e+000 3.412453e+000 3.113659e+000 3.334983e+000 2.514562e+000 2.766565e+000 2.349864e+000 3.136032e+000
<GCONST> 1.042955e+002
<TRANSP> 5
 0.000000e+000 1.000000e+000 0.000000e+000 0.000000e+000 0.000000e+000
 0.000000e+000 5.136009e-001 4.863991e-001 0.000000e+000 0.000000e+000
 0.000000e+000 0.000000e+000 5.136001e-001 4.863999e-001 0.000000e+000
 0.000000e+000 0.000000e+000 0.000000e+000 6.024259e-001 3.975740e-001
 0.000000e+000 0.000000e+000 0.000000e+000 0.000000e+000 0.000000e+000
<ENDHMM>
~h "u:"
<BEGINHMM>
<NUMSTATES> 5
<STATE> 2
<MEAN> 25
 8.302436e-001 7.781976e-001 -1.690765e-001 -1.232614e+000 -5.859582e-001 2.050937e+000 -1.522923e+000 -1.351221e+000 -4.470074e-002 -9.348403e-001 1.087703e+000 -2.554926e-002 2.946305e-003 -2.455408e-002 4.032087e-003 3.141312e-002 9.277650e-003 -9.189601e-004 3.217678e-002 -1.023786e-002 -1.233747e-003 1.991638e-002 -9.101738e-003 -6.708271e-003 1.587925e-002
<VARIANCE> 25
 5.795553e+001 4.192093e+001 4.491261e+001 5.026375e+001 4.830106e+001 6.131754e+001 5.507245e+001 5.044686e+001 4.530963e+001 3.123820e+001 4.238934e+001 3.184233e+001 3.551365e+000 3.419203e+000 2.778464e+000 3.969815e+000 3.556550e+000 4.257446e+000 4.481246e+000 4.079190e+000 3.853422e+000 2.941209e+000 3.523825e+000 2.575141e+000 2.924977e+000
<GCONST> 1.080775e+002
<STATE> 3
<MEAN> 25
 8.243527e-001 7.160448e-001 -1.512788e-001 -1.148546e+000 -5.553643e-001 2.030757e+000 -1.444200e+000 -1.357514e+000 -5.146862e-002 -8.896059e-001 1.059334e+000 -3.753560e-002 -1.353689e-002 -3.385123e-002 9.488726e-003 5.155021e-002 1.987001e-002 -2.107589e-002 4.591621e-002 1.445133e-003 1.359250e-004 2.842883e-002 -2.044012e-002 -4.667801e-003 1.063018e-002
<VARIANCE> 25
 5.757854e+001 4.147641e+001 4.492781e+001 4.971482e+001 4.784383e+001 6.120384e+001 5.442316e+001 5.016131e+001 4.533245e+001 3.109187e+001 4.215244e+001 3.180174e+001 3.533995e+000 3.410606e+000 2.771274e+000 3.938064e+000 3.540299e+000 4.219308e+000 4.427205e+000 4.031661e+000 3.845284e+000 2.922633e+000 3.498683e+000 2.568670e+000 2.916868e+000
<GCONST> 1.079333e+002
<STATE> 4
<MEAN> 25
 7.931881e-001 6.189792e-001 -1.231364e-001 -1.011029e+000 -4.983007e-001 1.958467e+000 -1.319035e+000 -1.311695e+000 -5.796064e-002 -8.173421e-001 9.858426e-001 -6.783079e-002 -2.476724e-002 -4.089104e-002 1.363091e-002 6.210033e-002 2.514748e-002 -3.781456e-002 5.096708e-002 1.678436e-002 4.324973e-003 3.602289e-002 -2.999003e-002 -7.483893e-003 6.084844e-003
<VARIANCE> 25
 5.705708e+001 4.110663e+001 4.514563e+001 4.889954e+001 4.738054e+001 6.090757e+001 5.369267e+001 4.951342e+001 4.528930e+001 3.086123e+001 4.171757e+001 3.170783e+001 3.484879e+000 3.386624e+000 2.767527e+000 3.868819e+000 3.507200e+000 4.157656e+000 4.343544e+000 3.965756e+000 3.818067e+000 2.895525e+000 3.440673e+000 2.550781e+000 2.908659e+000
<GCONST> 1.076980e+002
<TRANSP> 5
 0.000000e+000 1.000000e+000 0.000000e+000 0.000000e+000 0.000000e+000
 0.000000e+000 5.138370e-001 4.861630e-001 0.000000e+000 0.000000e+000
 0.000000e+000 0.000000e+000 5.138351e-001 4.861650e-001 0.000000e+000
 0.000000e+000 0.000000e+000 0.000000e+000 6.016084e-001 3.983916e-001
 0.000000e+000 0.000000e+000 0.000000e+000 0.000000e+000 0.000000e+000
<ENDHMM>
~h "sil"
<BEGINHMM>
<NUMSTATES> 5
<STATE> 2
<MEAN> 25
 -2.252403e+000 -5.927740e-001 -9.210503e-001 9.111176e-002 2.497583e-001 9.158785e-001 2.447740e+000 1.478247e-001 1.194078e+000 -1.308447e+000 -9.529121e-001 1.601363e+000 6.267338e-002 -5.537337e-002 7.291079e-002 -5.862388e-002 -5.364721e-002 -7.718932e-003 -1.234345e-001 -3.328856e-002 9.493853e-003 1.647209e-002 1.831556e-002 -8.539265e-002 2.242907e-001
<VARIANCE> 25
 3.577339e+001 3.869671e+001 4.038253e+001 2.861298e+001 3.637608e+001 3.761580e+001 3.654609e+001 3.499163e+001 3.517847e+001 2.525547e+001 2.948484e+001 2.886076e+001 1.615323e+000 2.146468e+000 1.942411e+000 2.033397e+000 2.331990e+000 2.539665e+000 2.887770e+000 2.660729e+000 2.606473e+000 2.176417e+000 2.189021e+000 2.052657e+000 3.184521e+000
<GCONST> 9.897440e+001
<STATE> 3
<MEAN> 25
 -2.088857e+000 -7.406282e-001 -7.443045e-001 -4.788420e-002 9.565218e-002 8.916338e-001 2.136364e+000 8.101139e-002 1.216866e+000 -1.253906e+000 -8.654137e-001 1.397366e+000 5.624469e-002 -3.655496e-002 7.179958e-002 -3.844137e-002 -6.071957e-002 -9.306286e-003 -8.967210e-002 -5.850142e-003 4.516127e-002 1.439336e-002 3.875007e-002 -6.265903e-002 2.226463e-001
<VARIANCE> 25
 3.678755e+001 3.971064e+001 4.088987e+001 2.966515e+001 3.809883e+001 3.872920e+001 3.863273e+001 3.517911e+001 3.541874e+001 2.533623e+001 3.028154e+001 2.985441e+001 1.695403e+000 2.308050e+000 2.096133e+000 2.146197e+000 2.483751e+000 2.690889e+000 3.006443e+000 2.740000e+000 2.667705e+000 2.241971e+000 2.251653e+000 2.099867e+000 3.700587e+000
<GCONST> 9.997932e+001
<STATE> 4
<MEAN> 25
 -2.035469e+000 -7.956157e-001 -6.317256e-001 -7.002459e-002 1.646875e-002 8.697078e-001 2.061358e+000 1.590313e-001 1.333000e+000 -1.225024e+000 -7.731782e-001 1.371595e+000 2.703051e-002 -6.262826e-003 3.815692e-002 -4.043007e-003 -3.180497e-002 -6.519051e-003 -2.176217e-002 3.470303e-002 4.640130e-002 9.901703e-003 2.172644e-002 -1.718643e-002 9.100993e-002
<VARIANCE> 25
